svm_type one_class
kernel_type rbf
gamma 0.029999999999999999
nr_class 2
total_sv 532
rho 81.22975476589211
prob_density_marks -49.356835439876647 -13.573283913439752 -5.908922777286115 -2.1936460085945839 -0.54362747092147146 7.1558099049413926 17.482193211328529 23.232999037970913 28.399616665169589 42.397140547504293
SV
1 1:0.5237134 2:0.62124644 3:2.1651558 4:0.47422014 5:-0.68934731 6:-0.39439456 7:-0.5954547 8:1.8741889 9:-0.38506646 10:-0.45327793 11:-0.34570358 12:5.2272953 13:-0.37837233 
1 1:0.64872624 2:0.81422141 3:2.0129927 4:0.26286323 5:-0.48255349 6:2.8752751 7:-0.90098303 8:-0.7663528 9:-0.38506646 10:-0.45327793 11:-0.34570358 12:-0.089040665 13:5.4903349 
1 1:0.70274413 2:0.71737945 3:-0.14376742 4:0.06547004 5:-0.59118756 6:0.15055038 7:-0.28992636 8:-0.60131894 9:-0.38506646 10:-0.45327793 11:-0.34570358 12:-0.089040665 13:7.4465706 
1 1:0.24011945 2:0.51844933 3:-0.26610398 4:4.5456596 5:-0.65884528 6:-0.39439456 7:-0.69729748 8:2.3692905 9:-0.38506646 10:-0.45327793 11:-0.34570358 12:-0.089040665 13:-0.37837233 
1 1:0.17124663 2:0.53078499 3:0.022112672 4:4.3308937 5:-0.72684153 6:-0.39439456 7:-1.3083541 8:0.058816481 9:-0.38506646 10:-0.45327793 11:4.4589886 12:-0.089040665 13:-0.37837233 
1 1:2.1998115 2:-1.1786245 3:-1.6575827 4:-0.40805073 5:5.4660671 6:-0.39439456 7:1.2377153 8:-0.7663528 9:-0.38506646 10:-0.45327793 11:-0.34570358 12:-0.089040665 13:-0.37837233 
1 1:0.17124663 2:0.53078499 3:0.022112672 4:4.3308937 5:-0.73073197 6:-0.39439456 7:-1.3083541 8:-0.7663528 9:-0.38506646 10:-0.45327793 11:5.6601616 12:-0.089040665 13:-0.37837233 
1 1:-4.9278497 2:-4.6934346 3:-1.1296374 4:-1.3636147 5:-0.73189261 6:-0.39439456 7:-1.3083541 8:-0.7663528 9:3.6090134 10:0.96172313 11:0.13476564 12:-0.089040665 13:-0.37837233 
1 1:0.19651929 2:0.45109951 3:0.28417131 4:-0.74868674 5:-0.7318787 6:-0.39439456 7:-1.3083541 8:-0.7663528 9:-0.38506646 10:3.9686004 11:-0.34570358 12:-0.089040665 13:-0.37837233 
1 1:0.722615 2:0.77296078 3:0.081765704 4:-0.1194017 5:-0.68314359 6:0.96796778 7:-0.49361192 8:-0.7663528 9:-0.38506646 10:-0.45327793 11:-0.34570358 12:-0.089040665 13:7.4465706 
1 1:0.15060408 2:0.64846994 3:0.27715331 4:3.4153853 5:-0.70810413 6:-0.39439456 7:-0.49361192 8:0.22385034 9:-0.38506646 10:-0.45327793 11:-0.34570358 12:-0.089040665 13:6.794492 
1 1:-0.40809528 2:-0.02318505 3:3.4143605 4:1.659956 5:-0.72106872 6:-0.39439456 7:-1.1046686 8:0.22385034 9:-0.38506646 10:-0.45327793 11:3.7382848 12:-0.089040665 13:-0.37837233 
1 1:-0.9058316 2:-1.7368482 3:-1.4216821 4:0.8321633 5:-0.73159283 6:-0.39439456 7:-1.3083541 8:-0.7663528 9:5.7391894 10:-0.45327793 11:0.13476564 12:-0.089040665 13:-0.37837233 
1 1:0.0078425041 2:0.20296857 3:-0.88974932 4:1.5015039 5:-0.72921161 6:-0.39439456 7:-1.3083541 8:-0.7663528 9:-0.38506646 10:-0.45327793 11:5.6601616 12:-0.089040665 13:-0.37837233 
1 1:0.83585966 2:0.6907231 3:-0.26945348 4:0.12788064 5:-0.71472503 6:3.42022 7:-1.3083541 8:-0.7663528 9:-0.38506646 10:-0.45327793 11:-0.34570358 12:-0.089040665 13:6.794492 
1 1:1.8839997 2:-0.57857298 3:-1.6153152 4:-0.9146124 5:-0.31276885 6:-0.39439456 7:-1.1123068 8:3.0046708 9:-0.37175286 10:-0.45327793 11:-0.29765666 12:-0.089040665 13:-0.37837233 
1 1:-1.1342501 2:-0.56354333 3:2.6017076 4:-1.510201 5:-0.59780264 6:-0.39439456 7:-1.0028258 8:2.864392 9:-0.38506646 10:-0.45327793 11:-0.34570358 12:-0.089040665 13:-0.37837233 
1 1:0.17124663 2:0.53078499 3:0.022112672 4:4.3308937 5:-0.73073197 6:-0.39439456 7:-1.3083541 8:-0.7663528 9:-0.38506646 10:-0.45327793 11:5.6601616 12:-0.089040665 13:-0.37837233 
1 1:0.14076511 2:0.28095258 3:1.6620926 4:-1.0645421 5:-0.7182533 6:-0.39439456 7:-1.3083541 8:3.3594936 9:-0.38506646 10:-0.45327793 11:-0.34570358 12:-0.089040665 13:-0.37837233 
1 1:-2.5207737 2:-3.2439246 3:-1.4680966 4:-0.23360261 5:2.7315671 6:-0.39439456 7:1.2377153 8:-0.7663528 9:-0.38506646 10:-0.45327793 11:-0.34570358 12:-0.089040665 13:-0.37837233 
0.11764499632126353 1:-3.7707092 2:-3.9524448 3:-1.231558 4:-1.4746033 5:-0.72689447 6:-0.39439456 7:-1.3083541 8:-0.60131894 9:3.3427414 10:0.077347469 11:1.3359387 12:-0.089040665 13:-0.37837233 
0.41775514502994543 1:0.64544658 2:0.77352794 3:0.18528126 4:0.056685354 5:-0.68337845 6:0.96796778 7:-0.49361192 8:-0.7663528 9:-0.38506646 10:-0.45327793 11:-0.34570358 12:-0.089040665 13:7.4465706 
1 1:-0.53060015 2:0.42543568 3:7.6770003 4:-1.5256725 5:0.079120825 6:0.42302284 7:-0.5954547 8:-0.7663528 9:-0.38506646 10:1.8460988 11:-0.34570358 12:-0.089040665 13:0.92578482 
1 1:-1.4294193 2:-0.429978 3:1.3657414 4:-1.8252041 5:-0.72882383 6:-0.39439456 7:-1.3083541 8:-0.7663528 9:-0.38506646 10:3.9686004 11:-0.34570358 12:-0.089040665 13:-0.37837233 
1 1:0.53721787 2:0.4771887 3:0.57366397 4:-1.2656065 5:-0.48176107 6:-0.39439456 7:-1.2447024 8:-0.7663528 9:-0.38506646 10:3.7475065 11:-0.19555695 12:-0.089040665 13:-0.37837233 
1 1:2.2839251 2:-1.2558995 3:-1.7108558 4:-0.3578338 5:1.7003867 6:-0.39439456 7:1.2377153 8:-0.7663528 9:-0.38506646 10:-0.45327793 11:-0.34570358 12:-0.089040665 13:-0.37837233 
1 1:-1.6709565 2:-4.3545587 3:-1.3822856 4:-0.369503 5:-0.65479397 6:-0.39439456 7:-1.1046686 8:3.0294259 9:-0.38506646 10:-0.45327793 11:-0.34570358 12:-0.089040665 13:-0.37837233 
1 1:0.62808368 2:0.3054821 3:-0.42688007 4:0.037411492 5:1.8209776 6:-0.39439456 7:0.42297308 8:-0.7663528 9:-0.38506646 10:-0.45327793 11:-0.34570358 12:15.859967 13:0.92578482 
1 1:0.59721632 2:0.73113299 3:-0.15190192 4:0.19724032 5:-0.71494153 6:3.42022 7:-1.3083541 8:-0.7663528 9:-0.38506646 10:-0.45327793 11:-0.34570358 12:-0.089040665 13:6.794492 
1 1:-4.8250228 2:-3.7600369 3:-0.4796746 4:-1.6217796 5:-0.7316718 6:-0.39439456 7:-1.3083541 8:-0.7663528 9:0.9462935 10:3.0842247 11:-0.34570358 12:-0.089040665 13:-0.37837233 
1 1:-0.49047257 2:-0.4559254 3:-0.12175641 4:-0.32197392 5:-0.73170987 6:-0.39439456 7:-1.3083541 8:-0.7663528 9:6.0054613 10:-0.45327793 11:-0.10546897 12:-0.089040665 13:-0.37837233 
1 1:1.7387302 2:-0.51987229 3:-1.4918621 4:-0.17623992 5:-0.64451927 6:-0.39439456 7:-1.3083541 8:3.1944597 9:-0.38506646 10:-0.45327793 11:-0.10546897 12:-0.089040665 13:-0.37837233 
1 1:2.7222417 2:-1.7748477 3:-1.6173887 4:-0.92962504 5:-0.32146473 6:-0.39439456 7:-1.1123068 8:3.0046708 9:-0.37175286 10:-0.45327793 11:-0.29765666 12:-0.089040665 13:-0.37837233 
1 1:0.67284137 2:0.34773525 3:-0.54953564 4:-1.4195351 5:-0.67830048 6:-0.39439456 7:-1.3083541 8:3.3594936 9:-0.38506646 10:-0.45327793 11:-0.34570358 12:-0.089040665 13:-0.37837233 
1 1:0.17124663 2:0.53078499 3:0.022112672 4:4.3308937 5:-0.72802502 6:-0.39439456 7:-1.3083541 8:-0.10621737 9:-0.38506646 10:-0.45327793 11:4.6992232 12:-0.089040665 13:-0.37837233 
1 1:-1.1579794 2:-0.68491481 3:0.51831744 4:-1.4099638 5:-0.72649824 6:-0.39439456 7:-1.2065114 8:-0.7663528 9:-0.38506646 10:-0.45327793 11:5.419927 12:-0.089040665 13:-0.37837233 
1 1:0.64872624 2:0.81422141 3:2.0129927 4:0.26286323 5:-0.59158167 6:0.15055038 7:-0.28992636 8:-0.60131894 9:-0.38506646 10:-0.45327793 11:-0.34570358 12:-0.089040665 13:7.4465706 
1 1:0.59856676 2:-1.1335355 3:-1.3629861 4:0.21716976 5:-0.68047842 6:-0.39439456 7:-1.2065114 8:-0.7663528 9:5.7391894 10:-0.45327793 11:-0.10546897 12:-0.089040665 13:-0.37837233 
1 1:-3.6136715 2:-3.2059251 3:-1.30748 4:-1.0099328 5:-0.7316752 6:-0.39439456 7:-1.3083541 8:-0.7663528 9:-0.38506646 10:3.9686004 11:-0.34570358 12:-0.089040665 13:-0.37837233 
1 1:-1.0945084 2:-0.49605172 3:0.09277121 4:-1.3487332 5:-0.73172222 6:-0.39439456 7:-1.3083541 8:-0.7663528 9:-0.38506646 10:-0.45327793 11:5.6601616 12:-0.089040665 13:-0.37837233 
1 1:0.24011945 2:0.51844933 3:-0.26610398 4:4.5456596 5:-0.65884528 6:-0.39439456 7:-0.69729748 8:2.3692905 9:-0.38506646 10:-0.45327793 11:-0.34570358 12:-0.089040665 13:-0.37837233 
1 1:0.70177953 2:0.78373675 3:1.8034096 4:0.27623693 5:2.9692541 6:-0.39439456 7:1.2377153 8:-0.7663528 9:-0.38506646 10:-0.45327793 11:-0.34570358 12:-0.089040665 13:-0.37837233 
1 1:-0.58519681 2:-0.0073046706 3:4.1077074 4:-1.1556668 5:-0.71797045 6:-0.39439456 7:-0.69729748 8:2.0392227 9:-0.38506646 10:-0.45327793 11:-0.10546897 12:2.5691273 13:-0.37837233 
1 1:0.64872624 2:0.81422141 3:2.0129927 4:0.26286323 5:-0.48255349 6:2.8752751 7:-0.90098303 8:-0.7663528 9:-0.38506646 10:-0.45327793 11:-0.34570358 12:-0.089040665 13:5.4903349 
1 1:0.65972274 2:0.72290923 3:0.29740982 4:-0.33973997 5:6.4126709 6:-0.39439456 7:1.2377153 8:-0.7663528 9:-0.38506646 10:-0.45327793 11:-0.34570358 12:-0.089040665 13:-0.37837233 
1 1:0.24011945 2:0.51844933 3:-0.26610398 4:4.5456596 5:-0.65884528 6:-0.39439456 7:-0.69729748 8:2.3692905 9:-0.38506646 10:-0.45327793 11:-0.34570358 12:-0.089040665 13:-0.37837233 
1 1:2.1998115 2:-1.1786245 3:-1.6575827 4:-0.40805073 5:5.1010424 6:-0.39439456 7:1.2377153 8:-0.7663528 9:-0.38506646 10:-0.45327793 11:-0.34570358 12:-0.089040665 13:-0.37837233 
1 1:0.14076511 2:0.28095258 3:1.6620926 4:-1.0645421 5:-0.70898986 6:-0.39439456 7:-0.39176914 8:1.2140535 9:-0.38506646 10:-0.45327793 11:0.13476564 12:5.2272953 13:-0.37837233 
1 1:-4.6567956 2:-3.7590444 3:-0.4906801 4:-1.4235997 5:-0.67114119 6:-0.39439456 7:-1.3083541 8:-0.7663528 9:-0.38506646 10:3.9686004 11:-0.34570358 12:-0.089040665 13:-0.37837233 
1 1:0.17124663 2:0.53078499 3:0.022112672 4:4.3308937 5:-0.72684153 6:-0.39439456 7:-1.3083541 8:0.058816481 9:-0.38506646 10:-0.45327793 11:4.4589886 12:-0.089040665 13:-0.37837233 
1 1:1.5843933 2:-0.46840284 3:-1.5543862 4:-0.11376377 5:3.7022347 6:-0.39439456 7:1.2377153 8:-0.7663528 9:-0.38506646 10:-0.45327793 11:-0.34570358 12:-0.089040665 13:-0.37837233 
1 1:-0.16347139 2:-1.0077686 3:-1.5130757 4:-0.58394111 5:-0.724229 6:-0.39439456 7:-1.2905317 8:-0.60544479 9:5.4928878 10:-0.17912147 11:-0.29765666 12:-0.089040665 13:-0.36207037 
1 1:0.085396767 2:0.59671692 3:-0.99135087 4:5.9647141 5:-0.3896246 6:2.8752751 7:-0.39176914 8:-0.7663528 9:-0.38506646 10:-0.45327793 11:-0.34570358 12:-0.089040665 13:2.229942 
1 1:0.46718753 2:0.36063806 3:-0.56755914 4:-0.68463721 5:-0.73112058 6:-0.39439456 7:-1.3083541 8:-0.7663528 9:6.2717333 10:-0.45327793 11:-0.34570358 12:-0.089040665 13:-0.37837233 
1 1:0.10835437 2:0.62890305 3:0.76681857 4:2.8795195 5:-0.71797505 6:-0.39439456 7:-0.5954547 8:0.22385034 9:-0.38506646 10:-0.45327793 11:-0.34570358 12:2.5691273 13:6.794492 
1 1:-0.18546439 2:0.52114333 3:0.67048052 4:-1.6309576 5:-0.72910578 6:-0.39439456 7:-1.3007159 8:-0.7663528 9:-0.37840966 10:3.7519284 11:-0.30966839 12:0.11032193 13:0.22480035 
1 1:-0.28173199 2:0.32448184 3:0.67877453 4:-1.7209679 5:-0.72976954 6:-0.39439456 7:-1.3083541 8:-0.7663528 9:-0.38506646 10:3.9686004 11:-0.34570358 12:-0.089040665 13:-0.37837233 
1 1:0.24011945 2:0.51844933 3:-0.26610398 4:4.5456596 5:-0.6474037 6:-0.39439456 7:-0.69729748 8:2.3692905 9:-0.38506646 10:-0.45327793 11:-0.34570358 12:-0.089040665 13:-0.37837233 
1 1:2.1998115 2:-1.1786245 3:-1.6575827 4:-0.40805073 5:4.2743789 6:-0.39439456 7:1.2377153 8:-0.7663528 9:-0.38506646 10:-0.45327793 11:-0.34570358 12:-0.089040665 13:-0.37837233 
1 1:0.3743925 2:0.53929233 3:0.48769342 4:0.74746319 5:-0.69261584 6:-0.12192209 7:-1.1046686 8:2.3692905 9:-0.38506646 10:-0.45327793 11:-0.10546897 12:5.2272953 13:-0.37837233 
1 1:-0.9691097 2:-0.84939017 3:-1.4607596 4:-0.56342166 5:-0.6717751 6:2.3303301 7:-1.3083541 8:-0.7663528 9:-0.38506646 10:1.4923485 11:-0.10546897 12:7.8854632 13:-0.37837233 
1 1:-0.73258849 2:-1.0711483 3:-0.77570676 4:0.12892956 5:5.2952773 6:-0.39439456 7:-0.69729748 8:-0.7663528 9:-0.38506646 10:-0.45327793 11:4.218754 12:-0.089040665 13:-0.37837233 
1 1:0.18938121 2:0.41395076 3:-0.83137229 4:1.6735919 5:-0.71916658 6:2.8752751 7:-1.2065114 8:-0.43628509 9:-0.38506646 10:-0.2764028 11:1.3359387 12:5.2272953 13:-0.37837233 
1 1:0.25806111 2:0.68817089 3:-0.94254385 4:3.8782202 5:-0.70429535 6:-0.39439456 7:-0.5954547 8:0.38888419 9:-0.38506646 10:-0.45327793 11:-0.10546897 12:2.5691273 13:5.4903349 
1 1:-5.2868758 2:-4.0660178 3:-0.31538951 4:-0.62602893 5:-0.73074168 6:-0.39439456 7:-1.2065114 8:-0.7663528 9:1.2125655 10:2.7304745 11:-0.34570358 12:-0.089040665 13:-0.37837233 
1 1:-0.0083628642 2:-0.44075397 3:-1.0703034 4:-0.13447989 5:-0.72729353 6:-0.39439456 7:-1.3083541 8:-0.7663528 9:6.0054613 10:-0.45327793 11:-0.10546897 12:-0.089040665 13:-0.37837233 
1 1:0.36841195 2:0.35241429 3:-0.8653458 4:3.2105841 5:-0.50109144 6:1.5129127 7:-1.3083541 8:-0.7663528 9:-0.38506646 10:-0.45327793 11:-0.34570358 12:-0.089040665 13:11.359042 
1 1:0.13536332 2:0.31725059 3:-0.24728297 4:4.5642123 5:-0.72680499 6:6.0768266 7:-1.3058081 8:-0.70859095 9:-0.38506646 10:-0.34273097 11:-0.34570358 12:-0.089040665 13:-0.21535269 
1 1:0.14076511 2:0.28095258 3:1.6620926 4:-1.0645421 5:-0.70898986 6:-0.39439456 7:-0.39176914 8:1.2140535 9:-0.38506646 10:-0.45327793 11:0.13476564 12:5.2272953 13:-0.37837233 
1 1:-0.79567368 2:-0.83521126 3:-1.4057321 4:-0.50717345 5:-0.72767802 6:-0.39439456 7:-1.303262 8:-0.6508291 9:5.5328286 10:-0.1127933 11:-0.32768598 12:-0.089040665 13:-0.37837233 
1 1:0.26095492 2:0.23019208 3:0.33265934 4:2.2611169 5:-0.12022964 6:-0.39439456 7:-0.18808359 8:-0.7663528 9:-0.38506646 10:-0.099527664 11:-0.34570358 12:-0.089040665 13:7.4465706 
1 1:-5.1855922 2:-4.235314 3:-1.3676116 4:0.39568243 5:-0.67247269 6:-0.39439456 7:0.11744475 8:-0.10621737 9:-0.38506646 10:-0.099527664 11:0.13476564 12:-0.089040665 13:1.5778634 
1 1:0.17124663 2:0.53078499 3:0.022112672 4:4.3308937 5:-0.72684153 6:-0.39439456 7:-1.3083541 8:0.058816481 9:-0.38506646 10:-0.45327793 11:4.4589886 12:-0.089040665 13:-0.37837233 
1 1:-0.55741618 2:-0.9856495 3:-1.4940951 4:-0.51818708 5:-0.72737441 6:-0.39439456 7:-1.3007159 8:-0.64670325 9:5.353095 10:-0.024355732 11:-0.29765666 12:-0.089040665 13:-0.36207037 
1 1:0.24011945 2:0.51844933 3:-0.26610398 4:4.5456596 5:-0.67487187 6:-0.39439456 7:-0.90098303 8:2.6993582 9:-0.38506646 10:-0.45327793 11:-0.34570358 12:-0.089040665 13:-0.37837233 
1 1:0.21774061 2:0.43479376 3:-0.78144876 4:4.1116699 5:-0.72685214 6:-0.39439456 7:-1.3083541 8:0.058816481 9:-0.38506646 10:-0.45327793 11:4.4589886 12:-0.089040665 13:-0.37837233 
1 1:0.50885847 2:0.51093451 3:-0.15206142 4:-0.92090591 5:3.1631939 6:-0.39439456 7:0.52481586 8:-0.60131894 9:-0.38506646 10:-0.45327793 11:-0.34570358 12:-0.089040665 13:3.5340991 
1 1:0.39754303 2:-0.79706999 3:-1.247508 4:0.45966641 5:-0.71250772 6:-0.39439456 7:-1.3083541 8:-0.7663528 9:6.2717333 10:-0.45327793 11:-0.34570358 12:-0.089040665 13:-0.37837233 
1 1:0.21774061 2:0.43479376 3:-0.78144876 4:4.1116699 5:-0.72801504 6:-0.39439456 7:-1.3083541 8:-0.10621737 9:-0.38506646 10:-0.45327793 11:4.6992232 12:-0.089040665 13:-0.37837233 
1 1:1.1393245 2:0.60394817 3:-0.27950199 4:-0.72495498 5:-0.72473525 6:-0.39439456 7:-1.3007159 8:-0.74984941 9:4.4943678 10:0.63892602 11:-0.29765666 12:-0.089040665 13:-0.31316447 
1 1:1.9434194 2:0.11945479 3:-1.3384231 4:-0.87429463 5:-0.33016062 6:-0.39439456 7:-1.1123068 8:3.0046708 9:-0.37175286 10:-0.45327793 11:-0.29765666 12:-0.089040665 13:-0.37837233 
1 1:-1.4500619 2:-1.9651286 3:-1.1985415 4:0.95528001 5:-0.69651341 6:-0.39439456 7:0.015601971 8:-0.7663528 9:1.7451095 10:-0.45327793 11:-0.34570358 12:10.543631 13:-0.37837233 
1 1:0.89431474 2:0.70929747 3:-0.36068753 4:-0.031554844 5:-0.70349522 6:2.8752751 7:-1.1046686 8:-0.7663528 9:-0.38506646 10:-0.45327793 11:-0.34570358 12:-0.089040665 13:6.794492 
1 1:-3.8035058 2:-2.6987455 3:0.93668616 4:-1.7283103 5:-0.73017857 6:-0.39439456 7:-1.3083541 8:-0.60131894 9:-0.38506646 10:-0.45327793 11:5.419927 12:-0.089040665 13:-0.37837233 
1 1:0.62210313 2:0.75821471 3:-0.38365555 4:0.26345325 5:-0.59198316 6:0.15055038 7:-0.28992636 8:-0.60131894 9:-0.38506646 10:-0.45327793 11:-0.34570358 12:-0.089040665 13:7.4465706 
0.85307147068818268 1:0.051635583 2:-0.98777634 3:-1.4996776 4:-0.90845001 5:-0.72370284 6:-0.39439456 7:-1.2905317 8:-0.62607402 9:4.9803142 10:0.17905067 11:-0.29765666 12:-0.089040665 13:-0.32946644 
1 1:0.23008756 2:0.59926912 3:-0.19624295 4:4.2972628 5:-0.72700933 6:-0.39439456 7:-1.3083541 8:0.058816481 9:-0.38506646 10:-0.45327793 11:4.4589886 12:-0.089040665 13:-0.37837233 
1 1:0.5237134 2:0.62124644 3:2.1651558 4:0.47422014 5:-0.67644836 6:-0.39439456 7:0.21928753 8:-0.10621737 9:-0.38506646 10:-0.45327793 11:0.61523486 12:5.2272953 13:-0.37837233 
1 1:1.1190678 2:-1.3119062 3:-1.3682496 4:0.33156734 5:-0.70555453 6:-0.39439456 7:-1.0028258 8:-0.7663528 9:5.2066454 10:-0.45327793 11:-0.10546897 12:-0.089040665 13:-0.37837233 
1 1:0.85013581 2:0.67172336 3:-0.56229564 4:-0.033652679 5:-0.70319553 6:2.8752751 7:-1.1046686 8:-0.7663528 9:-0.38506646 10:-0.45327793 11:-0.34570358 12:-0.089040665 13:6.794492 
1 1:-1.268909 2:-1.5441568 3:-0.62864768 4:0.89339386 5:-0.67964706 6:-0.39439456 7:0.62665864 8:-0.7663528 9:-0.38506646 10:-0.2764028 11:-0.34570358 12:5.2272953 13:1.5778634 
1 1:-1.735585 2:-3.9213929 3:-1.4446501 4:-0.41375422 5:-0.51595972 6:-0.39439456 7:-0.90098303 8:0.38888419 9:1.7451095 10:-0.45327793 11:-0.34570358 12:15.859967 13:-0.37837233 
1 1:0.70177953 2:0.78373675 3:1.8034096 4:0.27623693 5:2.9886492 6:-0.39439456 7:1.2377153 8:-0.7663528 9:-0.38506646 10:-0.45327793 11:-0.34570358 12:-0.089040665 13:-0.37837233 
1 1:-5.8694973 2:-4.9574459 3:0.042050183 4:-0.96522268 5:-0.73184143 6:-0.39439456 7:-1.3083541 8:-0.7663528 9:-0.38506646 10:3.9686004 11:-0.34570358 12:-0.089040665 13:-0.37837233 
1 1:0.24011945 2:0.51844933 3:-0.26610398 4:4.5456596 5:-0.6474037 6:-0.39439456 7:-0.69729748 8:2.3692905 9:-0.38506646 10:-0.45327793 11:-0.34570358 12:-0.089040665 13:-0.37837233 
1 1:0.59181453 2:0.68930521 3:1.2864699 4:0.62362535 5:-0.34888412 6:5.3275273 7:-1.1046686 8:-0.7663528 9:-0.38506646 10:-0.45327793 11:-0.34570358 12:-0.089040665 13:0.92578482 
1 1:1.1755936 2:0.82726601 3:-0.54538863 4:-0.87521243 5:-0.72101969 6:-0.39439456 7:-1.3083541 8:-0.7663528 9:-0.11879447 10:-0.45327793 11:5.419927 12:-0.089040665 13:-0.37837233 
1 1:-0.31645778 2:-0.13151193 3:0.62151399 4:-0.97013948 5:-0.72381718 6:-0.39439456 7:-1.3083541 8:-0.7663528 9:-0.38506646 10:-0.45327793 11:5.6601616 12:-0.089040665 13:-0.37837233 
1 1:-0.70442202 2:-1.8168172 3:-1.8086293 4:-0.49347196 5:-0.73182734 6:-0.39439456 7:-1.3083541 8:-0.7663528 9:5.2066454 10:-0.45327793 11:0.61523486 12:-0.089040665 13:-0.37837233 
1 1:0.70177953 2:0.78373675 3:1.8034096 4:0.27623693 5:2.9886492 6:-0.39439456 7:1.2377153 8:-0.7663528 9:-0.38506646 10:-0.45327793 11:-0.34570358 12:-0.089040665 13:-0.37837233 
1 1:0.19902727 2:0.64662669 3:-0.96918036 4:6.2039984 5:-0.44696715 6:3.1477475 7:-0.39176914 8:-0.7663528 9:-0.38506646 10:-0.45327793 11:-0.34570358 12:-0.089040665 13:1.5778634 
1 1:0.773932 2:0.50171822 3:-0.50072861 4:0.43619688 5:-0.66932245 6:-0.39439456 7:-0.18808359 8:0.88398576 9:-0.38506646 10:-0.45327793 11:-0.10546897 12:7.8854632 13:-0.37837233 
1 1:0.76486471 2:0.59870197 3:0.034075179 4:-0.63979598 5:-0.72437768 6:-0.39439456 7:-1.3007159 8:-0.7663528 9:4.8005806 10:0.42225398 11:-0.30366252 12:0.11032193 13:-0.21535269 
1 1:-4.8203927 2:-4.1605912 3:-0.49498661 4:-1.5283604 5:-0.63173961 6:-0.39439456 7:-0.086240807 8:1.3790873 9:-0.38506646 10:-0.45327793 11:-0.34570358 12:-0.089040665 13:-0.37837233 
1 1:1.6324307 2:0.16511088 3:-1.4251911 4:-0.85187402 5:-0.4162029 6:-0.39439456 7:-1.1454057 8:3.0913136 9:-0.37840966 10:-0.45327793 11:-0.34570358 12:-0.089040665 13:-0.37837233 
1 1:-0.79567368 2:-0.83521126 3:-1.4057321 4:-0.50717345 5:-0.72796478 6:-0.39439456 7:-1.303262 8:-0.66733248 9:5.5128582 10:-0.086262029 11:-0.32168012 12:-0.089040665 13:-0.37837233 
1 1:0.086361372 2:0.49207656 3:-0.2911455 4:3.1987838 5:-0.73098259 6:1.7853852 7:-1.2065114 8:-0.60131894 9:-0.38506646 10:-0.45327793 11:-0.34570358 12:2.5691273 13:8.7507278 
1 1:0.25632482 2:0.626918 3:-0.6685227 4:5.9576995 5:-0.39906072 6:0.96796778 7:0.015601971 8:0.058816481 9:-0.38506646 10:-0.45327793 11:-0.34570358 12:-0.089040665 13:0.92578482 
1 1:0.25632482 2:0.626918 3:-0.6685227 4:5.9576995 5:-0.52333311 6:0.96796778 7:-0.28992636 8:0.55391805 9:-0.38506646 10:-0.45327793 11:-0.34570358 12:-0.089040665 13:0.92578482 
1 1:0.19902727 2:0.64662669 3:-0.96918036 4:6.2039984 5:-0.45120579 6:4.2376374 7:-0.69729748 8:-0.7663528 9:-0.38506646 10:-0.45327793 11:-0.34570358 12:-0.089040665 13:0.92578482 
1 1:-1.0345099 2:-0.46755211 3:0.19883877 4:-1.325067 5:-0.73174738 6:-0.39439456 7:-1.3083541 8:-0.7663528 9:-0.38506646 10:-0.45327793 11:5.6601616 12:-0.089040665 13:-0.37837233 
1 1:0.16603777 2:0.44429363 3:-0.55958414 4:4.9051106 5:-0.73155818 6:4.5101099 7:-1.3083541 8:-0.7663528 9:-0.38506646 10:-0.45327793 11:0.61523486 12:-0.089040665 13:1.5778634 
1 1:0.5237134 2:0.62124644 3:2.1651558 4:0.47422014 5:-0.68934731 6:-0.39439456 7:-0.5954547 8:1.8741889 9:-0.38506646 10:-0.45327793 11:-0.34570358 12:5.2272953 13:-0.37837233 
1 1:0.34564727 2:0.54907578 3:-0.091451389 4:4.2224619 5:-0.72895411 6:5.5999997 7:-1.3083541 8:-0.60131894 9:-0.38506646 10:-0.2764028 11:-0.34570358 12:-0.089040665 13:0.27370625 
1 1:0.26462042 2:0.61188836 3:-0.58957016 4:3.6669288 5:-0.71423739 6:-0.39439456 7:-1.0028258 8:0.058816481 9:-0.38506646 10:-0.45327793 11:0.13476564 12:2.5691273 13:8.7507278 
1 1:0.61650842 2:0.74105823 3:0.51736044 4:0.085268361 5:-0.59358915 6:0.15055038 7:-0.28992636 8:-0.60131894 9:-0.38506646 10:-0.45327793 11:-0.34570358 12:-0.089040665 13:7.4465706 
1 1:0.14076511 2:0.28095258 3:1.6620926 4:-1.0645421 5:-0.7182533 6:-0.39439456 7:-1.3083541 8:3.3594936 9:-0.38506646 10:-0.45327793 11:-0.34570358 12:-0.089040665 13:-0.37837233 
1 1:0.15870677 2:0.43238335 3:-0.58095715 4:4.2648119 5:-0.72799783 6:-0.39439456 7:-1.3083541 8:-0.10621737 9:-0.38506646 10:-0.45327793 11:4.6992232 12:-0.089040665 13:-0.37837233 
1 1:-6.2383624 2:-4.5595857 3:-0.18699194 4:-1.6614418 5:-0.73141316 6:-0.39439456 7:-1.3083541 8:-0.7663528 9:0.68002151 10:3.2610999 11:-0.34570358 12:-0.089040665 13:-0.37837233 
1 1:0.5237134 2:0.62124644 3:2.1651558 4:0.47422014 5:-0.67644836 6:-0.39439456 7:0.21928753 8:-0.10621737 9:-0.38506646 10:-0.45327793 11:0.61523486 12:5.2272953 13:-0.37837233 
1 1:0.074786109 2:0.63655966 3:-0.65847419 4:3.7351085 5:-0.71799059 6:-0.39439456 7:-0.5954547 8:0.22385034 9:-0.38506646 10:-0.45327793 11:-0.34570358 12:2.5691273 13:6.794492 
0.18751090560019737 1:0.0078425041 2:0.20296857 3:-0.88974932 4:1.5015039 5:-0.72765163 6:-0.39439456 7:-1.3083541 8:-0.7663528 9:-0.38506646 10:-0.45327793 11:5.6601616 12:-0.089040665 13:-0.37837233 
1 1:-3.7130258 2:-3.8078199 3:-1.0739719 4:-1.3704327 5:-0.61412762 6:-0.39439456 7:-0.28992636 8:0.55391805 9:-0.38506646 10:-0.45327793 11:-0.34570358 12:-0.089040665 13:4.1861777 
1 1:0.86827039 2:0.1245592 3:-0.6736267 4:-0.083804055 5:6.7946899 6:-0.39439456 7:1.1358725 8:-0.7663528 9:-0.38506646 10:-0.45327793 11:-0.34570358 12:-0.089040665 13:0.27370625 
1 1:0.24494248 2:0.45577855 3:-0.00085534011 4:5.0134769 5:-0.68656165 6:-0.12192209 7:-1.0028258 8:2.3692905 9:-0.38506646 10:-0.45327793 11:-0.10546897 12:-0.089040665 13:0.27370625 
1 1:0.15870677 2:0.43238335 3:-0.58095715 4:4.2648119 5:-0.73072589 6:-0.39439456 7:-1.3083541 8:-0.7663528 9:-0.38506646 10:-0.45327793 11:5.6601616 12:-0.089040665 13:-0.37837233 
1 1:0.19651929 2:0.45109951 3:0.28417131 4:-0.74868674 5:-0.73175758 6:-0.39439456 7:-1.3083541 8:-0.7663528 9:-0.38506646 10:3.9686004 11:-0.34570358 12:-0.089040665 13:-0.37837233 
1 1:0.0078425041 2:0.20296857 3:-0.88974932 4:1.5015039 5:-0.72998257 6:-0.39439456 7:-1.3083541 8:-0.7663528 9:-0.38506646 10:-0.45327793 11:5.6601616 12:-0.089040665 13:-0.37837233 
1 1:0.06031703 2:0.44259216 3:-0.4852571 4:2.989328 5:-0.71798022 6:-0.39439456 7:-0.5954547 8:0.22385034 9:-0.38506646 10:-0.45327793 11:-0.34570358 12:2.5691273 13:6.794492 
1 1:0.64872624 2:0.81422141 3:2.0129927 4:0.26286323 5:-0.48255349 6:2.8752751 7:-0.90098303 8:-0.7663528 9:-0.38506646 10:-0.45327793 11:-0.34570358 12:-0.089040665 13:5.4903349 
1 1:0.66338824 2:0.94296592 3:1.0333432 4:-1.3866254 5:-0.62014518 6:-0.39439456 7:-1.2065114 8:-0.43628509 9:0.41374952 10:-0.45327793 11:0.85546946 12:23.834471 13:2.8820206 
1 1:0.70177953 2:0.78373675 3:1.8034096 4:0.27623693 5:2.9692541 6:-0.39439456 7:1.2377153 8:-0.7663528 9:-0.38506646 10:-0.45327793 11:-0.34570358 12:-0.089040665 13:-0.37837233 
1 1:-1.0628693 2:-0.92935923 3:-1.4232771 4:-0.49425865 5:-0.63724393 6:1.7853852 7:-1.3083541 8:-0.7663528 9:0.41374952 10:-0.45327793 11:1.8164079 12:10.543631 13:0.27370625 
1 1:-3.837267 2:-5.9058733 3:-1.6520002 4:-0.46901907 5:-0.68405191 6:-0.39439456 7:-0.49361192 8:2.0392227 9:-0.38506646 10:-0.45327793 11:-0.34570358 12:-0.089040665 13:-0.37837233 
1 1:0.82042597 2:0.73595382 3:-1.3886656 4:3.4806148 5:-0.69483806 6:4.8438886 7:-0.90862124 8:-0.7663528 9:-0.33181206 10:-0.4179029 11:-0.34570358 12:-0.089040665 13:0.56714161 
1 1:0.70177953 2:0.78373675 3:1.8034096 4:0.27623693 5:2.9692541 6:-0.39439456 7:1.2377153 8:-0.7663528 9:-0.38506646 10:-0.45327793 11:-0.34570358 12:-0.089040665 13:-0.37837233 
1 1:0.46988842 2:0.60295564 3:0.47668792 4:0.59333785 5:-0.617445 6:-0.39439456 7:0.32113031 8:0.22385034 9:-0.38506646 10:-0.45327793 11:-0.34570358 12:7.8854632 13:-0.37837233 
1 1:-3.6175299 2:-3.5042494 3:-1.0655184 4:-0.75268574 5:-0.73188764 6:-0.39439456 7:-1.3083541 8:-0.7663528 9:6.0054613 10:-0.45327793 11:-0.10546897 12:-0.089040665 13:-0.37837233 
0.80043266652153255 1:-2.7941428 2:-3.0048682 3:-1.3194425 4:-0.94155648 5:-0.3800353 6:-0.39439456 7:0.015601971 8:-0.27125123 9:0.14747752 10:-0.45327793 11:-0.34570358 12:-0.089040665 13:4.1861777 
1 1:0.10835437 2:0.62890305 3:0.76681857 4:2.8795195 5:-0.71797505 6:-0.39439456 7:-0.5954547 8:0.22385034 9:-0.38506646 10:-0.45327793 11:-0.34570358 12:2.5691273 13:6.794492 
1 1:-1.2984259 2:-1.2408699 3:-1.0458999 4:-0.36760184 5:-0.72015343 6:-0.39439456 7:-1.3083541 8:-0.27125123 9:-0.38506646 10:1.8460988 11:1.0957041 12:7.8854632 13:-0.37837233 
1 1:-1.6240767 2:-1.202445 3:-1.1513295 4:-0.57023962 5:-0.030502381 6:-0.39439456 7:-0.5954547 8:-0.7663528 9:-0.38506646 10:-0.099527664 11:2.7773463 12:7.8854632 13:-0.37837233 
1 1:-0.35176234 2:-1.0806482 3:-1.4837276 4:-0.47098579 5:-0.72440626 6:-0.39439456 7:-1.2905317 8:-0.5971931 9:5.4063494 10:-0.12605893 11:-0.30366252 12:-0.089040665 13:-0.36207037 
1 1:0.12687479 2:0.49930781 3:-0.54331513 4:3.7818509 5:-0.72537463 6:-0.12192209 7:-0.79914026 8:0.22385034 9:-0.38506646 10:-0.45327793 11:-0.34570358 12:-0.089040665 13:8.0986492 
1 1:0.17124663 2:0.53078499 3:0.022112672 4:4.3308937 5:-0.73073197 6:-0.39439456 7:-1.3083541 8:-0.7663528 9:-0.38506646 10:-0.45327793 11:5.6601616 12:-0.089040665 13:-0.37837233 
1 1:0.17124663 2:0.53078499 3:0.022112672 4:4.3308937 5:-0.72684153 6:-0.39439456 7:-1.3083541 8:0.058816481 9:-0.38506646 10:-0.45327793 11:4.4589886 12:-0.089040665 13:-0.37837233 
1 1:-5.8694973 2:-4.9574459 3:0.042050183 4:-0.96522268 5:-0.73184143 6:-0.39439456 7:-1.3083541 8:-0.7663528 9:-0.38506646 10:3.9686004 11:-0.34570358 12:-0.089040665 13:-0.37837233 
1 1:-0.66275107 2:-0.98139583 3:-1.4279026 4:-0.43197916 5:-0.72417248 6:-0.39439456 7:-1.3007159 8:-0.62194817 9:5.4462902 10:-0.10837142 11:-0.30966839 12:-0.089040665 13:-0.36207037 
1 1:-1.078303 2:-0.48967121 3:0.4398434 4:-1.3492577 5:-0.73189261 6:-0.39439456 7:-1.3083541 8:-0.7663528 9:-0.38506646 10:-0.45327793 11:5.6601616 12:-0.089040665 13:-0.37837233 
1 1:-3.0989581 2:-2.6340896 3:-1.7185118 4:-0.23248813 5:-0.24636002 6:0.42302284 7:0.72850142 8:-0.7663528 9:-0.38506646 10:-0.45327793 11:-0.34570358 12:5.2272953 13:-0.37837233 
1 1:-1.0628693 2:-0.92935923 3:-1.4232771 4:-0.49425865 5:-0.5833622 6:-0.39439456 7:-1.3083541 8:-0.27125123 9:0.41374952 10:-0.45327793 11:2.5371117 12:18.518135 13:-0.37837233 
1 1:-5.1246291 2:-4.0906891 3:0.24365829 4:-1.5630402 5:-0.71323529 6:-0.39439456 7:-1.2065114 8:-0.7663528 9:-0.38506646 10:2.3767242 11:-0.34570358 12:-0.089040665 13:4.8382563 
1 1:0.14076511 2:0.28095258 3:1.6620926 4:-1.0645421 5:-0.7182533 6:-0.39439456 7:-1.3083541 8:3.3594936 9:-0.38506646 10:-0.45327793 11:-0.34570358 12:-0.089040665 13:-0.37837233 
1 1:0.35374995 2:0.64719384 3:1.1290433 4:-1.4764389 5:-0.54857075 6:-0.39439456 7:-0.5954547 8:-0.7663528 9:-0.38506646 10:0.60797287 11:-0.34570358 12:-0.089040665 13:7.4465706 
1 1:-0.12083584 2:0.18708819 3:-0.82244028 4:-1.3713505 5:-0.72913709 6:-0.39439456 7:-1.3083541 8:-0.7663528 9:-0.38506646 10:3.9686004 11:-0.34570358 12:-0.089040665 13:-0.37837233 
1 1:0.24011945 2:0.51844933 3:-0.26610398 4:4.5456596 5:-0.63071852 6:-0.39439456 7:-0.69729748 8:2.3692905 9:-0.38506646 10:-0.45327793 11:-0.34570358 12:-0.089040665 13:-0.37837233 
1 1:-3.1632008 2:-2.18476 3:0.49774193 4:-1.6808468 5:-0.73189261 6:-0.39439456 7:-1.3083541 8:-0.43628509 9:-0.38506646 10:-0.45327793 11:5.1796924 12:-0.089040665 13:-0.37837233 
1 1:-4.946563 2:-3.9097662 3:-1.0029944 4:0.89647506 5:-0.72040063 6:-0.39439456 7:-1.2065114 8:0.38888419 9:4.1415574 10:-0.45327793 11:-0.34570358 12:-0.089040665 13:-0.37837233 
1 1:0.12687479 2:0.49930781 3:-0.54331513 4:3.7818509 5:-0.71745028 6:-0.39439456 7:-0.39176914 8:0.058816481 9:-0.38506646 10:-0.45327793 11:-0.34570358 12:-0.089040665 13:6.794492 
1 1:0.52892226 2:0.5631129 3:-0.19911395 4:0.39056896 5:-0.70261362 6:-0.39439456 7:-1.0028258 8:0.7189519 9:-0.38506646 10:-0.45327793 11:1.0957041 12:5.2272953 13:2.8820206 
1 1:1.4690265 2:0.585232 3:-0.8546593 4:0.76627815 5:4.6106461 6:0.69549531 7:0.42297308 8:-0.7663528 9:-0.38506646 10:-0.45327793 11:-0.34570358 12:10.543631 13:-0.37837233 
1 1:-0.5099576 2:-2.0194339 3:-1.1184724 4:1.0394556 5:-0.69663803 6:-0.39439456 7:0.015601971 8:-0.7663528 9:1.7451095 10:-0.45327793 11:-0.34570358 12:10.543631 13:-0.37837233 
1 1:-4.0386765 2:-4.1455615 3:-1.196787 4:-1.1813653 5:-0.72812024 6:-0.39439456 7:-1.3083541 8:-0.43628509 9:-0.38506646 10:3.6148501 11:-0.34570358 12:-0.089040665 13:-0.37837233 
1 1:0.8802315 2:0.76303554 3:-0.69547821 4:0.18806229 5:-0.71488528 6:3.42022 7:-1.3083541 8:-0.7663528 9:-0.38506646 10:-0.45327793 11:-0.34570358 12:-0.089040665 13:6.794492 
1 1:-7.1157673 2:-5.5696913 3:-0.59180316 4:-1.5769384 5:-0.73132341 6:-0.39439456 7:-1.3083541 8:-0.7663528 9:4.1415574 10:0.96172313 11:-0.34570358 12:-0.089040665 13:-0.37837233 
1 1:-0.4806336 2:0.1987149 3:0.34669535 4:-1.1750718 5:-0.72224845 6:-0.39439456 7:-1.3083541 8:-0.60131894 9:-0.11879447 10:1.8460988 11:0.85546946 12:5.2272953 13:1.5778634 
1 1:-0.9654442 2:-0.89731489 3:-0.91223883 4:3.5147702 5:-0.69119646 6:6.4174171 7:-1.3083541 8:-0.7663528 9:-0.38506646 10:-0.45327793 11:-0.34570358 12:-0.089040665 13:-0.37837233 
1 1:-5.2068135 2:-4.0005113 3:-1.2186385 4:0.80390808 5:-0.4069687 6:-0.39439456 7:0.62665864 8:-0.7663528 9:-0.11879447 10:-0.45327793 11:0.13476564 12:5.2272953 13:0.27370625 
0.51566801857025446 1:0.50403545 2:0.58154549 3:0.064539695 4:0.44917723 5:-0.70280035 6:-0.39439456 7:-1.0028258 8:0.7189519 9:-0.38506646 10:-0.45327793 11:1.0957041 12:5.2272953 13:2.8820206 
0.40397369071675537 1:0.24494248 2:0.45577855 3:-0.00085534011 4:5.0134769 5:-0.70832767 6:-0.39439456 7:-1.0028258 8:2.0392227 9:-0.38506646 10:-0.45327793 11:0.85546946 12:-0.089040665 13:-0.37837233 
1 1:2.8507271 2:-1.5529477 3:-1.7240943 4:-0.86577217 5:0.51439232 6:-0.39439456 7:-0.60818505 8:2.2248858 9:-0.38506646 10:-0.45327793 11:-0.34570358 12:-0.089040665 13:-0.37837233 
1 1:-5.858115 2:-5.5742286 3:-1.0439859 4:-1.1630748 5:-0.73006431 6:-0.39439456 7:-1.3083541 8:-0.7663528 9:0.68002151 10:2.3767242 11:0.85546946 12:-0.089040665 13:-0.37837233 
1 1:-0.37549163 2:-0.30449464 3:-1.6055857 4:4.5853218 5:-0.67482352 6:0.15055038 7:-1.3083541 8:-0.60131894 9:-0.38506646 10:-0.45327793 11:-0.34570358 12:58.390654 13:-0.37837233 
1 1:-0.66275107 2:-0.98139583 3:-1.4279026 4:-0.43197916 5:-0.7261552 6:-0.39439456 7:-1.2981699 8:-0.63019987 9:5.2732134 10:0.024284929 11:-0.31567425 12:-0.089040665 13:-0.37837233 
1 1:0.5237134 2:0.62124644 3:2.1651558 4:0.47422014 5:-0.56747811 6:-0.39439456 7:0.62665864 8:-0.10621737 9:-0.38506646 10:-0.45327793 11:-0.34570358 12:5.2272953 13:-0.37837233 
1 1:0.42127232 2:0.4369206 3:2.548913 4:-1.2574774 5:-0.4879212 6:-0.39439456 7:-1.265071 8:-0.7663528 9:-0.38506646 10:3.8580534 11:-0.29765666 12:-0.089040665 13:-0.37837233 
1 1:0.5237134 2:0.62124644 3:2.1651558 4:0.47422014 5:-0.6160105 6:-0.39439456 7:0.32113031 8:0.22385034 9:-0.38506646 10:-0.45327793 11:-0.34570358 12:7.8854632 13:-0.37837233 
1 1:0.70274413 2:0.71737945 3:-0.14376742 4:0.06547004 5:-0.55492457 6:0.42302284 7:-0.79914026 8:-0.60131894 9:-0.38506646 10:-0.45327793 11:-0.34570358 12:-0.089040665 13:10.054885 
1 1:0.0078425041 2:0.20296857 3:-0.88974932 4:1.5015039 5:-0.73189261 6:-0.39439456 7:-1.3083541 8:-0.7663528 9:-0.38506646 10:-0.45327793 11:5.6601616 12:-0.089040665 13:-0.37837233 
1 1:-2.4873984 2:-1.5496866 3:0.59073048 4:-1.5696615 5:-0.73189261 6:-0.39439456 7:-1.3083541 8:-0.7663528 9:-0.38506646 10:-0.45327793 11:5.6601616 12:-0.089040665 13:-0.37837233 
1 1:0.17124663 2:0.53078499 3:0.022112672 4:4.3308937 5:-0.72681284 6:-0.39439456 7:-1.3083541 8:0.058816481 9:-0.38506646 10:-0.45327793 11:4.4589886 12:-0.089040665 13:-0.37837233 
1 1:0.52892226 2:0.5631129 3:-0.19911395 4:0.39056896 5:-0.71308139 6:-0.39439456 7:-0.79914026 8:1.709155 9:-0.38506646 10:-0.45327793 11:0.13476564 12:7.8854632 13:-0.37837233 
1 1:0.14076511 2:0.28095258 3:1.6620926 4:-1.0645421 5:-0.69455327 6:-0.39439456 7:-0.18808359 8:0.88398576 9:-0.38506646 10:-0.45327793 11:0.13476564 12:5.2272953 13:-0.37837233 
1 1:-0.10771721 2:-0.0065957251 3:-0.70137972 4:-0.4291602 5:-0.72175022 6:-0.39439456 7:-1.2065114 8:-0.7663528 9:1.7451095 10:-0.099527664 11:0.13476564 12:-0.089040665 13:7.4465706 
1 1:0.085396767 2:0.59671692 3:-0.99135087 4:5.9647141 5:-0.40292722 6:3.42022 7:-0.49361192 8:-0.7663528 9:-0.38506646 10:-0.45327793 11:-0.34570358 12:-0.089040665 13:1.5778634 
1 1:-4.5722962 2:-3.6405087 3:-1.269519 4:1.8915701 5:-0.58370736 6:-0.39439456 7:0.21928753 8:-0.43628509 9:1.7451095 10:-0.45327793 11:-0.34570358 12:-0.089040665 13:-0.37837233 
1 1:0.21774061 2:0.43479376 3:-0.78144876 4:4.1116699 5:-0.73074878 6:-0.39439456 7:-1.3083541 8:-0.7663528 9:-0.38506646 10:-0.45327793 11:5.6601616 12:-0.089040665 13:-0.37837233 
1 1:0.17433337 2:0.31725059 3:-1.0782784 4:0.77584953 5:-0.68968495 6:6.1994392 7:-1.3058081 8:-0.7581011 9:-0.38506646 10:-0.43116854 11:-0.22558628 12:-0.089040665 13:-0.31316447 
1 1:0.16951035 2:0.42245811 3:-0.38700505 4:4.5590333 5:-0.67029556 6:-0.39439456 7:-0.69729748 8:2.3692905 9:-0.38506646 10:-0.45327793 11:-0.34570358 12:-0.089040665 13:-0.37837233 
1 1:-2.5070763 2:-1.5430225 3:1.0580657 4:-1.5017441 5:-0.72987479 6:-0.39439456 7:-1.3083541 8:-0.27125123 9:-0.38506646 10:-0.45327793 11:4.9394578 12:-0.089040665 13:-0.37837233 
1 1:0.70177953 2:0.78373675 3:1.8034096 4:0.27623693 5:2.9886492 6:-0.39439456 7:1.2377153 8:-0.7663528 9:-0.38506646 10:-0.45327793 11:-0.34570358 12:-0.089040665 13:-0.37837233 
1 1:0.46930966 2:0.83591514 3:1.601323 4:-1.5600246 5:-0.72688619 6:-0.39439456 7:-1.3083541 8:-0.7663528 9:-0.38506646 10:3.9686004 11:-0.34570358 12:-0.089040665 13:-0.37837233 
1 1:-5.0138925 2:-4.4974821 3:-0.93712084 4:0.48031698 5:-0.73020541 6:-0.39439456 7:-1.3083541 8:-0.7663528 9:-0.11879447 10:3.7917253 11:-0.34570358 12:-0.089040665 13:-0.37837233 
1 1:-1.0628693 2:-0.92935923 3:-1.4232771 4:-0.49425865 5:-0.45998834 6:2.8752751 7:-1.2065114 8:-0.7663528 9:-0.38506646 10:-0.45327793 11:0.13476564 12:26.492639 13:-0.37837233 
1 1:0.64872624 2:0.81422141 3:2.0129927 4:0.26286323 5:-0.48255349 6:2.8752751 7:-0.90098303 8:-0.7663528 9:-0.38506646 10:-0.45327793 11:-0.34570358 12:-0.089040665 13:5.4903349 
1 1:0.0068778988 2:0.68746195 3:-1.1237359 4:6.4759303 5:-0.70317039 6:1.7853852 7:-0.79914026 8:0.058816481 9:-0.38506646 10:-0.45327793 11:-0.34570358 12:-0.089040665 13:4.1861777 
1 1:0.89431474 2:0.70929747 3:-0.36068753 4:-0.031554844 5:-0.70349522 6:2.8752751 7:-1.1046686 8:-0.7663528 9:-0.38506646 10:-0.45327793 11:-0.34570358 12:-0.089040665 13:6.794492 
1 1:0.71605568 2:0.76388628 3:2.1043863 4:-1.4205841 5:-0.58281573 6:0.67505988 7:-1.2192417 8:-0.70033925 9:-0.38506646 10:2.9338809 11:-0.27963906 12:-0.089040665 13:-0.13384287 
1 1:0.59181453 2:0.68930521 3:1.2864699 4:0.62362535 5:-0.34888412 6:5.3275273 7:-1.1046686 8:-0.7663528 9:-0.38506646 10:-0.45327793 11:-0.34570358 12:-0.089040665 13:0.92578482 
1 1:-1.078303 2:-0.48967121 3:0.4398434 4:-1.3492577 5:-0.7317424 6:-0.39439456 7:-1.3083541 8:-0.7663528 9:-0.38506646 10:-0.45327793 11:5.6601616 12:-0.089040665 13:-0.37837233 
1 1:0.25632482 2:0.626918 3:-0.6685227 4:5.9576995 5:-0.60512936 6:2.3303301 7:-0.79914026 8:0.38888419 9:-0.38506646 10:-0.45327793 11:-0.34570358 12:-0.089040665 13:1.5778634 
1 1:-1.0345099 2:-0.46755211 3:0.19883877 4:-1.325067 5:-0.73174738 6:-0.39439456 7:-1.3083541 8:-0.7663528 9:-0.38506646 10:-0.45327793 11:5.6601616 12:-0.089040665 13:-0.37837233 
1 1:-2.507848 2:-1.6534762 3:0.75198506 4:-1.5469131 5:-0.73189261 6:-0.39439456 7:-1.3083541 8:-0.7663528 9:-0.38506646 10:-0.45327793 11:5.6601616 12:-0.089040665 13:-0.37837233 
1 1:0.14115095 2:0.2690423 3:-0.03801886 4:1.4350287 5:4.9854752 6:-0.12192209 7:0.32113031 8:-0.7663528 9:-0.38506646 10:-0.45327793 11:1.0957041 12:-0.089040665 13:0.92578482 
1 1:-4.1492203 2:-3.9111841 3:-0.71557522 4:-1.0474972 5:-0.72891045 6:-0.39439456 7:-1.2065114 8:-0.7663528 9:-0.38506646 10:3.7917253 11:-0.34570358 12:-0.089040665 13:-0.37837233 
1 1:-0.95502646 2:-0.56680448 3:0.77112507 4:-1.2766857 5:-0.72989082 6:-0.39439456 7:-1.2065114 8:-0.7663528 9:-0.38506646 10:-0.45327793 11:5.419927 12:-0.089040665 13:-0.37837233 
1 1:0.59181453 2:0.68930521 3:1.2864699 4:0.62362535 5:-0.34888412 6:5.3275273 7:-1.1046686 8:-0.7663528 9:-0.38506646 10:-0.45327793 11:-0.34570358 12:-0.089040665 13:0.92578482 
1 1:-1.0628693 2:-0.92935923 3:-1.4232771 4:-0.49425865 5:-0.67277801 6:2.3303301 7:-1.3083541 8:-0.60131894 9:-0.38506646 10:1.3154734 11:-0.10546897 12:7.8854632 13:-0.37837233 
1 1:0.46988842 2:0.60295564 3:0.47668792 4:0.59333785 5:-0.66976042 6:-0.39439456 7:-0.18808359 8:0.88398576 9:-0.38506646 10:-0.45327793 11:-0.10546897 12:7.8854632 13:-0.37837233 
0.81868682502522883 1:0.72936724 2:0.46981567 3:-0.99916638 4:1.0515838 5:-0.33250758 6:1.7853852 7:-0.90098303 8:-0.7663528 9:-0.38506646 10:-0.45327793 11:-0.10546897 12:-0.089040665 13:7.4465706 
1 1:0.28834971 2:0.65258183 3:-0.98018587 4:5.6857676 5:-0.7242441 6:4.7825823 7:-1.2065114 8:-0.43628509 9:-0.38506646 10:-0.45327793 11:-0.34570358 12:-0.089040665 13:1.5778634 
1 1:0.121473 2:0.4017569 3:-0.36292053 4:4.9783382 5:-0.72175296 6:4.2376374 7:-1.2065114 8:-0.43628509 9:-0.38506646 10:-0.45327793 11:-0.34570358 12:-0.089040665 13:2.8820206 
1 1:-6.4359135 2:-5.3757238 3:-0.59068666 4:-1.5256725 5:-0.71922418 6:-0.39439456 7:-1.3083541 8:-0.7663528 9:0.14747752 10:2.7304745 11:0.85546946 12:-0.089040665 13:-0.37837233 
1 1:0.5237134 2:0.62124644 3:2.1651558 4:0.47422014 5:-0.60896187 6:-0.39439456 7:0.62665864 8:-0.10621737 9:-0.38506646 10:-0.45327793 11:-0.34570358 12:5.2272953 13:-0.37837233 
1 1:-0.91605641 2:-0.11974343 3:0.46360891 4:-0.67205019 5:-0.72988253 6:-0.39439456 7:-1.3083541 8:-0.7663528 9:0.9462935 10:2.1998491 11:0.37500025 12:5.2272953 13:-0.37837233 
1 1:0.38558192 2:0.25004256 3:-0.50615161 4:-1.4338266 5:-0.73026357 6:5.8724722 7:-1.3083541 8:-0.7663528 9:-0.38506646 10:-0.45327793 11:-0.34570358 12:-0.089040665 13:0.92578482 
1 1:-4.6077937 2:-4.0132723 3:0.0093526654 4:-1.5082998 5:-0.71270355 6:-0.39439456 7:-1.2065114 8:3.1944597 9:-0.38506646 10:-0.45327793 11:-0.34570358 12:-0.089040665 13:-0.37837233 
1 1:0.64872624 2:0.81422141 3:2.0129927 4:0.26286323 5:-0.48255349 6:2.8752751 7:-0.90098303 8:-0.7663528 9:-0.38506646 10:-0.45327793 11:-0.34570358 12:-0.089040665 13:5.4903349 
1 1:0.70274413 2:0.71737945 3:-0.14376742 4:0.06547004 5:-0.7152236 6:3.42022 7:-1.3083541 8:-0.7663528 9:-0.38506646 10:-0.45327793 11:-0.34570358 12:-0.089040665 13:6.794492 
0.58741860326304018 1:-0.32648968 2:-0.29215898 3:-0.98162137 4:0.92446805 5:-0.72447862 6:-0.39439456 7:-1.3083541 8:-0.7663528 9:5.2066454 10:-0.45327793 11:0.61523486 12:-0.089040665 13:-0.37837233 
1 1:0.72454421 2:0.6412387 3:-0.10181889 4:0.41829972 5:-0.70336621 6:-0.39439456 7:-1.0028258 8:0.7189519 9:-0.38506646 10:-0.45327793 11:1.0957041 12:5.2272953 13:2.8820206 
1 1:-5.1857851 2:-4.0925324 3:-1.0339374 4:1.0897381 5:-0.36797554 6:-0.39439456 7:0.42297308 8:-0.60131894 9:1.4788375 10:-0.45327793 11:-0.34570358 12:-0.089040665 13:-0.37837233 
1 1:0.085396767 2:0.59671692 3:-0.99135087 4:5.9647141 5:-0.44027443 6:3.6926925 7:-0.5954547 8:-0.7663528 9:-0.38506646 10:-0.45327793 11:-0.34570358 12:-0.089040665 13:1.5778634 
1 1:0.13941466 2:0.70646169 3:-1.0363299 4:5.8186523 5:-0.72991741 6:5.3275273 7:-1.3083541 8:-0.7663528 9:-0.38506646 10:-0.45327793 11:-0.34570358 12:-0.089040665 13:2.229942 
1 1:0.70177953 2:0.78373675 3:1.8034096 4:0.27623693 5:2.9692541 6:-0.39439456 7:1.2377153 8:-0.7663528 9:-0.38506646 10:-0.45327793 11:-0.34570358 12:-0.089040665 13:-0.37837233 
1 1:0.72454421 2:0.6412387 3:-0.10181889 4:0.41829972 5:-0.70926894 6:-0.39439456 7:-0.28992636 8:-0.10621737 9:-0.38506646 10:-0.45327793 11:1.3359387 12:7.8854632 13:0.27370625 
1 1:0.39310584 2:0.88525775 3:1.3336819 4:-0.96987725 5:0.44348073 6:-0.39439456 7:-0.5954547 8:0.058816481 9:0.9462935 10:-0.45327793 11:-0.34570358 12:13.201799 13:1.5778634 
1 1:-0.35176234 2:-1.0806482 3:-1.4837276 4:-0.47098579 5:-0.72542826 6:-0.39439456 7:-1.2930777 8:-0.5889414 9:5.2465862 10:-0.024355732 11:-0.30966839 12:-0.089040665 13:-0.36207037 
1 1:0.085396767 2:0.59671692 3:-0.99135087 4:5.9647141 5:-0.3896246 6:2.8752751 7:-0.39176914 8:-0.7663528 9:-0.38506646 10:-0.45327793 11:-0.34570358 12:-0.089040665 13:2.229942 
1 1:-2.507848 2:-1.6534762 3:0.75198506 4:-1.5469131 5:-0.73189261 6:-0.39439456 7:-1.3083541 8:-0.7663528 9:-0.38506646 10:-0.45327793 11:5.6601616 12:-0.089040665 13:-0.37837233 
1 1:0.70177953 2:0.78373675 3:1.8034096 4:0.27623693 5:2.9692541 6:-0.39439456 7:1.2377153 8:-0.7663528 9:-0.38506646 10:-0.45327793 11:-0.34570358 12:-0.089040665 13:-0.37837233 
1 1:-2.9776108 2:-2.6315374 3:-0.96503336 4:1.8301429 5:-0.70735153 6:-0.39439456 7:-1.0206483 8:-0.58068971 9:-0.37175286 10:1.2535671 11:-0.34570358 12:-0.089040665 13:6.9901156 
1 1:0.10835437 2:0.62890305 3:0.76681857 4:2.8795195 5:-0.71797505 6:-0.39439456 7:-0.5954547 8:0.22385034 9:-0.38506646 10:-0.45327793 11:-0.34570358 12:2.5691273 13:6.794492 
1 1:-3.0989581 2:-2.6340896 3:-1.7185118 4:-0.23248813 5:-0.091751783 6:2.0578577 7:-0.90098303 8:-0.7663528 9:-0.38506646 10:-0.45327793 11:-0.34570358 12:21.176303 13:2.229942 
1 1:-0.55741618 2:-0.9856495 3:-1.4940951 4:-0.51818708 5:-0.72746392 6:-0.39439456 7:-1.3007159 8:-0.67145833 9:5.4063494 10:-0.028777611 11:-0.29765666 12:-0.089040665 13:-0.36207037 
0.0091698916016811141 1:0.16951035 2:0.42245811 3:-0.38700505 4:4.5590333 5:-0.63040866 6:-0.39439456 7:-0.69729748 8:2.3692905 9:-0.38506646 10:-0.45327793 11:-0.34570358 12:-0.089040665 13:-0.37837233 
1 1:-3.4531612 2:-3.5737261 3:-1.18307 4:-0.19649715 5:-0.73084072 6:-0.39439456 7:-1.3083541 8:-0.7663528 9:-0.38506646 10:3.9686004 11:-0.34570358 12:-0.089040665 13:-0.37837233 
1 1:0.25632482 2:0.626918 3:-0.6685227 4:5.9576995 5:-0.43859367 6:3.6926925 7:-0.5954547 8:-0.7663528 9:-0.38506646 10:-0.45327793 11:-0.34570358 12:-0.089040665 13:1.5778634 
1 1:0.68557416 2:0.93431678 3:1.2164493 4:-1.3212647 5:-0.60143084 6:-0.39439456 7:-1.2065114 8:3.1944597 9:-0.38506646 10:-0.45327793 11:-0.34570358 12:-0.089040665 13:-0.37837233 
0.40889090075385598 1:0.15060408 2:0.64846994 3:0.27715331 4:3.4153853 5:-0.70810413 6:-0.39439456 7:-0.49361192 8:0.22385034 9:-0.38506646 10:-0.45327793 11:-0.34570358 12:-0.089040665 13:6.794492 
1 1:2.1998115 2:-1.1786245 3:-1.6575827 4:-0.40805073 5:3.5504479 6:-0.39439456 7:1.2377153 8:-0.7663528 9:-0.38506646 10:-0.45327793 11:-0.34570358 12:-0.089040665 13:-0.37837233 
1 1:-0.4806336 2:0.1987149 3:0.34669535 4:-1.1750718 5:-0.72998989 6:-0.39439456 7:-1.3083541 8:-0.7663528 9:0.14747752 10:0.43109774 11:0.13476564 12:23.834471 13:4.1861777 
1 1:0.085396767 2:0.59671692 3:-0.99135087 4:5.9647141 5:-0.45189188 6:4.2376374 7:-0.69729748 8:-0.7663528 9:-0.38506646 10:-0.45327793 11:-0.34570358 12:-0.089040665 13:0.92578482 
1 1:0.5237134 2:0.62124644 3:2.1651558 4:0.47422014 5:-0.66332925 6:-0.39439456 7:0.62665864 8:-0.43628509 9:-0.38506646 10:-0.45327793 11:0.13476564 12:5.2272953 13:-0.37837233 
1 1:-0.82847025 2:-0.68222082 3:-1.3720776 4:-0.35757157 5:-0.63545084 6:0.96796778 7:-1.3083541 8:-0.7663528 9:-0.38506646 10:1.8460988 11:0.37500025 12:10.543631 13:-0.37837233 
1 1:0.17124663 2:0.53078499 3:0.022112672 4:4.3308937 5:-0.72681284 6:-0.39439456 7:-1.3083541 8:0.058816481 9:-0.38506646 10:-0.45327793 11:4.4589886 12:-0.089040665 13:-0.37837233 
1 1:0.52892226 2:0.5631129 3:-0.19911395 4:0.39056896 5:-0.70774978 6:0.42302284 7:-1.3083541 8:-0.43628509 9:-0.38506646 10:-0.45327793 11:0.13476564 12:-0.089040665 13:11.359042 
1 1:0.17124663 2:0.53078499 3:0.022112672 4:4.3308937 5:-0.72684153 6:-0.39439456 7:-1.3083541 8:0.058816481 9:-0.38506646 10:-0.45327793 11:4.4589886 12:-0.089040665 13:-0.37837233 
1 1:0.19902727 2:0.64662669 3:-0.96918036 4:6.2039984 5:-0.40100058 6:1.7853852 7:-0.086240807 8:-0.60131894 9:-0.38506646 10:-0.45327793 11:-0.34570358 12:-0.089040665 13:2.229942 
1 1:-1.4251751 2:-3.3577812 3:-1.4342826 4:1.5051751 5:-0.73142549 6:-0.39439456 7:-1.303262 8:0.14133341 9:4.7739534 10:-0.44885605 11:-0.33969771 12:-0.089040665 13:-0.36207037 
1 1:0.61650842 2:0.74105823 3:0.51736044 4:0.085268361 5:-0.55812318 6:0.42302284 7:-0.79914026 8:-0.60131894 9:-0.38506646 10:-0.45327793 11:-0.34570358 12:-0.089040665 13:10.054885 
1 1:-0.4806336 2:0.1987149 3:0.34669535 4:-1.1750718 5:-0.7274161 6:-0.39439456 7:-1.3083541 8:-0.7663528 9:0.41374952 10:0.2542226 11:0.37500025 12:15.859967 13:5.4903349 
1 1:0.19902727 2:0.64662669 3:-0.96918036 4:6.2039984 5:-0.43917045 6:3.6926925 7:-0.5954547 8:-0.7663528 9:-0.38506646 10:-0.45327793 11:-0.34570358 12:-0.089040665 13:1.5778634 
1 1:0.17124663 2:0.53078499 3:0.022112672 4:4.3308937 5:-0.72684153 6:-0.39439456 7:-1.3083541 8:0.058816481 9:-0.38506646 10:-0.45327793 11:4.4589886 12:-0.089040665 13:-0.37837233 
1 1:0.33137111 2:-0.62947527 3:-1.2540475 4:0.43409904 5:-0.71346342 6:-0.39439456 7:-1.3083541 8:-0.7663528 9:6.2717333 10:-0.45327793 11:-0.34570358 12:-0.089040665 13:-0.37837233 
1 1:0.35992342 2:0.50398685 3:0.14173774 4:-0.85679082 5:-0.72758983 6:-0.39439456 7:-1.3083541 8:-0.10621737 9:4.9403734 10:-0.45327793 11:-0.10546897 12:-0.089040665 13:-0.37837233 
1 1:-3.5482712 2:-3.5330326 3:-1.206357 4:1.0931471 5:-0.72051743 6:-0.39439456 7:-1.265071 8:3.186208 9:-0.38506646 10:-0.35157473 11:-0.34570358 12:-0.089040665 13:-0.36207037 
1 1:0.72068579 2:0.48385279 3:-0.0050023423 4:0.36342821 5:-0.61841977 6:-0.39439456 7:0.32113031 8:0.22385034 9:-0.38506646 10:-0.45327793 11:-0.34570358 12:7.8854632 13:-0.37837233 
1 1:0.15060408 2:0.64846994 3:0.27715331 4:3.4153853 5:-0.70810413 6:-0.39439456 7:-0.49361192 8:0.22385034 9:-0.38506646 10:-0.45327793 11:-0.34570358 12:-0.089040665 13:6.794492 
1 1:0.17124663 2:0.53078499 3:0.022112672 4:4.3308937 5:-0.72681284 6:-0.39439456 7:-1.3083541 8:0.058816481 9:-0.38506646 10:-0.45327793 11:4.4589886 12:-0.089040665 13:-0.37837233 
1 1:-4.5342907 2:-3.5287789 3:-0.92898634 4:-0.85731528 5:-0.72667714 6:-0.39439456 7:-1.3083541 8:-0.7663528 9:-0.38506646 10:3.9686004 11:-0.34570358 12:-0.089040665 13:-0.37837233 
1 1:-1.5173913 2:-1.7101918 3:-1.2234235 4:-1.0373358 5:2.2819152 6:-0.39439456 7:-0.28992636 8:-0.7663528 9:-0.38506646 10:-0.45327793 11:-0.34570358 12:39.783479 13:-0.37837233 
1 1:-0.38841734 2:-0.091952767 3:-0.012498846 4:-0.21373873 5:4.8239132 6:-0.39439456 7:1.2377153 8:-0.7663528 9:-0.38506646 10:-0.45327793 11:-0.34570358 12:-0.089040665 13:-0.37837233 
1 1:-3.0989581 2:-2.6340896 3:-1.7185118 4:-0.23248813 5:-0.60853638 6:0.69549531 7:-1.2065114 8:-0.7663528 9:-0.38506646 10:-0.45327793 11:-0.34570358 12:26.492639 13:6.1424134 
1 1:0.30127542 2:0.59756766 3:0.14221624 4:4.182013 5:-0.72327706 6:5.0550548 7:-1.3083541 8:-0.7663528 9:-0.38506646 10:-0.45327793 11:-0.34570358 12:-0.089040665 13:2.8820206 
1 1:0.37921553 2:0.38445863 3:1.0213807 4:-1.3883298 5:-0.48484114 6:-0.39439456 7:-1.2243339 8:-0.7663528 9:-0.38506646 10:3.7475065 11:-0.24360387 12:-0.089040665 13:-0.37837233 
1 1:0.70177953 2:0.78373675 3:1.8034096 4:0.27623693 5:2.9692541 6:-0.39439456 7:1.2377153 8:-0.7663528 9:-0.38506646 10:-0.45327793 11:-0.34570358 12:-0.089040665 13:-0.37837233 
1 1:0.58872779 2:-0.10655704 3:-0.98369487 4:-0.46246333 5:-0.72785734 6:-0.39439456 7:-1.3083541 8:-0.27125123 9:1.2125655 10:-0.099527664 11:-0.34570358 12:-0.089040665 13:8.7507278 
1 1:0.060895793 2:0.64336554 3:-0.37839204 4:3.7858499 5:-0.71432718 6:-0.39439456 7:-1.0028258 8:0.058816481 9:-0.38506646 10:-0.45327793 11:0.13476564 12:2.5691273 13:8.7507278 
1 1:0.5237134 2:0.62124644 3:2.1651558 4:0.47422014 5:-0.6160105 6:-0.39439456 7:0.32113031 8:0.22385034 9:-0.38506646 10:-0.45327793 11:-0.34570358 12:7.8854632 13:-0.37837233 
1 1:0.14076511 2:0.28095258 3:1.6620926 4:-1.0645421 5:-0.70898986 6:-0.39439456 7:-0.39176914 8:1.2140535 9:-0.38506646 10:-0.45327793 11:0.13476564 12:5.2272953 13:-0.37837233 
1 1:0.70177953 2:0.78373675 3:1.8034096 4:0.27623693 5:2.9886492 6:-0.39439456 7:1.2377153 8:-0.7663528 9:-0.38506646 10:-0.45327793 11:-0.34570358 12:-0.089040665 13:-0.37837233 
1 1:-4.6685638 2:-3.9381241 3:0.20537827 4:-1.3526011 5:-0.71512875 6:-0.39439456 7:-1.2065114 8:3.1944597 9:-0.38506646 10:-0.45327793 11:-0.34570358 12:-0.089040665 13:-0.37837233 
1 1:-3.6215812 2:-3.1994028 3:-0.28029949 4:-1.218733 5:-0.72430786 6:-0.39439456 7:-1.2065114 8:3.1944597 9:-0.38506646 10:-0.45327793 11:-0.34570358 12:-0.089040665 13:-0.37837233 
1 1:0.20616534 2:0.69752898 3:2.6659861 4:-1.5006951 5:-0.29943874 6:-0.39439456 7:-0.88825269 8:-0.25474784 9:0.60679671 10:0.97056689 11:0.44707063 12:7.0215586 13:-0.37837233 
1 1:-2.8273253 2:-3.6427773 3:-1.2878615 4:1.4127392 5:-0.66555842 6:-0.39439456 7:-0.90098303 8:-0.7663528 9:-0.38506646 10:-0.2764028 11:0.37500025 12:-0.089040665 13:10.706963 
1 1:0.5237134 2:0.62124644 3:2.1651558 4:0.47422014 5:-0.6160105 6:-0.39439456 7:0.32113031 8:0.22385034 9:-0.38506646 10:-0.45327793 11:-0.34570358 12:7.8854632 13:-0.37837233 
1 1:-0.32263126 2:-0.03906543 3:0.34844985 4:-1.1237404 5:-0.72990247 6:-0.39439456 7:-1.3083541 8:-0.7663528 9:-0.38506646 10:-0.45327793 11:5.6601616 12:-0.089040665 13:-0.37837233 
1 1:0.59721632 2:0.73113299 3:-0.15190192 4:0.19724032 5:-0.6165335 6:0.96796778 7:-0.90098303 8:-0.43628509 9:-0.38506646 10:-0.45327793 11:-0.34570358 12:-0.089040665 13:8.7507278 
1 1:0.70177953 2:0.78373675 3:1.8034096 4:0.27623693 5:2.9886492 6:-0.39439456 7:1.2377153 8:-0.7663528 9:-0.38506646 10:-0.45327793 11:-0.34570358 12:-0.089040665 13:-0.37837233 
1 1:0.16951035 2:0.42245811 3:-0.38700505 4:4.5590333 5:-0.64696115 6:-0.39439456 7:-0.69729748 8:2.3692905 9:-0.38506646 10:-0.45327793 11:-0.34570358 12:-0.089040665 13:-0.37837233 
1 1:-3.8280068 2:-3.831924 3:-1.2157675 4:1.0507315 5:-0.72951313 6:-0.39439456 7:-1.2854395 8:3.2893542 9:-0.36509606 10:-0.43116854 11:-0.34570358 12:-0.089040665 13:-0.37837233 
1 1:2.1998115 2:-1.1786245 3:-1.6575827 4:-0.40805073 5:3.9733112 6:-0.39439456 7:1.2377153 8:-0.7663528 9:-0.38506646 10:-0.45327793 11:-0.34570358 12:-0.089040665 13:-0.37837233 
1 1:-0.012028364 2:0.25188582 3:-0.96918036 4:1.5003894 5:-0.73025387 6:-0.39439456 7:-1.3083541 8:-0.7663528 9:-0.38506646 10:-0.45327793 11:5.6601616 12:-0.089040665 13:-0.37837233 
1 1:2.1998115 2:-1.1786245 3:-1.6575827 4:-0.40805073 5:3.5504479 6:-0.39439456 7:1.2377153 8:-0.7663528 9:-0.38506646 10:-0.45327793 11:-0.34570358 12:-0.089040665 13:-0.37837233 
1 1:-5.5938131 2:-4.2371573 3:-0.6648542 4:-1.0225198 5:-0.63174875 6:-0.39439456 7:-0.5954547 8:-0.7663528 9:4.1415574 10:-0.2764028 11:-0.34570358 12:-0.089040665 13:-0.37837233 
1 1:0.10835437 2:0.62890305 3:0.76681857 4:2.8795195 5:-0.71797505 6:-0.39439456 7:-0.5954547 8:0.22385034 9:-0.38506646 10:-0.45327793 11:-0.34570358 12:2.5691273 13:6.794492 
1 1:0.46988842 2:0.60295564 3:0.47668792 4:0.59333785 5:-0.70934612 6:-0.39439456 7:-0.28992636 8:-0.10621737 9:-0.38506646 10:-0.45327793 11:1.3359387 12:7.8854632 13:0.27370625 
1 1:0.89431474 2:0.70929747 3:-0.36068753 4:-0.031554844 5:-0.68397546 6:0.96796778 7:-0.49361192 8:-0.7663528 9:-0.38506646 10:-0.45327793 11:-0.34570358 12:-0.089040665 13:7.4465706 
1 1:-1.0327736 2:-0.61260236 3:-0.023823352 4:-1.3305083 5:-0.73173231 6:-0.39439456 7:-1.3083541 8:-0.7663528 9:-0.38506646 10:-0.45327793 11:5.6601616 12:-0.089040665 13:-0.37837233 
1 1:-0.64693154 2:-0.46726853 3:-1.144471 4:-0.055352164 5:-0.72830171 6:-0.39439456 7:-1.2065114 8:-0.7663528 9:1.4788375 10:1.6692237 11:0.13476564 12:7.8854632 13:-0.37837233 
1 1:-0.071448048 2:-0.1930484 3:-0.65241319 4:-1.2466604 5:-0.71821167 6:-0.39439456 7:-1.3083541 8:-0.10621737 9:5.2066454 10:-0.45327793 11:-0.34570358 12:-0.089040665 13:-0.37837233 
1 1:0.36725442 2:0.41097319 3:0.32452483 4:-1.3914766 5:-0.73187219 6:-0.39439456 7:-1.3083541 8:-0.7663528 9:-0.38506646 10:3.9243816 11:-0.34570358 12:-0.089040665 13:-0.21535269 
1 1:-2.5070763 2:-1.5430225 3:1.0580657 4:-1.5017441 5:-0.73189261 6:-0.39439456 7:-1.3083541 8:-0.27125123 9:-0.38506646 10:-0.45327793 11:4.9394578 12:-0.089040665 13:-0.37837233 
1 1:0.15060408 2:0.64846994 3:0.27715331 4:3.4153853 5:-0.70810413 6:-0.39439456 7:-0.49361192 8:0.22385034 9:-0.38506646 10:-0.45327793 11:-0.34570358 12:-0.089040665 13:6.794492 
1 1:-1.0345099 2:-0.46755211 3:0.19883877 4:-1.325067 5:-0.73174738 6:-0.39439456 7:-1.3083541 8:-0.7663528 9:-0.38506646 10:-0.45327793 11:5.6601616 12:-0.089040665 13:-0.37837233 
1 1:0.016909794 2:0.36545889 3:-0.38636705 4:5.5604875 5:-0.66846805 6:3.1477475 7:-1.1046686 8:0.55391805 9:-0.38506646 10:-0.45327793 11:-0.34570358 12:-0.089040665 13:0.92578482 
1 1:-1.0345099 2:-0.46755211 3:0.19883877 4:-1.325067 5:-0.73174738 6:-0.39439456 7:-1.3083541 8:-0.7663528 9:-0.38506646 10:-0.45327793 11:5.6601616 12:-0.089040665 13:-0.37837233 
0.15462095643236148 1:0.70177953 2:0.78373675 3:1.8034096 4:0.27623693 5:2.9161363 6:-0.39439456 7:1.2377153 8:-0.7663528 9:-0.38506646 10:-0.45327793 11:-0.34570358 12:-0.089040665 13:-0.37837233 
1 1:-5.0893246 2:-4.3108876 3:-1.4583671 4:0.40617161 5:-0.72877962 6:-0.39439456 7:-1.3083541 8:-0.60131894 9:2.5439255 10:1.6692237 11:-0.10546897 12:-0.089040665 13:-0.37837233 
1 1:0.13401287 2:0.73878961 3:0.77527208 4:-1.3710227 5:0.34243127 6:-0.39439456 7:0.015601971 8:-0.7663528 9:-0.38506646 10:-0.45327793 11:0.37500025 12:-0.089040665 13:5.4903349 
1 1:0.075943635 2:0.53603118 3:0.88612464 4:-1.3919355 5:-0.62985451 6:-0.39439456 7:-1.3083541 8:-0.7663528 9:-0.38506646 10:3.9686004 11:-0.34570358 12:-0.089040665 13:-0.37837233 
1 1:0.066104662 2:0.63485819 3:-0.21633996 4:3.1860657 5:-0.71800095 6:-0.39439456 7:-0.5954547 8:0.22385034 9:-0.38506646 10:-0.45327793 11:-0.34570358 12:2.5691273 13:6.794492 
1 1:0.59374374 2:0.64761921 3:0.67127802 4:0.17167295 5:-0.70298897 6:-0.39439456 7:-1.0028258 8:0.7189519 9:-0.38506646 10:-0.45327793 11:1.0957041 12:5.2272953 13:2.8820206 
1 1:-2.4009697 2:-1.5814473 3:1.2048058 4:-1.4321877 5:-0.73189261 6:-0.39439456 7:-1.3083541 8:-0.27125123 9:-0.38506646 10:-0.45327793 11:4.9394578 12:-0.089040665 13:-0.37837233 
1 1:0.11163403 2:0.65144752 3:-0.72195523 4:4.4985239 5:-0.71026724 6:0.69549531 7:-1.0028258 8:0.058816481 9:-0.38506646 10:-0.45327793 11:0.13476564 12:-0.089040665 13:6.794492 
1 1:-5.6343266 2:-4.498191 3:-0.79739877 4:-1.4868625 5:-0.73060018 6:-0.39439456 7:-1.3083541 8:-0.7663528 9:-0.11879447 10:3.6148501 11:-0.10546897 12:-0.089040665 13:-0.37837233 
1 1:0.7822276 2:0.038493211 3:-0.45590908 4:-0.3047979 5:4.4018423 6:-0.39439456 7:0.93218698 8:-0.7663528 9:-0.38506646 10:0.077347469 11:-0.34570358 12:-0.089040665 13:-0.37837233 
1 1:0.83585966 2:0.6907231 3:-0.26945348 4:0.12788064 5:-0.61733125 6:0.96796778 7:-0.90098303 8:-0.43628509 9:-0.38506646 10:-0.45327793 11:-0.34570358 12:-0.089040665 13:8.7507278 
1 1:0.89431474 2:0.70929747 3:-0.36068753 4:-0.031554844 5:-0.68397546 6:0.96796778 7:-0.49361192 8:-0.7663528 9:-0.38506646 10:-0.45327793 11:-0.34570358 12:-0.089040665 13:7.4465706 
1 1:0.64872624 2:0.81422141 3:2.0129927 4:0.26286323 5:-0.48255349 6:2.8752751 7:-0.90098303 8:-0.7663528 9:-0.38506646 10:-0.45327793 11:-0.34570358 12:-0.089040665 13:5.4903349 
1 1:-3.4020371 2:-3.1545975 3:-1.158507 4:-1.323887 5:-0.61706195 6:-0.39439456 7:-0.28992636 8:0.55391805 9:-0.38506646 10:-0.45327793 11:-0.34570358 12:-0.089040665 13:4.1861777 
1 1:0.23471766 2:0.43493555 3:-0.82084528 4:4.3932388 5:-0.73084234 6:-0.39439456 7:-1.3083541 8:-0.7663528 9:-0.38506646 10:-0.45327793 11:5.6601616 12:-0.089040665 13:-0.37837233 
1 1:-0.20552818 2:-0.54780474 3:-1.1074669 4:0.043639441 5:-0.7284869 6:-0.39439456 7:-1.2065114 8:-0.7663528 9:1.7451095 10:1.4923485 11:0.13476564 12:7.8854632 13:-0.37837233 
1 1:0.5237134 2:0.62124644 3:2.1651558 4:0.47422014 5:-0.59407356 6:-0.39439456 7:0.11744475 8:0.55391805 9:-0.38506646 10:-0.45327793 11:-0.34570358 12:7.8854632 13:-0.37837233 
1 1:-4.5805918 2:-4.258851 3:-1.0862534 4:-1.2929439 5:-0.592559 6:-0.39439456 7:-1.2065114 8:1.3790873 9:-0.11879447 10:-0.45327793 11:-0.34570358 12:-0.089040665 13:6.1424134 
1 1:0.22584329 2:0.58353053 3:-0.31379451 4:2.8525098 5:-0.71798541 6:-0.39439456 7:-0.5954547 8:0.22385034 9:-0.38506646 10:-0.45327793 11:-0.34570358 12:2.5691273 13:6.794492 
1 1:-1.4481327 2:-3.0106815 3:-1.6719377 4:-0.1679797 5:-0.61060616 6:0.42302284 7:-1.2065114 8:-0.7663528 9:4.9403734 10:-0.2764028 11:-0.34570358 12:-0.089040665 13:-0.37837233 
1 1:2.1998115 2:-1.1786245 3:-1.6575827 4:-0.40805073 5:5.6666205 6:-0.39439456 7:1.2377153 8:-0.7663528 9:-0.38506646 10:-0.45327793 11:-0.34570358 12:-0.089040665 13:-0.37837233 
1 1:0.47914863 2:-0.35979239 3:-1.2377785 4:-0.0400773 5:-0.67101052 6:-0.39439456 7:0.015601971 8:-0.7663528 9:-0.38506646 10:-0.45327793 11:-0.34570358 12:-0.089040665 13:7.4465706 
1 1:-2.5246321 2:-1.6024321 3:0.12738273 4:-1.5772661 5:-0.73182526 6:-0.39439456 7:-1.3083541 8:-0.7663528 9:-0.38506646 10:-0.45327793 11:5.6601616 12:-0.089040665 13:-0.37837233 
1 1:0.64544658 2:0.77352794 3:0.18528126 4:0.056685354 5:-0.66956326 6:1.5129127 7:-0.79914026 8:-0.7663528 9:-0.38506646 10:-0.45327793 11:-0.34570358 12:-0.089040665 13:8.0986492 
1 1:-3.8399679 2:-3.3352368 3:-1.0127239 4:-1.4418902 5:2.2018236 6:-0.39439456 7:1.2377153 8:-0.7663528 9:-0.38506646 10:-0.45327793 11:-0.34570358 12:-0.089040665 13:-0.37837233 
1 1:-5.0829582 2:-4.1201813 3:-0.24329547 4:-1.5126266 5:-0.72148077 6:-0.39439456 7:-1.3083541 8:-0.7663528 9:0.41374952 10:3.0842247 11:-0.10546897 12:-0.089040665 13:0.27370625 
1 1:0.15060408 2:0.64846994 3:0.27715331 4:3.4153853 5:-0.70810413 6:-0.39439456 7:-0.49361192 8:0.22385034 9:-0.38506646 10:-0.45327793 11:-0.34570358 12:-0.089040665 13:6.794492 
1 1:0.43477679 2:0.56765015 3:-0.12510591 4:3.6992486 5:-0.70166796 6:6.1176974 7:-1.3083541 8:-0.7663528 9:-0.38506646 10:-0.45327793 11:-0.34570358 12:2.8349441 13:-0.37837233 
1 1:-1.2984259 2:-1.2408699 3:-1.0458999 4:-0.36760184 5:-0.69372741 6:-0.39439456 7:-1.2065114 8:-0.7663528 9:-0.38506646 10:1.1385983 11:2.7773463 12:5.2272953 13:-0.37837233 
1 1:-1.6890911 2:-3.2782376 3:-1.311946 4:1.6622505 5:-0.73141935 6:-0.39439456 7:-1.3058081 8:-0.25887369 9:5.4130062 10:-0.44885605 11:-0.32768598 12:-0.089040665 13:-0.36207037 
1 1:-1.5008001 2:-0.67257916 3:0.94785117 4:-1.7405039 5:-0.73050078 6:-0.39439456 7:-1.3083541 8:-0.7663528 9:-0.38506646 10:3.9686004 11:-0.34570358 12:-0.089040665 13:-0.37837233 
1 1:0.15060408 2:0.64846994 3:0.27715331 4:3.4153853 5:-0.70810413 6:-0.39439456 7:-0.49361192 8:0.22385034 9:-0.38506646 10:-0.45327793 11:-0.34570358 12:-0.089040665 13:6.794492 
1 1:0.17124663 2:0.53078499 3:0.022112672 4:4.3308937 5:-0.72802502 6:-0.39439456 7:-1.3083541 8:-0.10621737 9:-0.38506646 10:-0.45327793 11:4.6992232 12:-0.089040665 13:-0.37837233 
1 1:-0.95502646 2:-0.56680448 3:0.77112507 4:-1.2766857 5:-0.72989082 6:-0.39439456 7:-1.2065114 8:-0.7663528 9:-0.38506646 10:-0.45327793 11:5.419927 12:-0.089040665 13:-0.37837233 
1 1:-0.12893852 2:-1.5224631 3:-0.74588024 4:0.48523378 5:-0.7285354 6:-0.39439456 7:-1.2956238 8:-0.53943125 9:5.4729174 10:-0.28966843 11:-0.32168012 12:-0.089040665 13:-0.068635007 
1 1:-2.4816107 2:-2.5281732 3:-1.2486245 4:1.5534253 5:-0.68322849 6:-0.39439456 7:-0.80677846 8:-0.10209153 9:-0.30518486 10:0.82906678 11:-0.34570358 12:-0.022586466 13:5.1479936 
1 1:0.15060408 2:0.64846994 3:0.27715331 4:3.4153853 5:-0.70810413 6:-0.39439456 7:-0.49361192 8:0.22385034 9:-0.38506646 10:-0.45327793 11:-0.34570358 12:-0.089040665 13:6.794492 
1 1:0.24011945 2:0.51844933 3:-0.26610398 4:4.5456596 5:-0.65884528 6:-0.39439456 7:-0.69729748 8:2.3692905 9:-0.38506646 10:-0.45327793 11:-0.34570358 12:-0.089040665 13:-0.37837233 
1 1:0.19651929 2:0.45109951 3:0.28417131 4:-0.74868674 5:-0.7302335 6:-0.39439456 7:-1.3083541 8:-0.7663528 9:-0.38506646 10:3.9686004 11:-0.34570358 12:-0.089040665 13:-0.37837233 
1 1:0.0078425041 2:0.20296857 3:-0.88974932 4:1.5015039 5:-0.73022072 6:-0.39439456 7:-1.3083541 8:-0.7663528 9:-0.38506646 10:-0.45327793 11:5.6601616 12:-0.089040665 13:-0.37837233 
1 1:0.20018479 2:0.64407448 3:0.83859361 4:-1.5788395 5:-0.64816633 6:-0.39439456 7:-1.3083541 8:3.3594936 9:-0.38506646 10:-0.45327793 11:-0.34570358 12:-0.089040665 13:-0.37837233 
1 1:0.85013581 2:0.67172336 3:-0.56229564 4:-0.033652679 5:-0.68273896 6:0.96796778 7:-0.49361192 8:-0.7663528 9:-0.38506646 10:-0.45327793 11:-0.34570358 12:-0.089040665 13:7.4465706 
1 1:-0.95502646 2:-0.56680448 3:0.77112507 4:-1.2766857 5:-0.72989082 6:-0.39439456 7:-1.2065114 8:-0.7663528 9:-0.38506646 10:-0.45327793 11:5.419927 12:-0.089040665 13:-0.37837233 
1 1:1.9146742 2:-0.77565984 3:-1.7092608 4:-0.74108209 5:-0.40251149 6:-0.39439456 7:-1.1454057 8:3.0913136 9:-0.37840966 10:-0.45327793 11:-0.34570358 12:-0.089040665 13:-0.37837233 
1 1:-4.8203927 2:-4.1605912 3:-0.49498661 4:-1.5283604 5:-0.69305029 6:-0.39439456 7:-1.1046686 8:3.0294259 9:-0.38506646 10:-0.45327793 11:-0.34570358 12:-0.089040665 13:-0.37837233 
1 1:0.62210313 2:0.75821471 3:-0.38365555 4:0.26345325 5:-0.55598479 6:0.42302284 7:-0.79914026 8:-0.60131894 9:-0.38506646 10:-0.45327793 11:-0.34570358 12:-0.089040665 13:10.054885 
1 1:-2.507848 2:-1.6534762 3:0.75198506 4:-1.5469131 5:-0.73189261 6:-0.39439456 7:-1.3083541 8:-0.7663528 9:-0.38506646 10:-0.45327793 11:5.6601616 12:-0.089040665 13:-0.37837233 
1 1:0.10835437 2:0.62890305 3:0.76681857 4:2.8795195 5:-0.71797505 6:-0.39439456 7:-0.5954547 8:0.22385034 9:-0.38506646 10:-0.45327793 11:-0.34570358 12:2.5691273 13:6.794492 
1 1:-1.1579794 2:-0.68491481 3:0.51831744 4:-1.4099638 5:-0.72655366 6:-0.39439456 7:-1.3083541 8:-0.7663528 9:-0.38506646 10:-0.45327793 11:5.6601616 12:-0.089040665 13:-0.37837233 
1 1:0.33600121 2:0.61160478 3:0.12403323 4:4.4667941 5:-0.7298522 6:5.3275273 7:-1.3083541 8:-0.7663528 9:-0.38506646 10:0.2542226 11:-0.34570358 12:-0.089040665 13:-0.37837233 
1 1:0.70177953 2:0.78373675 3:1.8034096 4:0.27623693 5:2.9692541 6:-0.39439456 7:1.2377153 8:-0.7663528 9:-0.38506646 10:-0.45327793 11:-0.34570358 12:-0.089040665 13:-0.37837233 
1 1:0.92441042 2:0.70802137 3:-0.88225281 4:0.10493557 5:-0.70337431 6:2.8752751 7:-1.1046686 8:-0.7663528 9:-0.38506646 10:-0.45327793 11:-0.34570358 12:-0.089040665 13:6.794492 
1 1:0.70274413 2:0.71737945 3:-0.14376742 4:0.06547004 5:-0.59118756 6:0.15055038 7:-0.28992636 8:-0.60131894 9:-0.38506646 10:-0.45327793 11:-0.34570358 12:-0.089040665 13:7.4465706 
0.99812779040169008 1:0.70177953 2:0.78373675 3:1.8034096 4:0.27623693 5:2.9161363 6:-0.39439456 7:1.2377153 8:-0.7663528 9:-0.38506646 10:-0.45327793 11:-0.34570358 12:-0.089040665 13:-0.37837233 
1 1:-0.24391947 2:0.018642736 3:-0.21665896 4:-1.1333773 5:-0.72996812 6:-0.39439456 7:-1.3083541 8:-0.7663528 9:-0.38506646 10:-0.45327793 11:5.6601616 12:-0.089040665 13:-0.37837233 
1 1:0.98247966 2:0.84470607 3:0.20474027 4:-0.41290197 5:4.2749615 6:-0.39439456 7:1.2377153 8:-0.7663528 9:-0.38506646 10:-0.45327793 11:-0.34570358 12:-0.089040665 13:-0.37837233 
1 1:0.25806111 2:0.68817089 3:-0.94254385 4:3.8782202 5:-0.72045602 6:-0.12192209 7:-1.2065114 8:-0.10621737 9:-0.38506646 10:-0.45327793 11:-0.34570358 12:2.5691273 13:11.359042 
1 1:-4.716987 2:-4.2701941 3:-0.95562285 4:-1.4650975 5:-0.73023852 6:-0.39439456 7:-1.3083541 8:-0.7663528 9:-0.11879447 10:3.0842247 11:0.61523486 12:-0.089040665 13:-0.37837233 
1 1:-0.66641657 2:-0.67357168 3:-1.8359038 4:3.8060415 5:-0.72197686 6:-0.39439456 7:-1.3083541 8:-0.7663528 9:-0.38506646 10:3.9686004 11:-0.34570358 12:-0.089040665 13:-0.37837233 
1 1:-5.98525 2:-4.7600755 3:-0.8489173 4:-1.6028335 5:-0.71161601 6:-0.39439456 7:-0.5954547 8:-0.7663528 9:0.41374952 10:2.1998491 11:-0.34570358 12:-0.089040665 13:-0.37837233 
1 1:0.86209692 2:0.71993165 3:0.34797135 4:-0.90064869 5:-0.73189261 6:-0.39439456 7:-1.3083541 8:-0.7663528 9:-0.38506646 10:3.9686004 11:-0.34570358 12:-0.089040665 13:-0.37837233 
1 1:0.13632792 2:-0.27642039 3:-1.0978969 4:-0.046436363 5:-0.70510166 6:-0.39439456 7:-1.3083541 8:-0.7663528 9:6.2717333 10:-0.45327793 11:-0.34570358 12:-0.089040665 13:-0.37837233 
1 1:-1.2984259 2:-1.2408699 3:-1.0458999 4:-0.36760184 5:-0.73149398 6:-0.39439456 7:-1.3083541 8:-0.7663528 9:-0.38506646 10:0.60797287 11:3.2578156 12:10.543631 13:-0.37837233 
1 1:-0.40674484 2:0.020911361 3:-0.75911875 4:2.7513548 5:-0.40340005 6:2.0578577 7:-1.3083541 8:-0.7663528 9:-0.38506646 10:-0.45327793 11:-0.34570358 12:42.441647 13:-0.37837233 
1 1:0.25806111 2:0.68817089 3:-0.94254385 4:3.8782202 5:-0.72528397 6:-0.12192209 7:-0.79914026 8:0.22385034 9:-0.38506646 10:-0.45327793 11:-0.34570358 12:-0.089040665 13:8.0986492 
1 1:0.70177953 2:0.78373675 3:1.8034096 4:0.27623693 5:2.9886492 6:-0.39439456 7:1.2377153 8:-0.7663528 9:-0.38506646 10:-0.45327793 11:-0.34570358 12:-0.089040665 13:-0.37837233 
1 1:0.70177953 2:0.78373675 3:1.8034096 4:0.27623693 5:-0.66071392 6:1.5129127 7:-0.79914026 8:-0.7663528 9:-0.38506646 10:-0.45327793 11:-0.34570358 12:-0.089040665 13:8.0986492 
1 1:0.11163403 2:0.65144752 3:-0.72195523 4:4.4985239 5:-0.70432564 6:-0.39439456 7:-0.5954547 8:0.38888419 9:-0.38506646 10:-0.45327793 11:-0.10546897 12:2.5691273 13:5.4903349 
1 1:0.64872624 2:0.81422141 3:2.0129927 4:0.26286323 5:-0.61565966 6:0.96796778 7:-0.90098303 8:-0.43628509 9:-0.38506646 10:-0.45327793 11:-0.34570358 12:-0.089040665 13:8.7507278 
1 1:0.70177953 2:0.78373675 3:1.8034096 4:0.27623693 5:2.9886492 6:-0.39439456 7:1.2377153 8:-0.7663528 9:-0.38506646 10:-0.45327793 11:-0.34570358 12:-0.089040665 13:-0.37837233 
1 1:0.31420113 2:0.54992652 3:-0.30837151 4:4.2714988 5:-0.72904117 6:5.5999997 7:-1.3083541 8:-0.60131894 9:-0.38506646 10:-0.2764028 11:-0.34570358 12:-0.089040665 13:0.27370625 
1 1:0.13787129 2:0.71085715 3:-0.83520029 4:6.1660407 5:-0.70162842 6:2.8752751 7:-1.1046686 8:0.22385034 9:-0.38506646 10:-0.45327793 11:-0.34570358 12:-0.089040665 13:2.8820206 
1 1:-3.4531612 2:-3.5737261 3:-1.18307 4:-0.19649715 5:-0.70697762 6:-0.39439456 7:-1.3083541 8:-0.7663528 9:-0.38506646 10:3.9686004 11:-0.34570358 12:-0.089040665 13:-0.37837233 
1 1:0.063789609 2:0.55857565 3:-0.99980438 4:6.5532225 5:-0.71816233 6:3.9651649 7:-1.3083541 8:-0.7663528 9:-0.38506646 10:-0.45327793 11:-0.34570358 12:-0.089040665 13:5.4903349 
1 1:-3.5174039 2:-3.6803515 3:-1.4054131 4:0.69593511 5:-0.73183812 6:-0.39439456 7:-1.3083541 8:-0.7663528 9:-0.38506646 10:3.7917253 11:-0.10546897 12:-0.089040665 13:-0.37837233 
1 1:0.70274413 2:0.71737945 3:-0.14376742 4:0.06547004 5:-0.61537759 6:0.96796778 7:-0.90098303 8:-0.43628509 9:-0.38506646 10:-0.45327793 11:-0.34570358 12:-0.089040665 13:8.7507278 
1 1:0.15060408 2:0.64846994 3:0.27715331 4:3.4153853 5:-0.71417753 6:-0.39439456 7:-1.0028258 8:0.058816481 9:-0.38506646 10:-0.45327793 11:0.13476564 12:2.5691273 13:8.7507278 
1 1:-2.5960129 2:-1.7294752 3:0.10664772 4:-1.4686376 5:-0.71072708 6:-0.39439456 7:-1.3083541 8:-0.7663528 9:4.6741014 10:0.43109774 11:-0.10546897 12:-0.089040665 13:-0.37837233 
1 1:0.17124663 2:0.53078499 3:0.022112672 4:4.3308937 5:-0.73073197 6:-0.39439456 7:-1.3083541 8:-0.7663528 9:-0.38506646 10:-0.45327793 11:5.6601616 12:-0.089040665 13:-0.37837233 
1 1:0.14076511 2:0.28095258 3:1.6620926 4:-1.0645421 5:-0.69455327 6:-0.39439456 7:-0.18808359 8:0.88398576 9:-0.38506646 10:-0.45327793 11:0.13476564 12:5.2272953 13:-0.37837233 
1 1:0.21195298 2:0.64492522 3:-0.82132378 4:3.1969482 5:-0.73089593 6:1.7853852 7:-1.2065114 8:-0.60131894 9:-0.38506646 10:-0.45327793 11:-0.34570358 12:2.5691273 13:8.7507278 
1 1:-3.4433222 2:-3.5700395 3:-1.2122585 4:-0.22422791 5:-0.71872863 6:-0.39439456 7:-1.3083541 8:-0.7663528 9:-0.38506646 10:3.9686004 11:-0.34570358 12:-0.089040665 13:-0.37837233 
1 1:0.15060408 2:0.64846994 3:0.27715331 4:3.4153853 5:-0.70810413 6:-0.39439456 7:-0.49361192 8:0.22385034 9:-0.38506646 10:-0.45327793 11:-0.34570358 12:-0.089040665 13:6.794492 
1 1:0.5237134 2:0.62124644 3:2.1651558 4:0.47422014 5:-0.67644836 6:-0.39439456 7:0.21928753 8:-0.10621737 9:-0.38506646 10:-0.45327793 11:0.61523486 12:5.2272953 13:-0.37837233 
1 1:-0.66275107 2:-0.98139583 3:-1.4279026 4:-0.43197916 5:-0.72808368 6:-0.39439456 7:-1.3007159 8:-0.66320664 9:5.486231 10:-0.077418272 11:-0.31567425 12:-0.089040665 13:-0.36207037 
1 1:0.31921708 2:0.63854471 3:-0.010106345 4:4.0949528 5:-0.72652245 6:6.0768266 7:-1.3058081 8:-0.71271679 9:-0.38506646 10:-0.33830909 11:-0.34570358 12:-0.089040665 13:-0.23165465 
1 1:0.85013581 2:0.67172336 3:-0.56229564 4:-0.033652679 5:-0.66925406 6:1.5129127 7:-0.79914026 8:-0.7663528 9:-0.38506646 10:-0.45327793 11:-0.34570358 12:-0.089040665 13:8.0986492 
1 1:0.26462042 2:0.61188836 3:-0.58957016 4:3.6669288 5:-0.7253071 6:-0.12192209 7:-0.79914026 8:0.22385034 9:-0.38506646 10:-0.45327793 11:-0.34570358 12:-0.089040665 13:8.0986492 
1 1:0.50403545 2:0.58154549 3:0.064539695 4:0.44917723 5:-0.61648867 6:-0.39439456 7:0.32113031 8:0.22385034 9:-0.38506646 10:-0.45327793 11:-0.34570358 12:7.8854632 13:-0.37837233 
1 1:0.14076511 2:0.28095258 3:1.6620926 4:-1.0645421 5:-0.69455327 6:-0.39439456 7:-0.18808359 8:0.88398576 9:-0.38506646 10:-0.45327793 11:0.13476564 12:5.2272953 13:-0.37837233 
1 1:-2.2059266 2:-1.1117 3:0.8137116 4:-1.3150367 5:-0.73189261 6:-0.39439456 7:-1.3083541 8:-0.7663528 9:-0.38506646 10:-0.45327793 11:5.6601616 12:-0.089040665 13:-0.37837233 
1 1:0.15060408 2:0.64846994 3:0.27715331 4:3.4153853 5:-0.70810413 6:-0.39439456 7:-0.49361192 8:0.22385034 9:-0.38506646 10:-0.45327793 11:-0.34570358 12:-0.089040665 13:6.794492 
1 1:-3.7344401 2:-2.4949945 3:-1.7585463 4:-0.044731872 5:-0.71572683 6:6.1449447 7:-1.3083541 8:-0.7663528 9:-0.38506646 10:-0.45327793 11:-0.34570358 12:-0.089040665 13:0.27370625 
1 1:-0.16925902 2:0.34135474 3:0.39566187 4:-0.88268597 5:-0.72989955 6:-0.39439456 7:-1.3083541 8:-0.7663528 9:0.14747752 10:0.43109774 11:0.13476564 12:23.834471 13:4.1861777 
1 1:0.722615 2:0.77296078 3:0.081765704 4:-0.1194017 5:-0.70335461 6:2.8752751 7:-1.1046686 8:-0.7663528 9:-0.38506646 10:-0.45327793 11:-0.34570358 12:-0.089040665 13:6.794492 
1 1:0.5237134 2:0.62124644 3:2.1651558 4:0.47422014 5:-0.70112268 6:-0.39439456 7:-1.1046686 8:1.2140535 9:-0.38506646 10:-0.45327793 11:1.3359387 12:5.2272953 13:0.92578482 
1 1:0.24166282 2:-1.0746931 3:-1.177966 4:0.42655995 5:-0.72306999 6:-0.39439456 7:-1.3083541 8:-0.60131894 9:6.0054613 10:-0.45327793 11:-0.34570358 12:-0.089040665 13:-0.37837233 
1 1:0.0068778988 2:0.68746195 3:-1.1237359 4:6.4759303 5:-0.61720843 6:1.5129127 7:-0.69729748 8:0.38888419 9:-0.38506646 10:-0.45327793 11:-0.34570358 12:-0.089040665 13:2.8820206 
1 1:-1.67713 2:-2.1952524 3:-1.25644 4:0.80076132 5:-0.69638879 6:-0.39439456 7:0.015601971 8:-0.7663528 9:1.7451095 10:-0.45327793 11:-0.34570358 12:10.543631 13:-0.37837233 
1 1:0.59374374 2:0.64761921 3:0.67127802 4:0.17167295 5:-0.61696683 6:-0.39439456 7:0.32113031 8:0.22385034 9:-0.38506646 10:-0.45327793 11:-0.34570358 12:7.8854632 13:-0.37837233 
1 1:-1.0784959 2:-0.60608007 3:-0.14727642 4:-0.36753628 5:4.9061113 6:-0.39439456 7:1.2377153 8:-0.7663528 9:-0.38506646 10:-0.45327793 11:-0.34570358 12:-0.089040665 13:-0.37837233 
1 1:-2.1449635 2:-3.6800679 3:-1.5350867 4:-0.39467703 5:-0.70179913 6:-0.39439456 7:-1.2065114 8:3.0294259 9:-0.38506646 10:-0.45327793 11:-0.34570358 12:2.5691273 13:-0.37837233 
1 1:0.23008756 2:0.59926912 3:-0.19624295 4:4.2972628 5:-0.72716684 6:-0.39439456 7:-1.3083541 8:0.058816481 9:-0.38506646 10:-0.45327793 11:4.4589886 12:-0.089040665 13:-0.37837233 
1 1:-2.2259904 2:-2.6149481 3:-1.4398651 4:-1.0863071 5:-0.72506682 6:-0.39439456 7:-1.2065114 8:0.55391805 9:-0.38506646 10:-0.45327793 11:-0.34570358 12:-0.089040665 13:10.054885 
1 1:-0.16559352 2:0.52638952 3:0.86523013 4:-1.7686936 5:-0.73188518 6:-0.39439456 7:-1.3083541 8:-0.7663528 9:-0.38506646 10:3.9243816 11:-0.34570358 12:-0.089040665 13:-0.21535269 
1 1:-4.3913362 2:-3.8968634 3:-0.62003467 4:-0.63448583 5:-0.72583127 6:-0.39439456 7:-1.3083541 8:-0.7663528 9:-0.38506646 10:3.7917253 11:-0.10546897 12:-0.089040665 13:-0.37837233 
1 1:0.70274413 2:0.71737945 3:-0.14376742 4:0.06547004 5:-0.55492457 6:0.42302284 7:-0.79914026 8:-0.60131894 9:-0.38506646 10:-0.45327793 11:-0.34570358 12:-0.089040665 13:10.054885 
1 1:-4.3278652 2:-4.23262 3:-1.4956901 4:0.3022632 5:-0.71962466 6:-0.39439456 7:-1.3083541 8:3.0294259 9:-0.38506646 10:-0.45327793 11:0.13476564 12:-0.089040665 13:-0.37837233 
1 1:0.59374374 2:0.64761921 3:0.67127802 4:0.17167295 5:-0.70942331 6:-0.39439456 7:-0.28992636 8:-0.10621737 9:-0.38506646 10:-0.45327793 11:1.3359387 12:7.8854632 13:0.27370625 
1 1:-0.84583315 2:-1.2407281 3:-1.280046 4:-0.1693564 5:4.3673518 6:-0.39439456 7:0.32113031 8:-0.7663528 9:-0.38506646 10:-0.45327793 11:-0.34570358 12:2.5691273 13:4.8382563 
1 1:-4.2713393 2:-4.1023158 3:-1.295358 4:-0.052533197 5:-0.7288422 6:-0.39439456 7:-1.3083541 8:-0.7663528 9:4.1415574 10:0.784848 11:-0.10546897 12:-0.089040665 13:-0.37837233 
1 1:0.86827039 2:0.1245592 3:-0.6736267 4:-0.083804055 5:5.6421558 6:-0.39439456 7:1.0340298 8:-0.7663528 9:-0.38506646 10:-0.45327793 11:-0.34570358 12:-0.089040665 13:0.92578482 
1 1:-2.4873984 2:-1.5496866 3:0.59073048 4:-1.5696615 5:-0.73189261 6:-0.39439456 7:-1.3083541 8:-0.7663528 9:-0.38506646 10:-0.45327793 11:5.6601616 12:-0.089040665 13:-0.37837233 
1 1:-1.5534676 2:-2.2569306 3:-1.2202335 4:0.81092271 5:-0.73021147 6:-0.39439456 7:-1.2930777 8:-0.4197817 9:5.2798702 10:-0.24987153 11:-0.30966839 12:-0.089040665 13:-0.28056055 
1 1:0.50403545 2:0.58154549 3:0.064539695 4:0.44917723 5:-0.66962636 6:-0.39439456 7:-0.18808359 8:0.88398576 9:-0.38506646 10:-0.45327793 11:-0.10546897 12:7.8854632 13:-0.37837233 
1 1:0.5237134 2:0.62124644 3:2.1651558 4:0.47422014 5:-0.62471092 6:-0.39439456 7:0.62665864 8:-0.27125123 9:-0.38506646 10:-0.45327793 11:-0.10546897 12:5.2272953 13:-0.37837233 
1 1:-2.7846897 2:-2.9049068 3:-1.2881805 4:-1.2614764 5:-0.61305935 6:-0.39439456 7:-0.28992636 8:0.55391805 9:-0.38506646 10:-0.45327793 11:-0.34570358 12:-0.089040665 13:4.1861777 
1 1:0.010157557 2:0.60508248 3:2.8269217 4:-1.5055464 5:-0.70811343 6:-0.39439456 7:-1.3083541 8:-0.43628509 9:2.8101974 10:-0.099527664 11:0.13476564 12:18.518135 13:-0.37837233 
1 1:2.1998115 2:-1.1786245 3:-1.6575827 4:-0.40805073 5:5.9527741 6:-0.39439456 7:1.2377153 8:-0.7663528 9:-0.38506646 10:-0.45327793 11:-0.34570358 12:-0.089040665 13:-0.37837233 
1 1:0.16951035 2:0.42245811 3:-0.38700505 4:4.5590333 5:-0.67460439 6:-0.39439456 7:-0.90098303 8:2.6993582 9:-0.38506646 10:-0.45327793 11:-0.34570358 12:-0.089040665 13:-0.37837233 
1 1:-0.19588213 2:-1.6303646 3:-0.81095628 4:0.51847136 5:-0.72942194 6:-0.39439456 7:-1.2981699 8:-0.5353054 9:5.5461422 10:-0.30293407 11:-0.32168012 12:-0.089040665 13:-0.19905072 
1 1:0.10835437 2:0.62890305 3:0.76681857 4:2.8795195 5:-0.71797505 6:-0.39439456 7:-0.5954547 8:0.22385034 9:-0.38506646 10:-0.45327793 11:-0.34570358 12:2.5691273 13:6.794492 
1 1:0.5237134 2:0.62124644 3:2.1651558 4:0.47422014 5:-0.67644836 6:-0.39439456 7:0.21928753 8:-0.10621737 9:-0.38506646 10:-0.45327793 11:0.61523486 12:5.2272953 13:-0.37837233 
1 1:0.060895793 2:0.64336554 3:-0.37839204 4:3.7858499 5:-0.72048645 6:-0.12192209 7:-1.2065114 8:-0.10621737 9:-0.38506646 10:-0.45327793 11:-0.34570358 12:2.5691273 13:11.359042 
1 1:0.10835437 2:0.62890305 3:0.76681857 4:2.8795195 5:-0.71797505 6:-0.39439456 7:-0.5954547 8:0.22385034 9:-0.38506646 10:-0.45327793 11:-0.34570358 12:2.5691273 13:6.794492 
1 1:-4.7368578 2:-4.0563762 3:-1.4483186 4:0.43010004 5:-0.72428761 6:-0.39439456 7:-1.3083541 8:3.3594936 9:-0.38506646 10:-0.45327793 11:-0.34570358 12:-0.089040665 13:-0.37837233 
1 1:0.17124663 2:0.53078499 3:0.022112672 4:4.3308937 5:-0.72802502 6:-0.39439456 7:-1.3083541 8:-0.10621737 9:-0.38506646 10:-0.45327793 11:4.6992232 12:-0.089040665 13:-0.37837233 
1 1:0.17124663 2:0.53078499 3:0.022112672 4:4.3308937 5:-0.72681284 6:-0.39439456 7:-1.3083541 8:0.058816481 9:-0.38506646 10:-0.45327793 11:4.4589886 12:-0.089040665 13:-0.37837233 
1 1:0.76486471 2:0.59870197 3:0.034075179 4:-0.63979598 5:-0.72534203 6:-0.39439456 7:-1.3007159 8:-0.7663528 9:4.6341606 10:0.55933221 11:-0.32168012 12:0.11032193 13:-0.24795662 
1 1:-0.017430154 2:0.28974351 3:0.62071649 4:4.2977217 5:-0.67473812 6:-0.39439456 7:-0.90098303 8:2.6993582 9:-0.38506646 10:-0.45327793 11:-0.34570358 12:-0.089040665 13:-0.37837233 
1 1:0.13787129 2:0.71085715 3:-0.83520029 4:6.1660407 5:-0.65366207 6:2.8752751 7:-1.0028258 8:0.38888419 9:-0.38506646 10:-0.45327793 11:-0.34570358 12:-0.089040665 13:1.5778634 
1 1:-1.0858269 2:-0.52015587 3:-0.6752217 4:-0.92785499 5:3.6342309 6:-0.39439456 7:1.2377153 8:-0.7663528 9:-0.38506646 10:-0.45327793 11:-0.34570358 12:-0.089040665 13:-0.37837233 
1 1:0.5237134 2:0.62124644 3:2.1651558 4:0.47422014 5:-0.68934731 6:-0.39439456 7:-0.5954547 8:1.8741889 9:-0.38506646 10:-0.45327793 11:-0.34570358 12:5.2272953 13:-0.37837233 
1 1:-2.5246321 2:-1.6024321 3:0.12738273 4:-1.5772661 5:-0.73182526 6:-0.39439456 7:-1.3083541 8:-0.7663528 9:-0.38506646 10:-0.45327793 11:5.6601616 12:-0.089040665 13:-0.37837233 
1 1:-3.4531612 2:-3.5737261 3:-1.18307 4:-0.19649715 5:-0.73091613 6:-0.39439456 7:-1.3083541 8:-0.7663528 9:-0.38506646 10:3.2610999 11:-0.34570358 12:10.543631 13:-0.37837233 
1 1:-2.507848 2:-1.6534762 3:0.75198506 4:-1.5469131 5:-0.73189261 6:-0.39439456 7:-1.3083541 8:-0.60131894 9:-0.38506646 10:-0.45327793 11:5.419927 12:-0.089040665 13:-0.37837233 
1 1:-2.9010211 2:-1.8932416 3:1.0221782 4:-1.1789397 5:-0.71673479 6:-0.39439456 7:-0.69729748 8:0.38888419 9:-0.38506646 10:-0.45327793 11:1.5761733 12:10.543631 13:-0.37837233 
1 1:0.64544658 2:0.77352794 3:0.18528126 4:0.056685354 5:-0.70338417 6:2.8752751 7:-1.1046686 8:-0.7663528 9:-0.38506646 10:-0.45327793 11:-0.34570358 12:-0.089040665 13:6.794492 
1 1:-0.45439634 2:-4.3111712 3:-1.6462582 4:0.75192109 5:-0.73101678 6:-0.39439456 7:-1.3007159 8:-0.65495494 9:1.3856423 10:-0.41348103 11:3.1977569 12:6.5563792 13:-0.29686251 
1 1:0.66628205 2:-0.69484005 3:-1.4023826 4:0.67836574 5:-0.71051209 6:-0.39439456 7:-1.2065114 8:-0.7663528 9:6.0054613 10:-0.45327793 11:-0.34570358 12:-0.089040665 13:-0.37837233 
1 1:0.20018479 2:0.64407448 3:0.83859361 4:-1.5788395 5:-0.66573627 6:-0.39439456 7:-1.3083541 8:3.3594936 9:-0.38506646 10:-0.45327793 11:-0.34570358 12:-0.089040665 13:-0.37837233 
0.96143976463862868 1:0.15060408 2:0.64846994 3:0.27715331 4:3.4153853 5:-0.70810413 6:-0.39439456 7:-0.49361192 8:0.22385034 9:-0.38506646 10:-0.45327793 11:-0.34570358 12:-0.089040665 13:6.794492 
1 1:0.13169782 2:-0.4026127 3:-0.81143478 4:-0.30453567 5:-0.731794 6:-0.39439456 7:-1.3083541 8:-0.74159772 9:5.486231 10:-0.28966843 11:0.10473631 12:-0.089040665 13:-0.37837233 
1 1:-0.18449978 2:-0.098616855 3:-0.13802541 4:-1.1752684 5:-0.72986701 6:-0.39439456 7:-1.3083541 8:-0.7663528 9:-0.38506646 10:-0.45327793 11:5.6601616 12:-0.089040665 13:-0.37837233 
1 1:1.1115438 2:1.1447318 3:-0.56373114 4:-0.16516073 5:5.3156672 6:-0.39439456 7:1.1358725 8:-0.7663528 9:-0.38506646 10:-0.45327793 11:-0.34570358 12:-0.089040665 13:0.27370625 
1 1:-0.30333915 2:-0.0075882488 3:-0.14727642 4:3.6141552 5:-0.73189261 6:-0.39439456 7:-1.3083541 8:-0.60131894 9:-0.38506646 10:3.6148501 11:-0.10546897 12:-0.089040665 13:-0.37837233 
1 1:0.4723964 2:0.60692574 3:0.57254747 4:0.35647913 5:-0.70919175 6:-0.39439456 7:-0.28992636 8:-0.10621737 9:-0.38506646 10:-0.45327793 11:1.3359387 12:7.8854632 13:0.27370625 
1 1:0.5127169 2:-0.80245798 3:-1.3586796 4:0.98563306 5:-0.69345815 6:-0.39439456 7:-1.2065114 8:-0.7663528 9:6.0054613 10:-0.45327793 11:-0.34570358 12:-0.089040665 13:-0.37837233 
1 1:-4.6251565 2:-3.6090315 3:-1.235386 4:1.8332241 5:-0.45146921 6:-0.39439456 7:0.93218698 8:-0.7663528 9:-0.38506646 10:-0.099527664 11:-0.34570358 12:-0.089040665 13:0.27370625 
1 1:0.13285535 2:-1.1423265 3:-1.196149 4:0.33648414 5:-0.69714306 6:-0.39439456 7:-1.1046686 8:-0.7663528 9:5.7391894 10:-0.45327793 11:-0.34570358 12:-0.089040665 13:-0.37837233 
1 1:0.016909794 2:0.36545889 3:-0.38636705 4:5.5604875 5:-0.71303777 6:4.7825823 7:-1.2065114 8:-0.7663528 9:-0.38506646 10:-0.45327793 11:-0.34570358 12:-0.089040665 13:2.8820206 
1 1:0.15870677 2:0.43238335 3:-0.58095715 4:4.2648119 5:-0.73072589 6:-0.39439456 7:-1.3083541 8:-0.7663528 9:-0.38506646 10:-0.45327793 11:5.6601616 12:-0.089040665 13:-0.37837233 
1 1:0.69849987 2:0.79805745 3:0.35849835 4:-0.04230625 5:-0.71499777 6:3.42022 7:-1.3083541 8:-0.7663528 9:-0.38506646 10:-0.45327793 11:-0.34570358 12:-0.089040665 13:6.794492 
1 1:-2.7978865 2:-2.1124757 3:-1.4168354 4:-0.082950358 5:-0.70317674 6:6.0291439 7:-1.191235 8:-0.7663528 9:-0.38506646 10:-0.43116854 11:-0.32768598 12:-0.089040665 13:-0.32946644 
1 1:-4.9844853 2:-3.8975718 3:-1.5119265 4:-1.2028459 5:-0.68587455 6:-0.39439456 7:-1.1428596 8:-0.19286015 9:-0.38506646 10:3.0090528 11:-0.27963906 12:-0.089040665 13:-0.3457684 
1 1:-5.1853652 2:-4.7805447 3:-1.6346548 4:-1.1552432 5:-0.72295847 6:-0.39439456 7:-1.267617 8:3.0500551 9:-0.33181206 10:-0.39137163 11:-0.15351589 12:-0.089040665 13:-0.29686251 
0.79015927994385071 1:-2.4875912 2:-1.9667954 3:-1.6983611 4:0.94851102 5:-0.71982825 6:5.5999997 7:-1.2472485 8:-0.7581011 9:0.047625526 10:-0.41348103 11:-0.26162147 12:-0.089040665 13:-0.28056055 
1 1:-3.2970944 2:-2.8059958 3:-1.0701981 4:-0.71081413 5:-0.7005893 6:5.048243 7:-1.1097607 8:-0.75397526 9:-0.33181206 10:-0.072996394 11:-0.19555695 12:-0.089040665 13:-0.37837233 
1 1:-2.4098972 2:-2.3171675 3:-1.1798105 4:0.47657284 5:-0.71840016 6:6.131321 7:-1.265071 8:-0.7663528 9:-0.38506646 10:-0.35157473 11:-0.33969771 12:-0.089040665 13:-0.36207037 
1 1:-2.3825433 2:-2.0866781 3:-0.71325543 4:0.11011378 5:-0.66727036 6:5.7907305 7:-1.1250371 8:-0.7663528 9:-0.38506646 10:-0.40905915 11:-0.32168012 12:0.11032193 13:-0.3457684 
1 1:-1.7747748 2:-1.8712355 3:-0.6345594 4:0.20737111 5:-0.73107986 6:6.3629226 7:-1.303262 8:-0.7663528 9:-0.38506646 10:-0.4400123 11:-0.33969771 12:-0.089040665 13:-0.3457684 
1 1:-5.3067479 2:-3.858587 3:-1.2261849 4:-1.3868962 5:-0.70314262 6:-0.39439456 7:-1.1097607 8:-0.34964231 9:-0.37175286 10:3.0267403 11:-0.15351589 12:-0.089040665 13:-0.37837233 
1 1:-5.7890867 2:-4.5211799 3:-1.8702744 4:-0.74728563 5:-0.68934484 6:-0.28540557 7:-1.1606821 8:1.8288046 9:0.7998439 10:-0.33830909 11:-0.26162147 12:1.7052227 13:0.48563178 
1 1:-5.6702684 2:-4.4391066 3:-2.0281349 4:-0.70747989 5:-0.71965781 6:1.6014663 7:-1.2472485 8:0.15371095 9:1.3590151 10:-0.36926224 11:0.68730524 12:0.043867733 13:-0.29686251 
1 1:-2.8671259 2:-2.6692068 3:-1.6608868 4:0.48089593 5:-0.72795965 6:6.0018966 7:-1.265071 8:-0.72509433 9:-0.35843926 10:-0.38694976 11:-0.26162147 12:-0.089040665 13:-0.3457684 
1 1:-3.4339571 2:-5.0803049 3:-1.6491761 4:-1.2297393 5:-0.67817763 6:-0.39439456 7:-1.1250371 8:-0.73747187 9:1.7650799 10:1.7134425 11:-0.15952176 12:5.0279327 13:-0.37837233 
1 1:-5.2229367 2:-4.7157516 3:-1.331113 4:-0.6530205 5:-0.73093374 6:6.2743691 7:-1.303262 8:-0.7581011 9:-0.34512566 10:-0.45327793 11:-0.30366252 12:-0.089040665 13:-0.32946644 
1 1:-4.5195633 2:-4.4004637 3:-1.1868369 4:-0.69667065 5:-0.71910787 6:-0.39439456 7:-1.2727092 8:2.5838345 9:-0.25193046 10:0.015441173 11:-0.051416184 12:-0.089040665 13:-0.37837233 
1 1:-5.8105905 2:-5.8589975 3:-1.5597062 4:-1.0996547 5:-0.66808679 6:-0.39439456 7:-0.92389766 8:1.3254513 9:0.080909525 10:0.29844139 11:0.25488294 12:-0.022586466 13:-0.3457684 
1 1:-0.11011642 2:-4.6060105 3:-1.9611496 4:-0.42662615 5:-0.21419382 6:-0.39439456 7:-0.36630845 8:1.7132809 9:-0.21864647 10:-0.45327793 11:-0.32768598 12:-0.089040665 13:-0.37837233 
1 1:0.97475512 2:-2.8479195 3:-2.0435931 4:0.89500321 5:-0.72549115 6:4.8438886 7:-1.2217878 8:-0.6508291 9:0.61345351 10:-0.41348103 11:-0.34570358 12:-0.089040665 13:-0.23165465 
1 1:-2.7627459 2:-1.9308456 3:-0.70763429 4:-1.086138 5:-0.71473102 6:5.5523171 7:-1.2701631 8:-0.67558418 9:-0.38506646 10:-0.34715285 11:-0.003369262 12:0.043867733 13:-0.26425858 
1 1:-0.91009649 2:-0.95270819 3:-2.0337561 4:-0.71199955 5:-0.72146356 6:6.2471218 7:-1.3007159 8:-0.7663528 9:-0.34512566 10:-0.41348103 11:-0.34570358 12:-0.089040665 13:-0.28056055 
1 1:-4.9303519 2:-3.5326445 3:-0.97885453 4:-1.5731616 5:-0.70682973 6:-0.39439456 7:-1.1504978 8:-0.60544479 9:-0.38506646 10:3.4866157 11:-0.29765666 12:-0.089040665 13:-0.37837233 
1 1:-1.7676692 2:-2.615827 3:-1.9887869 4:-0.90767539 5:-0.70323438 6:6.0291439 7:-1.2014192 8:-0.7663528 9:-0.35843926 10:-0.43116854 11:-0.32768598 12:-0.089040665 13:-0.32946644 
1 1:-1.0165602 2:-1.3253727 3:-1.705856 4:0.13721854 5:-0.71819191 6:6.131321 7:-1.2727092 8:-0.7663528 9:-0.38506646 10:-0.33830909 11:-0.33969771 12:-0.089040665 13:-0.36207037 
1 1:-0.89832952 2:-1.7629478 3:-1.741925 4:-0.40456363 5:-0.72793819 6:6.0018966 7:-1.265071 8:-0.72509433 9:-0.35843926 10:-0.38694976 11:-0.26162147 12:-0.089040665 13:-0.3457684 
1 1:-5.6007084 2:-4.5551421 3:-1.3840454 4:0.63453705 5:-0.70906853 6:3.1409357 7:-1.1479518 8:-0.67145833 9:-0.38506646 10:1.2314577 11:-0.30366252 12:-0.089040665 13:-0.28056055 
1 1:-0.47119266 2:-1.1940552 3:-1.8997855 4:-0.66341036 5:-0.73093374 6:6.2743691 7:-1.303262 8:-0.7581011 9:-0.34512566 10:-0.45327793 11:-0.30366252 12:-0.089040665 13:-0.32946644 
1 1:-5.468881 2:-4.1666614 3:-1.1980792 4:-1.4672865 5:-0.72897084 6:-0.39439456 7:-1.2930777 8:-0.58481556 9:-0.17870567 10:3.4423969 11:-0.12348657 12:-0.089040665 13:-0.37837233 
0.60973266412019855 1:-1.67535 2:-1.6412056 3:-1.4257356 4:-0.19035128 5:-0.6661899 6:5.7907305 7:-1.1250371 8:-0.76222695 9:-0.38506646 10:-0.40905915 11:-0.32768598 12:0.11032193 13:-0.3457684 
1 1:-4.8132433 2:-4.357482 3:-1.4608677 4:-1.1435058 5:-0.72301958 6:-0.39439456 7:-1.267617 8:3.0500551 9:-0.33181206 10:-0.38694976 11:-0.15952176 12:-0.089040665 13:-0.29686251 
1 1:-0.35874534 2:-4.3498624 3:-1.938665 4:-1.0628646 5:-0.67820644 6:-0.39439456 7:-1.1250371 8:-0.73334603 9:1.7317959 10:1.6780674 11:-0.051416184 12:4.6292075 13:-0.37837233 
1 1:-1.047173 2:-5.1268986 3:-2.0197032 4:-0.38266642 5:-0.20536595 6:-0.39439456 7:-0.35103203 8:1.6431415 9:-0.16539207 10:-0.45327793 11:-0.30366252 12:-0.089040665 13:-0.37837233 
1 1:-3.5356793 2:-3.1543161 3:-1.8332686 4:-0.081163212 5:-0.72905238 6:5.3139036 7:-1.2956238 8:-0.43628509 9:0.0010279277 10:-0.42232478 11:-0.32168012 12:-0.089040665 13:-0.26425858 
1 1:-4.446357 2:-3.7073924 3:-1.699298 4:1.3255126 5:-0.70329201 6:6.0291439 7:-1.2090574 8:-0.7663528 9:-0.34512566 10:-0.43116854 11:-0.32168012 12:-0.089040665 13:-0.32946644 
1 1:-3.2389006 2:-2.4916162 3:-1.396693 4:-0.33569306 5:-0.71798366 6:6.131321 7:-1.265071 8:-0.7663528 9:-0.38506646 10:-0.35157473 11:-0.33969771 12:-0.089040665 13:-0.36207037 
1 1:-4.1996915 2:-4.6352919 3:-1.8496636 4:0.71902286 5:-0.70901662 6:3.3861609 7:-1.1963271 8:-0.63432571 9:0.18076152 10:0.63450414 11:-0.24360387 12:-0.089040665 13:-0.019729114 
1 1:-4.4245193 2:-4.5078858 3:-1.5793802 4:-1.0630712 5:-0.72308068 6:-0.39439456 7:-1.267617 8:3.0129225 9:-0.30518486 10:-0.35157473 11:-0.17753935 12:-0.089040665 13:-0.29686251 
1 1:-2.5935206 2:-2.456735 3:-1.8051628 4:-0.17175085 5:-0.72791673 6:6.0018966 7:-1.265071 8:-0.72509433 9:-0.35843926 10:-0.38694976 11:-0.26162147 12:-0.089040665 13:-0.3457684 
1 1:-2.4231467 2:-2.1414365 3:-1.2154111 4:0.045259335 5:-0.66510943 6:5.7907305 7:-1.1326754 8:-0.75397526 9:-0.38506646 10:-0.40463727 11:-0.32768598 12:0.11032193 13:-0.3457684 
1 1:-9.7149794 2:-7.8433354 3:-1.9138383 4:-0.29910895 5:-0.72086191 6:-0.39439456 7:-1.2778013 8:2.6622256 9:-0.37840966 10:0.041972443 11:-0.09345724 12:-0.089040665 13:-0.36207037 
1 1:-5.3365994 2:-6.0453939 3:-1.9227385 4:-0.60961402 5:-0.73085465 6:-0.39439456 7:-1.2625249 8:-0.26299954 9:1.8715887 10:1.0590045 11:0.71733456 12:-0.089040665 13:-0.3457684 
1 1:-0.3279589 2:-5.6908646 3:-1.9531863 4:-0.93243335 5:-0.67823526 6:-0.39439456 7:-1.1250371 8:-0.72509433 9:1.5920031 10:1.7399737 11:-0.033398588 12:4.7621159 13:-0.37837233 
1 1:-6.6358942 2:-5.0579698 3:-1.2524169 4:-0.98585319 5:-0.68146113 6:0.25953936 7:-0.95954263 8:1.1109073 9:-0.052226471 10:0.34266017 11:0.068701121 12:-0.089040665 13:-0.15014483 
1 1:-6.823952 2:-6.3184802 3:-1.9822289 4:0.028167327 5:-0.71152089 6:0.66143625 7:-1.1275832 8:1.1645433 9:-0.36509606 10:0.70525419 11:-0.16552762 12:-0.089040665 13:-0.21535269 
1 1:-5.4177928 2:-5.836983 3:-1.853411 4:-0.92922234 5:-0.72138427 6:-0.39439456 7:-1.2472485 8:0.96237684 9:0.8797255 10:0.24095697 11:0.87348706 12:0.30968453 13:-0.37837233 
1 1:-2.2594643 2:-2.1382091 3:-1.5170792 4:0.0071363433 5:-0.62414751 6:-0.39439456 7:-0.25682746 8:-0.64670325 9:-0.38506646 10:-0.11721518 11:-0.34570358 12:-0.089040665 13:7.4791745 
1 1:-6.5389269 2:-6.7495792 3:-1.8079734 4:-0.72838163 5:-0.71018415 6:-0.39439456 7:-1.2192417 8:0.37238081 9:0.35383832 10:1.7090206 11:0.17680669 12:-0.089040665 13:-0.36207037 
1 1:-7.1369052 2:-6.0806598 3:-1.4995131 4:0.063368647 5:-0.7142101 6:-0.39439456 7:-1.0384708 8:-0.52705371 9:-0.018942472 10:1.8151457 11:1.2578624 12:-0.089040665 13:-0.37837233 
1 1:-4.3582183 2:-4.9765911 3:-1.4027826 4:-0.50284167 5:-0.71932919 6:-0.39439456 7:-1.267617 8:2.5590794 9:-0.23861687 10:0.019863051 11:-0.051416184 12:-0.089040665 13:-0.37837233 
1 1:-0.83811899 2:-0.95323183 3:-1.5976489 4:1.0330609 5:-0.72966771 6:6.3220518 7:-1.2981699 8:-0.7663528 9:-0.35843926 10:-0.45327793 11:-0.32168012 12:-0.089040665 13:-0.36207037 
1 1:-5.1290414 2:-3.7562731 3:0.15193247 4:-1.1186317 5:-0.62777455 6:3.9106704 7:-0.99009547 8:-0.70033925 9:-0.37175286 10:0.51511342 11:-0.32168012 12:-0.089040665 13:-0.32946644 
1 1:-2.4483635 2:-2.4601975 3:-1.4470491 4:1.2649937 5:-0.7294985 6:5.7158005 7:-1.2956238 8:-0.72096849 9:-0.26524406 10:-0.41348103 11:-0.19555695 12:-0.022586466 13:0.15959249 
1 1:-2.9441522 2:-2.4718246 3:-1.3076915 4:1.5280399 5:-0.71223657 6:1.6900198 7:-1.2447024 8:-0.50642447 9:2.4174463 10:-0.4179029 11:0.26689467 12:4.5627533 13:-0.31316447 
1 1:-2.8108021 2:-2.5518461 3:-0.98002561 4:1.0062564 5:-0.72789527 6:6.0018966 7:-1.265071 8:-0.72509433 9:-0.35843926 10:-0.38252788 11:-0.2736332 12:-0.089040665 13:-0.3457684 
1 1:-0.44882073 2:-0.56098944 3:-1.3137811 4:-0.2930482 5:-0.66402916 6:5.7907305 7:-1.1326754 8:-0.75397526 9:-0.37840966 10:-0.40905915 11:-0.32768598 12:0.11032193 13:-0.3457684 
1 1:-0.61294386 2:-1.6730838 3:-2.0384404 4:-1.1466146 5:-0.70334964 6:6.0291439 7:-1.2192417 8:-0.7663528 9:-0.33181206 10:-0.43116854 11:-0.31567425 12:-0.089040665 13:-0.32946644 
1 1:-0.72577852 2:-1.3208522 3:-1.7967311 4:1.6615367 5:-0.73122128 6:5.9337785 7:-1.303262 8:-0.7663528 9:-0.38506646 10:-0.18354335 11:-0.32768598 12:-0.089040665 13:-0.31316447 
1 1:-2.7853716 2:-1.919646 3:-1.4280777 4:-1.4870121 5:-0.71777542 6:6.131321 7:-1.2727092 8:-0.7663528 9:-0.38506646 10:-0.33830909 11:-0.33969771 12:-0.089040665 13:-0.36207037 
1 1:-5.1290414 2:-3.7562731 3:0.15193247 4:-1.1186317 5:-0.70287797 6:-0.39439456 7:-1.1173989 8:-0.37439739 9:-0.38506646 10:3.1240216 11:-0.21357454 12:-0.089040665 13:-0.37837233 
1 1:0.61797964 2:0.51622376 3:-1.5222319 4:2.7760975 5:-0.73079743 6:5.8179777 7:-1.2854395 8:-0.7663528 9:-0.38506646 10:-0.18796523 11:-0.28564493 12:-0.089040665 13:-0.24795662 
1 1:-1.3809221 2:-1.0783937 3:-1.3062862 4:-0.2747836 5:-0.72121791 6:6.2811809 7:-1.2803474 8:-0.7663528 9:-0.37840966 10:-0.44885605 11:-0.32168012 12:-0.089040665 13:-0.3457684 
1 1:-3.0866113 2:-3.2612466 3:-1.7873626 4:-0.13965675 5:-0.5827969 6:5.7089887 7:-1.0690236 8:-0.7581011 9:-0.38506646 10:-0.44885605 11:-0.34570358 12:-0.089040665 13:-0.26425858 
1 1:0.63781385 2:0.87199265 3:1.9848942 4:0.9318935 5:-0.28455336 6:4.7280878 7:-1.1021225 8:-0.74159772 9:-0.38506646 10:-0.45327793 11:0.35698265 12:-0.089040665 13:0.3389141 
0.49569643037132849 1:-3.8294127 2:-4.7609774 3:-1.7541041 4:-1.6887194 5:-0.6746963 6:-0.39439456 7:-0.92135159 8:-0.61782233 9:-0.15207847 10:2.6818338 11:0.020654199 12:-0.089040665 13:-0.28056055 
1 1:-5.024274 2:-3.8053141 3:-0.88423193 4:0.30139118 5:-0.70956902 6:-0.39439456 7:-1.229426 8:2.8355111 9:0.25398632 10:-0.45327793 11:-0.34570358 12:-0.089040665 13:-0.37837233 
1 1:-1.3725877 2:-2.6989584 3:-1.7077297 4:-1.1564997 5:-0.38502702 6:-0.39439456 7:-0.63109967 8:-0.35376816 9:1.7917071 10:-0.33830909 11:0.068701121 12:13.99925 13:-0.37837233 
1 1:-2.7077978 2:-2.4657332 3:-1.7808046 4:-0.6102993 5:-0.71614767 6:-0.39439456 7:-1.3083541 8:-0.4816694 9:4.753983 10:0.21000382 11:-0.30366252 12:-0.089040665 13:-0.3457684 
1 1:-4.0960059 2:-4.1667041 3:-0.87017906 4:-0.68334489 5:-0.70423412 6:-0.39439456 7:-1.2065114 8:-0.74572357 9:-0.38506646 10:3.7607721 11:-0.33369185 12:-0.089040665 13:-0.37837233 
1 1:-1.2416151 2:-1.4212639 3:-0.83879434 4:-1.3650732 5:-0.71756717 6:6.131321 7:-1.2727092 8:-0.7663528 9:-0.38506646 10:-0.33830909 11:-0.33969771 12:-0.089040665 13:-0.36207037 
1 1:-6.9998821 2:-5.863347 3:-0.89172679 4:-1.3875224 5:-0.70027234 6:-0.39439456 7:-0.87552234 8:-0.46516601 9:0.37380872 10:1.9080051 11:0.30292986 12:-0.089040665 13:-0.36207037 
1 1:-0.68914198 2:-4.8392357 3:-1.9822289 4:-1.1663555 5:-0.67829309 6:-0.39439456 7:-1.1250371 8:-0.72509433 9:1.3590151 10:1.7620831 11:-0.063427914 12:7.0880128 13:-0.37837233 
1 1:-1.021876 2:-0.99837219 3:-1.6594815 4:1.4989895 5:-0.72787381 6:6.0018966 7:-1.265071 8:-0.72509433 9:-0.35843926 10:-0.38252788 11:-0.2736332 12:-0.089040665 13:-0.3457684 
1 1:-1.364654 2:-1.9292212 3:-1.6651027 4:-0.097343913 5:-0.73093395 6:6.2743691 7:-1.303262 8:-0.74572357 9:-0.34512566 10:-0.45327793 11:-0.32168012 12:-0.089040665 13:-0.32946644 
1 1:0.019213354 2:0.25096001 3:0.053562431 4:2.6038874 5:-0.72991172 6:6.0155202 7:-1.3083541 8:-0.7663528 9:-0.38506646 10:-0.45327793 11:-0.34570358 12:3.8317571 13:-0.37837233 
1 1:-5.6498732 2:-4.8587922 3:-1.3713978 4:-0.44986967 5:-0.35253309 6:-0.34671188 7:-0.014950862 8:-0.27950292 9:0.9729207 10:-0.2764028 11:0.36899438 12:0.043867733 13:-0.32946644 
1 1:-4.2872158 2:-3.5661364 3:-1.886201 4:1.8971475 5:-0.72366067 6:3.3316664 7:-1.229426 8:-0.56006048 9:0.047625526 10:0.57701972 11:-0.0093751272 12:-0.089040665 13:-0.084936972 
1 1:-0.8381457 2:-2.189334 3:-2.0435931 4:-0.88412128 5:-0.70340727 6:6.0291439 7:-1.2065114 8:-0.7663528 9:-0.35843926 10:-0.43116854 11:-0.31567425 12:-0.089040665 13:-0.32946644 
1 1:0.88712394 2:-4.7462192 3:-2.0019029 4:-0.88566337 5:-0.7178962 6:-0.39439456 7:-1.2014192 8:-0.24649615 9:0.36715192 10:2.0185521 11:0.37500025 12:0.30968453 13:0.17589446 
1 1:0.21332155 2:0.79766708 3:3.3794066 4:-1.0592475 5:-0.66996468 6:2.698168 7:-1.2065114 8:-0.68796172 9:-0.38506646 10:0.50184779 11:0.86147533 12:0.44259293 13:0.63234946 
1 1:-3.9077612 2:-3.7186347 3:-2.0370351 4:-1.5794908 5:-0.291703 6:-0.39439456 7:-1.0130101 8:-0.76222695 9:-0.37840966 10:-0.45327793 11:-0.21357454 12:57.128025 13:-0.37837233 
1 1:-5.1010197 2:-4.0344035 3:-1.4486886 4:0.60520693 5:-0.41857382 6:-0.39439456 7:-0.10660936 8:-0.37852324 9:2.1378607 10:-0.43559042 11:-0.23759801 12:-0.089040665 13:0.15959249 
1 1:-0.62246696 2:-0.74856132 3:-1.8810483 4:-0.10514252 5:-0.6629487 6:5.7907305 7:-1.1250371 8:-0.7663528 9:-0.38506646 10:-0.40905915 11:-0.32168012 12:0.11032193 13:-0.3457684 
