svm_type one_class
kernel_type rbf
gamma 0.029999999999999999
nr_class 2
total_sv 546
rho 66.763879971532972
prob_density_marks -41.133326020201281 -12.162969000536744 -5.2139545065371209 -1.9350158395334347 -0.46710086604136336 6.4795778488743068 15.650825120094765 20.520123130003618 25.042570075871495 37.791131419902584
SV
1 1:0.5237134 2:0.62124644 3:2.1651558 4:0.47422014 5:-0.68934731 6:-0.39439456 7:-0.5954547 8:1.8741889 9:-0.38506646 10:-0.45327793 11:-0.34570358 12:5.2272953 13:-0.37837233 
1 1:0.64872624 2:0.81422141 3:2.0129927 4:0.26286323 5:-0.48255349 6:2.8752751 7:-0.90098303 8:-0.7663528 9:-0.38506646 10:-0.45327793 11:-0.34570358 12:-0.089040665 13:5.4903349 
1 1:0.24011945 2:0.51844933 3:-0.26610398 4:4.5456596 5:-0.65884528 6:-0.39439456 7:-0.69729748 8:2.3692905 9:-0.38506646 10:-0.45327793 11:-0.34570358 12:-0.089040665 13:-0.37837233 
1 1:0.17124663 2:0.53078499 3:0.022112672 4:4.3308937 5:-0.72684153 6:-0.39439456 7:-1.3083541 8:0.058816481 9:-0.38506646 10:-0.45327793 11:4.4589886 12:-0.089040665 13:-0.37837233 
1 1:2.1998115 2:-1.1786245 3:-1.6575827 4:-0.40805073 5:5.4660671 6:-0.39439456 7:1.2377153 8:-0.7663528 9:-0.38506646 10:-0.45327793 11:-0.34570358 12:-0.089040665 13:-0.37837233 
1 1:0.17124663 2:0.53078499 3:0.022112672 4:4.3308937 5:-0.73073197 6:-0.39439456 7:-1.3083541 8:-0.7663528 9:-0.38506646 10:-0.45327793 11:5.6601616 12:-0.089040665 13:-0.37837233 
1 1:0.15060408 2:0.64846994 3:0.27715331 4:3.4153853 5:-0.70810413 6:-0.39439456 7:-0.49361192 8:0.22385034 9:-0.38506646 10:-0.45327793 11:-0.34570358 12:-0.089040665 13:6.794492 
1 1:-0.40809528 2:-0.02318505 3:3.4143605 4:1.659956 5:-0.72106872 6:-0.39439456 7:-1.1046686 8:0.22385034 9:-0.38506646 10:-0.45327793 11:3.7382848 12:-0.089040665 13:-0.37837233 
1 1:-0.9058316 2:-1.7368482 3:-1.4216821 4:0.8321633 5:-0.73159283 6:-0.39439456 7:-1.3083541 8:-0.7663528 9:5.7391894 10:-0.45327793 11:0.13476564 12:-0.089040665 13:-0.37837233 
1 1:0.83585966 2:0.6907231 3:-0.26945348 4:0.12788064 5:-0.71472503 6:3.42022 7:-1.3083541 8:-0.7663528 9:-0.38506646 10:-0.45327793 11:-0.34570358 12:-0.089040665 13:6.794492 
1 1:-1.1342501 2:-0.56354333 3:2.6017076 4:-1.510201 5:-0.59780264 6:-0.39439456 7:-1.0028258 8:2.864392 9:-0.38506646 10:-0.45327793 11:-0.34570358 12:-0.089040665 13:-0.37837233 
1 1:0.17124663 2:0.53078499 3:0.022112672 4:4.3308937 5:-0.73073197 6:-0.39439456 7:-1.3083541 8:-0.7663528 9:-0.38506646 10:-0.45327793 11:5.6601616 12:-0.089040665 13:-0.37837233 
1 1:0.14076511 2:0.28095258 3:1.6620926 4:-1.0645421 5:-0.7182533 6:-0.39439456 7:-1.3083541 8:3.3594936 9:-0.38506646 10:-0.45327793 11:-0.34570358 12:-0.089040665 13:-0.37837233 
1 1:-0.53060015 2:0.42543568 3:7.6770003 4:-1.5256725 5:0.079120825 6:0.42302284 7:-0.5954547 8:-0.7663528 9:-0.38506646 10:1.8460988 11:-0.34570358 12:-0.089040665 13:0.92578482 
1 1:-1.4294193 2:-0.429978 3:1.3657414 4:-1.8252041 5:-0.72882383 6:-0.39439456 7:-1.3083541 8:-0.7663528 9:-0.38506646 10:3.9686004 11:-0.34570358 12:-0.089040665 13:-0.37837233 
1 1:0.62808368 2:0.3054821 3:-0.42688007 4:0.037411492 5:1.8209776 6:-0.39439456 7:0.42297308 8:-0.7663528 9:-0.38506646 10:-0.45327793 11:-0.34570358 12:15.859967 13:0.92578482 
1 1:0.59721632 2:0.73113299 3:-0.15190192 4:0.19724032 5:-0.71494153 6:3.42022 7:-1.3083541 8:-0.7663528 9:-0.38506646 10:-0.45327793 11:-0.34570358 12:-0.089040665 13:6.794492 
1 1:-0.49047257 2:-0.4559254 3:-0.12175641 4:-0.32197392 5:-0.73170987 6:-0.39439456 7:-1.3083541 8:-0.7663528 9:6.0054613 10:-0.45327793 11:-0.10546897 12:-0.089040665 13:-0.37837233 
1 1:2.7222417 2:-1.7748477 3:-1.6173887 4:-0.92962504 5:-0.32146473 6:-0.39439456 7:-1.1123068 8:3.0046708 9:-0.37175286 10:-0.45327793 11:-0.29765666 12:-0.089040665 13:-0.37837233 
1 1:0.17124663 2:0.53078499 3:0.022112672 4:4.3308937 5:-0.72802502 6:-0.39439456 7:-1.3083541 8:-0.10621737 9:-0.38506646 10:-0.45327793 11:4.6992232 12:-0.089040665 13:-0.37837233 
0.70368203100546778 1:-1.1579794 2:-0.68491481 3:0.51831744 4:-1.4099638 5:-0.72649824 6:-0.39439456 7:-1.2065114 8:-0.7663528 9:-0.38506646 10:-0.45327793 11:5.419927 12:-0.089040665 13:-0.37837233 
1 1:0.64872624 2:0.81422141 3:2.0129927 4:0.26286323 5:-0.59158167 6:0.15055038 7:-0.28992636 8:-0.60131894 9:-0.38506646 10:-0.45327793 11:-0.34570358 12:-0.089040665 13:7.4465706 
1 1:0.59856676 2:-1.1335355 3:-1.3629861 4:0.21716976 5:-0.68047842 6:-0.39439456 7:-1.2065114 8:-0.7663528 9:5.7391894 10:-0.45327793 11:-0.10546897 12:-0.089040665 13:-0.37837233 
1 1:-1.0945084 2:-0.49605172 3:0.09277121 4:-1.3487332 5:-0.73172222 6:-0.39439456 7:-1.3083541 8:-0.7663528 9:-0.38506646 10:-0.45327793 11:5.6601616 12:-0.089040665 13:-0.37837233 
1 1:0.24011945 2:0.51844933 3:-0.26610398 4:4.5456596 5:-0.65884528 6:-0.39439456 7:-0.69729748 8:2.3692905 9:-0.38506646 10:-0.45327793 11:-0.34570358 12:-0.089040665 13:-0.37837233 
1 1:-0.58519681 2:-0.0073046706 3:4.1077074 4:-1.1556668 5:-0.71797045 6:-0.39439456 7:-0.69729748 8:2.0392227 9:-0.38506646 10:-0.45327793 11:-0.10546897 12:2.5691273 13:-0.37837233 
1 1:0.65972274 2:0.72290923 3:0.29740982 4:-0.33973997 5:6.4126709 6:-0.39439456 7:1.2377153 8:-0.7663528 9:-0.38506646 10:-0.45327793 11:-0.34570358 12:-0.089040665 13:-0.37837233 
1 1:0.24011945 2:0.51844933 3:-0.26610398 4:4.5456596 5:-0.65884528 6:-0.39439456 7:-0.69729748 8:2.3692905 9:-0.38506646 10:-0.45327793 11:-0.34570358 12:-0.089040665 13:-0.37837233 
1 1:2.1998115 2:-1.1786245 3:-1.6575827 4:-0.40805073 5:5.1010424 6:-0.39439456 7:1.2377153 8:-0.7663528 9:-0.38506646 10:-0.45327793 11:-0.34570358 12:-0.089040665 13:-0.37837233 
1 1:-4.6567956 2:-3.7590444 3:-0.4906801 4:-1.4235997 5:-0.67114119 6:-0.39439456 7:-1.3083541 8:-0.7663528 9:-0.38506646 10:3.9686004 11:-0.34570358 12:-0.089040665 13:-0.37837233 
1 1:0.17124663 2:0.53078499 3:0.022112672 4:4.3308937 5:-0.72684153 6:-0.39439456 7:-1.3083541 8:0.058816481 9:-0.38506646 10:-0.45327793 11:4.4589886 12:-0.089040665 13:-0.37837233 
1 1:1.5843933 2:-0.46840284 3:-1.5543862 4:-0.11376377 5:3.7022347 6:-0.39439456 7:1.2377153 8:-0.7663528 9:-0.38506646 10:-0.45327793 11:-0.34570358 12:-0.089040665 13:-0.37837233 
1 1:-0.16347139 2:-1.0077686 3:-1.5130757 4:-0.58394111 5:-0.724229 6:-0.39439456 7:-1.2905317 8:-0.60544479 9:5.4928878 10:-0.17912147 11:-0.29765666 12:-0.089040665 13:-0.36207037 
1 1:0.085396767 2:0.59671692 3:-0.99135087 4:5.9647141 5:-0.3896246 6:2.8752751 7:-0.39176914 8:-0.7663528 9:-0.38506646 10:-0.45327793 11:-0.34570358 12:-0.089040665 13:2.229942 
1 1:0.46718753 2:0.36063806 3:-0.56755914 4:-0.68463721 5:-0.73112058 6:-0.39439456 7:-1.3083541 8:-0.7663528 9:6.2717333 10:-0.45327793 11:-0.34570358 12:-0.089040665 13:-0.37837233 
1 1:0.10835437 2:0.62890305 3:0.76681857 4:2.8795195 5:-0.71797505 6:-0.39439456 7:-0.5954547 8:0.22385034 9:-0.38506646 10:-0.45327793 11:-0.34570358 12:2.5691273 13:6.794492 
1 1:-0.28173199 2:0.32448184 3:0.67877453 4:-1.7209679 5:-0.72976954 6:-0.39439456 7:-1.3083541 8:-0.7663528 9:-0.38506646 10:3.9686004 11:-0.34570358 12:-0.089040665 13:-0.37837233 
1 1:0.24011945 2:0.51844933 3:-0.26610398 4:4.5456596 5:-0.6474037 6:-0.39439456 7:-0.69729748 8:2.3692905 9:-0.38506646 10:-0.45327793 11:-0.34570358 12:-0.089040665 13:-0.37837233 
1 1:2.1998115 2:-1.1786245 3:-1.6575827 4:-0.40805073 5:4.2743789 6:-0.39439456 7:1.2377153 8:-0.7663528 9:-0.38506646 10:-0.45327793 11:-0.34570358 12:-0.089040665 13:-0.37837233 
1 1:0.3743925 2:0.53929233 3:0.48769342 4:0.74746319 5:-0.69261584 6:-0.12192209 7:-1.1046686 8:2.3692905 9:-0.38506646 10:-0.45327793 11:-0.10546897 12:5.2272953 13:-0.37837233 
1 1:-0.9691097 2:-0.84939017 3:-1.4607596 4:-0.56342166 5:-0.6717751 6:2.3303301 7:-1.3083541 8:-0.7663528 9:-0.38506646 10:1.4923485 11:-0.10546897 12:7.8854632 13:-0.37837233 
1 1:-0.73258849 2:-1.0711483 3:-0.77570676 4:0.12892956 5:5.2952773 6:-0.39439456 7:-0.69729748 8:-0.7663528 9:-0.38506646 10:-0.45327793 11:4.218754 12:-0.089040665 13:-0.37837233 
1 1:0.18938121 2:0.41395076 3:-0.83137229 4:1.6735919 5:-0.71916658 6:2.8752751 7:-1.2065114 8:-0.43628509 9:-0.38506646 10:-0.2764028 11:1.3359387 12:5.2272953 13:-0.37837233 
1 1:0.25806111 2:0.68817089 3:-0.94254385 4:3.8782202 5:-0.70429535 6:-0.39439456 7:-0.5954547 8:0.38888419 9:-0.38506646 10:-0.45327793 11:-0.10546897 12:2.5691273 13:5.4903349 
1 1:-0.0083628642 2:-0.44075397 3:-1.0703034 4:-0.13447989 5:-0.72729353 6:-0.39439456 7:-1.3083541 8:-0.7663528 9:6.0054613 10:-0.45327793 11:-0.10546897 12:-0.089040665 13:-0.37837233 
1 1:0.36841195 2:0.35241429 3:-0.8653458 4:3.2105841 5:-0.50109144 6:1.5129127 7:-1.3083541 8:-0.7663528 9:-0.38506646 10:-0.45327793 11:-0.34570358 12:-0.089040665 13:11.359042 
1 1:0.13536332 2:0.31725059 3:-0.24728297 4:4.5642123 5:-0.72680499 6:6.0768266 7:-1.3058081 8:-0.70859095 9:-0.38506646 10:-0.34273097 11:-0.34570358 12:-0.089040665 13:-0.21535269 
1 1:0.14076511 2:0.28095258 3:1.6620926 4:-1.0645421 5:-0.70898986 6:-0.39439456 7:-0.39176914 8:1.2140535 9:-0.38506646 10:-0.45327793 11:0.13476564 12:5.2272953 13:-0.37837233 
1 1:-0.79567368 2:-0.83521126 3:-1.4057321 4:-0.50717345 5:-0.72767802 6:-0.39439456 7:-1.303262 8:-0.6508291 9:5.5328286 10:-0.1127933 11:-0.32768598 12:-0.089040665 13:-0.37837233 
1 1:0.17124663 2:0.53078499 3:0.022112672 4:4.3308937 5:-0.72684153 6:-0.39439456 7:-1.3083541 8:0.058816481 9:-0.38506646 10:-0.45327793 11:4.4589886 12:-0.089040665 13:-0.37837233 
1 1:0.24011945 2:0.51844933 3:-0.26610398 4:4.5456596 5:-0.67487187 6:-0.39439456 7:-0.90098303 8:2.6993582 9:-0.38506646 10:-0.45327793 11:-0.34570358 12:-0.089040665 13:-0.37837233 
1 1:0.50885847 2:0.51093451 3:-0.15206142 4:-0.92090591 5:3.1631939 6:-0.39439456 7:0.52481586 8:-0.60131894 9:-0.38506646 10:-0.45327793 11:-0.34570358 12:-0.089040665 13:3.5340991 
1 1:0.39754303 2:-0.79706999 3:-1.247508 4:0.45966641 5:-0.71250772 6:-0.39439456 7:-1.3083541 8:-0.7663528 9:6.2717333 10:-0.45327793 11:-0.34570358 12:-0.089040665 13:-0.37837233 
1 1:0.21774061 2:0.43479376 3:-0.78144876 4:4.1116699 5:-0.72801504 6:-0.39439456 7:-1.3083541 8:-0.10621737 9:-0.38506646 10:-0.45327793 11:4.6992232 12:-0.089040665 13:-0.37837233 
1 1:1.1393245 2:0.60394817 3:-0.27950199 4:-0.72495498 5:-0.72473525 6:-0.39439456 7:-1.3007159 8:-0.74984941 9:4.4943678 10:0.63892602 11:-0.29765666 12:-0.089040665 13:-0.31316447 
0.19091156305423287 1:1.9434194 2:0.11945479 3:-1.3384231 4:-0.87429463 5:-0.33016062 6:-0.39439456 7:-1.1123068 8:3.0046708 9:-0.37175286 10:-0.45327793 11:-0.29765666 12:-0.089040665 13:-0.37837233 
1 1:-1.4500619 2:-1.9651286 3:-1.1985415 4:0.95528001 5:-0.69651341 6:-0.39439456 7:0.015601971 8:-0.7663528 9:1.7451095 10:-0.45327793 11:-0.34570358 12:10.543631 13:-0.37837233 
1 1:0.89431474 2:0.70929747 3:-0.36068753 4:-0.031554844 5:-0.70349522 6:2.8752751 7:-1.1046686 8:-0.7663528 9:-0.38506646 10:-0.45327793 11:-0.34570358 12:-0.089040665 13:6.794492 
1 1:-3.8035058 2:-2.6987455 3:0.93668616 4:-1.7283103 5:-0.73017857 6:-0.39439456 7:-1.3083541 8:-0.60131894 9:-0.38506646 10:-0.45327793 11:5.419927 12:-0.089040665 13:-0.37837233 
1 1:0.23008756 2:0.59926912 3:-0.19624295 4:4.2972628 5:-0.72700933 6:-0.39439456 7:-1.3083541 8:0.058816481 9:-0.38506646 10:-0.45327793 11:4.4589886 12:-0.089040665 13:-0.37837233 
1 1:1.1190678 2:-1.3119062 3:-1.3682496 4:0.33156734 5:-0.70555453 6:-0.39439456 7:-1.0028258 8:-0.7663528 9:5.2066454 10:-0.45327793 11:-0.10546897 12:-0.089040665 13:-0.37837233 
1 1:0.85013581 2:0.67172336 3:-0.56229564 4:-0.033652679 5:-0.70319553 6:2.8752751 7:-1.1046686 8:-0.7663528 9:-0.38506646 10:-0.45327793 11:-0.34570358 12:-0.089040665 13:6.794492 
1 1:-1.735585 2:-3.9213929 3:-1.4446501 4:-0.41375422 5:-0.51595972 6:-0.39439456 7:-0.90098303 8:0.38888419 9:1.7451095 10:-0.45327793 11:-0.34570358 12:15.859967 13:-0.37837233 
1 1:0.70177953 2:0.78373675 3:1.8034096 4:0.27623693 5:2.9886492 6:-0.39439456 7:1.2377153 8:-0.7663528 9:-0.38506646 10:-0.45327793 11:-0.34570358 12:-0.089040665 13:-0.37837233 
1 1:-5.8694973 2:-4.9574459 3:0.042050183 4:-0.96522268 5:-0.73184143 6:-0.39439456 7:-1.3083541 8:-0.7663528 9:-0.38506646 10:3.9686004 11:-0.34570358 12:-0.089040665 13:-0.37837233 
0.344969408000877 1:0.24011945 2:0.51844933 3:-0.26610398 4:4.5456596 5:-0.6474037 6:-0.39439456 7:-0.69729748 8:2.3692905 9:-0.38506646 10:-0.45327793 11:-0.34570358 12:-0.089040665 13:-0.37837233 
1 1:1.1755936 2:0.82726601 3:-0.54538863 4:-0.87521243 5:-0.72101969 6:-0.39439456 7:-1.3083541 8:-0.7663528 9:-0.11879447 10:-0.45327793 11:5.419927 12:-0.089040665 13:-0.37837233 
1 1:-0.31645778 2:-0.13151193 3:0.62151399 4:-0.97013948 5:-0.72381718 6:-0.39439456 7:-1.3083541 8:-0.7663528 9:-0.38506646 10:-0.45327793 11:5.6601616 12:-0.089040665 13:-0.37837233 
1 1:0.70177953 2:0.78373675 3:1.8034096 4:0.27623693 5:2.9886492 6:-0.39439456 7:1.2377153 8:-0.7663528 9:-0.38506646 10:-0.45327793 11:-0.34570358 12:-0.089040665 13:-0.37837233 
1 1:0.19902727 2:0.64662669 3:-0.96918036 4:6.2039984 5:-0.44696715 6:3.1477475 7:-0.39176914 8:-0.7663528 9:-0.38506646 10:-0.45327793 11:-0.34570358 12:-0.089040665 13:1.5778634 
1 1:0.773932 2:0.50171822 3:-0.50072861 4:0.43619688 5:-0.66932245 6:-0.39439456 7:-0.18808359 8:0.88398576 9:-0.38506646 10:-0.45327793 11:-0.10546897 12:7.8854632 13:-0.37837233 
1 1:0.76486471 2:0.59870197 3:0.034075179 4:-0.63979598 5:-0.72437768 6:-0.39439456 7:-1.3007159 8:-0.7663528 9:4.8005806 10:0.42225398 11:-0.30366252 12:0.11032193 13:-0.21535269 
1 1:-0.79567368 2:-0.83521126 3:-1.4057321 4:-0.50717345 5:-0.72796478 6:-0.39439456 7:-1.303262 8:-0.66733248 9:5.5128582 10:-0.086262029 11:-0.32168012 12:-0.089040665 13:-0.37837233 
1 1:0.086361372 2:0.49207656 3:-0.2911455 4:3.1987838 5:-0.73098259 6:1.7853852 7:-1.2065114 8:-0.60131894 9:-0.38506646 10:-0.45327793 11:-0.34570358 12:2.5691273 13:8.7507278 
1 1:0.25632482 2:0.626918 3:-0.6685227 4:5.9576995 5:-0.39906072 6:0.96796778 7:0.015601971 8:0.058816481 9:-0.38506646 10:-0.45327793 11:-0.34570358 12:-0.089040665 13:0.92578482 
1 1:0.25632482 2:0.626918 3:-0.6685227 4:5.9576995 5:-0.52333311 6:0.96796778 7:-0.28992636 8:0.55391805 9:-0.38506646 10:-0.45327793 11:-0.34570358 12:-0.089040665 13:0.92578482 
1 1:0.19902727 2:0.64662669 3:-0.96918036 4:6.2039984 5:-0.45120579 6:4.2376374 7:-0.69729748 8:-0.7663528 9:-0.38506646 10:-0.45327793 11:-0.34570358 12:-0.089040665 13:0.92578482 
1 1:-1.0345099 2:-0.46755211 3:0.19883877 4:-1.325067 5:-0.73174738 6:-0.39439456 7:-1.3083541 8:-0.7663528 9:-0.38506646 10:-0.45327793 11:5.6601616 12:-0.089040665 13:-0.37837233 
1 1:0.5237134 2:0.62124644 3:2.1651558 4:0.47422014 5:-0.68934731 6:-0.39439456 7:-0.5954547 8:1.8741889 9:-0.38506646 10:-0.45327793 11:-0.34570358 12:5.2272953 13:-0.37837233 
1 1:0.34564727 2:0.54907578 3:-0.091451389 4:4.2224619 5:-0.72895411 6:5.5999997 7:-1.3083541 8:-0.60131894 9:-0.38506646 10:-0.2764028 11:-0.34570358 12:-0.089040665 13:0.27370625 
1 1:0.26462042 2:0.61188836 3:-0.58957016 4:3.6669288 5:-0.71423739 6:-0.39439456 7:-1.0028258 8:0.058816481 9:-0.38506646 10:-0.45327793 11:0.13476564 12:2.5691273 13:8.7507278 
1 1:0.61650842 2:0.74105823 3:0.51736044 4:0.085268361 5:-0.59358915 6:0.15055038 7:-0.28992636 8:-0.60131894 9:-0.38506646 10:-0.45327793 11:-0.34570358 12:-0.089040665 13:7.4465706 
1 1:0.14076511 2:0.28095258 3:1.6620926 4:-1.0645421 5:-0.7182533 6:-0.39439456 7:-1.3083541 8:3.3594936 9:-0.38506646 10:-0.45327793 11:-0.34570358 12:-0.089040665 13:-0.37837233 
1 1:0.15870677 2:0.43238335 3:-0.58095715 4:4.2648119 5:-0.72799783 6:-0.39439456 7:-1.3083541 8:-0.10621737 9:-0.38506646 10:-0.45327793 11:4.6992232 12:-0.089040665 13:-0.37837233 
1 1:-6.2383624 2:-4.5595857 3:-0.18699194 4:-1.6614418 5:-0.73141316 6:-0.39439456 7:-1.3083541 8:-0.7663528 9:0.68002151 10:3.2610999 11:-0.34570358 12:-0.089040665 13:-0.37837233 
1 1:0.074786109 2:0.63655966 3:-0.65847419 4:3.7351085 5:-0.71799059 6:-0.39439456 7:-0.5954547 8:0.22385034 9:-0.38506646 10:-0.45327793 11:-0.34570358 12:2.5691273 13:6.794492 
1 1:-3.7130258 2:-3.8078199 3:-1.0739719 4:-1.3704327 5:-0.61412762 6:-0.39439456 7:-0.28992636 8:0.55391805 9:-0.38506646 10:-0.45327793 11:-0.34570358 12:-0.089040665 13:4.1861777 
1 1:0.86827039 2:0.1245592 3:-0.6736267 4:-0.083804055 5:6.7946899 6:-0.39439456 7:1.1358725 8:-0.7663528 9:-0.38506646 10:-0.45327793 11:-0.34570358 12:-0.089040665 13:0.27370625 
1 1:0.24494248 2:0.45577855 3:-0.00085534011 4:5.0134769 5:-0.68656165 6:-0.12192209 7:-1.0028258 8:2.3692905 9:-0.38506646 10:-0.45327793 11:-0.10546897 12:-0.089040665 13:0.27370625 
1 1:0.15870677 2:0.43238335 3:-0.58095715 4:4.2648119 5:-0.73072589 6:-0.39439456 7:-1.3083541 8:-0.7663528 9:-0.38506646 10:-0.45327793 11:5.6601616 12:-0.089040665 13:-0.37837233 
1 1:0.06031703 2:0.44259216 3:-0.4852571 4:2.989328 5:-0.71798022 6:-0.39439456 7:-0.5954547 8:0.22385034 9:-0.38506646 10:-0.45327793 11:-0.34570358 12:2.5691273 13:6.794492 
0.2871425862065427 1:0.64872624 2:0.81422141 3:2.0129927 4:0.26286323 5:-0.48255349 6:2.8752751 7:-0.90098303 8:-0.7663528 9:-0.38506646 10:-0.45327793 11:-0.34570358 12:-0.089040665 13:5.4903349 
1 1:0.66338824 2:0.94296592 3:1.0333432 4:-1.3866254 5:-0.62014518 6:-0.39439456 7:-1.2065114 8:-0.43628509 9:0.41374952 10:-0.45327793 11:0.85546946 12:23.834471 13:2.8820206 
1 1:-1.0628693 2:-0.92935923 3:-1.4232771 4:-0.49425865 5:-0.63724393 6:1.7853852 7:-1.3083541 8:-0.7663528 9:0.41374952 10:-0.45327793 11:1.8164079 12:10.543631 13:0.27370625 
1 1:0.46988842 2:0.60295564 3:0.47668792 4:0.59333785 5:-0.617445 6:-0.39439456 7:0.32113031 8:0.22385034 9:-0.38506646 10:-0.45327793 11:-0.34570358 12:7.8854632 13:-0.37837233 
1 1:-3.6175299 2:-3.5042494 3:-1.0655184 4:-0.75268574 5:-0.73188764 6:-0.39439456 7:-1.3083541 8:-0.7663528 9:6.0054613 10:-0.45327793 11:-0.10546897 12:-0.089040665 13:-0.37837233 
1 1:0.10835437 2:0.62890305 3:0.76681857 4:2.8795195 5:-0.71797505 6:-0.39439456 7:-0.5954547 8:0.22385034 9:-0.38506646 10:-0.45327793 11:-0.34570358 12:2.5691273 13:6.794492 
1 1:-1.2984259 2:-1.2408699 3:-1.0458999 4:-0.36760184 5:-0.72015343 6:-0.39439456 7:-1.3083541 8:-0.27125123 9:-0.38506646 10:1.8460988 11:1.0957041 12:7.8854632 13:-0.37837233 
1 1:-1.6240767 2:-1.202445 3:-1.1513295 4:-0.57023962 5:-0.030502381 6:-0.39439456 7:-0.5954547 8:-0.7663528 9:-0.38506646 10:-0.099527664 11:2.7773463 12:7.8854632 13:-0.37837233 
1 1:0.12687479 2:0.49930781 3:-0.54331513 4:3.7818509 5:-0.72537463 6:-0.12192209 7:-0.79914026 8:0.22385034 9:-0.38506646 10:-0.45327793 11:-0.34570358 12:-0.089040665 13:8.0986492 
1 1:0.17124663 2:0.53078499 3:0.022112672 4:4.3308937 5:-0.73073197 6:-0.39439456 7:-1.3083541 8:-0.7663528 9:-0.38506646 10:-0.45327793 11:5.6601616 12:-0.089040665 13:-0.37837233 
1 1:0.17124663 2:0.53078499 3:0.022112672 4:4.3308937 5:-0.72684153 6:-0.39439456 7:-1.3083541 8:0.058816481 9:-0.38506646 10:-0.45327793 11:4.4589886 12:-0.089040665 13:-0.37837233 
1 1:-5.8694973 2:-4.9574459 3:0.042050183 4:-0.96522268 5:-0.73184143 6:-0.39439456 7:-1.3083541 8:-0.7663528 9:-0.38506646 10:3.9686004 11:-0.34570358 12:-0.089040665 13:-0.37837233 
0.48288105613756233 1:-0.66275107 2:-0.98139583 3:-1.4279026 4:-0.43197916 5:-0.72417248 6:-0.39439456 7:-1.3007159 8:-0.62194817 9:5.4462902 10:-0.10837142 11:-0.30966839 12:-0.089040665 13:-0.36207037 
1 1:-1.078303 2:-0.48967121 3:0.4398434 4:-1.3492577 5:-0.73189261 6:-0.39439456 7:-1.3083541 8:-0.7663528 9:-0.38506646 10:-0.45327793 11:5.6601616 12:-0.089040665 13:-0.37837233 
1 1:-3.0989581 2:-2.6340896 3:-1.7185118 4:-0.23248813 5:-0.24636002 6:0.42302284 7:0.72850142 8:-0.7663528 9:-0.38506646 10:-0.45327793 11:-0.34570358 12:5.2272953 13:-0.37837233 
1 1:-1.0628693 2:-0.92935923 3:-1.4232771 4:-0.49425865 5:-0.5833622 6:-0.39439456 7:-1.3083541 8:-0.27125123 9:0.41374952 10:-0.45327793 11:2.5371117 12:18.518135 13:-0.37837233 
1 1:-5.1246291 2:-4.0906891 3:0.24365829 4:-1.5630402 5:-0.71323529 6:-0.39439456 7:-1.2065114 8:-0.7663528 9:-0.38506646 10:2.3767242 11:-0.34570358 12:-0.089040665 13:4.8382563 
1 1:0.14076511 2:0.28095258 3:1.6620926 4:-1.0645421 5:-0.7182533 6:-0.39439456 7:-1.3083541 8:3.3594936 9:-0.38506646 10:-0.45327793 11:-0.34570358 12:-0.089040665 13:-0.37837233 
1 1:0.35374995 2:0.64719384 3:1.1290433 4:-1.4764389 5:-0.54857075 6:-0.39439456 7:-0.5954547 8:-0.7663528 9:-0.38506646 10:0.60797287 11:-0.34570358 12:-0.089040665 13:7.4465706 
1 1:-3.1632008 2:-2.18476 3:0.49774193 4:-1.6808468 5:-0.73189261 6:-0.39439456 7:-1.3083541 8:-0.43628509 9:-0.38506646 10:-0.45327793 11:5.1796924 12:-0.089040665 13:-0.37837233 
1 1:-4.946563 2:-3.9097662 3:-1.0029944 4:0.89647506 5:-0.72040063 6:-0.39439456 7:-1.2065114 8:0.38888419 9:4.1415574 10:-0.45327793 11:-0.34570358 12:-0.089040665 13:-0.37837233 
1 1:0.12687479 2:0.49930781 3:-0.54331513 4:3.7818509 5:-0.71745028 6:-0.39439456 7:-0.39176914 8:0.058816481 9:-0.38506646 10:-0.45327793 11:-0.34570358 12:-0.089040665 13:6.794492 
1 1:1.4690265 2:0.585232 3:-0.8546593 4:0.76627815 5:4.6106461 6:0.69549531 7:0.42297308 8:-0.7663528 9:-0.38506646 10:-0.45327793 11:-0.34570358 12:10.543631 13:-0.37837233 
1 1:-0.5099576 2:-2.0194339 3:-1.1184724 4:1.0394556 5:-0.69663803 6:-0.39439456 7:0.015601971 8:-0.7663528 9:1.7451095 10:-0.45327793 11:-0.34570358 12:10.543631 13:-0.37837233 
1 1:0.8802315 2:0.76303554 3:-0.69547821 4:0.18806229 5:-0.71488528 6:3.42022 7:-1.3083541 8:-0.7663528 9:-0.38506646 10:-0.45327793 11:-0.34570358 12:-0.089040665 13:6.794492 
1 1:-7.1157673 2:-5.5696913 3:-0.59180316 4:-1.5769384 5:-0.73132341 6:-0.39439456 7:-1.3083541 8:-0.7663528 9:4.1415574 10:0.96172313 11:-0.34570358 12:-0.089040665 13:-0.37837233 
1 1:-0.9654442 2:-0.89731489 3:-0.91223883 4:3.5147702 5:-0.69119646 6:6.4174171 7:-1.3083541 8:-0.7663528 9:-0.38506646 10:-0.45327793 11:-0.34570358 12:-0.089040665 13:-0.37837233 
1 1:-5.2068135 2:-4.0005113 3:-1.2186385 4:0.80390808 5:-0.4069687 6:-0.39439456 7:0.62665864 8:-0.7663528 9:-0.11879447 10:-0.45327793 11:0.13476564 12:5.2272953 13:0.27370625 
1 1:2.8507271 2:-1.5529477 3:-1.7240943 4:-0.86577217 5:0.51439232 6:-0.39439456 7:-0.60818505 8:2.2248858 9:-0.38506646 10:-0.45327793 11:-0.34570358 12:-0.089040665 13:-0.37837233 
1 1:-0.37549163 2:-0.30449464 3:-1.6055857 4:4.5853218 5:-0.67482352 6:0.15055038 7:-1.3083541 8:-0.60131894 9:-0.38506646 10:-0.45327793 11:-0.34570358 12:58.390654 13:-0.37837233 
1 1:0.5237134 2:0.62124644 3:2.1651558 4:0.47422014 5:-0.56747811 6:-0.39439456 7:0.62665864 8:-0.10621737 9:-0.38506646 10:-0.45327793 11:-0.34570358 12:5.2272953 13:-0.37837233 
1 1:0.42127232 2:0.4369206 3:2.548913 4:-1.2574774 5:-0.4879212 6:-0.39439456 7:-1.265071 8:-0.7663528 9:-0.38506646 10:3.8580534 11:-0.29765666 12:-0.089040665 13:-0.37837233 
1 1:0.5237134 2:0.62124644 3:2.1651558 4:0.47422014 5:-0.6160105 6:-0.39439456 7:0.32113031 8:0.22385034 9:-0.38506646 10:-0.45327793 11:-0.34570358 12:7.8854632 13:-0.37837233 
1 1:0.70274413 2:0.71737945 3:-0.14376742 4:0.06547004 5:-0.55492457 6:0.42302284 7:-0.79914026 8:-0.60131894 9:-0.38506646 10:-0.45327793 11:-0.34570358 12:-0.089040665 13:10.054885 
1 1:-2.4873984 2:-1.5496866 3:0.59073048 4:-1.5696615 5:-0.73189261 6:-0.39439456 7:-1.3083541 8:-0.7663528 9:-0.38506646 10:-0.45327793 11:5.6601616 12:-0.089040665 13:-0.37837233 
1 1:0.17124663 2:0.53078499 3:0.022112672 4:4.3308937 5:-0.72681284 6:-0.39439456 7:-1.3083541 8:0.058816481 9:-0.38506646 10:-0.45327793 11:4.4589886 12:-0.089040665 13:-0.37837233 
1 1:0.52892226 2:0.5631129 3:-0.19911395 4:0.39056896 5:-0.71308139 6:-0.39439456 7:-0.79914026 8:1.709155 9:-0.38506646 10:-0.45327793 11:0.13476564 12:7.8854632 13:-0.37837233 
1 1:-0.10771721 2:-0.0065957251 3:-0.70137972 4:-0.4291602 5:-0.72175022 6:-0.39439456 7:-1.2065114 8:-0.7663528 9:1.7451095 10:-0.099527664 11:0.13476564 12:-0.089040665 13:7.4465706 
1 1:0.085396767 2:0.59671692 3:-0.99135087 4:5.9647141 5:-0.40292722 6:3.42022 7:-0.49361192 8:-0.7663528 9:-0.38506646 10:-0.45327793 11:-0.34570358 12:-0.089040665 13:1.5778634 
1 1:0.21774061 2:0.43479376 3:-0.78144876 4:4.1116699 5:-0.73074878 6:-0.39439456 7:-1.3083541 8:-0.7663528 9:-0.38506646 10:-0.45327793 11:5.6601616 12:-0.089040665 13:-0.37837233 
1 1:0.70177953 2:0.78373675 3:1.8034096 4:0.27623693 5:2.9886492 6:-0.39439456 7:1.2377153 8:-0.7663528 9:-0.38506646 10:-0.45327793 11:-0.34570358 12:-0.089040665 13:-0.37837233 
1 1:0.46930966 2:0.83591514 3:1.601323 4:-1.5600246 5:-0.72688619 6:-0.39439456 7:-1.3083541 8:-0.7663528 9:-0.38506646 10:3.9686004 11:-0.34570358 12:-0.089040665 13:-0.37837233 
1 1:-1.0628693 2:-0.92935923 3:-1.4232771 4:-0.49425865 5:-0.45998834 6:2.8752751 7:-1.2065114 8:-0.7663528 9:-0.38506646 10:-0.45327793 11:0.13476564 12:26.492639 13:-0.37837233 
1 1:0.64872624 2:0.81422141 3:2.0129927 4:0.26286323 5:-0.48255349 6:2.8752751 7:-0.90098303 8:-0.7663528 9:-0.38506646 10:-0.45327793 11:-0.34570358 12:-0.089040665 13:5.4903349 
1 1:0.0068778988 2:0.68746195 3:-1.1237359 4:6.4759303 5:-0.70317039 6:1.7853852 7:-0.79914026 8:0.058816481 9:-0.38506646 10:-0.45327793 11:-0.34570358 12:-0.089040665 13:4.1861777 
1 1:0.89431474 2:0.70929747 3:-0.36068753 4:-0.031554844 5:-0.70349522 6:2.8752751 7:-1.1046686 8:-0.7663528 9:-0.38506646 10:-0.45327793 11:-0.34570358 12:-0.089040665 13:6.794492 
1 1:-1.078303 2:-0.48967121 3:0.4398434 4:-1.3492577 5:-0.7317424 6:-0.39439456 7:-1.3083541 8:-0.7663528 9:-0.38506646 10:-0.45327793 11:5.6601616 12:-0.089040665 13:-0.37837233 
1 1:-1.0345099 2:-0.46755211 3:0.19883877 4:-1.325067 5:-0.73174738 6:-0.39439456 7:-1.3083541 8:-0.7663528 9:-0.38506646 10:-0.45327793 11:5.6601616 12:-0.089040665 13:-0.37837233 
1 1:-2.507848 2:-1.6534762 3:0.75198506 4:-1.5469131 5:-0.73189261 6:-0.39439456 7:-1.3083541 8:-0.7663528 9:-0.38506646 10:-0.45327793 11:5.6601616 12:-0.089040665 13:-0.37837233 
1 1:0.14115095 2:0.2690423 3:-0.03801886 4:1.4350287 5:4.9854752 6:-0.12192209 7:0.32113031 8:-0.7663528 9:-0.38506646 10:-0.45327793 11:1.0957041 12:-0.089040665 13:0.92578482 
1 1:-1.0628693 2:-0.92935923 3:-1.4232771 4:-0.49425865 5:-0.67277801 6:2.3303301 7:-1.3083541 8:-0.60131894 9:-0.38506646 10:1.3154734 11:-0.10546897 12:7.8854632 13:-0.37837233 
1 1:0.46988842 2:0.60295564 3:0.47668792 4:0.59333785 5:-0.66976042 6:-0.39439456 7:-0.18808359 8:0.88398576 9:-0.38506646 10:-0.45327793 11:-0.10546897 12:7.8854632 13:-0.37837233 
1 1:0.28834971 2:0.65258183 3:-0.98018587 4:5.6857676 5:-0.7242441 6:4.7825823 7:-1.2065114 8:-0.43628509 9:-0.38506646 10:-0.45327793 11:-0.34570358 12:-0.089040665 13:1.5778634 
1 1:0.5237134 2:0.62124644 3:2.1651558 4:0.47422014 5:-0.60896187 6:-0.39439456 7:0.62665864 8:-0.10621737 9:-0.38506646 10:-0.45327793 11:-0.34570358 12:5.2272953 13:-0.37837233 
1 1:0.38558192 2:0.25004256 3:-0.50615161 4:-1.4338266 5:-0.73026357 6:5.8724722 7:-1.3083541 8:-0.7663528 9:-0.38506646 10:-0.45327793 11:-0.34570358 12:-0.089040665 13:0.92578482 
1 1:-4.6077937 2:-4.0132723 3:0.0093526654 4:-1.5082998 5:-0.71270355 6:-0.39439456 7:-1.2065114 8:3.1944597 9:-0.38506646 10:-0.45327793 11:-0.34570358 12:-0.089040665 13:-0.37837233 
1 1:0.64872624 2:0.81422141 3:2.0129927 4:0.26286323 5:-0.48255349 6:2.8752751 7:-0.90098303 8:-0.7663528 9:-0.38506646 10:-0.45327793 11:-0.34570358 12:-0.089040665 13:5.4903349 
1 1:0.70274413 2:0.71737945 3:-0.14376742 4:0.06547004 5:-0.7152236 6:3.42022 7:-1.3083541 8:-0.7663528 9:-0.38506646 10:-0.45327793 11:-0.34570358 12:-0.089040665 13:6.794492 
0.33243514374899563 1:0.72454421 2:0.6412387 3:-0.10181889 4:0.41829972 5:-0.70336621 6:-0.39439456 7:-1.0028258 8:0.7189519 9:-0.38506646 10:-0.45327793 11:1.0957041 12:5.2272953 13:2.8820206 
1 1:0.085396767 2:0.59671692 3:-0.99135087 4:5.9647141 5:-0.44027443 6:3.6926925 7:-0.5954547 8:-0.7663528 9:-0.38506646 10:-0.45327793 11:-0.34570358 12:-0.089040665 13:1.5778634 
1 1:0.13941466 2:0.70646169 3:-1.0363299 4:5.8186523 5:-0.72991741 6:5.3275273 7:-1.3083541 8:-0.7663528 9:-0.38506646 10:-0.45327793 11:-0.34570358 12:-0.089040665 13:2.229942 
1 1:0.72454421 2:0.6412387 3:-0.10181889 4:0.41829972 5:-0.70926894 6:-0.39439456 7:-0.28992636 8:-0.10621737 9:-0.38506646 10:-0.45327793 11:1.3359387 12:7.8854632 13:0.27370625 
1 1:0.39310584 2:0.88525775 3:1.3336819 4:-0.96987725 5:0.44348073 6:-0.39439456 7:-0.5954547 8:0.058816481 9:0.9462935 10:-0.45327793 11:-0.34570358 12:13.201799 13:1.5778634 
1 1:0.085396767 2:0.59671692 3:-0.99135087 4:5.9647141 5:-0.3896246 6:2.8752751 7:-0.39176914 8:-0.7663528 9:-0.38506646 10:-0.45327793 11:-0.34570358 12:-0.089040665 13:2.229942 
1 1:-2.507848 2:-1.6534762 3:0.75198506 4:-1.5469131 5:-0.73189261 6:-0.39439456 7:-1.3083541 8:-0.7663528 9:-0.38506646 10:-0.45327793 11:5.6601616 12:-0.089040665 13:-0.37837233 
1 1:0.70177953 2:0.78373675 3:1.8034096 4:0.27623693 5:2.9692541 6:-0.39439456 7:1.2377153 8:-0.7663528 9:-0.38506646 10:-0.45327793 11:-0.34570358 12:-0.089040665 13:-0.37837233 
1 1:-2.9776108 2:-2.6315374 3:-0.96503336 4:1.8301429 5:-0.70735153 6:-0.39439456 7:-1.0206483 8:-0.58068971 9:-0.37175286 10:1.2535671 11:-0.34570358 12:-0.089040665 13:6.9901156 
1 1:0.10835437 2:0.62890305 3:0.76681857 4:2.8795195 5:-0.71797505 6:-0.39439456 7:-0.5954547 8:0.22385034 9:-0.38506646 10:-0.45327793 11:-0.34570358 12:2.5691273 13:6.794492 
1 1:-3.0989581 2:-2.6340896 3:-1.7185118 4:-0.23248813 5:-0.091751783 6:2.0578577 7:-0.90098303 8:-0.7663528 9:-0.38506646 10:-0.45327793 11:-0.34570358 12:21.176303 13:2.229942 
1 1:0.25632482 2:0.626918 3:-0.6685227 4:5.9576995 5:-0.43859367 6:3.6926925 7:-0.5954547 8:-0.7663528 9:-0.38506646 10:-0.45327793 11:-0.34570358 12:-0.089040665 13:1.5778634 
1 1:0.68557416 2:0.93431678 3:1.2164493 4:-1.3212647 5:-0.60143084 6:-0.39439456 7:-1.2065114 8:3.1944597 9:-0.38506646 10:-0.45327793 11:-0.34570358 12:-0.089040665 13:-0.37837233 
1 1:2.1998115 2:-1.1786245 3:-1.6575827 4:-0.40805073 5:3.5504479 6:-0.39439456 7:1.2377153 8:-0.7663528 9:-0.38506646 10:-0.45327793 11:-0.34570358 12:-0.089040665 13:-0.37837233 
1 1:-0.4806336 2:0.1987149 3:0.34669535 4:-1.1750718 5:-0.72998989 6:-0.39439456 7:-1.3083541 8:-0.7663528 9:0.14747752 10:0.43109774 11:0.13476564 12:23.834471 13:4.1861777 
1 1:0.085396767 2:0.59671692 3:-0.99135087 4:5.9647141 5:-0.45189188 6:4.2376374 7:-0.69729748 8:-0.7663528 9:-0.38506646 10:-0.45327793 11:-0.34570358 12:-0.089040665 13:0.92578482 
1 1:0.5237134 2:0.62124644 3:2.1651558 4:0.47422014 5:-0.66332925 6:-0.39439456 7:0.62665864 8:-0.43628509 9:-0.38506646 10:-0.45327793 11:0.13476564 12:5.2272953 13:-0.37837233 
1 1:-0.82847025 2:-0.68222082 3:-1.3720776 4:-0.35757157 5:-0.63545084 6:0.96796778 7:-1.3083541 8:-0.7663528 9:-0.38506646 10:1.8460988 11:0.37500025 12:10.543631 13:-0.37837233 
1 1:0.17124663 2:0.53078499 3:0.022112672 4:4.3308937 5:-0.72681284 6:-0.39439456 7:-1.3083541 8:0.058816481 9:-0.38506646 10:-0.45327793 11:4.4589886 12:-0.089040665 13:-0.37837233 
1 1:0.52892226 2:0.5631129 3:-0.19911395 4:0.39056896 5:-0.70774978 6:0.42302284 7:-1.3083541 8:-0.43628509 9:-0.38506646 10:-0.45327793 11:0.13476564 12:-0.089040665 13:11.359042 
1 1:0.17124663 2:0.53078499 3:0.022112672 4:4.3308937 5:-0.72684153 6:-0.39439456 7:-1.3083541 8:0.058816481 9:-0.38506646 10:-0.45327793 11:4.4589886 12:-0.089040665 13:-0.37837233 
1 1:0.19902727 2:0.64662669 3:-0.96918036 4:6.2039984 5:-0.40100058 6:1.7853852 7:-0.086240807 8:-0.60131894 9:-0.38506646 10:-0.45327793 11:-0.34570358 12:-0.089040665 13:2.229942 
1 1:0.61650842 2:0.74105823 3:0.51736044 4:0.085268361 5:-0.55812318 6:0.42302284 7:-0.79914026 8:-0.60131894 9:-0.38506646 10:-0.45327793 11:-0.34570358 12:-0.089040665 13:10.054885 
1 1:-0.4806336 2:0.1987149 3:0.34669535 4:-1.1750718 5:-0.7274161 6:-0.39439456 7:-1.3083541 8:-0.7663528 9:0.41374952 10:0.2542226 11:0.37500025 12:15.859967 13:5.4903349 
1 1:0.19902727 2:0.64662669 3:-0.96918036 4:6.2039984 5:-0.43917045 6:3.6926925 7:-0.5954547 8:-0.7663528 9:-0.38506646 10:-0.45327793 11:-0.34570358 12:-0.089040665 13:1.5778634 
1 1:0.17124663 2:0.53078499 3:0.022112672 4:4.3308937 5:-0.72684153 6:-0.39439456 7:-1.3083541 8:0.058816481 9:-0.38506646 10:-0.45327793 11:4.4589886 12:-0.089040665 13:-0.37837233 
1 1:0.33137111 2:-0.62947527 3:-1.2540475 4:0.43409904 5:-0.71346342 6:-0.39439456 7:-1.3083541 8:-0.7663528 9:6.2717333 10:-0.45327793 11:-0.34570358 12:-0.089040665 13:-0.37837233 
1 1:0.35992342 2:0.50398685 3:0.14173774 4:-0.85679082 5:-0.72758983 6:-0.39439456 7:-1.3083541 8:-0.10621737 9:4.9403734 10:-0.45327793 11:-0.10546897 12:-0.089040665 13:-0.37837233 
1 1:0.72068579 2:0.48385279 3:-0.0050023423 4:0.36342821 5:-0.61841977 6:-0.39439456 7:0.32113031 8:0.22385034 9:-0.38506646 10:-0.45327793 11:-0.34570358 12:7.8854632 13:-0.37837233 
1 1:0.17124663 2:0.53078499 3:0.022112672 4:4.3308937 5:-0.72681284 6:-0.39439456 7:-1.3083541 8:0.058816481 9:-0.38506646 10:-0.45327793 11:4.4589886 12:-0.089040665 13:-0.37837233 
1 1:-1.5173913 2:-1.7101918 3:-1.2234235 4:-1.0373358 5:2.2819152 6:-0.39439456 7:-0.28992636 8:-0.7663528 9:-0.38506646 10:-0.45327793 11:-0.34570358 12:39.783479 13:-0.37837233 
1 1:-0.38841734 2:-0.091952767 3:-0.012498846 4:-0.21373873 5:4.8239132 6:-0.39439456 7:1.2377153 8:-0.7663528 9:-0.38506646 10:-0.45327793 11:-0.34570358 12:-0.089040665 13:-0.37837233 
1 1:-3.0989581 2:-2.6340896 3:-1.7185118 4:-0.23248813 5:-0.60853638 6:0.69549531 7:-1.2065114 8:-0.7663528 9:-0.38506646 10:-0.45327793 11:-0.34570358 12:26.492639 13:6.1424134 
1 1:0.30127542 2:0.59756766 3:0.14221624 4:4.182013 5:-0.72327706 6:5.0550548 7:-1.3083541 8:-0.7663528 9:-0.38506646 10:-0.45327793 11:-0.34570358 12:-0.089040665 13:2.8820206 
1 1:0.70177953 2:0.78373675 3:1.8034096 4:0.27623693 5:2.9692541 6:-0.39439456 7:1.2377153 8:-0.7663528 9:-0.38506646 10:-0.45327793 11:-0.34570358 12:-0.089040665 13:-0.37837233 
1 1:0.58872779 2:-0.10655704 3:-0.98369487 4:-0.46246333 5:-0.72785734 6:-0.39439456 7:-1.3083541 8:-0.27125123 9:1.2125655 10:-0.099527664 11:-0.34570358 12:-0.089040665 13:8.7507278 
1 1:0.060895793 2:0.64336554 3:-0.37839204 4:3.7858499 5:-0.71432718 6:-0.39439456 7:-1.0028258 8:0.058816481 9:-0.38506646 10:-0.45327793 11:0.13476564 12:2.5691273 13:8.7507278 
1 1:0.5237134 2:0.62124644 3:2.1651558 4:0.47422014 5:-0.6160105 6:-0.39439456 7:0.32113031 8:0.22385034 9:-0.38506646 10:-0.45327793 11:-0.34570358 12:7.8854632 13:-0.37837233 
0.95143416969278627 1:0.14076511 2:0.28095258 3:1.6620926 4:-1.0645421 5:-0.70898986 6:-0.39439456 7:-0.39176914 8:1.2140535 9:-0.38506646 10:-0.45327793 11:0.13476564 12:5.2272953 13:-0.37837233 
1 1:0.70177953 2:0.78373675 3:1.8034096 4:0.27623693 5:2.9886492 6:-0.39439456 7:1.2377153 8:-0.7663528 9:-0.38506646 10:-0.45327793 11:-0.34570358 12:-0.089040665 13:-0.37837233 
1 1:-4.6685638 2:-3.9381241 3:0.20537827 4:-1.3526011 5:-0.71512875 6:-0.39439456 7:-1.2065114 8:3.1944597 9:-0.38506646 10:-0.45327793 11:-0.34570358 12:-0.089040665 13:-0.37837233 
1 1:0.20616534 2:0.69752898 3:2.6659861 4:-1.5006951 5:-0.29943874 6:-0.39439456 7:-0.88825269 8:-0.25474784 9:0.60679671 10:0.97056689 11:0.44707063 12:7.0215586 13:-0.37837233 
1 1:-2.8273253 2:-3.6427773 3:-1.2878615 4:1.4127392 5:-0.66555842 6:-0.39439456 7:-0.90098303 8:-0.7663528 9:-0.38506646 10:-0.2764028 11:0.37500025 12:-0.089040665 13:10.706963 
1 1:0.5237134 2:0.62124644 3:2.1651558 4:0.47422014 5:-0.6160105 6:-0.39439456 7:0.32113031 8:0.22385034 9:-0.38506646 10:-0.45327793 11:-0.34570358 12:7.8854632 13:-0.37837233 
1 1:-0.32263126 2:-0.03906543 3:0.34844985 4:-1.1237404 5:-0.72990247 6:-0.39439456 7:-1.3083541 8:-0.7663528 9:-0.38506646 10:-0.45327793 11:5.6601616 12:-0.089040665 13:-0.37837233 
1 1:0.59721632 2:0.73113299 3:-0.15190192 4:0.19724032 5:-0.6165335 6:0.96796778 7:-0.90098303 8:-0.43628509 9:-0.38506646 10:-0.45327793 11:-0.34570358 12:-0.089040665 13:8.7507278 
1 1:0.70177953 2:0.78373675 3:1.8034096 4:0.27623693 5:2.9886492 6:-0.39439456 7:1.2377153 8:-0.7663528 9:-0.38506646 10:-0.45327793 11:-0.34570358 12:-0.089040665 13:-0.37837233 
1 1:2.1998115 2:-1.1786245 3:-1.6575827 4:-0.40805073 5:3.9733112 6:-0.39439456 7:1.2377153 8:-0.7663528 9:-0.38506646 10:-0.45327793 11:-0.34570358 12:-0.089040665 13:-0.37837233 
0.74075954825997337 1:-0.012028364 2:0.25188582 3:-0.96918036 4:1.5003894 5:-0.73025387 6:-0.39439456 7:-1.3083541 8:-0.7663528 9:-0.38506646 10:-0.45327793 11:5.6601616 12:-0.089040665 13:-0.37837233 
1 1:2.1998115 2:-1.1786245 3:-1.6575827 4:-0.40805073 5:3.5504479 6:-0.39439456 7:1.2377153 8:-0.7663528 9:-0.38506646 10:-0.45327793 11:-0.34570358 12:-0.089040665 13:-0.37837233 
1 1:-5.5938131 2:-4.2371573 3:-0.6648542 4:-1.0225198 5:-0.63174875 6:-0.39439456 7:-0.5954547 8:-0.7663528 9:4.1415574 10:-0.2764028 11:-0.34570358 12:-0.089040665 13:-0.37837233 
1 1:0.10835437 2:0.62890305 3:0.76681857 4:2.8795195 5:-0.71797505 6:-0.39439456 7:-0.5954547 8:0.22385034 9:-0.38506646 10:-0.45327793 11:-0.34570358 12:2.5691273 13:6.794492 
1 1:0.46988842 2:0.60295564 3:0.47668792 4:0.59333785 5:-0.70934612 6:-0.39439456 7:-0.28992636 8:-0.10621737 9:-0.38506646 10:-0.45327793 11:1.3359387 12:7.8854632 13:0.27370625 
1 1:-1.0327736 2:-0.61260236 3:-0.023823352 4:-1.3305083 5:-0.73173231 6:-0.39439456 7:-1.3083541 8:-0.7663528 9:-0.38506646 10:-0.45327793 11:5.6601616 12:-0.089040665 13:-0.37837233 
1 1:-0.64693154 2:-0.46726853 3:-1.144471 4:-0.055352164 5:-0.72830171 6:-0.39439456 7:-1.2065114 8:-0.7663528 9:1.4788375 10:1.6692237 11:0.13476564 12:7.8854632 13:-0.37837233 
1 1:-0.071448048 2:-0.1930484 3:-0.65241319 4:-1.2466604 5:-0.71821167 6:-0.39439456 7:-1.3083541 8:-0.10621737 9:5.2066454 10:-0.45327793 11:-0.34570358 12:-0.089040665 13:-0.37837233 
0.72413265928184389 1:0.36725442 2:0.41097319 3:0.32452483 4:-1.3914766 5:-0.73187219 6:-0.39439456 7:-1.3083541 8:-0.7663528 9:-0.38506646 10:3.9243816 11:-0.34570358 12:-0.089040665 13:-0.21535269 
1 1:-1.0345099 2:-0.46755211 3:0.19883877 4:-1.325067 5:-0.73174738 6:-0.39439456 7:-1.3083541 8:-0.7663528 9:-0.38506646 10:-0.45327793 11:5.6601616 12:-0.089040665 13:-0.37837233 
1 1:-1.0345099 2:-0.46755211 3:0.19883877 4:-1.325067 5:-0.73174738 6:-0.39439456 7:-1.3083541 8:-0.7663528 9:-0.38506646 10:-0.45327793 11:5.6601616 12:-0.089040665 13:-0.37837233 
1 1:0.075943635 2:0.53603118 3:0.88612464 4:-1.3919355 5:-0.62985451 6:-0.39439456 7:-1.3083541 8:-0.7663528 9:-0.38506646 10:3.9686004 11:-0.34570358 12:-0.089040665 13:-0.37837233 
1 1:0.066104662 2:0.63485819 3:-0.21633996 4:3.1860657 5:-0.71800095 6:-0.39439456 7:-0.5954547 8:0.22385034 9:-0.38506646 10:-0.45327793 11:-0.34570358 12:2.5691273 13:6.794492 
1 1:0.59374374 2:0.64761921 3:0.67127802 4:0.17167295 5:-0.70298897 6:-0.39439456 7:-1.0028258 8:0.7189519 9:-0.38506646 10:-0.45327793 11:1.0957041 12:5.2272953 13:2.8820206 
1 1:0.11163403 2:0.65144752 3:-0.72195523 4:4.4985239 5:-0.71026724 6:0.69549531 7:-1.0028258 8:0.058816481 9:-0.38506646 10:-0.45327793 11:0.13476564 12:-0.089040665 13:6.794492 
1 1:0.7822276 2:0.038493211 3:-0.45590908 4:-0.3047979 5:4.4018423 6:-0.39439456 7:0.93218698 8:-0.7663528 9:-0.38506646 10:0.077347469 11:-0.34570358 12:-0.089040665 13:-0.37837233 
1 1:0.83585966 2:0.6907231 3:-0.26945348 4:0.12788064 5:-0.61733125 6:0.96796778 7:-0.90098303 8:-0.43628509 9:-0.38506646 10:-0.45327793 11:-0.34570358 12:-0.089040665 13:8.7507278 
0.98878018678099022 1:0.64872624 2:0.81422141 3:2.0129927 4:0.26286323 5:-0.48255349 6:2.8752751 7:-0.90098303 8:-0.7663528 9:-0.38506646 10:-0.45327793 11:-0.34570358 12:-0.089040665 13:5.4903349 
1 1:0.23471766 2:0.43493555 3:-0.82084528 4:4.3932388 5:-0.73084234 6:-0.39439456 7:-1.3083541 8:-0.7663528 9:-0.38506646 10:-0.45327793 11:5.6601616 12:-0.089040665 13:-0.37837233 
1 1:-0.20552818 2:-0.54780474 3:-1.1074669 4:0.043639441 5:-0.7284869 6:-0.39439456 7:-1.2065114 8:-0.7663528 9:1.7451095 10:1.4923485 11:0.13476564 12:7.8854632 13:-0.37837233 
1 1:0.5237134 2:0.62124644 3:2.1651558 4:0.47422014 5:-0.59407356 6:-0.39439456 7:0.11744475 8:0.55391805 9:-0.38506646 10:-0.45327793 11:-0.34570358 12:7.8854632 13:-0.37837233 
1 1:-4.5805918 2:-4.258851 3:-1.0862534 4:-1.2929439 5:-0.592559 6:-0.39439456 7:-1.2065114 8:1.3790873 9:-0.11879447 10:-0.45327793 11:-0.34570358 12:-0.089040665 13:6.1424134 
1 1:0.22584329 2:0.58353053 3:-0.31379451 4:2.8525098 5:-0.71798541 6:-0.39439456 7:-0.5954547 8:0.22385034 9:-0.38506646 10:-0.45327793 11:-0.34570358 12:2.5691273 13:6.794492 
1 1:2.1998115 2:-1.1786245 3:-1.6575827 4:-0.40805073 5:5.6666205 6:-0.39439456 7:1.2377153 8:-0.7663528 9:-0.38506646 10:-0.45327793 11:-0.34570358 12:-0.089040665 13:-0.37837233 
1 1:0.47914863 2:-0.35979239 3:-1.2377785 4:-0.0400773 5:-0.67101052 6:-0.39439456 7:0.015601971 8:-0.7663528 9:-0.38506646 10:-0.45327793 11:-0.34570358 12:-0.089040665 13:7.4465706 
1 1:-2.5246321 2:-1.6024321 3:0.12738273 4:-1.5772661 5:-0.73182526 6:-0.39439456 7:-1.3083541 8:-0.7663528 9:-0.38506646 10:-0.45327793 11:5.6601616 12:-0.089040665 13:-0.37837233 
1 1:0.64544658 2:0.77352794 3:0.18528126 4:0.056685354 5:-0.66956326 6:1.5129127 7:-0.79914026 8:-0.7663528 9:-0.38506646 10:-0.45327793 11:-0.34570358 12:-0.089040665 13:8.0986492 
1 1:-3.8399679 2:-3.3352368 3:-1.0127239 4:-1.4418902 5:2.2018236 6:-0.39439456 7:1.2377153 8:-0.7663528 9:-0.38506646 10:-0.45327793 11:-0.34570358 12:-0.089040665 13:-0.37837233 
1 1:0.43477679 2:0.56765015 3:-0.12510591 4:3.6992486 5:-0.70166796 6:6.1176974 7:-1.3083541 8:-0.7663528 9:-0.38506646 10:-0.45327793 11:-0.34570358 12:2.8349441 13:-0.37837233 
1 1:-1.6890911 2:-3.2782376 3:-1.311946 4:1.6622505 5:-0.73141935 6:-0.39439456 7:-1.3058081 8:-0.25887369 9:5.4130062 10:-0.44885605 11:-0.32768598 12:-0.089040665 13:-0.36207037 
1 1:-1.5008001 2:-0.67257916 3:0.94785117 4:-1.7405039 5:-0.73050078 6:-0.39439456 7:-1.3083541 8:-0.7663528 9:-0.38506646 10:3.9686004 11:-0.34570358 12:-0.089040665 13:-0.37837233 
1 1:0.17124663 2:0.53078499 3:0.022112672 4:4.3308937 5:-0.72802502 6:-0.39439456 7:-1.3083541 8:-0.10621737 9:-0.38506646 10:-0.45327793 11:4.6992232 12:-0.089040665 13:-0.37837233 
1 1:0.24011945 2:0.51844933 3:-0.26610398 4:4.5456596 5:-0.65884528 6:-0.39439456 7:-0.69729748 8:2.3692905 9:-0.38506646 10:-0.45327793 11:-0.34570358 12:-0.089040665 13:-0.37837233 
1 1:0.20018479 2:0.64407448 3:0.83859361 4:-1.5788395 5:-0.64816633 6:-0.39439456 7:-1.3083541 8:3.3594936 9:-0.38506646 10:-0.45327793 11:-0.34570358 12:-0.089040665 13:-0.37837233 
1 1:1.9146742 2:-0.77565984 3:-1.7092608 4:-0.74108209 5:-0.40251149 6:-0.39439456 7:-1.1454057 8:3.0913136 9:-0.37840966 10:-0.45327793 11:-0.34570358 12:-0.089040665 13:-0.37837233 
1 1:-4.8203927 2:-4.1605912 3:-0.49498661 4:-1.5283604 5:-0.69305029 6:-0.39439456 7:-1.1046686 8:3.0294259 9:-0.38506646 10:-0.45327793 11:-0.34570358 12:-0.089040665 13:-0.37837233 
1 1:0.62210313 2:0.75821471 3:-0.38365555 4:0.26345325 5:-0.55598479 6:0.42302284 7:-0.79914026 8:-0.60131894 9:-0.38506646 10:-0.45327793 11:-0.34570358 12:-0.089040665 13:10.054885 
1 1:-2.507848 2:-1.6534762 3:0.75198506 4:-1.5469131 5:-0.73189261 6:-0.39439456 7:-1.3083541 8:-0.7663528 9:-0.38506646 10:-0.45327793 11:5.6601616 12:-0.089040665 13:-0.37837233 
1 1:0.10835437 2:0.62890305 3:0.76681857 4:2.8795195 5:-0.71797505 6:-0.39439456 7:-0.5954547 8:0.22385034 9:-0.38506646 10:-0.45327793 11:-0.34570358 12:2.5691273 13:6.794492 
1 1:-1.1579794 2:-0.68491481 3:0.51831744 4:-1.4099638 5:-0.72655366 6:-0.39439456 7:-1.3083541 8:-0.7663528 9:-0.38506646 10:-0.45327793 11:5.6601616 12:-0.089040665 13:-0.37837233 
1 1:0.33600121 2:0.61160478 3:0.12403323 4:4.4667941 5:-0.7298522 6:5.3275273 7:-1.3083541 8:-0.7663528 9:-0.38506646 10:0.2542226 11:-0.34570358 12:-0.089040665 13:-0.37837233 
0.85687420281115445 1:0.70177953 2:0.78373675 3:1.8034096 4:0.27623693 5:2.9692541 6:-0.39439456 7:1.2377153 8:-0.7663528 9:-0.38506646 10:-0.45327793 11:-0.34570358 12:-0.089040665 13:-0.37837233 
1 1:0.92441042 2:0.70802137 3:-0.88225281 4:0.10493557 5:-0.70337431 6:2.8752751 7:-1.1046686 8:-0.7663528 9:-0.38506646 10:-0.45327793 11:-0.34570358 12:-0.089040665 13:6.794492 
1 1:-0.24391947 2:0.018642736 3:-0.21665896 4:-1.1333773 5:-0.72996812 6:-0.39439456 7:-1.3083541 8:-0.7663528 9:-0.38506646 10:-0.45327793 11:5.6601616 12:-0.089040665 13:-0.37837233 
1 1:0.98247966 2:0.84470607 3:0.20474027 4:-0.41290197 5:4.2749615 6:-0.39439456 7:1.2377153 8:-0.7663528 9:-0.38506646 10:-0.45327793 11:-0.34570358 12:-0.089040665 13:-0.37837233 
1 1:0.25806111 2:0.68817089 3:-0.94254385 4:3.8782202 5:-0.72045602 6:-0.12192209 7:-1.2065114 8:-0.10621737 9:-0.38506646 10:-0.45327793 11:-0.34570358 12:2.5691273 13:11.359042 
1 1:-0.66641657 2:-0.67357168 3:-1.8359038 4:3.8060415 5:-0.72197686 6:-0.39439456 7:-1.3083541 8:-0.7663528 9:-0.38506646 10:3.9686004 11:-0.34570358 12:-0.089040665 13:-0.37837233 
1 1:0.86209692 2:0.71993165 3:0.34797135 4:-0.90064869 5:-0.73189261 6:-0.39439456 7:-1.3083541 8:-0.7663528 9:-0.38506646 10:3.9686004 11:-0.34570358 12:-0.089040665 13:-0.37837233 
1 1:0.13632792 2:-0.27642039 3:-1.0978969 4:-0.046436363 5:-0.70510166 6:-0.39439456 7:-1.3083541 8:-0.7663528 9:6.2717333 10:-0.45327793 11:-0.34570358 12:-0.089040665 13:-0.37837233 
1 1:-1.2984259 2:-1.2408699 3:-1.0458999 4:-0.36760184 5:-0.73149398 6:-0.39439456 7:-1.3083541 8:-0.7663528 9:-0.38506646 10:0.60797287 11:3.2578156 12:10.543631 13:-0.37837233 
1 1:-0.40674484 2:0.020911361 3:-0.75911875 4:2.7513548 5:-0.40340005 6:2.0578577 7:-1.3083541 8:-0.7663528 9:-0.38506646 10:-0.45327793 11:-0.34570358 12:42.441647 13:-0.37837233 
1 1:0.25806111 2:0.68817089 3:-0.94254385 4:3.8782202 5:-0.72528397 6:-0.12192209 7:-0.79914026 8:0.22385034 9:-0.38506646 10:-0.45327793 11:-0.34570358 12:-0.089040665 13:8.0986492 
1 1:0.70177953 2:0.78373675 3:1.8034096 4:0.27623693 5:2.9886492 6:-0.39439456 7:1.2377153 8:-0.7663528 9:-0.38506646 10:-0.45327793 11:-0.34570358 12:-0.089040665 13:-0.37837233 
1 1:0.70177953 2:0.78373675 3:1.8034096 4:0.27623693 5:-0.66071392 6:1.5129127 7:-0.79914026 8:-0.7663528 9:-0.38506646 10:-0.45327793 11:-0.34570358 12:-0.089040665 13:8.0986492 
1 1:0.11163403 2:0.65144752 3:-0.72195523 4:4.4985239 5:-0.70432564 6:-0.39439456 7:-0.5954547 8:0.38888419 9:-0.38506646 10:-0.45327793 11:-0.10546897 12:2.5691273 13:5.4903349 
1 1:0.64872624 2:0.81422141 3:2.0129927 4:0.26286323 5:-0.61565966 6:0.96796778 7:-0.90098303 8:-0.43628509 9:-0.38506646 10:-0.45327793 11:-0.34570358 12:-0.089040665 13:8.7507278 
1 1:0.70177953 2:0.78373675 3:1.8034096 4:0.27623693 5:2.9886492 6:-0.39439456 7:1.2377153 8:-0.7663528 9:-0.38506646 10:-0.45327793 11:-0.34570358 12:-0.089040665 13:-0.37837233 
1 1:0.31420113 2:0.54992652 3:-0.30837151 4:4.2714988 5:-0.72904117 6:5.5999997 7:-1.3083541 8:-0.60131894 9:-0.38506646 10:-0.2764028 11:-0.34570358 12:-0.089040665 13:0.27370625 
1 1:0.13787129 2:0.71085715 3:-0.83520029 4:6.1660407 5:-0.70162842 6:2.8752751 7:-1.1046686 8:0.22385034 9:-0.38506646 10:-0.45327793 11:-0.34570358 12:-0.089040665 13:2.8820206 
1 1:0.063789609 2:0.55857565 3:-0.99980438 4:6.5532225 5:-0.71816233 6:3.9651649 7:-1.3083541 8:-0.7663528 9:-0.38506646 10:-0.45327793 11:-0.34570358 12:-0.089040665 13:5.4903349 
1 1:0.70274413 2:0.71737945 3:-0.14376742 4:0.06547004 5:-0.61537759 6:0.96796778 7:-0.90098303 8:-0.43628509 9:-0.38506646 10:-0.45327793 11:-0.34570358 12:-0.089040665 13:8.7507278 
1 1:0.15060408 2:0.64846994 3:0.27715331 4:3.4153853 5:-0.71417753 6:-0.39439456 7:-1.0028258 8:0.058816481 9:-0.38506646 10:-0.45327793 11:0.13476564 12:2.5691273 13:8.7507278 
1 1:0.17124663 2:0.53078499 3:0.022112672 4:4.3308937 5:-0.73073197 6:-0.39439456 7:-1.3083541 8:-0.7663528 9:-0.38506646 10:-0.45327793 11:5.6601616 12:-0.089040665 13:-0.37837233 
1 1:0.21195298 2:0.64492522 3:-0.82132378 4:3.1969482 5:-0.73089593 6:1.7853852 7:-1.2065114 8:-0.60131894 9:-0.38506646 10:-0.45327793 11:-0.34570358 12:2.5691273 13:8.7507278 
0.7270363967921345 1:0.15060408 2:0.64846994 3:0.27715331 4:3.4153853 5:-0.70810413 6:-0.39439456 7:-0.49361192 8:0.22385034 9:-0.38506646 10:-0.45327793 11:-0.34570358 12:-0.089040665 13:6.794492 
1 1:-0.66275107 2:-0.98139583 3:-1.4279026 4:-0.43197916 5:-0.72808368 6:-0.39439456 7:-1.3007159 8:-0.66320664 9:5.486231 10:-0.077418272 11:-0.31567425 12:-0.089040665 13:-0.36207037 
1 1:0.31921708 2:0.63854471 3:-0.010106345 4:4.0949528 5:-0.72652245 6:6.0768266 7:-1.3058081 8:-0.71271679 9:-0.38506646 10:-0.33830909 11:-0.34570358 12:-0.089040665 13:-0.23165465 
1 1:0.85013581 2:0.67172336 3:-0.56229564 4:-0.033652679 5:-0.66925406 6:1.5129127 7:-0.79914026 8:-0.7663528 9:-0.38506646 10:-0.45327793 11:-0.34570358 12:-0.089040665 13:8.0986492 
1 1:0.26462042 2:0.61188836 3:-0.58957016 4:3.6669288 5:-0.7253071 6:-0.12192209 7:-0.79914026 8:0.22385034 9:-0.38506646 10:-0.45327793 11:-0.34570358 12:-0.089040665 13:8.0986492 
1 1:0.50403545 2:0.58154549 3:0.064539695 4:0.44917723 5:-0.61648867 6:-0.39439456 7:0.32113031 8:0.22385034 9:-0.38506646 10:-0.45327793 11:-0.34570358 12:7.8854632 13:-0.37837233 
1 1:-2.2059266 2:-1.1117 3:0.8137116 4:-1.3150367 5:-0.73189261 6:-0.39439456 7:-1.3083541 8:-0.7663528 9:-0.38506646 10:-0.45327793 11:5.6601616 12:-0.089040665 13:-0.37837233 
1 1:0.15060408 2:0.64846994 3:0.27715331 4:3.4153853 5:-0.70810413 6:-0.39439456 7:-0.49361192 8:0.22385034 9:-0.38506646 10:-0.45327793 11:-0.34570358 12:-0.089040665 13:6.794492 
1 1:-3.7344401 2:-2.4949945 3:-1.7585463 4:-0.044731872 5:-0.71572683 6:6.1449447 7:-1.3083541 8:-0.7663528 9:-0.38506646 10:-0.45327793 11:-0.34570358 12:-0.089040665 13:0.27370625 
1 1:-0.16925902 2:0.34135474 3:0.39566187 4:-0.88268597 5:-0.72989955 6:-0.39439456 7:-1.3083541 8:-0.7663528 9:0.14747752 10:0.43109774 11:0.13476564 12:23.834471 13:4.1861777 
1 1:0.722615 2:0.77296078 3:0.081765704 4:-0.1194017 5:-0.70335461 6:2.8752751 7:-1.1046686 8:-0.7663528 9:-0.38506646 10:-0.45327793 11:-0.34570358 12:-0.089040665 13:6.794492 
1 1:0.5237134 2:0.62124644 3:2.1651558 4:0.47422014 5:-0.70112268 6:-0.39439456 7:-1.1046686 8:1.2140535 9:-0.38506646 10:-0.45327793 11:1.3359387 12:5.2272953 13:0.92578482 
1 1:0.24166282 2:-1.0746931 3:-1.177966 4:0.42655995 5:-0.72306999 6:-0.39439456 7:-1.3083541 8:-0.60131894 9:6.0054613 10:-0.45327793 11:-0.34570358 12:-0.089040665 13:-0.37837233 
1 1:0.0068778988 2:0.68746195 3:-1.1237359 4:6.4759303 5:-0.61720843 6:1.5129127 7:-0.69729748 8:0.38888419 9:-0.38506646 10:-0.45327793 11:-0.34570358 12:-0.089040665 13:2.8820206 
1 1:-1.67713 2:-2.1952524 3:-1.25644 4:0.80076132 5:-0.69638879 6:-0.39439456 7:0.015601971 8:-0.7663528 9:1.7451095 10:-0.45327793 11:-0.34570358 12:10.543631 13:-0.37837233 
1 1:0.59374374 2:0.64761921 3:0.67127802 4:0.17167295 5:-0.61696683 6:-0.39439456 7:0.32113031 8:0.22385034 9:-0.38506646 10:-0.45327793 11:-0.34570358 12:7.8854632 13:-0.37837233 
1 1:-1.0784959 2:-0.60608007 3:-0.14727642 4:-0.36753628 5:4.9061113 6:-0.39439456 7:1.2377153 8:-0.7663528 9:-0.38506646 10:-0.45327793 11:-0.34570358 12:-0.089040665 13:-0.37837233 
1 1:0.23008756 2:0.59926912 3:-0.19624295 4:4.2972628 5:-0.72716684 6:-0.39439456 7:-1.3083541 8:0.058816481 9:-0.38506646 10:-0.45327793 11:4.4589886 12:-0.089040665 13:-0.37837233 
1 1:-2.2259904 2:-2.6149481 3:-1.4398651 4:-1.0863071 5:-0.72506682 6:-0.39439456 7:-1.2065114 8:0.55391805 9:-0.38506646 10:-0.45327793 11:-0.34570358 12:-0.089040665 13:10.054885 
1 1:-0.16559352 2:0.52638952 3:0.86523013 4:-1.7686936 5:-0.73188518 6:-0.39439456 7:-1.3083541 8:-0.7663528 9:-0.38506646 10:3.9243816 11:-0.34570358 12:-0.089040665 13:-0.21535269 
1 1:0.70274413 2:0.71737945 3:-0.14376742 4:0.06547004 5:-0.55492457 6:0.42302284 7:-0.79914026 8:-0.60131894 9:-0.38506646 10:-0.45327793 11:-0.34570358 12:-0.089040665 13:10.054885 
1 1:0.59374374 2:0.64761921 3:0.67127802 4:0.17167295 5:-0.70942331 6:-0.39439456 7:-0.28992636 8:-0.10621737 9:-0.38506646 10:-0.45327793 11:1.3359387 12:7.8854632 13:0.27370625 
1 1:-0.84583315 2:-1.2407281 3:-1.280046 4:-0.1693564 5:4.3673518 6:-0.39439456 7:0.32113031 8:-0.7663528 9:-0.38506646 10:-0.45327793 11:-0.34570358 12:2.5691273 13:4.8382563 
1 1:0.86827039 2:0.1245592 3:-0.6736267 4:-0.083804055 5:5.6421558 6:-0.39439456 7:1.0340298 8:-0.7663528 9:-0.38506646 10:-0.45327793 11:-0.34570358 12:-0.089040665 13:0.92578482 
1 1:-2.4873984 2:-1.5496866 3:0.59073048 4:-1.5696615 5:-0.73189261 6:-0.39439456 7:-1.3083541 8:-0.7663528 9:-0.38506646 10:-0.45327793 11:5.6601616 12:-0.089040665 13:-0.37837233 
1 1:0.50403545 2:0.58154549 3:0.064539695 4:0.44917723 5:-0.66962636 6:-0.39439456 7:-0.18808359 8:0.88398576 9:-0.38506646 10:-0.45327793 11:-0.10546897 12:7.8854632 13:-0.37837233 
1 1:0.5237134 2:0.62124644 3:2.1651558 4:0.47422014 5:-0.62471092 6:-0.39439456 7:0.62665864 8:-0.27125123 9:-0.38506646 10:-0.45327793 11:-0.10546897 12:5.2272953 13:-0.37837233 
1 1:0.010157557 2:0.60508248 3:2.8269217 4:-1.5055464 5:-0.70811343 6:-0.39439456 7:-1.3083541 8:-0.43628509 9:2.8101974 10:-0.099527664 11:0.13476564 12:18.518135 13:-0.37837233 
1 1:2.1998115 2:-1.1786245 3:-1.6575827 4:-0.40805073 5:5.9527741 6:-0.39439456 7:1.2377153 8:-0.7663528 9:-0.38506646 10:-0.45327793 11:-0.34570358 12:-0.089040665 13:-0.37837233 
1 1:0.16951035 2:0.42245811 3:-0.38700505 4:4.5590333 5:-0.67460439 6:-0.39439456 7:-0.90098303 8:2.6993582 9:-0.38506646 10:-0.45327793 11:-0.34570358 12:-0.089040665 13:-0.37837233 
0.27776372918443148 1:-0.19588213 2:-1.6303646 3:-0.81095628 4:0.51847136 5:-0.72942194 6:-0.39439456 7:-1.2981699 8:-0.5353054 9:5.5461422 10:-0.30293407 11:-0.32168012 12:-0.089040665 13:-0.19905072 
1 1:0.10835437 2:0.62890305 3:0.76681857 4:2.8795195 5:-0.71797505 6:-0.39439456 7:-0.5954547 8:0.22385034 9:-0.38506646 10:-0.45327793 11:-0.34570358 12:2.5691273 13:6.794492 
0.62996416231485131 1:0.5237134 2:0.62124644 3:2.1651558 4:0.47422014 5:-0.67644836 6:-0.39439456 7:0.21928753 8:-0.10621737 9:-0.38506646 10:-0.45327793 11:0.61523486 12:5.2272953 13:-0.37837233 
1 1:0.060895793 2:0.64336554 3:-0.37839204 4:3.7858499 5:-0.72048645 6:-0.12192209 7:-1.2065114 8:-0.10621737 9:-0.38506646 10:-0.45327793 11:-0.34570358 12:2.5691273 13:11.359042 
1 1:0.10835437 2:0.62890305 3:0.76681857 4:2.8795195 5:-0.71797505 6:-0.39439456 7:-0.5954547 8:0.22385034 9:-0.38506646 10:-0.45327793 11:-0.34570358 12:2.5691273 13:6.794492 
1 1:-4.7368578 2:-4.0563762 3:-1.4483186 4:0.43010004 5:-0.72428761 6:-0.39439456 7:-1.3083541 8:3.3594936 9:-0.38506646 10:-0.45327793 11:-0.34570358 12:-0.089040665 13:-0.37837233 
1 1:0.17124663 2:0.53078499 3:0.022112672 4:4.3308937 5:-0.72802502 6:-0.39439456 7:-1.3083541 8:-0.10621737 9:-0.38506646 10:-0.45327793 11:4.6992232 12:-0.089040665 13:-0.37837233 
1 1:0.17124663 2:0.53078499 3:0.022112672 4:4.3308937 5:-0.72681284 6:-0.39439456 7:-1.3083541 8:0.058816481 9:-0.38506646 10:-0.45327793 11:4.4589886 12:-0.089040665 13:-0.37837233 
1 1:-0.017430154 2:0.28974351 3:0.62071649 4:4.2977217 5:-0.67473812 6:-0.39439456 7:-0.90098303 8:2.6993582 9:-0.38506646 10:-0.45327793 11:-0.34570358 12:-0.089040665 13:-0.37837233 
1 1:0.13787129 2:0.71085715 3:-0.83520029 4:6.1660407 5:-0.65366207 6:2.8752751 7:-1.0028258 8:0.38888419 9:-0.38506646 10:-0.45327793 11:-0.34570358 12:-0.089040665 13:1.5778634 
1 1:-1.0858269 2:-0.52015587 3:-0.6752217 4:-0.92785499 5:3.6342309 6:-0.39439456 7:1.2377153 8:-0.7663528 9:-0.38506646 10:-0.45327793 11:-0.34570358 12:-0.089040665 13:-0.37837233 
1 1:0.5237134 2:0.62124644 3:2.1651558 4:0.47422014 5:-0.68934731 6:-0.39439456 7:-0.5954547 8:1.8741889 9:-0.38506646 10:-0.45327793 11:-0.34570358 12:5.2272953 13:-0.37837233 
1 1:-2.5246321 2:-1.6024321 3:0.12738273 4:-1.5772661 5:-0.73182526 6:-0.39439456 7:-1.3083541 8:-0.7663528 9:-0.38506646 10:-0.45327793 11:5.6601616 12:-0.089040665 13:-0.37837233 
1 1:-3.4531612 2:-3.5737261 3:-1.18307 4:-0.19649715 5:-0.73091613 6:-0.39439456 7:-1.3083541 8:-0.7663528 9:-0.38506646 10:3.2610999 11:-0.34570358 12:10.543631 13:-0.37837233 
1 1:-2.507848 2:-1.6534762 3:0.75198506 4:-1.5469131 5:-0.73189261 6:-0.39439456 7:-1.3083541 8:-0.60131894 9:-0.38506646 10:-0.45327793 11:5.419927 12:-0.089040665 13:-0.37837233 
1 1:-2.9010211 2:-1.8932416 3:1.0221782 4:-1.1789397 5:-0.71673479 6:-0.39439456 7:-0.69729748 8:0.38888419 9:-0.38506646 10:-0.45327793 11:1.5761733 12:10.543631 13:-0.37837233 
1 1:0.64544658 2:0.77352794 3:0.18528126 4:0.056685354 5:-0.70338417 6:2.8752751 7:-1.1046686 8:-0.7663528 9:-0.38506646 10:-0.45327793 11:-0.34570358 12:-0.089040665 13:6.794492 
1 1:-0.45439634 2:-4.3111712 3:-1.6462582 4:0.75192109 5:-0.73101678 6:-0.39439456 7:-1.3007159 8:-0.65495494 9:1.3856423 10:-0.41348103 11:3.1977569 12:6.5563792 13:-0.29686251 
1 1:0.66628205 2:-0.69484005 3:-1.4023826 4:0.67836574 5:-0.71051209 6:-0.39439456 7:-1.2065114 8:-0.7663528 9:6.0054613 10:-0.45327793 11:-0.34570358 12:-0.089040665 13:-0.37837233 
1 1:0.20018479 2:0.64407448 3:0.83859361 4:-1.5788395 5:-0.66573627 6:-0.39439456 7:-1.3083541 8:3.3594936 9:-0.38506646 10:-0.45327793 11:-0.34570358 12:-0.089040665 13:-0.37837233 
0.96243418142743786 1:0.15060408 2:0.64846994 3:0.27715331 4:3.4153853 5:-0.70810413 6:-0.39439456 7:-0.49361192 8:0.22385034 9:-0.38506646 10:-0.45327793 11:-0.34570358 12:-0.089040665 13:6.794492 
1 1:0.13169782 2:-0.4026127 3:-0.81143478 4:-0.30453567 5:-0.731794 6:-0.39439456 7:-1.3083541 8:-0.74159772 9:5.486231 10:-0.28966843 11:0.10473631 12:-0.089040665 13:-0.37837233 
1 1:-0.18449978 2:-0.098616855 3:-0.13802541 4:-1.1752684 5:-0.72986701 6:-0.39439456 7:-1.3083541 8:-0.7663528 9:-0.38506646 10:-0.45327793 11:5.6601616 12:-0.089040665 13:-0.37837233 
1 1:1.1115438 2:1.1447318 3:-0.56373114 4:-0.16516073 5:5.3156672 6:-0.39439456 7:1.1358725 8:-0.7663528 9:-0.38506646 10:-0.45327793 11:-0.34570358 12:-0.089040665 13:0.27370625 
1 1:-0.30333915 2:-0.0075882488 3:-0.14727642 4:3.6141552 5:-0.73189261 6:-0.39439456 7:-1.3083541 8:-0.60131894 9:-0.38506646 10:3.6148501 11:-0.10546897 12:-0.089040665 13:-0.37837233 
1 1:0.4723964 2:0.60692574 3:0.57254747 4:0.35647913 5:-0.70919175 6:-0.39439456 7:-0.28992636 8:-0.10621737 9:-0.38506646 10:-0.45327793 11:1.3359387 12:7.8854632 13:0.27370625 
1 1:0.5127169 2:-0.80245798 3:-1.3586796 4:0.98563306 5:-0.69345815 6:-0.39439456 7:-1.2065114 8:-0.7663528 9:6.0054613 10:-0.45327793 11:-0.34570358 12:-0.089040665 13:-0.37837233 
1 1:0.13285535 2:-1.1423265 3:-1.196149 4:0.33648414 5:-0.69714306 6:-0.39439456 7:-1.1046686 8:-0.7663528 9:5.7391894 10:-0.45327793 11:-0.34570358 12:-0.089040665 13:-0.37837233 
1 1:0.016909794 2:0.36545889 3:-0.38636705 4:5.5604875 5:-0.71303777 6:4.7825823 7:-1.2065114 8:-0.7663528 9:-0.38506646 10:-0.45327793 11:-0.34570358 12:-0.089040665 13:2.8820206 
1 1:0.15870677 2:0.43238335 3:-0.58095715 4:4.2648119 5:-0.73072589 6:-0.39439456 7:-1.3083541 8:-0.7663528 9:-0.38506646 10:-0.45327793 11:5.6601616 12:-0.089040665 13:-0.37837233 
1 1:0.69849987 2:0.79805745 3:0.35849835 4:-0.04230625 5:-0.71499777 6:3.42022 7:-1.3083541 8:-0.7663528 9:-0.38506646 10:-0.45327793 11:-0.34570358 12:-0.089040665 13:6.794492 
1 1:-5.1853652 2:-4.7805447 3:-1.6346548 4:-1.1552432 5:-0.72295847 6:-0.39439456 7:-1.267617 8:3.0500551 9:-0.33181206 10:-0.39137163 11:-0.15351589 12:-0.089040665 13:-0.29686251 
1 1:-3.4339571 2:-5.0803049 3:-1.6491761 4:-1.2297393 5:-0.67817763 6:-0.39439456 7:-1.1250371 8:-0.73747187 9:1.7650799 10:1.7134425 11:-0.15952176 12:5.0279327 13:-0.37837233 
1 1:-5.2229367 2:-4.7157516 3:-1.331113 4:-0.6530205 5:-0.73093374 6:6.2743691 7:-1.303262 8:-0.7581011 9:-0.34512566 10:-0.45327793 11:-0.30366252 12:-0.089040665 13:-0.32946644 
1 1:-0.91009649 2:-0.95270819 3:-2.0337561 4:-0.71199955 5:-0.72146356 6:6.2471218 7:-1.3007159 8:-0.7663528 9:-0.34512566 10:-0.41348103 11:-0.34570358 12:-0.089040665 13:-0.28056055 
1 1:-1.7676692 2:-2.615827 3:-1.9887869 4:-0.90767539 5:-0.70323438 6:6.0291439 7:-1.2014192 8:-0.7663528 9:-0.35843926 10:-0.43116854 11:-0.32768598 12:-0.089040665 13:-0.32946644 
1 1:-0.47119266 2:-1.1940552 3:-1.8997855 4:-0.66341036 5:-0.73093374 6:6.2743691 7:-1.303262 8:-0.7581011 9:-0.34512566 10:-0.45327793 11:-0.30366252 12:-0.089040665 13:-0.32946644 
1 1:-0.35874534 2:-4.3498624 3:-1.938665 4:-1.0628646 5:-0.67820644 6:-0.39439456 7:-1.1250371 8:-0.73334603 9:1.7317959 10:1.6780674 11:-0.051416184 12:4.6292075 13:-0.37837233 
1 1:-4.446357 2:-3.7073924 3:-1.699298 4:1.3255126 5:-0.70329201 6:6.0291439 7:-1.2090574 8:-0.7663528 9:-0.34512566 10:-0.43116854 11:-0.32168012 12:-0.089040665 13:-0.32946644 
1 1:-9.7149794 2:-7.8433354 3:-1.9138383 4:-0.29910895 5:-0.72086191 6:-0.39439456 7:-1.2778013 8:2.6622256 9:-0.37840966 10:0.041972443 11:-0.09345724 12:-0.089040665 13:-0.36207037 
1 1:-0.3279589 2:-5.6908646 3:-1.9531863 4:-0.93243335 5:-0.67823526 6:-0.39439456 7:-1.1250371 8:-0.72509433 9:1.5920031 10:1.7399737 11:-0.033398588 12:4.7621159 13:-0.37837233 
1 1:-2.2594643 2:-2.1382091 3:-1.5170792 4:0.0071363433 5:-0.62414751 6:-0.39439456 7:-0.25682746 8:-0.64670325 9:-0.38506646 10:-0.11721518 11:-0.34570358 12:-0.089040665 13:7.4791745 
1 1:-0.61294386 2:-1.6730838 3:-2.0384404 4:-1.1466146 5:-0.70334964 6:6.0291439 7:-1.2192417 8:-0.7663528 9:-0.33181206 10:-0.43116854 11:-0.31567425 12:-0.089040665 13:-0.32946644 
1 1:-2.7853716 2:-1.919646 3:-1.4280777 4:-1.4870121 5:-0.71777542 6:6.131321 7:-1.2727092 8:-0.7663528 9:-0.38506646 10:-0.33830909 11:-0.33969771 12:-0.089040665 13:-0.36207037 
1 1:0.61797964 2:0.51622376 3:-1.5222319 4:2.7760975 5:-0.73079743 6:5.8179777 7:-1.2854395 8:-0.7663528 9:-0.38506646 10:-0.18796523 11:-0.28564493 12:-0.089040665 13:-0.24795662 
1 1:-1.3725877 2:-2.6989584 3:-1.7077297 4:-1.1564997 5:-0.38502702 6:-0.39439456 7:-0.63109967 8:-0.35376816 9:1.7917071 10:-0.33830909 11:0.068701121 12:13.99925 13:-0.37837233 
1 1:-1.2416151 2:-1.4212639 3:-0.83879434 4:-1.3650732 5:-0.71756717 6:6.131321 7:-1.2727092 8:-0.7663528 9:-0.38506646 10:-0.33830909 11:-0.33969771 12:-0.089040665 13:-0.36207037 
1 1:-0.68914198 2:-4.8392357 3:-1.9822289 4:-1.1663555 5:-0.67829309 6:-0.39439456 7:-1.1250371 8:-0.72509433 9:1.3590151 10:1.7620831 11:-0.063427914 12:7.0880128 13:-0.37837233 
1 1:0.019213354 2:0.25096001 3:0.053562431 4:2.6038874 5:-0.72991172 6:6.0155202 7:-1.3083541 8:-0.7663528 9:-0.38506646 10:-0.45327793 11:-0.34570358 12:3.8317571 13:-0.37837233 
1 1:-0.8381457 2:-2.189334 3:-2.0435931 4:-0.88412128 5:-0.70340727 6:6.0291439 7:-1.2065114 8:-0.7663528 9:-0.35843926 10:-0.43116854 11:-0.31567425 12:-0.089040665 13:-0.32946644 
1 1:-3.9077612 2:-3.7186347 3:-2.0370351 4:-1.5794908 5:-0.291703 6:-0.39439456 7:-1.0130101 8:-0.76222695 9:-0.37840966 10:-0.45327793 11:-0.21357454 12:57.128025 13:-0.37837233 
1 1:-1.4716519 2:-4.428997 3:-1.8997855 4:-0.2883506 5:-0.38502702 6:-0.39439456 7:-0.63109967 8:-0.35376816 9:1.7917071 10:-0.33830909 11:0.068701121 12:13.99925 13:-0.37837233 
1 1:-0.653988 2:-0.55254699 3:-1.735367 4:3.5879758 5:-0.71545385 6:6.1040738 7:-1.2828935 8:-0.7663528 9:-0.35843926 10:-0.44443417 11:-0.33369185 12:0.90777232 13:-0.18274876 
1 1:-7.0833194 2:-5.2716812 3:-1.5456533 4:-1.2125687 5:-0.7048983 6:-0.39439456 7:-1.1734125 8:2.5301985 9:-0.36509606 10:-0.13490269 11:0.080712851 12:-0.089040665 13:-0.3457684 
1 1:-0.72325416 2:-0.70457512 3:-1.6477708 4:-0.73623554 5:-0.72372545 6:0.25272755 7:-1.3058081 8:-0.7663528 9:-0.18536247 10:2.7260526 11:-0.027392723 12:6.3570166 13:-0.29686251 
1 1:-5.9734848 2:-4.6495692 3:-1.1821526 4:-1.2340124 5:-0.65145164 6:-0.39439456 7:-0.95699656 8:2.6911065 9:-0.38506646 10:-0.41348103 11:-0.31567425 12:0.043867733 13:-0.26425858 
1 1:-4.1407765 2:-3.4465102 3:-0.56663723 4:1.297961 5:-0.72705861 6:5.9950848 7:-1.2090574 8:-0.7663528 9:-0.38506646 10:-0.37368412 11:-0.34570358 12:-0.089040665 13:-0.28056055 
1 1:-5.0334899 2:-5.4522427 3:-1.9939396 4:-0.72176805 5:-0.72070925 6:-0.39439456 7:-1.2828935 8:-0.74159772 9:4.0616758 10:0.90866059 11:-0.30366252 12:-0.089040665 13:-0.37837233 
1 1:-4.7206301 2:-7.1764677 3:-2.0000292 4:-1.081456 5:0.034398703 6:-0.39439456 7:1.0569444 8:-0.7663528 9:-0.35843926 10:-0.3161997 11:-0.14150416 12:-0.022586466 13:-0.37837233 
1 1:-7.7278446 2:-6.6847113 3:-1.0758193 4:0.35155071 5:-0.56773922 6:0.55925908 7:-0.2950185 8:-0.7581011 9:-0.38506646 10:1.439286 11:-0.34570358 12:-0.089040665 13:0.14329053 
1 1:0.73170917 2:-0.070771943 3:-1.3896665 4:-1.4709895 5:-0.71566108 6:-0.39439456 7:-1.303262 8:-0.73747187 9:-0.37840966 10:3.9243816 11:-0.34570358 12:-0.089040665 13:-0.37837233 
1 1:-4.6907119 2:-3.8928483 3:0.063867863 4:1.6645247 5:-0.71042877 6:4.7348996 7:-1.1377675 8:-0.60131894 9:0.44037671 10:-0.45327793 11:-0.34570358 12:-0.089040665 13:-0.10123894 
1 1:0.73336536 2:0.73532122 3:-0.88188978 4:-0.16279207 5:-0.63609233 6:-0.39439456 7:-0.66674464 8:-0.74984941 9:-0.11213767 10:0.44436337 11:-0.1354983 12:-0.089040665 13:7.2020411 
1 1:-0.90384571 2:-5.6608886 3:-1.9592759 4:0.086858436 5:-0.56465375 6:-0.39439456 7:-0.44778267 8:-0.7581011 9:-0.38506646 10:-0.45327793 11:0.74736389 12:31.676066 13:-0.37837233 
1 1:-1.7075789 2:-5.2634098 3:-1.8267106 4:1.4889555 5:-0.70745917 6:-0.39439456 7:-1.0562933 8:2.7076099 9:-0.11213767 10:-0.45327793 11:-0.24360387 12:0.043867733 13:-0.37837233 
1 1:-10.966672 2:-9.1402231 3:-1.1048619 4:-1.7750436 5:-0.7184067 6:-0.39439456 7:-1.1403136 8:-0.67971002 9:0.8530983 10:2.0273958 11:0.45908236 12:1.5723143 13:-0.26425858 
1 1:-6.0087857 2:-4.9462731 3:-1.6669764 4:1.3765863 5:-0.72312196 6:5.6885533 7:-1.2217878 8:-0.53117955 9:-0.35843926 10:-0.45327793 11:-0.30966839 12:-0.089040665 13:-0.29686251 
1 1:-4.9639566 2:-6.29591 3:-1.7269352 4:-1.0536717 5:-0.69548636 6:-0.39439456 7:-1.1479518 8:3.0129225 9:-0.38506646 10:-0.41348103 11:-0.33969771 12:0.11032193 13:-0.26425858 
1 1:-2.446133 2:-4.8851882 3:-1.5985858 4:-0.37288651 5:-0.64778373 6:-0.39439456 7:-1.119945 8:-0.72096849 9:5.0402254 10:-0.10837142 11:-0.21357454 12:-0.089040665 13:-0.37837233 
1 1:-5.8205143 2:-5.4207598 3:-1.3512554 4:-0.98434296 5:-0.73171502 6:-0.39439456 7:-1.3083541 8:-0.5353054 9:-0.38506646 10:3.6634908 11:-0.29165079 12:-0.022586466 13:-0.3457684 
1 1:2.5694261 2:0.7949313 3:-1.563922 4:-0.15334679 5:-0.33641763 6:-0.39439456 7:-0.71511996 8:2.3857938 9:-0.38506646 10:-0.44443417 11:-0.33969771 12:-0.089040665 13:-0.37837233 
1 1:2.2746376 2:1.1719559 3:-1.2697488 4:-0.5932113 5:-0.16605692 6:-0.39439456 7:-0.92389766 8:2.7199874 9:-0.38506646 10:-0.44885605 11:-0.33369185 12:-0.022586466 13:-0.37837233 
1 1:-0.93687602 2:-0.16857606 3:4.1602773 4:-0.30964668 5:-0.56108721 6:-0.39439456 7:-0.42232198 8:-0.66320664 9:-0.38506646 10:2.3059741 11:-0.32768598 12:-0.089040665 13:-0.37837233 
0.084004153161997872 1:-6.0452887 2:-6.3587475 3:-1.4060616 4:1.1096019 5:-0.6398289 6:-0.39439456 7:-0.1702611 8:1.0325162 9:0.067595926 10:-0.44443417 11:-0.18354522 12:1.1735891 13:-0.36207037 
1 1:-1.5600845 2:-1.5476868 3:-1.8121893 4:0.53852766 5:-0.65224988 6:-0.39439456 7:-0.86024592 8:-0.7663528 9:-0.38506646 10:-0.45327793 11:-0.33969771 12:0.30968453 13:12.940333 
1 1:-0.83546107 2:-6.5294986 3:-2.0445299 4:-1.2886967 5:-0.70947031 6:-0.39439456 7:-1.1632282 8:-0.7663528 9:0.47366071 10:0.90423872 11:2.6932642 12:-0.022586466 13:-0.37837233 
1 1:-4.5531412 2:-3.5641594 3:-2.0047135 4:-1.5265183 5:-0.72358812 6:-0.39439456 7:-1.3007159 8:-0.68383587 9:-0.35178246 10:3.8447878 11:-0.34570358 12:-0.089040665 13:-0.37837233 
1 1:-7.5412027 2:-6.1467246 3:-1.149831 4:-0.020963278 5:-0.70118012 6:-0.39439456 7:-1.0995765 8:-0.67145833 9:-0.38506646 10:1.912427 11:-0.2736332 12:-0.089040665 13:5.2947113 
1 1:-5.1651837 2:-5.3212138 3:-1.6772818 4:0.67059457 5:-0.7277465 6:-0.39439456 7:-1.2319721 8:-0.7663528 9:3.622327 10:1.0501607 11:-0.19555695 12:0.043867733 13:-0.37837233 
1 1:-9.0708014 2:-6.4326242 3:-0.52494707 4:-1.2983534 5:-0.66560256 6:-0.39439456 7:-0.9875494 8:2.3899197 9:-0.36509606 10:-0.16585584 11:-0.09345724 12:-0.089040665 13:-0.37837233 
1 1:-4.0837982 2:-2.605664 3:0.14443761 4:-1.8751086 5:-0.62811379 6:-0.39439456 7:-1.2345181 8:-0.51880201 9:4.5609358 10:-0.18796523 11:0.296924 12:-0.089040665 13:-0.37837233 
1 1:-5.1925376 2:-4.8055193 3:-2.0201716 4:1.5266232 5:-0.71900098 6:5.5999997 7:-1.2497946 8:-0.7581011 9:-0.0056288721 10:-0.40021539 11:-0.23159214 12:-0.089040665 13:-0.28056055 
1 1:-9.3383029 2:-6.5923788 3:-1.8365476 4:-1.2207761 5:-0.38511469 6:-0.39439456 7:-0.058234043 8:0.07119402 9:0.20738872 10:0.033128686 11:0.23085948 12:-0.089040665 13:-0.21535269 
1 1:-5.3161375 2:-4.1297711 3:-0.81162547 4:-1.0743791 5:-0.70451614 6:-0.39439456 7:-1.1810507 8:3.1243203 9:-0.38506646 10:-0.45327793 11:-0.34570358 12:0.043867733 13:-0.29686251 
1 1:-7.855772 2:-6.178186 3:-0.00077530415 4:-1.6817244 5:-0.72487213 6:-0.39439456 7:-1.2421563 8:-0.72096849 9:0.8730687 10:2.1467865 11:0.26689467 12:5.2937495 13:-0.3457684 
1 1:-6.7624726 2:-5.7172072 3:-1.331113 4:-0.24420373 5:-0.71955031 6:-0.39439456 7:-1.267617 8:2.542576 9:-0.23196007 10:0.033128686 11:-0.051416184 12:-0.089040665 13:-0.37837233 
1 1:-7.6278321 2:-5.4433514 3:-1.7021085 4:1.2157867 5:-0.41857382 6:-0.39439456 7:-0.10660936 8:-0.37852324 9:2.1378607 10:-0.43559042 11:-0.23759801 12:-0.089040665 13:0.15959249 
1 1:-3.8997206 2:-3.733767 3:-1.4692994 4:0.69718156 5:-0.6629487 6:5.7907305 7:-1.1250371 8:-0.7663528 9:-0.38506646 10:-0.40905915 11:-0.32168012 12:0.11032193 13:-0.3457684 
1 1:-5.6597703 2:-7.0112309 3:-1.7428618 4:-1.1035152 5:-0.67829309 6:-0.39439456 7:-1.1250371 8:-0.72509433 9:1.3590151 10:1.7620831 11:-0.063427914 12:7.0880128 13:-0.37837233 
1 1:-4.1347928 2:-3.5832991 3:0.39411013 4:0.72180367 5:-0.703704 6:5.3479627 7:-1.1326754 8:-0.72922018 9:-0.38506646 10:-0.15701208 11:-0.30366252 12:-0.089040665 13:-0.29686251 
1 1:-6.9693361 2:-5.4128517 3:0.013745987 4:-1.6476638 5:-0.70782703 6:-0.39439456 7:-1.1352214 8:-0.74984941 9:-0.08551047 10:2.9471465 11:0.33295919 12:-0.022586466 13:-0.37837233 
1 1:-7.3474551 2:-5.5753527 3:-1.8449793 4:-1.4649454 5:-0.57753843 6:-0.39439456 7:-0.79914026 8:2.3445354 9:-0.34512566 10:-0.32946534 11:-0.27963906 12:-0.089040665 13:-0.37837233 
1 1:-4.9249293 2:-3.772474 3:-1.550806 4:-0.3616697 5:-0.7190813 6:5.3615863 7:-1.1683203 8:-0.54768294 9:-0.38506646 10:-0.40905915 11:-0.20156281 12:-0.089040665 13:-0.18274876 
1 1:-2.7175212 2:-3.0539258 3:-1.810784 4:2.1326505 5:-0.72787381 6:6.0018966 7:-1.265071 8:-0.72509433 9:-0.35843926 10:-0.38252788 11:-0.2736332 12:-0.089040665 13:-0.3457684 
1 1:-0.26077633 2:-1.371913 3:-1.945223 4:-0.31380768 5:-0.72125245 6:6.2811809 7:-1.2778013 8:-0.7663528 9:-0.37840966 10:-0.44885605 11:-0.32768598 12:-0.089040665 13:-0.3457684 
1 1:-7.7141677 2:-6.0322279 3:-2.0056504 4:-1.5642545 5:-0.70623933 6:-0.39439456 7:-1.0919382 8:1.7792944 9:-0.36509606 10:0.74062922 11:-0.20756868 12:-0.022586466 13:-0.36207037 
1 1:-0.12229744 2:-4.5248989 3:-1.9901922 4:-0.34294384 5:-0.68860832 6:-0.39439456 7:-1.2090574 8:3.000545 9:-0.28521446 10:-0.34273097 11:-0.29165079 12:-0.089040665 13:-0.37837233 
1 1:-0.49584853 2:-4.1097443 3:-1.9396019 4:-0.44840854 5:-0.7259385 6:-0.39439456 7:-1.2472485 8:3.1820822 9:-0.38506646 10:-0.36926224 11:-0.34570358 12:-0.089040665 13:-0.37837233 
1 1:-2.1328726 2:-1.8731377 3:-1.524574 4:-0.67943918 5:-0.73108252 6:6.3629226 7:-1.3058081 8:-0.7663528 9:-0.38506646 10:-0.43559042 11:-0.33969771 12:-0.089040665 13:-0.3457684 
1 1:-1.2610887 2:-0.38381565 3:3.8454932 4:-1.8149003 5:-0.65482608 6:-0.39439456 7:-0.5037962 8:-0.34551647 9:-0.38506646 10:0.090613104 11:2.4109886 12:-0.089040665 13:-0.37837233 
1 1:-7.9670573 2:-7.1364035 3:-1.6651027 4:0.50450234 5:0.41356695 6:0.67505988 7:0.36950563 8:-0.7663528 9:-0.38506646 10:0.019863051 11:-0.34570358 12:-0.089040665 13:0.87687893 
1 1:-1.2798944 2:-0.36945281 3:4.1007868 4:-1.6435715 5:-0.71761029 6:-0.39439456 7:-1.2701631 8:0.64881251 9:0.027655127 10:0.89539496 11:1.3059094 12:-0.089040665 13:-0.37837233 
1 1:-7.3216773 2:-6.8600898 3:-1.7915784 4:-0.87269428 5:-0.70612059 6:-0.39439456 7:-1.1173989 8:-0.70033925 9:-0.21864647 10:3.0798029 11:-0.2736332 12:-0.022586466 13:0.79536911 
1 1:-7.3823687 2:-6.3587582 3:-1.2458589 4:0.18154235 5:-0.61596849 6:0.38215197 7:-0.54198724 8:-0.34139062 9:0.23401592 10:-0.006668219 11:0.89150466 12:-0.089040665 13:0.95838875 
1 1:-5.7419921 2:-5.2924881 3:-1.064577 4:0.020883086 5:0.83329921 6:-0.39439456 7:1.1587872 8:-0.73334603 9:-0.38506646 10:-0.38252788 11:-0.30366252 12:-0.089040665 13:-0.37837233 
1 1:-8.1602439 2:-7.1856475 3:-1.715693 4:-0.11022964 5:-0.1122888 6:3.890235 7:-0.51398048 8:-0.7663528 9:-0.35178246 10:-0.44885605 11:-0.32768598 12:-0.022586466 13:0.42042393 
1 1:-6.2822308 2:-5.8943596 3:-1.4421306 4:0.30178031 5:-0.69738183 6:-0.38758275 7:-0.97991119 8:-0.70033925 9:-0.37840966 10:3.2257248 11:-0.33969771 12:-0.089040665 13:-0.052333043 
1 1:-7.394336 2:-6.1925596 3:-1.3929455 4:-0.93691695 5:-0.58646317 6:1.5265363 7:-0.35612417 8:-0.7663528 9:0.59348311 10:0.28959763 11:-0.22558628 12:-0.089040665 13:-0.21535269 
1 1:-2.951979 2:-5.926879 3:-1.958339 4:1.0432893 5:-0.72943658 6:-0.39439456 7:-1.2523406 8:2.4435557 9:0.66005111 10:-0.45327793 11:-0.15351589 12:0.57550133 13:-0.37837233 
1 1:-6.5463664 2:-6.7267205 3:-1.9147752 4:-0.31151538 5:-0.67989142 6:-0.39439456 7:-0.76094921 8:-0.74159772 9:-0.33846886 10:2.8012245 11:-0.27963906 12:1.5058601 13:-0.37837233 
1 1:0.55794273 2:0.74537735 3:-0.12162992 4:3.3307101 5:-0.72642815 6:4.9801249 7:-1.3083541 8:-0.7663528 9:-0.38506646 10:-0.45327793 11:-0.34570358 12:13.932795 13:-0.37837233 
1 1:0.5545235 2:0.73443423 3:-0.0035858766 4:3.3809802 5:-0.71185625 6:5.1027375 7:-1.3083541 8:-0.7663528 9:-0.38506646 10:-0.45327793 11:-0.34570358 12:12.73662 13:-0.37837233 
1 1:-2.3980634 2:-3.6301921 3:-0.94138023 4:0.42158106 5:-0.71641824 6:-0.39439456 7:-1.1504978 8:-0.55180878 9:5.1800182 10:-0.30293407 11:-0.30966839 12:0.24323033 13:-0.31316447 
1 1:-6.1018663 2:-6.0673976 3:-1.9480336 4:-0.57969118 5:-0.72718245 6:-0.39439456 7:-1.2701631 8:-0.71684264 9:-0.38506646 10:3.8315222 11:-0.32768598 12:-0.022586466 13:-0.37837233 
1 1:-4.318817 2:-3.7574059 3:-1.7105402 4:-0.75658685 5:-0.71756717 6:6.131321 7:-1.2727092 8:-0.7663528 9:-0.38506646 10:-0.33830909 11:-0.33969771 12:-0.089040665 13:-0.36207037 
1 1:-4.7838325 2:-3.7150013 3:-0.2499794 4:1.7856459 5:-0.65224988 6:-0.39439456 7:-0.86024592 8:-0.7663528 9:-0.38506646 10:-0.45327793 11:-0.33969771 12:0.30968453 13:12.940333 
1 1:-4.9120537 2:-4.0070457 3:-0.72496615 4:0.89678776 5:-0.45782665 6:-0.39439456 7:0.19128076 8:-0.74984941 9:-0.38506646 10:-0.1746996 11:-0.34570358 12:0.24323033 13:5.1316917 
1 1:-7.5542652 2:-6.2018249 3:-1.3906034 4:-1.7923568 5:-0.6743309 6:-0.39439456 7:-0.92135159 8:-0.62194817 9:-0.21864647 10:2.6995213 11:0.068701121 12:-0.089040665 13:-0.28056055 
0.067096160419250234 1:-5.1992692 2:-4.6704723 3:-1.8079734 4:-0.56822772 5:-0.68501418 6:-0.39439456 7:-1.0919382 8:2.9964191 9:-0.38506646 10:-0.45327793 11:-0.34570358 12:-0.089040665 13:-0.32946644 
1 1:-5.1043855 2:-4.6027617 3:-1.768157 4:-0.55345445 5:-0.70839413 6:-0.39439456 7:-1.2396103 8:3.2068373 9:-0.38506646 10:-0.44443417 11:-0.32168012 12:0.11032193 13:-0.36207037 
1 1:-4.5162776 2:-5.8646401 3:-1.7882994 4:-1.2461563 5:-0.67829309 6:-0.39439456 7:-1.1250371 8:-0.72509433 9:1.3590151 10:1.7620831 11:-0.063427914 12:7.0880128 13:-0.37837233 
1 1:-0.10691089 2:0.39635173 3:0.82600144 4:0.74272806 5:-0.72915762 6:6.1176974 7:-1.2574328 8:-0.73334603 9:-0.38506646 10:-0.45327793 11:-0.28564493 12:-0.089040665 13:-0.29686251 
1 1:0.89065003 2:-0.98726878 3:-1.557364 4:0.32620405 5:-0.72597814 6:-0.39439456 7:-1.265071 8:-0.44866263 9:5.353095 10:-0.30293407 11:-0.30366252 12:-0.089040665 13:-0.32946644 
1 1:1.5058313 2:1.4096695 3:0.41940528 4:-0.21516054 5:-0.34155266 6:-0.39439456 7:-1.2217878 8:3.215089 9:-0.38506646 10:-0.45327793 11:-0.33969771 12:-0.089040665 13:-0.37837233 
1 1:-1.5313015 2:-1.7823013 3:-0.58631124 4:-1.3711687 5:-0.72426108 6:-0.39439456 7:-1.265071 8:-0.7663528 9:5.6992486 10:-0.25871528 11:-0.34570358 12:1.5723143 13:-0.36207037 
1 1:0.90490128 2:-1.8178664 3:-2.0403141 4:-0.68257024 5:-0.38502702 6:-0.39439456 7:-0.63109967 8:-0.35376816 9:1.7917071 10:-0.33830909 11:0.068701121 12:13.99925 13:-0.37837233 
1 1:-1.0987686 2:-0.20580831 3:2.8519558 4:-1.4741711 5:-0.39326346 6:-0.39439456 7:-1.2879856 8:-0.7663528 9:-0.38506646 10:3.9332254 11:-0.34570358 12:-0.089040665 13:-0.37837233 
1 1:-7.203233 2:-6.9778031 3:-1.1854316 4:0.4722804 5:-0.68519688 6:-0.39439456 7:-1.2523406 8:-0.7581011 9:-0.38506646 10:3.8580534 11:-0.33969771 12:-0.089040665 13:-0.37837233 
1 1:-4.9558092 2:-4.6958851 3:-1.7658148 4:2.9295588 5:-0.71620407 6:5.0959257 7:-1.1479518 8:-0.68383587 9:-0.28521446 10:-0.40463727 11:0.05668939 12:-0.089040665 13:-0.084936972 
1 1:-0.036389234 2:-0.19826354 3:-1.863248 4:-0.026735687 5:-0.73178062 6:6.2539337 7:-1.3083541 8:-0.7663528 9:-0.38506646 10:-0.36484036 11:-0.34570358 12:-0.089040665 13:-0.31316447 
1 1:-6.2035617 2:-8.445442 3:-1.9201621 4:2.0000338 5:-0.7231612 6:-0.39439456 7:-1.2039653 8:2.7158616 9:0.23401592 10:-0.45327793 11:-0.24360387 12:0.30968453 13:-0.37837233 
1 1:-7.8533679 2:-7.0762164 3:-1.6519866 4:-0.88746754 5:-0.71444675 6:-0.39439456 7:-1.1581361 8:-0.093839836 9:-0.35178246 10:2.5712868 11:0.16479496 12:-0.022586466 13:-0.3457684 
1 1:-7.4148514 2:-6.7752806 3:-1.6875872 4:-0.048058818 5:-0.7265802 6:-0.39439456 7:-1.2472485 8:-0.51880201 9:-0.08551047 10:3.0400059 11:0.12275391 12:-0.089040665 13:-0.32946644 
1 1:-6.8002444 2:-6.6439632 3:-1.7147561 4:-0.063652821 5:-0.7229362 6:-0.39439456 7:-1.2523406 8:0.12483002 9:3.5956998 10:-0.378106 11:0.53715861 12:-0.089040665 13:-0.37837233 
1 1:-7.6346171 2:-6.026051 3:-1.0603611 4:-1.4164593 5:-0.68970472 6:-0.39439456 7:-1.1708664 8:-0.58068971 9:2.2044287 10:0.53280094 11:1.3899915 12:-0.089040665 13:-0.37837233 
1 1:-0.51807353 2:-1.8524591 3:-2.0079925 4:-0.97097072 5:-0.70340727 6:6.0291439 7:-1.2065114 8:-0.7663528 9:-0.35843926 10:-0.43116854 11:-0.31567425 12:-0.089040665 13:-0.32946644 
1 1:-1.1218485 2:-1.1681188 3:-1.9396019 4:-0.39777452 5:-0.73169929 6:6.3901699 7:-1.303262 8:-0.7663528 9:-0.38506646 10:-0.44443417 11:-0.34570358 12:-0.089040665 13:-0.37837233 
1 1:-6.0055134 2:-5.1066795 3:-1.0027444 4:-1.7711378 5:-0.71842284 6:-0.39439456 7:-1.1403136 8:-0.74159772 9:1.0727727 10:1.5586767 11:0.63925832 12:5.9582914 13:-0.37837233 
1 1:-4.1316942 2:-3.4737183 3:-1.945223 4:0.21239312 5:-0.73042835 6:6.0836384 7:-1.2981699 8:-0.71684264 9:-0.37840966 10:-0.45327793 11:-0.18955108 12:-0.089040665 13:-0.29686251 
1 1:-7.9962811 2:-6.1349479 3:0.091973588 4:-1.6761226 5:-0.71360457 6:-0.39439456 7:-1.0613854 8:-0.60131894 9:0.060939126 10:2.6906776 11:0.098730447 12:0.043867733 13:-0.21535269 
1 1:-3.838495 2:-2.9484487 3:-1.8548163 4:0.94325918 5:-0.73117039 6:6.349299 7:-1.3083541 8:-0.7663528 9:-0.38506646 10:-0.45327793 11:-0.32768598 12:0.043867733 13:-0.29686251 
1 1:-3.1437498 2:-2.4329893 3:-1.4322936 4:0.22277636 5:-0.66655244 6:-0.39439456 7:-1.1046686 8:-0.51467617 9:5.3264678 10:-0.45327793 11:-0.34570358 12:-0.089040665 13:-0.37837233 
1 1:-8.3337299 2:-6.8462078 3:-1.4379147 4:2.10888 5:-0.50452974 6:1.5197245 7:0.12762903 8:-0.62607402 9:-0.23196007 10:-0.45327793 11:-0.34570358 12:-0.089040665 13:1.2192202 
1 1:-0.46034728 2:-1.074055 3:-1.4707047 4:-1.0456219 5:-0.71317255 6:-0.39439456 7:-1.1352214 8:-0.7663528 9:-0.19867607 10:1.8814738 11:-0.23159214 12:-0.089040665 13:5.4577309 
1 1:-2.2176989 2:-1.6381385 3:0.55665491 4:-0.54483932 5:-0.72759138 6:2.6164262 7:-1.2523406 8:-0.7663528 9:1.5187783 10:-0.015511976 11:-0.12348657 12:7.0880128 13:-0.29686251 
1 1:-0.6347014 2:0.33161207 3:3.1020967 4:-1.5361803 5:-0.72701631 6:-0.35352369 7:-1.2956238 8:-0.33313893 9:3.6689246 10:0.59028536 11:-0.17753935 12:-0.089040665 13:-0.21535269 
1 1:-6.0772638 2:-7.9844738 3:-1.3493817 4:-1.1409954 5:-0.45102586 6:-0.39439456 7:0.64448113 8:-0.61782233 9:-0.032256071 10:-0.19238711 11:0.068701121 12:0.97422652 13:-0.37837233 
1 1:-4.1214632 2:-4.8711567 3:-1.9677076 4:-0.81824071 5:-0.67167275 6:-0.39439456 7:-1.1224911 8:-0.044329679 9:4.3812022 10:-0.30735595 11:-0.32768598 12:-0.089040665 13:-0.37837233 
1 1:-7.083266 2:-5.6207496 3:-0.94700138 4:-1.809595 5:-0.7184067 6:-0.39439456 7:-1.1403136 8:-0.67971002 9:0.8530983 10:2.0273958 11:0.45908236 12:1.5723143 13:-0.26425858 
1 1:-2.5646575 2:-5.7944288 3:-1.3489132 4:2.4008524 5:-0.72662679 6:-0.39439456 7:-1.2421563 8:-0.49404694 9:5.253243 10:-0.38694976 11:-0.12348657 12:-0.089040665 13:-0.23165465 
1 1:-6.987434 2:-6.6452563 3:-0.98494411 4:1.1590773 5:-0.6423348 6:-0.39439456 7:-0.37140059 8:1.5977572 9:-0.38506646 10:-0.24102777 11:-0.34570358 12:0.17677613 13:-0.28056055 
1 1:0.27928868 2:0.51701457 3:-0.50199407 4:4.579909 5:-0.71185625 6:5.1027375 7:-1.3083541 8:-0.7663528 9:-0.38506646 10:-0.45327793 11:-0.34570358 12:12.73662 13:-0.37837233 
1 1:-6.0053531 2:-5.9599862 3:-1.3067547 4:-0.90227026 5:-0.73188975 6:-0.39439456 7:-1.3083541 8:-0.7663528 9:1.0860863 10:-0.29409031 11:0.81342841 12:36.460769 13:-0.37837233 
1 1:0.29130942 2:0.21032941 3:0.54400733 4:-0.36213317 5:-0.71731131 6:6.1721919 7:-1.2727092 8:-0.7663528 9:-0.38506646 10:-0.43559042 11:-0.33969771 12:-0.089040665 13:-0.084936972 
1 1:-3.2118406 2:-2.0238834 3:0.76978999 4:-1.5268511 5:-0.72949932 6:-0.39439456 7:-1.3058081 8:-0.35376816 9:-0.38506646 10:-0.45327793 11:5.0535693 12:-0.089040665 13:-0.37837233 
0.5006727248003664 1:-2.3944973 2:-3.0794455 3:-1.3812348 4:0.27968313 5:-0.45782665 6:-0.39439456 7:0.19128076 8:-0.74984941 9:-0.38506646 10:-0.1746996 11:-0.34570358 12:0.24323033 13:5.1316917 
1 1:1.3392105 2:0.9379399 3:-1.8758956 4:-0.24727087 5:-0.72301427 6:5.5114462 7:-1.1326754 8:-0.71684264 9:-0.38506646 10:-0.45327793 11:-0.051416184 12:-0.089040665 13:-0.32946644 
1 1:2.1863252 2:-1.5297332 3:-1.9714551 4:0.20700703 5:-0.72889808 6:-0.39439456 7:-1.2879856 8:-0.21348938 9:5.086823 10:-0.33388722 11:-0.29765666 12:-0.089040665 13:-0.37837233 
1 1:0.81008437 2:0.19859548 3:-0.95683838 4:-1.0109666 5:-0.72938079 6:-0.39439456 7:-1.3058081 8:-0.75397526 9:-0.38506646 10:3.9332254 11:-0.33369185 12:-0.089040665 13:-0.3457684 
1 1:0.26386207 2:0.34153996 3:0.36600441 4:1.1225393 5:-0.72788914 6:6.3220518 7:-1.3083541 8:-0.70859095 9:-0.38506646 10:-0.45327793 11:-0.34570358 12:-0.089040665 13:-0.37837233 
1 1:-1.6413447 2:-1.5500058 3:-1.475389 4:-0.13923536 5:-0.62520509 6:-0.39439456 7:-0.25682746 8:-0.64670325 9:-0.38506646 10:-0.11721518 11:-0.34570358 12:-0.089040665 13:7.4791745 
1 1:0.38369547 2:0.60168481 3:0.38755213 4:-0.70882681 5:-0.63609233 6:-0.39439456 7:-0.66674464 8:-0.74984941 9:-0.11213767 10:0.44436337 11:-0.1354983 12:-0.089040665 13:7.2020411 
1 1:-0.14884991 2:-2.5889181 3:-1.5779749 4:-0.086297827 5:-0.73147653 6:-0.39439456 7:-1.3058081 8:-0.7663528 9:-0.37175286 10:-0.45327793 11:0.30292986 12:58.988742 13:-0.37837233 
1 1:-5.5409787 2:-4.9567353 3:-0.83364162 4:-1.7088948 5:-0.71055895 6:-0.39439456 7:-1.1810507 8:-0.73334603 9:1.0727727 10:1.257989 11:0.77138735 12:9.8790892 13:-0.37837233 
1 1:-0.6552435 2:-3.4644423 3:-1.948502 4:0.18425242 5:-0.73185338 6:-0.39439456 7:-1.3083541 8:-0.4816694 9:5.8124142 10:-0.45327793 11:-0.34570358 12:-0.089040665 13:-0.37837233 
1 1:-6.6785946 2:-6.160489 3:-1.4875682 4:-0.38538572 5:-0.72907445 6:-0.39439456 7:-1.303262 8:-0.75397526 9:-0.38506646 10:3.9155379 11:-0.30366252 12:-0.089040665 13:-0.37837233 
1 1:-4.2356468 2:-3.5609854 3:-1.5943699 4:3.2215621 5:-0.68531398 6:-0.37395912 7:-1.1759585 8:0.74783283 9:-0.38506646 10:-0.45327793 11:3.1136748 12:-0.089040665 13:-0.36207037 
1 1:-6.3542216 2:-5.9408465 3:-1.1517047 4:-0.41792625 5:-0.7295171 6:-0.39439456 7:-1.2981699 8:-0.53117955 9:-0.38506646 10:3.6325376 11:-0.33969771 12:0.043867733 13:-0.19905072 
1 1:-0.72571174 2:-1.6047321 3:-0.62706454 4:-1.6146445 5:-0.67590143 6:-0.39439456 7:-1.2447024 8:-0.67971002 9:5.9455501 10:-0.44885605 11:-0.33369185 12:-0.089040665 13:-0.37837233 
1 1:-5.7498724 2:-5.2719484 3:-1.2711541 4:-0.38366049 5:-0.72799664 6:-0.39439456 7:-1.2854395 8:-0.7663528 9:-0.37840966 10:3.8934285 11:-0.33969771 12:-0.022586466 13:-0.31316447 
1 1:-10.683463 2:-8.81505 3:-1.432762 4:-1.9509274 5:-0.713409 6:-0.39439456 7:-1.0766618 8:-0.67558418 9:-0.0056288721 10:2.929459 11:0.014648334 12:0.043867733 13:-0.32946644 
1 1:-6.2179465 2:-5.2304949 3:-1.1798105 4:-0.40486419 5:-0.70982386 6:-0.39439456 7:-1.1632282 8:-0.74572357 9:-0.38506646 10:3.6811783 11:-0.33969771 12:-0.022586466 13:-0.37837233 
1 1:-5.4537482 2:-4.9733316 3:-1.7241247 4:-1.1168535 5:-0.38502702 6:-0.39439456 7:-0.63109967 8:-0.35376816 9:1.7917071 10:-0.33830909 11:0.068701121 12:13.99925 13:-0.37837233 
1 1:-6.2123235 2:-5.3841153 3:-1.3297077 4:0.33325325 5:-0.72065878 6:-0.39439456 7:-1.1275832 8:-0.67971002 9:4.1948118 10:0.39130083 11:-0.27963906 12:-0.089040665 13:-0.084936972 
1 1:-6.1379552 2:-4.9874273 3:-0.30010128 4:0.83369761 5:-0.72965913 6:4.108213 7:-1.2574328 8:-0.7663528 9:-0.11213767 10:-0.29409031 11:0.98159263 12:-0.089040665 13:-0.019729114 
1 1:-11.382055 2:-9.6499544 3:-0.61956968 4:0.51940304 5:-0.71846494 6:-0.39439456 7:-1.1861428 8:2.435304 9:-0.38506646 10:0.3161289 11:-0.33969771 12:-0.089040665 13:-0.36207037 
1 1:-2.1517585 2:-1.5962469 3:-1.4051247 4:0.14875495 5:-0.72372545 6:0.25272755 7:-1.3058081 8:-0.7663528 9:-0.18536247 10:2.7260526 11:-0.027392723 12:6.3570166 13:-0.29686251 
1 1:0.24333332 2:0.42113404 3:-0.73527158 4:-0.20756472 5:-0.59042168 6:0.54563545 7:-1.0384708 8:-0.7663528 9:0.10087992 10:0.29401951 11:-0.32168012 12:-0.089040665 13:7.9356295 
1 1:-7.5037113 2:-7.824933 3:-1.6784529 4:0.092739649 5:-0.69038403 6:-0.39439456 7:-0.93917408 8:-0.7663528 9:-0.27190086 10:2.67299 11:0.28491227 12:-0.089040665 13:0.061780708 
1 1:-6.8933784 2:-6.7422482 3:-1.5037289 4:-0.031396816 5:-0.66453312 6:-0.39439456 7:-0.82969309 8:-0.7581011 9:-0.25193046 10:2.7216307 11:-0.30366252 12:0.11032193 13:0.6160475 
1 1:-7.0124238 2:-5.5058575 3:-0.74323487 4:-0.52421169 5:-0.7118538 6:5.2730328 7:-1.2370642 8:-0.7663528 9:-0.37175286 10:-0.050887002 11:-0.12348657 12:-0.089040665 13:-0.23165465 
1 1:-2.3994258 2:-2.6778416 3:-1.9522495 4:-0.76128324 5:-0.73185746 6:6.3833581 7:-1.2981699 8:-0.7663528 9:-0.38506646 10:-0.45327793 11:-0.34570358 12:-0.089040665 13:-0.36207037 
1 1:-3.7372003 2:-6.0148087 3:-1.902596 4:-1.0493619 5:-0.67829309 6:-0.39439456 7:-1.1250371 8:-0.72509433 9:1.3590151 10:1.7620831 11:-0.063427914 12:7.0880128 13:-0.37837233 
0.019712630751179371 1:-2.5088412 2:-1.6861215 3:-2.0019029 4:2.3156596 5:-0.72932622 6:6.0291439 7:-1.2497946 8:-0.71684264 9:-0.37840966 10:-0.39137163 11:-0.32768598 12:-0.089040665 13:-0.31316447 
1 1:-7.3167354 2:-5.2849433 3:-0.98869154 4:-1.342076 5:-0.66560256 6:-0.39439456 7:-0.9875494 8:2.3899197 9:-0.36509606 10:-0.16585584 11:-0.09345724 12:-0.089040665 13:-0.37837233 
1 1:-5.199376 2:-4.5189251 3:-0.13240378 4:0.458826 5:-0.703704 6:5.3479627 7:-1.1326754 8:-0.72922018 9:-0.38506646 10:-0.15701208 11:-0.30366252 12:-0.089040665 13:-0.29686251 
1 1:-4.5104008 2:-4.3623017 3:-1.709135 4:-1.1233496 5:-0.69493192 6:-0.39439456 7:-0.52671082 8:-0.17223092 9:-0.37175286 10:-0.38694976 11:2.2608419 12:6.489925 13:-0.37837233 
0.51936385957055076 1:-1.5562111 2:-1.358576 3:-1.5109896 4:-0.85808352 5:-0.73117673 6:6.31524 7:-1.3058081 8:-0.7663528 9:-0.33846886 10:-0.44885605 11:-0.32768598 12:-0.089040665 13:-0.3457684 
1 1:-5.5755183 2:-4.6415115 3:-1.1470205 4:-1.7120603 5:-0.72487213 6:-0.39439456 7:-1.2421563 8:-0.72096849 9:0.8730687 10:2.1467865 11:0.26689467 12:5.2937495 13:-0.3457684 
1 1:0.089641518 2:-4.8267857 3:-1.9147752 4:-0.80567377 5:-0.72801401 6:-0.39439456 7:-1.2727092 8:-0.72509433 9:0.9795775 10:2.8277558 11:-0.17153349 12:-0.089040665 13:-0.37837233 
1 1:-4.848651 2:-4.5553986 3:-0.4682672 4:-1.4816184 5:-0.72549952 6:-0.39439456 7:-1.2497946 8:-0.7581011 9:1.5254351 10:0.68756668 11:1.0176278 12:13.201799 13:-0.32946644 
1 1:2.5216237 2:-0.7743375 3:-1.9545916 4:-0.43429671 5:-0.72913984 6:-0.39439456 7:-1.2981699 8:-0.75397526 9:-0.27855766 10:3.8403659 11:-0.30966839 12:-0.089040665 13:-0.37837233 
1 1:-1.0987286 2:-0.70429727 3:-1.4201144 4:0.177617 5:-0.72372545 6:0.25272755 7:-1.3058081 8:-0.7663528 9:-0.18536247 10:2.7260526 11:-0.027392723 12:6.3570166 13:-0.29686251 
1 1:-3.9119017 2:-2.8778741 3:-1.4444727 4:-0.89672769 5:-0.72513351 6:-0.39439456 7:-1.2268799 8:-0.10209153 9:-0.38506646 10:1.1076451 11:-0.12348657 12:-0.089040665 13:6.4032449 
1 1:-4.0503805 2:-3.1617112 3:-1.6285652 4:-0.44655346 5:-0.68660311 6:-0.39439456 7:-0.98245726 8:-0.53117955 9:-0.38506646 10:1.7797706 11:-0.33369185 12:-0.089040665 13:4.6426327 
1 1:0.46124258 2:1.1339115 3:3.8187927 4:0.5162832 5:1.7539731 6:2.984264 7:-0.61073112 8:-0.66733248 9:-0.37175286 10:0.20558194 11:-0.26162147 12:-0.022586466 13:0.29000821 
1 1:0.98467891 2:-1.3317526 3:-2.0271981 4:-0.63373579 5:-0.38502702 6:-0.39439456 7:-0.63109967 8:-0.35376816 9:1.7917071 10:-0.33830909 11:0.068701121 12:13.99925 13:-0.37837233 
1 1:1.0103231 2:0.64279631 3:-0.96339638 4:-1.0153785 5:-0.70975029 6:-0.39439456 7:-1.2574328 8:-0.67558418 9:-0.30518486 10:3.729819 11:-0.34570358 12:-0.089040665 13:-0.37837233 
1 1:-2.2653011 2:-1.8494989 3:-1.0116445 4:0.17510048 5:-0.62520509 6:-0.39439456 7:-0.25682746 8:-0.64670325 9:-0.38506646 10:-0.11721518 11:-0.34570358 12:-0.089040665 13:7.4791745 
1 1:1.2323996 2:-0.6902764 3:-1.8384213 4:-0.4315696 5:-0.72572637 6:-0.39439456 7:-1.2956238 8:-0.73334603 9:-0.21864647 10:3.7961471 11:-0.34570358 12:-0.089040665 13:-0.37837233 
1 1:-5.1818391 2:-4.3573538 3:-1.3271313 4:0.39716113 5:-0.71763073 6:5.0278076 7:-1.2268799 8:-0.55180878 9:-0.31849846 10:-0.35157473 11:0.020654199 12:-0.089040665 13:0.029176779 
1 1:1.9164196 2:0.31450276 3:-1.5479955 4:-0.70431917 5:-0.72490646 6:-0.39439456 7:-1.2828935 8:-0.72922018 9:-0.38506646 10:3.835944 11:-0.30366252 12:0.11032193 13:-0.37837233 
1 1:-6.9660638 2:-5.5825342 3:-0.4781042 4:-1.7697812 5:-0.71513852 6:-0.39439456 7:-1.191235 8:-0.74572357 9:-0.07885367 10:2.6287713 11:0.1407715 12:-0.089040665 13:1.6593732 
1 1:-2.0182616 2:-1.6326883 3:-1.4711731 4:1.2683223 5:-0.65224988 6:-0.39439456 7:-0.86024592 8:-0.7663528 9:-0.38506646 10:-0.45327793 11:-0.33969771 12:0.30968453 13:12.940333 
1 1:1.0768646 2:-3.8737406 3:-1.9681761 4:-0.65337878 5:1.0546221 6:-0.39439456 7:1.1027736 8:-0.6508291 9:-0.21864647 10:-0.45327793 11:-0.34570358 12:-0.089040665 13:-0.37837233 
1 1:-6.6566233 2:-6.3902731 3:-1.5587693 4:0.44579821 5:-0.73023482 6:-0.39439456 7:-1.2701631 8:-0.7581011 9:-0.38506646 10:1.2712546 11:-0.33369185 12:-0.089040665 13:9.2560887 
1 1:1.0717358 2:1.1546222 3:2.4224066 4:1.0763244 5:-0.66275803 6:5.518258 7:-1.1072147 8:-0.72922018 9:-0.26524406 10:-0.45327793 11:-0.34570358 12:-0.089040665 13:0.045478744 
1 1:-3.4818264 2:-3.1152457 3:-1.7826783 4:0.81327817 5:-0.73161018 6:4.033283 7:-1.3083541 8:-0.7663528 9:0.46034711 10:0.033128686 11:-0.20156281 12:5.3602037 13:-0.28056055 
1 1:1.3493881 2:-4.3150774 3:-2.0435931 4:-1.319295 5:-0.72926205 6:-0.39439456 7:-1.2727092 8:-0.72509433 9:-0.38506646 10:2.420943 11:1.5221205 12:0.90777232 13:-0.37837233 
1 1:2.512942 2:-5.0432864 3:-2.0435931 4:-0.51180165 5:-0.61169996 6:-0.39439456 7:-1.0359247 8:0.18671772 9:3.722179 10:-0.45327793 11:-0.15351589 12:0.70840972 13:-0.37837233 
0.011219813219009819 1:0.66126765 2:-3.4916078 3:-1.9812921 4:-0.14523079 5:-0.68860832 6:-0.39439456 7:-1.2090574 8:3.000545 9:-0.28521446 10:-0.34273097 11:-0.29165079 12:-0.089040665 13:-0.37837233 
1 1:0.68349265 2:0.8904271 3:-0.64299112 4:-0.83834315 5:-0.72950381 6:5.9474021 7:-1.2370642 8:-0.7663528 9:-0.38506646 10:-0.37368412 11:-0.2556156 12:-0.089040665 13:-0.24795662 
1 1:0.66810611 2:-0.079406747 3:-2.0445299 4:0.09278293 5:-0.73092455 6:6.2130628 7:-1.2981699 8:-0.7663528 9:-0.29187126 10:-0.43116854 11:-0.32168012 12:-0.089040665 13:-0.32946644 
1 1:1.9956229 2:-5.0564737 3:-2.0445299 4:-1.3964443 5:-0.60586765 6:-0.39439456 7:-0.59290863 8:2.059852 9:-0.36509606 10:-0.45327793 11:-0.33369185 12:1.7716769 13:-0.36207037 
1 1:1.1453828 2:-0.48229303 3:-1.8552847 4:-0.80650092 5:-0.72491219 6:-0.39439456 7:-1.2930777 8:-0.7663528 9:-0.37840966 10:3.9199597 11:-0.34570358 12:-0.089040665 13:-0.31316447 
1 1:-0.42604811 2:0.022501041 3:1.3956108 4:-1.6512831 5:-0.73147796 6:-0.36714731 7:-1.3083541 8:-0.7663528 9:-0.38506646 10:3.9509129 11:-0.34570358 12:-0.089040665 13:-0.37837233 
1 1:1.9497571 2:-0.58967238 3:-1.7316195 4:-0.61485884 5:-0.73087325 6:-0.39439456 7:-1.303262 8:-0.7663528 9:-0.38506646 10:3.9597566 11:-0.34570358 12:-0.089040665 13:-0.37837233 
1 1:2.1811162 2:-0.96374748 3:-1.850132 4:0.30658491 5:-0.67736038 6:-0.39439456 7:-0.92135159 8:-0.66320664 9:4.6341606 10:-0.21891838 11:-0.32168012 12:-0.089040665 13:-0.19905072 
1 1:-6.1455683 2:-5.3370834 3:-1.1994845 4:0.23661708 5:0.83329921 6:-0.39439456 7:1.1587872 8:-0.73334603 9:-0.38506646 10:-0.38252788 11:-0.30366252 12:-0.089040665 13:-0.37837233 
1 1:0.4170864 2:0.61954218 3:-0.13380907 4:2.0192966 5:-0.73188628 6:6.3969817 7:-1.3083541 8:-0.7663528 9:-0.38506646 10:-0.45327793 11:-0.34570358 12:0.11032193 13:-0.37837233 
0.62988141360603633 1:-5.9200994 2:-5.6519011 3:-0.43126133 4:-1.8428126 5:-0.68663294 6:-0.39439456 7:-1.1377675 8:-0.73334603 9:-0.08551047 10:3.1903498 11:-0.045410319 12:0.30968453 13:-0.37837233 
1 1:0.77511739 2:0.78871167 3:0.47983259 4:1.9676447 5:-0.73178062 6:6.2539337 7:-1.3083541 8:-0.7663528 9:-0.38506646 10:-0.36484036 11:-0.34570358 12:-0.089040665 13:-0.31316447 
1 1:1.485356 2:-5.3222931 3:-1.863248 4:-0.53437232 5:-0.62272392 6:-0.39439456 7:0.048700874 8:-0.7663528 9:-0.38506646 10:-0.45327793 11:2.2728537 12:1.9710395 13:-0.37837233 
1 1:-3.20181 2:-2.9708372 3:-1.5873435 4:-0.48223588 5:-0.71756717 6:6.131321 7:-1.2727092 8:-0.7663528 9:-0.38506646 10:-0.33830909 11:-0.33969771 12:-0.089040665 13:-0.36207037 
0.4768861179067227 1:-4.5854903 2:-3.2547277 3:0.73044197 4:2.3045568 5:-0.69069037 6:2.6913561 7:-1.2014192 8:-0.74984941 9:2.3908191 10:-0.41348103 11:-0.21958041 12:0.24323033 13:0.42042393 
1 1:0.16577285 2:-5.7637154 3:-2.0108031 4:-0.87092877 5:-0.67829309 6:-0.39439456 7:-1.1250371 8:-0.72509433 9:1.3590151 10:1.7620831 11:-0.063427914 12:7.0880128 13:-0.37837233 
1 1:-3.4351726 2:-6.1286107 3:-1.9967502 4:-1.1564713 5:-0.53399276 6:-0.39439456 7:-0.014950862 8:-0.7044651 9:1.7317959 10:-0.11721518 11:-0.08144551 12:2.5691273 13:-0.37837233 
1 1:-5.6243358 2:-5.2333269 3:-1.4618046 4:0.72814595 5:-0.70822656 6:-0.39439456 7:-1.0741158 8:2.8396369 9:-0.38506646 10:-0.32062158 11:-0.34570358 12:-0.089040665 13:-0.31316447 
0.27996210186556864 1:-4.5216335 2:-4.5220242 3:-1.9358545 4:-1.0159201 5:-0.72162357 6:-0.39439456 7:-1.2956238 8:-0.76222695 9:-0.38506646 10:3.8845847 11:-0.33969771 12:-0.089040665 13:-0.19905072 
1 1:-1.8616714 2:-1.7919834 3:-1.8145314 4:-1.3368781 5:-0.68926269 6:-0.39439456 7:-1.2421563 8:-0.20523769 9:0.0010279277 10:2.239646 11:-0.17153349 12:7.2209212 13:0.12698857 
1 1:0.30033833 2:0.54327164 3:-0.41252418 4:-0.72230144 5:-0.65659505 6:5.9065313 7:-1.303262 8:-0.7663528 9:-0.38506646 10:-0.1525902 11:-0.34570358 12:-0.089040665 13:-0.29686251 
1 1:-6.822977 2:-5.9825137 3:-1.5821908 4:-0.44843038 5:-0.66040049 6:-0.39439456 7:-1.010464 8:2.6828548 9:-0.38506646 10:-0.35599661 11:-0.18955108 12:-0.089040665 13:-0.37837233 
1 1:0.45742265 2:0.52111824 3:0.53510719 4:1.5478073 5:-0.73148654 6:6.3016163 7:-1.2981699 8:-0.7663528 9:-0.38506646 10:-0.43116854 11:-0.33369185 12:-0.089040665 13:-0.29686251 
1 1:0.46490222 2:0.61204016 3:-1.048182 4:4.784763 5:-0.71185625 6:5.1027375 7:-1.3083541 8:-0.7663528 9:-0.38506646 10:-0.45327793 11:-0.34570358 12:12.73662 13:-0.37837233 
1 1:-5.851274 2:-5.0359767 3:-0.52260493 4:0.58176903 5:-0.7118914 6:5.3139036 7:-1.0588393 8:-0.75397526 9:-0.37840966 10:-0.2764028 11:-0.33369185 12:-0.022586466 13:-0.084936972 
1 1:-7.7919285 2:-7.0264273 3:-1.4981078 4:-0.45177604 5:-0.55521504 6:-0.39439456 7:-0.088786877 8:-0.49817278 9:-0.35843926 10:0.6433479 11:0.88549879 12:-0.089040665 13:-0.37837233 
1 1:-1.4056581 2:-1.5904334 3:-1.6505814 4:3.2741646 5:-0.73158055 6:6.2948045 7:-1.3083541 8:-0.74572357 9:-0.38506646 10:-0.45327793 11:-0.30366252 12:-0.089040665 13:-0.29686251 
1 1:-6.0608222 2:-6.403268 3:-1.6707238 4:-0.38273575 5:-0.72741584 6:-0.39439456 7:-1.267617 8:-0.38264908 9:-0.38506646 10:3.4821938 11:-0.33969771 12:-0.022586466 13:-0.37837233 
1 1:-5.5476034 2:-3.8520254 3:1.3178516 4:1.6274188 5:-0.63495913 6:0.55925908 7:-0.79914026 8:-0.73334603 9:-0.35178246 10:2.2927085 11:-0.23159214 12:-0.089040665 13:-0.28056055 
1 1:-8.9078536 2:-6.7068113 3:-1.2439852 4:0.26212265 5:-0.63129082 6:-0.39439456 7:-0.41468377 8:0.97062853 9:-0.25193046 10:0.11714437 11:0.020654199 12:-0.089040665 13:-0.084936972 
1 1:-4.6064599 2:-3.9696639 3:-0.57132152 4:0.97801066 5:-0.7190813 6:5.3615863 7:-1.1683203 8:-0.54768294 9:-0.38506646 10:-0.40905915 11:-0.20156281 12:-0.089040665 13:-0.18274876 
1 1:-4.4705454 2:-3.3814713 3:-2.0360982 4:0.88424146 5:-0.71900098 6:5.5999997 7:-1.2497946 8:-0.7581011 9:-0.0056288721 10:-0.40021539 11:-0.23159214 12:-0.089040665 13:-0.28056055 
1 1:-7.9812418 2:-6.0987843 3:-1.4009088 4:0.042370324 5:-0.63287586 6:-0.39439456 7:-0.85260771 8:1.3914649 9:-0.37840966 10:0.32939453 11:0.26689467 12:-0.089040665 13:-0.084936972 
1 1:-3.0522186 2:-2.2992033 3:1.844834 4:0.65489517 5:-0.703704 6:5.3479627 7:-1.1326754 8:-0.72922018 9:-0.38506646 10:-0.15701208 11:-0.30366252 12:-0.089040665 13:-0.29686251 
1 1:-6.2181736 2:-4.9905799 3:-1.1732525 4:-1.6370325 5:-0.67823669 6:-0.39439456 7:-1.0333786 8:-0.73747187 9:1.7917071 10:1.3066296 11:0.30292986 12:3.3665777 13:-0.37837233 
1 1:-0.047074334 2:-1.7092902 3:-2.0445299 4:0.62240213 5:-0.72825189 6:5.5727525 7:-1.2574328 8:-0.74159772 9:-0.26524406 10:-0.40463727 11:-0.22558628 12:2.9678525 13:-0.32946644 
1 1:1.7599897 2:-3.9581009 3:-2.0412509 4:-0.55002062 5:-0.72506914 6:-0.39439456 7:-1.2523406 8:1.2635636 9:-0.21198967 10:1.3906453 11:-0.12348657 12:-0.089040665 13:-0.29686251 
1 1:1.140254 2:-3.0436666 3:-2.0445299 4:-0.71745096 5:-0.7177652 6:-0.39439456 7:-1.2090574 8:3.1119428 9:-0.37175286 10:-0.42674666 11:-0.2736332 12:-0.089040665 13:-0.36207037 
1 1:0.08285648 2:-5.2220311 3:-2.0286034 4:-0.28040853 5:-0.72515027 6:-0.39439456 7:-1.2396103 8:2.3692905 9:-0.09216727 10:-0.077418272 11:0.15278323 12:-0.022586466 13:-0.37837233 
1 1:1.0445155 2:-5.3574522 3:-2.0271981 4:-0.79172766 5:-0.69718911 6:-0.39439456 7:-1.1479518 8:-0.13922415 9:0.15413432 10:1.8549426 11:0.74135803 12:-0.089040665 13:-0.37837233 
1 1:0.022726081 2:-0.35366865 3:-1.9569338 4:-0.48296405 5:-0.73093395 6:6.2743691 7:-1.303262 8:-0.74572357 9:-0.34512566 10:-0.45327793 11:-0.32168012 12:-0.089040665 13:-0.32946644 
1 1:0.014178001 2:-0.06162418 3:-1.9686445 4:0.10181104 5:-0.73108252 6:6.3629226 7:-1.3058081 8:-0.7663528 9:-0.38506646 10:-0.43559042 11:-0.33969771 12:-0.089040665 13:-0.3457684 
1 1:-4.4573226 2:-3.9792605 3:-0.96667539 4:-1.6574386 5:-0.73034211 6:-0.39439456 7:-1.303262 8:-0.7663528 9:1.2325359 10:1.5277236 11:1.0596689 12:4.6956617 13:-0.37837233 
