svm_type one_class
kernel_type rbf
gamma 0.029999999999999999
nr_class 2
total_sv 464
rho 38.812433965628493
prob_density_marks -22.13544912151745 -8.2005040853310334 -3.9233069983907782 -1.8785210185268824 -0.53874679708361839 5.8210876968765568 12.649656043646601 14.669585434144572 17.377292235503738 24.517014273960662
SV
1 1:-0.50326322 2:-0.19547655 3:0.41154793 4:-1.4389671 5:-0.93075482 6:-0.41934333 7:-1.2758821 8:-0.34649372 9:-0.53384645 10:-0.53055539 11:7.1047502 12:-0.094278616 13:-0.39147817 
1 1:-0.51631564 2:0.32939831 3:2.6622809 4:-1.7547391 5:0.81633856 6:-0.41934333 7:-0.80579795 8:-0.53897615 9:-0.53384645 10:-0.53055539 11:5.8568656 12:-0.094278616 13:-0.39147817 
1 1:-0.60310275 2:-0.031711778 3:-0.26844498 4:3.5902789 5:-0.91793411 6:2.8984457 7:-1.2758821 8:-0.53897615 9:-0.53384645 10:-0.53055539 11:-0.38255741 12:10.175158 13:-0.39147817 
1 1:0.41727555 2:0.083989867 3:-0.86692591 4:-0.3303719 5:-0.92977982 6:-0.41934333 7:-1.2758821 8:-0.53897615 9:4.7807786 10:-0.53055539 11:-0.38255741 12:-0.094278616 13:-0.39147817 
1 1:-4.2515964 2:-2.4816583 3:7.1064268 4:-1.6170225 5:-0.10047315 6:-0.41934333 7:-0.053663337 8:1.7708131 9:-0.53384645 10:-0.53055539 11:-0.38255741 12:-0.094278616 13:-0.39147817 
1 1:0.35705125 2:0.48281837 3:1.0830409 4:-0.38207279 5:0.15965576 6:-0.41934333 7:-0.52374747 8:-0.53897615 9:-0.53384645 10:-0.53055539 11:-0.38255741 12:-0.094278616 13:12.517202 
1 1:0.99799354 2:-7.2822421 3:-1.8714411 4:-0.34874936 5:-0.76381925 6:-0.41934333 7:0.60445445 8:-0.53897615 9:-0.53384645 10:-0.53055539 11:0.24138489 12:2.2755914 13:-0.39147817 
1 1:3.0034857 2:-3.0792645 3:-2.1135796 4:-0.42042906 5:-0.86357726 6:-0.41934333 7:-0.14768016 8:-0.53897615 9:-0.53384645 10:-0.53055539 11:-0.38255741 12:10.175158 13:-0.39147817 
1 1:-0.28572297 2:0.29215734 3:3.7803461 4:-2.0463382 5:-0.85773824 6:-0.41934333 7:-1.0878484 8:-0.34649372 9:3.2926836 10:-0.33688346 11:0.55335604 12:-0.094278616 13:-0.39147817 
1 1:-0.36357948 2:0.3892385 3:2.4190526 4:-1.6133623 5:0.85470068 6:-0.41934333 7:-1.1818652 8:-0.53897615 9:-0.53384645 10:-0.53055539 11:7.1047502 12:-0.094278616 13:-0.39147817 
1 1:-2.3853299 2:-2.4759289 3:-1.0530522 4:1.3807141 5:1.8332391 6:-0.41934333 7:-1.2758821 8:-0.53897615 9:-0.53384645 10:-0.53055539 11:-0.38255741 12:14.914898 13:4.1645267 
1 1:2.1108837 2:-0.23224008 3:-2.1384255 4:1.4960879 5:-0.84537908 6:2.5321065 7:-1.1771644 8:-0.50529173 9:-0.43818319 10:-0.52571359 11:-0.38255741 12:9.7406821 13:-0.25859469 
1 1:-5.3745621 2:-3.4082264 3:2.9323165 4:-2.1375392 5:-0.70092886 6:-0.41934333 7:-1.0361392 8:-0.53897615 9:2.9950646 10:0.11340378 11:0.40516974 12:-0.094278616 13:-0.39147817 
1 1:-0.19069222 2:0.15353817 3:-0.29329087 4:2.7512452 5:-0.9195561 6:1.5160336 7:-1.2758821 8:-0.53897615 9:-0.53384645 10:-0.53055539 11:-0.38255741 12:14.124942 13:-0.39147817 
1 1:-1.2506858 2:-0.21998557 3:2.4140399 4:-2.0494646 5:1.9577021 6:-0.41934333 7:-0.9938316 8:-0.53897615 9:-0.53384645 10:-0.53055539 11:6.4808079 12:-0.094278616 13:-0.39147817 
1 1:-0.18725738 2:0.34992859 3:-0.80415733 4:5.4030128 5:-0.91650529 6:4.2808577 7:-1.1818652 8:-0.53897615 9:-0.53384645 10:0.82514813 11:-0.38255741 12:-0.094278616 13:-0.39147817 
1 1:-0.095890468 2:0.40053811 3:-0.19368935 4:4.8888253 5:-0.92212525 6:-0.41934333 7:-1.2758821 8:2.1557779 9:-0.53384645 10:-0.53055539 11:3.0491252 12:-0.094278616 13:-0.39147817 
1 1:-4.4512754 2:-3.1187335 3:-0.48377606 4:-0.98486857 5:-0.92755917 6:-0.41934333 7:-1.2758821 8:-0.53897615 9:-0.53384645 10:4.3112429 11:-0.38255741 12:-0.094278616 13:-0.39147817 
1 1:0.77724743 2:0.71135697 3:0.10729469 4:-0.10862236 5:-0.91042954 6:2.8984457 7:-1.0878484 8:-0.53897615 9:-0.53384645 10:-0.53055539 11:-0.38255741 12:-0.094278616 13:7.9611975 
1 1:1.0531801 2:-6.0427862 3:-2.0490674 4:-0.21690446 5:-0.92092365 6:-0.41934333 7:-1.1419081 8:0.048095272 9:-0.53384645 10:-0.43856122 11:4.1098271 12:4.3492277 13:-0.39147817 
1 1:-2.7830851 2:-1.1928661 3:1.7185727 4:-2.1327351 5:0.68339951 6:-0.41934333 7:-1.2758821 8:-0.53897615 9:-0.53384645 10:4.3112429 11:-0.38255741 12:-0.094278616 13:-0.39147817 
1 1:0.10172768 2:0.34181196 3:0.044308171 4:-0.41127846 5:-0.8683246 6:2.8984457 7:-0.89981477 8:-0.53897615 9:-0.53384645 10:-0.53055539 11:-0.38255741 12:-0.094278616 13:6.4425292 
1 1:-0.79133232 2:-0.061631873 3:0.076564244 4:3.6773621 5:-0.92483307 6:2.8984457 7:-1.2758821 8:-0.53897615 9:-0.53384645 10:-0.53055539 11:-0.38255741 12:10.175158 13:-0.39147817 
1 1:-0.57218914 2:-5.9695775 3:-1.7722754 4:-0.51018119 5:-0.92955282 6:-0.41934333 7:-1.2758821 8:4.2730847 9:-0.53384645 10:-0.53055539 11:-0.38255741 12:-0.094278616 13:-0.39147817 
1 1:0.92723571 2:-4.4501778 3:-1.7339169 4:1.9698602 5:-0.9149906 6:-0.41934333 7:-0.9938316 8:-0.53897615 9:4.1430236 10:-0.53055539 11:-0.38255741 12:-0.094278616 13:-0.39147817 
1 1:-1.1696234 2:-0.27186829 3:2.1331069 4:-1.4818987 5:-0.87697645 6:5.3867874 7:-1.2758821 8:-0.53897615 9:-0.53384645 10:-0.33688346 11:-0.38255741 12:-0.094278616 13:1.8865243 
1 1:2.4319273 2:-0.63966265 3:-2.018337 4:1.4634507 5:-0.7996636 6:2.3040085 7:-1.1207543 8:-0.52935203 9:-0.53384645 10:-0.39014324 11:-0.38255741 12:9.8591756 13:-0.27757805 
1 1:0.48574348 2:0.82912756 3:3.3507737 4:0.23383885 5:-0.33093719 6:-0.14286091 7:0.13437032 8:-0.53897615 9:-0.53384645 10:-0.53055539 11:-0.38255741 12:-0.094278616 13:6.4425292 
1 1:-0.59646205 2:0.27831134 3:3.6197196 4:1.9130502 5:-0.92104525 6:6.4927171 7:-1.2758821 8:-0.53897615 9:-0.53384645 10:-0.53055539 11:-0.38255741 12:-0.094278616 13:-0.39147817 
1 1:-1.2435871 2:-6.7634149 3:-1.9028254 4:-0.75396843 5:-0.92211821 6:-0.41934333 7:-1.2758821 8:-0.53897615 9:-0.53384645 10:-0.53055539 11:6.4808079 12:2.2755914 13:-0.39147817 
1 1:2.8970055 2:-6.2194421 3:-1.9065304 4:-0.75610357 5:-0.68450248 6:-0.41934333 7:-0.24169699 8:-0.53897615 9:-0.53384645 10:-0.53055539 11:-0.38255741 12:9.3852016 13:1.1271901 
1 1:-0.10550804 2:0.63385119 3:2.2215931 4:-1.7291174 5:-0.91221564 6:-0.41934333 7:-1.1818652 8:4.0806023 9:-0.53384645 10:-0.53055539 11:-0.38255741 12:-0.094278616 13:-0.39147817 
1 1:-0.095890468 2:0.40053811 3:-0.19368935 4:4.8888253 5:-0.86273786 6:-0.41934333 7:-0.71178112 8:0.61591845 9:-0.53384645 10:-0.53055539 11:3.6730675 12:-0.094278616 13:-0.39147817 
1 1:1.3057558 2:-0.9240627 3:-1.7452501 4:1.7732748 5:-0.93143898 6:-0.41934333 7:-1.2758821 8:-0.53897615 9:-0.53384645 10:-0.53055539 11:7.4167213 12:-0.094278616 13:-0.39147817 
1 1:1.3854442 2:0.47040471 3:-1.1705253 4:-0.67397693 5:3.6493338 6:-0.41934333 7:1.0745386 8:-0.53897615 9:-0.53384645 10:-0.53055539 11:-0.38255741 12:-0.094278616 13:-0.39147817 
1 1:0.11569606 2:0.69942076 3:-0.12699773 4:4.2183914 5:-0.13253403 6:-0.41934333 7:-0.71178112 8:-0.53897615 9:3.5052686 10:-0.53055539 11:-0.38255741 12:-0.094278616 13:-0.39147817 
1 1:-4.9010113 2:-3.0389996 3:1.9731342 4:-2.1406656 5:2.0730109 6:-0.41934333 7:1.0745386 8:-0.53897615 9:-0.53384645 10:-0.53055539 11:-0.38255741 12:-0.094278616 13:-0.39147817 
1 1:-0.81995604 2:-0.077705967 3:-0.0084348687 4:3.7045089 5:-0.74517049 6:0.96306875 7:-1.2758821 8:-0.53897615 9:-0.53384645 10:-0.53055539 11:-0.38255741 12:15.704855 13:-0.39147817 
0.13104567456339974 1:-1.244274 2:-0.81218065 3:5.0119615 4:-1.6562176 5:-0.41914146 6:-0.41934333 7:0.60445445 8:0.42343602 9:-0.53384645 10:-0.53055539 11:-0.38255741 12:-0.094278616 13:-0.39147817 
1 1:0.5881019 2:0.99909916 3:0.41677864 4:-0.21690446 5:4.9030184 6:-0.41934333 7:1.0745386 8:-0.53897615 9:-0.53384645 10:-0.53055539 11:-0.38255741 12:-0.094278616 13:-0.39147817 
1 1:0.19927731 2:-6.8335998 3:-1.7504808 4:-0.39709503 5:-0.76786801 6:-0.41934333 7:0.22838714 8:-0.53897615 9:-0.53384645 10:-0.53055539 11:0.24138489 12:5.4354182 13:-0.39147817 
1 1:-0.20717948 2:0.44350846 3:0.98104198 4:-0.06683462 5:-0.92268821 6:-0.41934333 7:-1.2758821 8:-0.53897615 9:-0.53384645 10:1.212492 11:-0.38255741 12:-0.094278616 13:11.757868 
1 1:-0.67660846 2:-6.576096 3:-2.0218241 4:0.19418625 5:-0.71932834 6:-0.41934333 7:-0.61776429 8:-0.53897615 9:-0.53384645 10:-0.53055539 11:-0.070586263 12:13.334985 13:-0.39147817 
1 1:-1.8357545 2:-1.5667082 3:-0.43255865 4:0.02085863 5:-0.72878504 6:-0.41934333 7:-0.9938316 8:-0.34649372 9:-0.32126144 10:0.24413233 11:1.8012406 12:-0.094278616 13:6.4425292 
1 1:2.0781382 2:-0.44725097 3:-1.8588002 4:0.2361265 5:-0.91035586 6:-0.41934333 7:-1.2758821 8:4.2730847 9:-0.53384645 10:-0.53055539 11:-0.38255741 12:-0.094278616 13:-0.39147817 
1 1:-4.7844555 2:-3.2541697 3:1.0985151 4:-1.7503925 5:-0.92734301 6:-0.41934333 7:-1.2758821 8:-0.34649372 9:4.5681936 10:-0.53055539 11:-0.38255741 12:-0.094278616 13:-0.39147817 
1 1:0.99066587 2:1.2435527 3:1.038144 4:-0.34508912 5:8.5256587 6:-0.41934333 7:1.0745386 8:-0.53897615 9:-0.53384645 10:-0.53055539 11:-0.38255741 12:-0.094278616 13:-0.39147817 
1 1:-0.026735565 2:0.6029762 3:0.59178964 4:5.3622926 5:-0.89681752 6:-0.14286091 7:-0.9938316 8:3.1181901 9:-0.53384645 10:-0.53055539 11:-0.070586263 12:-0.094278616 13:0.36785598 
1 1:-0.81995604 2:-0.077705967 3:-0.0084348687 4:3.7045089 5:-0.9131939 6:2.3454808 7:-1.2758821 8:-0.53897615 9:-0.53384645 10:-0.53055539 11:-0.38255741 12:11.755072 13:-0.39147817 
1 1:-0.095890468 2:0.40053811 3:-0.19368935 4:4.8888253 5:-0.9237845 6:-0.41934333 7:-1.1818652 8:1.5783306 9:-0.53384645 10:-0.53055539 11:3.6730675 12:-0.094278616 13:-0.39147817 
1 1:0.3089634 2:0.85188593 3:0.39324043 4:2.912067 5:-0.17983504 6:-0.41934333 7:-0.9938316 8:-0.53897615 9:3.0800986 10:-0.53055539 11:-0.38255741 12:-0.094278616 13:3.4051926 
1 1:2.1356146 2:-0.21616598 3:-2.1292717 4:1.6640776 5:-0.85408735 6:2.5321065 7:-1.1818652 8:-0.50529173 9:-0.45412707 10:-0.52571359 11:-0.38255741 12:9.8394267 13:-0.25859469 
1 1:-0.095890468 2:0.40053811 3:-0.19368935 4:4.8888253 5:-0.8953792 6:-0.14286091 7:-0.9938316 8:3.1181901 9:-0.53384645 10:-0.53055539 11:-0.070586263 12:-0.094278616 13:0.36785598 
1 1:-1.1039033 2:-1.2452263 3:-1.2138966 4:-0.68167869 5:-0.92837794 6:-0.41934333 7:-1.2758821 8:-0.53897615 9:-0.53384645 10:-0.53055539 11:7.4167213 12:-0.094278616 13:-0.39147817 
1 1:2.8970055 2:-6.2194421 3:-1.9065304 4:-0.75610357 5:-0.72442782 6:-0.41934333 7:-0.24169699 8:-0.53897615 9:-0.53384645 10:-0.53055539 11:-0.38255741 12:10.175158 13:0.36785598 
1 1:0.77724743 2:0.71135697 3:0.10729469 4:-0.10862236 5:-0.89598811 6:0.96306875 7:-0.52374747 8:-0.53897615 9:-0.53384645 10:-0.53055539 11:-0.38255741 12:-0.094278616 13:8.7205316 
1 1:-0.38350159 2:0.11916189 3:-0.47723767 4:2.5874494 5:-0.92757475 6:0.1336215 7:-1.2758821 8:-0.53897615 9:-0.53384645 10:-0.53055539 11:-0.38255741 12:18.074725 13:-0.39147817 
1 1:-4.2515964 2:-2.4816583 3:7.1064268 4:-1.6170225 5:0.16073183 6:-0.41934333 7:0.040353489 8:1.5783306 9:-0.53384645 10:-0.53055539 11:-0.38255741 12:-0.094278616 13:-0.39147817 
1 1:-1.6108866 2:-0.74613363 3:5.6110962 4:-1.8877278 5:-0.3240734 6:-0.41934333 7:0.88650492 8:-0.15401128 9:-0.53384645 10:-0.53055539 11:-0.38255741 12:-0.094278616 13:-0.39147817 
1 1:0.54986061 2:0.72042849 3:0.40370186 4:0.0042350403 5:-0.74740431 6:2.8984457 7:-0.89981477 8:-0.53897615 9:-0.53384645 10:-0.53055539 11:-0.38255741 12:-0.094278616 13:6.4425292 
1 1:-0.63378738 2:0.43841568 3:0.81562063 4:-2.1176366 5:-0.93143898 6:-0.41934333 7:-1.2758821 8:-0.53897615 9:-0.53384645 10:2.9555394 11:-0.38255741 12:-0.094278616 13:4.9238609 
1 1:-1.512192 2:-0.6095834 3:0.87185082 4:-1.6132098 5:-0.93133153 6:-0.41934333 7:-1.2758821 8:-0.53897615 9:-0.53384645 10:-0.53055539 11:7.4167213 12:-0.094278616 13:-0.39147817 
1 1:-0.04070394 2:0.42663862 3:-0.67491509 4:3.2918931 5:-0.82257815 6:-0.41934333 7:-0.9938316 8:-0.53897615 9:1.8045886 10:-0.53055539 11:-0.38255741 12:-0.094278616 13:7.9611975 
1 1:-0.81995604 2:-0.077705967 3:-0.0084348687 4:3.7045089 5:-0.74517049 6:0.96306875 7:-1.2758821 8:-0.53897615 9:-0.53384645 10:-0.53055539 11:-0.38255741 12:15.704855 13:-0.39147817 
0.63659727341297934 1:-0.14558124 2:0.16674758 3:-1.0133859 4:2.9930498 5:-0.92778923 6:1.2395512 7:-1.2758821 8:-0.53897615 9:-0.53384645 10:1.4061639 11:-0.070586263 12:-0.094278616 13:5.683195 
1 1:-0.91407083 2:0.39273979 3:11.09027 4:-1.8465501 5:-0.33142136 6:0.41010392 7:-0.61776429 8:-0.53897615 9:-0.53384645 10:1.9871797 11:-0.38255741 12:-0.094278616 13:1.1271901 
1 1:-0.011164263 2:0.587857 3:0.33199748 4:4.9265716 5:-0.89765129 6:-0.14286091 7:-0.9938316 8:3.1181901 9:-0.53384645 10:-0.53055539 11:-0.070586263 12:-0.094278616 13:0.36785598 
1 1:0.078828707 2:0.18091188 3:-1.6118669 4:2.4271614 5:-0.92620374 6:-0.41934333 7:-1.1818652 8:-0.53897615 9:-0.53384645 10:4.117571 11:-0.38255741 12:-0.094278616 13:-0.39147817 
1 1:0.77770541 2:0.7030812 3:-0.26626551 4:0.092690841 5:4.0764071 6:-0.41934333 7:1.0745386 8:-0.53897615 9:-0.53384645 10:-0.53055539 11:-0.38255741 12:-0.094278616 13:-0.39147817 
1 1:0.27278302 2:0.85347742 3:2.7882539 4:-1.8865077 5:-0.92773504 6:-0.41934333 7:-1.2758821 8:-0.53897615 9:-0.53384645 10:4.3112429 11:-0.38255741 12:-0.094278616 13:-0.39147817 
1 1:-2.451508 2:-1.3634743 3:1.4149734 4:-1.7908839 5:-0.930761 6:-0.41934333 7:-1.2758821 8:-0.15401128 9:-0.53384645 10:-0.53055539 11:6.792779 12:-0.094278616 13:-0.39147817 
1 1:-0.69195077 2:-0.46077868 3:0.061743886 4:3.8317785 5:-0.93092136 6:4.5573402 7:-1.2758821 8:-0.53897615 9:-0.53384645 10:-0.53055539 11:-0.38255741 12:5.4354182 13:-0.39147817 
1 1:-2.5550113 2:-1.1258642 3:3.8518325 4:-2.0243767 5:1.5071239 6:-0.41934333 7:-0.52374747 8:-0.53897615 9:-0.53384645 10:-0.53055539 11:4.9209521 12:-0.094278616 13:-0.39147817 
1 1:0.11798595 2:0.72599872 3:0.63603276 4:3.0792942 5:-0.40691451 6:-0.41934333 7:-0.89981477 8:-0.53897615 9:3.9304386 10:-0.53055539 11:-0.38255741 12:-0.094278616 13:-0.39147817 
1 1:-0.73362691 2:-0.055106746 3:-0.21897113 4:3.6146805 5:-0.8876482 6:0.68658633 7:-1.2758821 8:-0.53897615 9:-0.53384645 10:-0.53055539 11:-0.38255741 12:16.494812 13:-0.39147817 
1 1:0.70259677 2:0.66313469 3:-0.48835294 4:1.9959394 5:-0.89797144 6:-0.41934333 7:-0.89981477 8:-0.53897615 9:-0.32126144 10:-0.53055539 11:3.9850387 12:4.6454615 13:-0.39147817 
1 1:-0.79362222 2:-0.057971436 3:-0.0069092436 4:3.6049962 5:-0.92041365 6:4.0043753 7:-1.2758821 8:-0.53897615 9:-0.53384645 10:-0.53055539 11:-0.38255741 12:7.0153315 13:-0.39147817 
1 1:-4.9010113 2:-3.0389996 3:1.9731342 4:-2.1406656 5:1.5716307 6:-0.41934333 7:0.7924881 8:-0.53897615 9:0.10390856 10:-0.53055539 11:-0.38255741 12:-0.094278616 13:-0.39147817 
1 1:0.5166571 2:-0.074204679 3:-0.4506482 4:-1.1971625 5:-0.93039198 6:-0.41934333 7:-1.2758821 8:-0.53897615 9:4.7807786 10:-0.53055539 11:-0.38255741 12:-0.094278616 13:-0.39147817 
1 1:-5.9871096 2:-4.5343678 3:-1.2219607 4:1.9340966 5:-0.9314197 6:-0.41934333 7:-1.2758821 8:-0.53897615 9:-0.53384645 10:4.3112429 11:-0.38255741 12:-0.094278616 13:-0.39147817 
1 1:0.087530317 2:0.2186303 3:-0.97829654 4:2.6120035 5:-0.92163899 6:2.0689984 7:-1.2758821 8:-0.53897615 9:-0.53384645 10:-0.53055539 11:1.1772983 12:-0.094278616 13:7.9611975 
1 1:-0.79362222 2:-0.057971436 3:-0.0069092436 4:3.6049962 5:-0.92748271 6:3.1749281 7:-1.2758821 8:-0.53897615 9:-0.53384645 10:-0.53055539 11:-0.38255741 12:9.3852016 13:-0.39147817 
1 1:-2.5550113 2:-1.1258642 3:3.8518325 4:-2.0243767 5:1.3054305 6:-0.41934333 7:-0.9938316 8:-0.53897615 9:-0.53384645 10:-0.53055539 11:6.4808079 12:-0.094278616 13:-0.39147817 
1 1:-0.54562633 2:-0.070862541 3:2.4717957 4:-1.4982935 5:-0.88433769 6:5.6632698 7:-1.2758821 8:-0.53897615 9:-0.53384645 10:-0.33688346 11:-0.38255741 12:-0.094278616 13:1.1271901 
1 1:-0.128636 2:0.3029795 3:-0.74792715 4:4.6697447 5:-0.91409485 6:-0.41934333 7:-1.2758821 8:1.5783306 9:-0.53384645 10:2.1808516 11:-0.38255741 12:-0.094278616 13:-0.39147817 
1 1:2.0055484 2:-0.19834124 3:-2.1750405 4:1.8552489 5:-0.85118459 6:2.5321065 7:-1.1795148 8:-0.50529173 9:-0.45412707 10:-0.5208718 11:-0.38255741 12:9.8196777 13:-0.25859469 
1 1:1.2645376 2:-1.4011927 3:-1.5275216 4:1.0334488 5:-0.93143898 6:-0.41934333 7:-1.2758821 8:-0.53897615 9:-0.53384645 10:-0.53055539 11:7.4167213 12:-0.094278616 13:-0.39147817 
1 1:-0.097951376 2:0.41151942 3:-0.17233059 4:4.8583996 5:-0.92998931 6:5.6632698 7:-1.2758821 8:-0.53897615 9:-0.53384645 10:-0.14321153 11:-0.38255741 12:-0.094278616 13:0.36785598 
1 1:0.99799354 2:-7.2822421 3:-1.8714411 4:-0.34874936 5:-0.76381925 6:-0.41934333 7:0.60445445 8:-0.53897615 9:-0.53384645 10:-0.53055539 11:0.24138489 12:2.2755914 13:-0.39147817 
1 1:2.461238 2:-0.64825672 3:-2.0723877 4:1.6316693 5:-0.72698088 6:-0.36404685 7:-0.75173827 8:-0.53897615 9:-0.53384645 10:-0.53055539 11:-0.38255741 12:15.092639 13:-0.39147817 
1 1:-1.1696234 2:-0.27186829 3:2.1331069 4:-1.4818987 5:-0.88324731 6:5.6632698 7:-1.2758821 8:-0.53897615 9:-0.53384645 10:-0.33688346 11:-0.38255741 12:-0.094278616 13:1.1271901 
1 1:-0.81995604 2:-0.077705967 3:-0.0084348687 4:3.7045089 5:-0.7837499 6:1.792516 7:-1.2758821 8:-0.53897615 9:-0.53384645 10:-0.53055539 11:-0.38255741 12:13.334985 13:-0.39147817 
1 1:-0.87651651 2:-0.11988057 3:-0.54698053 4:3.6027848 5:-0.67851061 6:1.2395512 7:-1.2758821 8:-0.53897615 9:-0.53384645 10:-0.53055539 11:-0.38255741 12:14.914898 13:-0.39147817 
1 1:-0.16985416 2:0.57862634 3:0.37253551 4:-0.52383084 5:-0.85861486 6:-0.41934333 7:-0.89981477 8:-0.53897615 9:-0.53384645 10:1.5998359 11:-0.38255741 12:-0.094278616 13:7.2018633 
1 1:-0.15680174 2:0.65740531 3:4.2012007 4:-1.6444743 5:-0.26153351 6:-0.41934333 7:-0.24169699 8:2.1557779 9:-0.53384645 10:-0.53055539 11:-0.38255741 12:-0.094278616 13:-0.39147817 
1 1:-0.27404449 2:-1.2086219 3:-1.4168048 4:0.21195366 5:-0.92792506 6:-0.41934333 7:-1.2758821 8:-0.53897615 9:-0.53384645 10:-0.53055539 11:7.4167213 12:-0.094278616 13:-0.39147817 
1 1:-1.0262758 2:-0.17733352 3:-1.0040142 4:2.1102456 5:-0.92840734 6:-0.41934333 7:-1.2758821 8:-0.53897615 9:4.7807786 10:-0.53055539 11:-0.38255741 12:-0.094278616 13:-0.39147817 
0.051374427055659838 1:1.7621323 2:-1.7845837 3:-1.7197503 4:-0.94292832 5:-0.89789833 6:-0.41934333 7:-1.2758821 8:4.2730847 9:-0.53384645 10:-0.53055539 11:-0.38255741 12:-0.094278616 13:-0.39147817 
1 1:2.3842975 2:-2.0529097 3:-1.806711 4:-1.0567008 5:3.4108251 6:-0.41934333 7:1.0745386 8:-0.53897615 9:-0.53384645 10:-0.53055539 11:-0.38255741 12:-0.094278616 13:-0.39147817 
1 1:-0.29259266 2:0.18282167 3:0.1622172 4:1.5966682 5:-0.93029025 6:-0.41934333 7:-1.2758821 8:-0.34649372 9:-0.53384645 10:-0.53055539 11:7.1047502 12:-0.094278616 13:-0.39147817 
1 1:-2.3853299 2:-2.4759289 3:-1.0530522 4:1.3807141 5:1.4852883 6:-0.14286091 7:-1.2758821 8:-0.53897615 9:-0.53384645 10:-0.53055539 11:-0.38255741 12:14.124942 13:4.1645267 
1 1:0.15668522 2:0.57687569 3:1.0666949 4:3.648614 5:-0.91189657 6:6.4927171 7:-1.2758821 8:-0.53897615 9:-0.53384645 10:-0.53055539 11:-0.38255741 12:-0.094278616 13:-0.39147817 
1 1:-0.13367378 2:0.47565665 3:-0.14225399 4:4.3270548 5:-0.91126257 6:-0.41934333 7:-0.61776429 8:0.80840089 9:-0.53384645 10:-0.53055539 11:-0.070586263 12:0.69567807 13:6.4425292 
1 1:-0.18473849 2:0.40690409 3:1.7652133 4:-2.1127563 5:-0.93128624 6:-0.41934333 7:-1.2758821 8:-0.53897615 9:-0.53384645 10:4.3112429 11:-0.38255741 12:-0.094278616 13:-0.39147817 
1 1:-1.8836134 2:-0.87074764 3:4.2630975 4:-1.807355 5:-0.86707278 6:-0.41934333 7:-1.2758821 8:-0.34649372 9:-0.10867644 10:3.7302271 11:-0.38255741 12:-0.094278616 13:-0.39147817 
1 1:-2.5550113 2:-1.1258642 3:3.8518325 4:-2.0243767 5:2.1625768 6:-0.41934333 7:-0.89981477 8:-0.53897615 9:-0.53384645 10:-0.53055539 11:6.1688367 12:-0.094278616 13:-0.39147817 
1 1:2.3842975 2:-2.0529097 3:-1.806711 4:-1.0567008 5:2.4442545 6:-0.41934333 7:1.0745386 8:-0.53897615 9:-0.53384645 10:-0.53055539 11:-0.38255741 12:-0.094278616 13:-0.39147817 
1 1:0.04035843 2:0.53358704 3:1.2181677 4:5.165631 5:-0.92946381 6:5.6632698 7:-1.2758821 8:-0.34649372 9:-0.53384645 10:-0.33688346 11:-0.38255741 12:-0.094278616 13:0.36785598 
0.25549519928561432 1:1.6025265 2:-0.64507373 3:-1.6548023 4:-0.062793105 5:-0.91664505 6:-0.41934333 7:-1.2758821 8:0.23095358 9:-0.53384645 10:-0.53055539 11:6.1688367 12:-0.094278616 13:-0.39147817 
1 1:0.20088024 2:0.39242149 3:1.2831158 4:-1.2530574 5:-0.82780788 6:-0.41934333 7:-1.0878484 8:0.03847115 9:-0.10867644 10:-0.53055539 11:0.24138489 12:-0.094278616 13:11.757868 
1 1:-4.3196063 2:-2.3665933 3:3.8315635 4:-1.7760905 5:-0.78235024 6:-0.41934333 7:-1.0878484 8:0.03847115 9:0.10390856 10:2.7618674 11:-0.38255741 12:-0.094278616 13:-0.39147817 
1 1:0.19446853 2:-5.8610376 3:-1.9420557 4:-0.025123135 5:-0.93114435 6:-0.41934333 7:-1.2758821 8:-0.43311081 9:-0.35314919 10:-0.52571359 11:4.2502142 12:6.7980934 13:-0.39147817 
1 1:2.1372175 2:0.84170036 3:-0.3248931 4:-1.5262028 5:-0.92354785 6:-0.41934333 7:-1.2758821 8:4.0806023 9:-0.53384645 10:-0.53055539 11:-0.070586263 12:-0.094278616 13:-0.39147817 
1 1:-0.62829162 2:0.37857549 3:-1.928543 4:4.9623352 5:-0.77427501 6:-0.41934333 7:-0.14768016 8:-0.53897615 9:-0.53384645 10:0.050460402 11:2.7371541 12:-0.094278616 13:-0.39147817 
1 1:-0.96330362 2:-0.41542108 3:0.11688434 4:2.7810609 5:-0.92340241 6:-0.41934333 7:-1.2758821 8:-0.53897615 9:-0.53384645 10:-0.53055539 11:-0.38255741 12:19.654638 13:-0.39147817 
1 1:-1.2745007 2:-1.81896 3:-0.20436872 4:-1.7985857 5:-0.922921 6:-0.41934333 7:-1.2758821 8:-0.53897615 9:2.2297586 10:-0.53055539 11:-0.38255741 12:-0.094278616 13:8.7205316 
1 1:-0.81995604 2:-0.077705967 3:-0.0084348687 4:3.7045089 5:-0.72418466 6:2.6219632 7:-1.2758821 8:-0.53897615 9:-0.53384645 10:-0.53055539 11:-0.38255741 12:10.965115 13:-0.39147817 
1 1:0.29201816 2:0.40674494 3:1.3929608 4:-0.5552479 5:0.13359064 6:-0.41934333 7:-0.52374747 8:-0.53897615 9:-0.53384645 10:-0.53055539 11:-0.38255741 12:-0.094278616 13:12.517202 
1 1:-0.095890468 2:0.40053811 3:-0.19368935 4:4.8888253 5:-0.91594224 6:-0.41934333 7:-1.1818652 8:1.3858482 9:-0.53384645 10:-0.53055539 11:3.9850387 12:-0.094278616 13:-0.39147817 
1 1:-0.6333294 2:0.28435902 3:0.69662188 4:-0.46747839 5:-0.87268876 6:-0.41934333 7:-0.89981477 8:-0.53897615 9:-0.53384645 10:1.5998359 11:-0.38255741 12:-0.094278616 13:7.2018633 
1 1:-0.79362222 2:-0.057971436 3:-0.0069092436 4:3.6049962 5:-0.90856725 6:4.0043753 7:-1.2758821 8:-0.53897615 9:-0.53384645 10:-0.53055539 11:-0.38255741 12:7.0153315 13:-0.39147817 
1 1:-0.22939149 2:-1.5725967 3:-2.0043884 4:1.0636458 5:-0.93113239 6:-0.41934333 7:-1.2758821 8:-0.53897615 9:-0.53384645 10:-0.53055539 11:6.1688367 12:-0.094278616 13:2.6458584 
1 1:-0.79362222 2:-0.057971436 3:-0.0069092436 4:3.6049962 5:-0.91030197 6:0.96306875 7:-1.2758821 8:-0.53897615 9:-0.53384645 10:-0.53055539 11:-0.38255741 12:15.704855 13:-0.39147817 
1 1:0.038984492 2:-0.59876124 3:-0.16971524 4:-1.9703119 5:-0.92391689 6:-0.41934333 7:-1.2758821 8:-0.53897615 9:4.7807786 10:-0.53055539 11:-0.38255741 12:-0.094278616 13:-0.39147817 
1 1:-1.1753481 2:-6.8081359 3:-2.0198626 4:-0.1107575 5:-0.92828844 6:-0.41934333 7:-1.2382753 8:-0.31762135 9:-0.35846382 10:-0.52571359 11:2.705957 12:9.8986734 13:-0.35351146 
1 1:1.3854442 2:0.47040471 3:-1.1705253 4:-0.67397693 5:4.8989039 6:-0.41934333 7:1.0745386 8:-0.53897615 9:-0.53384645 10:-0.53055539 11:-0.38255741 12:-0.094278616 13:-0.39147817 
1 1:0.087530317 2:0.2186303 3:-0.97829654 4:2.6120035 5:-0.92571569 6:1.2395512 7:-1.2758821 8:-0.53897615 9:-0.53384645 10:-0.53055539 11:0.55335604 12:-0.094278616 13:11.757868 
1 1:-3.3070137 2:-2.8096653 3:-0.049190854 4:0.60032038 5:-0.88933782 6:-0.41934333 7:-1.0807972 8:0.057719393 9:2.1447246 10:-0.53055539 11:-0.38255741 12:-0.094278616 13:5.0947111 
1 1:1.2072902 2:0.49332223 3:0.042782546 4:-0.21995466 5:-0.93143898 6:-0.41934333 7:-1.2758821 8:-0.53897615 9:4.7807786 10:-0.53055539 11:-0.38255741 12:-0.094278616 13:-0.39147817 
1 1:2.6863349 2:-1.0022051 3:-2.001773 4:1.0337538 5:-0.80364253 6:2.3040085 7:-1.1442585 8:-0.53897615 9:-0.53384645 10:-0.39014324 11:-0.38255741 12:10.076414 13:-0.27757805 
1 1:2.0662307 2:-0.47955831 3:-2.1855019 4:1.7966851 5:-0.84828183 6:2.5321065 7:-1.1795148 8:-0.50529173 9:-0.43818319 10:-0.52571359 11:-0.38255741 12:9.760431 13:-0.25859469 
0.62054002461701729 1:0.40811596 2:-0.4241743 3:-1.2930112 4:0.52208275 5:-0.93103235 6:-0.41934333 7:-1.2758821 8:-0.53897615 9:4.7807786 10:-0.53055539 11:-0.38255741 12:-0.094278616 13:-0.39147817 
1 1:0.99066587 2:1.2435527 3:1.038144 4:-0.34508912 5:6.3913202 6:-0.41934333 7:1.0745386 8:-0.53897615 9:-0.53384645 10:-0.53055539 11:-0.38255741 12:-0.094278616 13:-0.39147817 
1 1:-3.388763 2:-1.9413459 3:-1.9607991 4:-0.23063036 5:1.2728342 6:-0.41934333 7:0.41642079 8:-0.53897615 9:-0.53384645 10:-0.53055539 11:-0.38255741 12:5.4354182 13:-0.39147817 
1 1:-1.2589294 2:-7.4135404 3:-1.8101981 4:-0.65300681 5:-0.90818151 6:-0.41934333 7:-0.9938316 8:-0.53897615 9:-0.53384645 10:-0.53055539 11:5.2329233 12:3.0655481 13:-0.39147817 
1 1:-0.79362222 2:-0.057971436 3:-0.0069092436 4:3.6049962 5:-0.91921144 6:4.0043753 7:-1.2758821 8:-0.53897615 9:-0.53384645 10:-0.53055539 11:-0.38255741 12:7.0153315 13:-0.39147817 
1 1:-1.3963232 2:-0.74995321 3:-1.1674741 4:-1.2958365 5:-0.93143898 6:-0.41934333 7:-1.2758821 8:-0.53897615 9:-0.53384645 10:-0.53055539 11:7.4167213 12:-0.094278616 13:-0.39147817 
1 1:0.11065828 2:0.45242083 3:0.20013988 4:1.6861916 5:7.3766822 6:1.2395512 7:-0.80579795 8:-0.53897615 9:-0.53384645 10:-0.53055539 11:-0.38255741 12:10.175158 13:0.36785598 
1 1:0.54986061 2:0.72042849 3:0.40370186 4:0.0042350403 5:-0.8273402 6:0.1336215 7:-0.33571382 8:-0.34649372 9:-0.53384645 10:-0.53055539 11:-0.38255741 12:-0.094278616 13:8.7205316 
1 1:-0.73362691 2:-0.055106746 3:-0.21897113 4:3.6146805 5:-0.90596143 6:3.4514105 7:-1.2758821 8:-0.53897615 9:-0.53384645 10:-0.53055539 11:-0.38255741 12:8.5952449 13:-0.39147817 
1 1:-4.1295448 2:-2.0874451 3:9.6906178 4:-1.7051733 5:0.028158695 6:-0.41934333 7:-0.14768016 8:1.9632955 9:-0.53384645 10:-0.53055539 11:-0.38255741 12:-0.094278616 13:-0.39147817 
1 1:0.38979678 2:-4.1598892 3:-2.0732595 4:0.34600995 5:-0.93143898 6:-0.41934333 7:-1.2758821 8:-0.53897615 9:0.31649356 10:-0.53055539 11:-0.38255741 12:16.494812 13:-0.39147817 
1 1:-0.81995604 2:-0.077705967 3:-0.0084348687 4:3.7045089 5:-0.7837499 6:1.792516 7:-1.2758821 8:-0.53897615 9:-0.53384645 10:-0.53055539 11:-0.38255741 12:13.334985 13:-0.39147817 
1 1:1.2379748 2:0.95199093 3:0.43595793 4:-1.7160778 5:-0.90617555 6:-0.41934333 7:-1.1207543 8:3.9554887 9:-0.53384645 10:-0.53055539 11:-0.38255741 12:-0.094278616 13:-0.39147817 
1 1:-4.2724344 2:-8.499417 3:-1.7068915 4:-1.1850379 5:2.1600363 6:-0.41934333 7:0.69847127 8:-0.53897615 9:0.31649356 10:-0.53055539 11:-0.38255741 12:-0.094278616 13:-0.39147817 
1 1:-4.9010113 2:-3.0389996 3:1.9731342 4:-2.1406656 5:1.4831265 6:-0.41934333 7:1.0745386 8:-0.53897615 9:-0.53384645 10:-0.53055539 11:-0.38255741 12:-0.094278616 13:-0.39147817 
1 1:-4.6564502 2:-2.6299856 3:5.6581727 4:-2.081873 5:-0.53823259 6:-0.41934333 7:-0.77054164 8:-0.50047967 9:3.5052686 10:-0.53055539 11:-0.24996967 12:-0.094278616 13:-0.39147817 
1 1:-0.95414403 2:-0.12258611 3:2.2597338 4:-1.1573574 5:-0.92387337 6:-0.41934333 7:-1.2758821 8:-0.53897615 9:0.10390856 10:-0.53055539 11:6.4808079 12:-0.094278616 13:-0.39147817 
1 1:0.82670921 2:-6.906172 3:-2.0372983 4:-0.42881711 5:-0.64008365 6:-0.41934333 7:1.0745386 8:-0.53897615 9:-0.53384645 10:-0.53055539 11:-0.38255741 12:-0.094278616 13:-0.39147817 
1 1:-5.8105585 2:-4.2122493 3:-1.2991137 4:-2.0732562 5:-0.93048431 6:-0.41934333 7:-1.2758821 8:-0.53897615 9:3.0800986 10:-0.53055539 11:2.1132118 12:-0.094278616 13:-0.39147817 
1 1:-0.76454052 2:0.034971838 3:1.607856 4:-1.4051099 5:-0.8838832 6:5.6632698 7:-1.2758821 8:-0.53897615 9:-0.53384645 10:-0.33688346 11:-0.38255741 12:-0.094278616 13:1.1271901 
1 1:2.4481856 2:0.59310893 3:-0.74988867 4:-1.1296768 5:-0.91480483 6:-0.41934333 7:-1.2758821 8:4.2730847 9:-0.53384645 10:-0.53055539 11:-0.38255741 12:-0.094278616 13:-0.39147817 
1 1:-0.81995604 2:-0.077705967 3:-0.0084348687 4:3.7045089 5:-0.63424593 6:1.2395512 7:-1.2758821 8:-0.53897615 9:-0.53384645 10:-0.53055539 11:-0.38255741 12:14.914898 13:-0.39147817 
1 1:-4.4787542 2:-2.5987923 3:4.5045821 4:-2.0675371 5:-0.1235713 6:-0.41934333 7:0.13437032 8:-0.53897615 9:1.5920036 10:-0.53055539 11:-0.38255741 12:-0.094278616 13:-0.39147817 
1 1:-2.9014728 2:-2.4367782 3:-0.39507186 4:1.4842683 5:1.2781874 6:-0.41934333 7:-0.053663337 8:-0.53897615 9:-0.53384645 10:-0.53055539 11:-0.38255741 12:9.3852016 13:-0.39147817 
1 1:1.0747051 2:1.1773465 3:0.4991624 4:-0.36651677 5:5.5969081 6:-0.41934333 7:1.0745386 8:-0.53897615 9:-0.53384645 10:-0.53055539 11:-0.38255741 12:-0.094278616 13:-0.39147817 
1 1:0.99066587 2:1.2435527 3:1.038144 4:-0.34508912 5:8.988307 6:-0.41934333 7:1.0745386 8:-0.53897615 9:-0.53384645 10:-0.53055539 11:-0.38255741 12:-0.094278616 13:-0.39147817 
0.67342285174953342 1:-0.12611711 2:0.37937123 3:1.0529643 4:5.1003567 5:-0.91872524 6:4.5573402 7:-1.1818652 8:-0.53897615 9:-0.53384645 10:0.6314762 11:-0.38255741 12:-0.094278616 13:-0.39147817 
1 1:-0.57218914 2:-5.9695775 3:-1.7722754 4:-0.51018119 5:-0.93012985 6:-0.41934333 7:-1.2758821 8:4.2730847 9:-0.53384645 10:-0.53055539 11:-0.38255741 12:-0.094278616 13:-0.39147817 
1 1:-0.095890468 2:0.40053811 3:-0.19368935 4:4.8888253 5:-0.93057579 6:-0.41934333 7:-1.2758821 8:-0.53897615 9:-0.53384645 10:-0.53055539 11:7.4167213 12:-0.094278616 13:-0.39147817 
1 1:1.5175713 2:0.79904831 3:-0.28130382 4:-1.5853767 5:-0.90786642 6:-0.41934333 7:-1.1207543 8:3.9554887 9:-0.53384645 10:-0.53055539 11:-0.38255741 12:-0.094278616 13:-0.39147817 
1 1:2.01425 2:0.25348402 3:-1.6205847 4:-0.0046105398 5:-0.93143723 6:-0.41934333 7:-1.2758821 8:-0.53897615 9:-0.53384645 10:4.3112429 11:-0.38255741 12:-0.094278616 13:-0.39147817 
1 1:-0.27221257 2:0.59438213 3:4.4629544 4:-1.8231398 5:-0.91384626 6:-0.41934333 7:-1.2758821 8:-0.15401128 9:2.0171736 10:-0.14321153 11:0.24138489 12:5.4354182 13:-0.39147817 
1 1:0.14683866 2:0.57798974 3:0.88383787 4:3.7256316 5:-0.86646299 6:6.4927171 7:-1.2758821 8:-0.53897615 9:-0.53384645 10:-0.53055539 11:-0.38255741 12:-0.094278616 13:-0.39147817 
1 1:-0.31434668 2:0.3165072 3:-1.0523983 4:4.7848135 5:-0.92511472 6:5.6632698 7:-1.2758821 8:-0.15401128 9:-0.53384645 10:-0.53055539 11:-0.38255741 12:-0.094278616 13:0.36785598 
1 1:2.326821 2:-1.4077179 3:-1.6648278 4:-0.54655483 5:2.7723852 6:-0.41934333 7:1.0745386 8:-0.53897615 9:-0.53384645 10:-0.53055539 11:-0.38255741 12:-0.094278616 13:-0.39147817 
1 1:1.0834067 2:-1.5845329 3:-1.6136104 4:1.4289835 5:-0.9312926 6:-0.41934333 7:-1.2758821 8:-0.53897615 9:3.7178536 10:-0.53055539 11:-0.38255741 12:-0.094278616 13:3.4051926 
1 1:0.16813471 2:0.56621268 3:2.3020154 4:-1.898556 5:-0.93132922 6:-0.41934333 7:-1.2758821 8:-0.53897615 9:4.5681936 10:-0.53055539 11:-0.070586263 12:-0.094278616 13:-0.39147817 
1 1:-3.5261568 2:-2.1517415 3:-2.0349009 4:-0.4112022 5:0.53384932 6:-0.41934333 7:0.20018209 8:-0.53897615 9:-0.53384645 10:-0.53055539 11:-0.32016318 12:7.0943272 13:-0.39147817 
1 1:-0.0056685087 2:0.4034028 3:-0.5214808 4:5.0382089 5:-0.89815163 6:-0.14286091 7:-0.9938316 8:3.1181901 9:-0.53384645 10:-0.53055539 11:-0.070586263 12:-0.094278616 13:0.36785598 
1 1:-3.388763 2:-1.9413459 3:-1.9607991 4:-0.23063036 5:0.75440531 6:-0.41934333 7:0.13437032 8:-0.53897615 9:-0.53384645 10:-0.53055539 11:-0.38255741 12:7.8052882 13:-0.39147817 
1 1:-0.57173116 2:0.19825917 3:-0.25057337 4:2.8043186 5:-0.66551373 6:1.2395512 7:-1.2758821 8:-0.53897615 9:-0.53384645 10:-0.53055539 11:-0.38255741 12:14.914898 13:-0.39147817 
1 1:-4.1295448 2:-2.0874451 3:9.6906178 4:-1.7051733 5:-0.018672068 6:-0.41934333 7:-0.33571382 8:2.1557779 9:-0.32126144 10:-0.53055539 11:-0.38255741 12:-0.094278616 13:-0.39147817 
1 1:-1.0826073 2:-6.4960438 3:-1.9618888 4:-1.2344512 5:-0.92465866 6:-0.41934333 7:-1.1818652 8:4.0806023 9:-0.53384645 10:-0.53055539 11:-0.38255741 12:-0.094278616 13:-0.39147817 
1 1:-0.55822076 2:-6.3970529 3:-1.6321359 4:-1.2859233 5:-0.92454108 6:-0.41934333 7:-1.1818652 8:4.0806023 9:-0.53384645 10:-0.53055539 11:-0.38255741 12:-0.094278616 13:-0.39147817 
1 1:-0.29259266 2:0.18282167 3:0.1622172 4:1.5966682 5:-0.93019969 6:-0.41934333 7:-1.2758821 8:-0.53897615 9:-0.53384645 10:-0.53055539 11:7.4167213 12:-0.094278616 13:-0.39147817 
1 1:-0.019178904 2:0.76690013 3:0.480419 4:0.64210812 5:-0.92832325 6:-0.41934333 7:-1.2758821 8:-0.53897615 9:-0.53384645 10:0.24413233 11:-0.38255741 12:-0.094278616 13:15.554539 
1 1:-0.62577274 2:-5.8979602 3:-1.810634 4:0.21279247 5:-0.63183621 6:-0.41934333 7:-0.19233816 8:-0.46198318 9:-0.06615944 10:-0.53055539 11:-0.054987706 12:7.6867947 13:-0.39147817 
1 1:0.048831051 2:0.49523203 3:0.91042734 4:5.2771921 5:-0.91451228 6:4.5573402 7:-1.1818652 8:-0.53897615 9:-0.53384645 10:0.6314762 11:-0.38255741 12:-0.094278616 13:-0.39147817 
1 1:1.4937563 2:0.44478165 3:-1.4569069 4:0.95894764 5:3.0398368 6:0.68658633 7:0.32240397 8:-0.53897615 9:-0.53384645 10:-0.53055539 11:-0.38255741 12:3.0655481 13:-0.39147817 
1 1:0.62840409 2:-2.9081788 3:-1.920697 4:0.68305705 5:-0.92885932 6:-0.41934333 7:-1.2758821 8:-0.53897615 9:4.1430236 10:-0.53055539 11:-0.38255741 12:2.2755914 13:-0.39147817 
1 1:-3.2809088 2:-1.8834155 3:0.77421081 4:-1.9065628 5:-0.92712249 6:-0.41934333 7:-1.2758821 8:0.03847115 9:-0.53384645 10:-0.53055539 11:6.4808079 12:-0.094278616 13:-0.39147817 
1 1:-0.29854639 2:-0.36274262 3:-2.1512843 4:2.8608236 5:-0.43917976 6:0.96306875 7:-1.0878484 8:-0.53897615 9:-0.53384645 10:-0.53055539 11:-0.38255741 12:1.4856347 13:11.757868 
1 1:-0.29854639 2:-0.36274262 3:-2.1512843 4:2.8608236 5:-0.22002065 6:-0.41934333 7:-1.0878484 8:-0.53897615 9:-0.53384645 10:-0.53055539 11:-0.070586263 12:1.4856347 13:14.795205 
1 1:-2.56211 2:-1.2616187 3:3.6319246 4:-2.1272447 5:0.6942247 6:-0.41934333 7:-1.2758821 8:-0.53897615 9:-0.53384645 10:4.3112429 11:-0.38255741 12:-0.094278616 13:-0.39147817 
1 1:2.796708 2:-0.99329271 3:-1.9174278 4:-0.77158333 5:-0.81145167 6:-0.41934333 7:-1.2077199 8:3.9651128 9:-0.46475632 10:-0.53055539 11:-0.37475813 12:0.30069972 13:-0.39147817 
1 1:1.6025265 2:-0.64507373 3:-1.6548023 4:-0.062793105 5:-0.9241591 6:-0.41934333 7:-1.2758821 8:-0.15401128 9:-0.53384645 10:-0.33688346 11:6.4808079 12:-0.094278616 13:-0.39147817 
1 1:0.20133822 2:0.66106575 3:0.70882688 4:3.9674362 5:-0.91539578 6:-0.41934333 7:-1.2758821 8:-0.53897615 9:-0.53384645 10:3.5365552 11:0.24138489 12:-0.094278616 13:1.1271901 
0.012805407425184833 1:1.9196773 2:-0.33075358 3:-1.7936342 4:-0.0027041648 5:3.1387522 6:-0.41934333 7:1.0745386 8:-0.53897615 9:-0.53384645 10:-0.53055539 11:-0.38255741 12:-0.094278616 13:-0.39147817 
1 1:-0.79362222 2:-0.057971436 3:-0.0069092436 4:3.6049962 5:-0.93143836 6:3.4514105 7:-1.2758821 8:-0.53897615 9:-0.53384645 10:-0.53055539 11:-0.38255741 12:8.5952449 13:-0.39147817 
1 1:0.8338079 2:0.50096141 3:-1.5447393 4:1.2028874 5:1.0880544 6:-0.41934333 7:-0.14768016 8:-0.53897615 9:-0.53384645 10:-0.53055539 11:-0.38255741 12:10.175158 13:-0.39147817 
1 1:-0.60447669 2:0.083989867 3:-0.22877872 4:3.0905799 5:-0.92166819 6:1.5160336 7:-1.2758821 8:-0.53897615 9:-0.53384645 10:-0.53055539 11:-0.38255741 12:14.124942 13:-0.39147817 
1 1:2.1346986 2:-5.9313816 3:-2.1560791 4:1.1089412 5:-0.93141862 6:-0.41934333 7:-1.2758821 8:-0.53897615 9:-0.53384645 10:-0.53055539 11:-0.38255741 12:19.654638 13:-0.39147817 
1 1:-3.4041053 2:-1.9645818 3:4.6401448 4:-1.8609623 5:-0.82057839 6:-0.41934333 7:-0.9938316 8:-0.53897615 9:4.1430236 10:-0.53055539 11:-0.38255741 12:-0.094278616 13:-0.39147817 
1 1:-0.81995604 2:-0.077705967 3:-0.0084348687 4:3.7045089 5:-0.63424593 6:1.2395512 7:-1.2758821 8:-0.53897615 9:-0.53384645 10:-0.53055539 11:-0.38255741 12:14.914898 13:-0.39147817 
1 1:-0.22435371 2:-5.7574313 3:-1.9788887 4:0.3611847 5:-0.90563156 6:-0.41934333 7:-1.2006686 8:-0.23581632 9:0.013559935 10:-0.53055539 11:1.6608536 12:10.550388 13:-0.39147817 
1 1:-0.29259266 2:0.18282167 3:0.1622172 4:1.5966682 5:-0.92942594 6:-0.41934333 7:-1.2758821 8:-0.53897615 9:-0.53384645 10:-0.53055539 11:7.4167213 12:-0.094278616 13:-0.39147817 
0.98860438366585657 1:-0.17672385 2:0.18600466 3:-0.054203622 4:3.5853224 5:-0.92916682 6:1.792516 7:-1.2758821 8:-0.53897615 9:-0.53384645 10:-0.53055539 11:3.0491252 12:-0.094278616 13:4.1645267 
1 1:-4.2346511 2:-2.7375706 3:-1.4909066 4:-2.0410766 5:-0.55526102 6:-0.41934333 7:-0.42973064 8:-0.53897615 9:-0.53384645 10:-0.53055539 11:-0.38255741 12:12.545028 13:-0.39147817 
1 1:-1.2506858 2:-0.21998557 3:2.4140399 4:-2.0494646 5:1.6838399 6:-0.41934333 7:-0.9938316 8:-0.53897615 9:-0.53384645 10:-0.53055539 11:6.4808079 12:-0.094278616 13:-0.39147817 
1 1:3.0034857 2:-3.0792645 3:-2.1135796 4:-0.42042906 5:-0.87724199 6:-0.41934333 7:-0.053663337 8:-0.53897615 9:0.10390856 10:-0.53055539 11:-0.38255741 12:7.0153315 13:-0.39147817 
1 1:-1.2435871 2:-6.7634149 3:-1.9028254 4:-0.75396843 5:-0.90524829 6:-0.41934333 7:-0.9938316 8:-0.53897615 9:-0.53384645 10:-0.53055539 11:5.2329233 12:3.0655481 13:-0.39147817 
1 1:-3.388763 2:-1.9413459 3:-1.9607991 4:-0.23063036 5:-0.59662423 6:-0.41934333 7:-0.24169699 8:-0.53897615 9:-0.53384645 10:-0.53055539 11:-0.38255741 12:10.965115 13:-0.39147817 
1 1:-6.9484086 2:-4.5400972 3:0.36904837 4:-1.8978697 5:-0.93143898 6:-0.41934333 7:-1.2758821 8:-0.53897615 9:2.6549286 10:0.43780426 11:0.24138489 12:2.2755914 13:-0.39147817 
1 1:-5.3951711 2:-3.6542714 3:-0.9011435 4:2.9341809 5:-0.89075218 6:1.5160336 7:-0.33571382 8:-0.53897615 9:-0.53384645 10:0.43780426 11:-0.38255741 12:-0.094278616 13:1.8865243 
1 1:0.82670921 2:-6.906172 3:-2.0372983 4:-0.42881711 5:-0.85448532 6:-0.41934333 7:0.7924881 8:-0.53897615 9:-0.53384645 10:-0.53055539 11:0.55335604 12:-0.094278616 13:-0.39147817 
0.57773105465032237 1:1.0348609 2:0.82721776 3:0.73912143 4:-0.86705459 5:-0.91380837 6:-0.41934333 7:-1.0878484 8:-0.15401128 9:-0.53384645 10:-0.53055539 11:6.1688367 12:-0.094278616 13:-0.39147817 
1 1:-0.5105909 2:0.61125197 3:7.1144908 4:-1.9669567 5:-0.30617618 6:-0.41934333 7:-0.14768016 8:-0.53897615 9:0.95424857 10:0.050460402 11:0.55335604 12:-0.094278616 13:-0.39147817 
1 1:-0.79362222 2:-0.057971436 3:-0.0069092436 4:3.6049962 5:-0.91030197 6:0.96306875 7:-1.2758821 8:-0.53897615 9:-0.53384645 10:-0.53055539 11:-0.38255741 12:15.704855 13:-0.39147817 
1 1:-0.29259266 2:0.18282167 3:0.1622172 4:1.5966682 5:-0.92822629 6:-0.41934333 7:-1.2758821 8:-0.53897615 9:-0.53384645 10:-0.53055539 11:7.4167213 12:-0.094278616 13:-0.39147817 
1 1:0.77610248 2:1.2655153 3:1.0006572 4:-0.55250272 5:4.4840795 6:-0.41934333 7:1.0745386 8:-0.53897615 9:-0.53384645 10:-0.53055539 11:-0.38255741 12:-0.094278616 13:-0.39147817 
1 1:-0.87651651 2:-0.11988057 3:-0.54698053 4:3.6027848 5:-0.63718163 6:1.2395512 7:-1.2758821 8:-0.53897615 9:-0.53384645 10:-0.53055539 11:-0.38255741 12:14.914898 13:-0.39147817 
1 1:2.0703525 2:0.31491571 3:-0.82442635 4:-0.1022932 5:-0.93143727 6:-0.41934333 7:-1.2758821 8:-0.53897615 9:-0.53384645 10:4.3112429 11:-0.38255741 12:-0.094278616 13:-0.39147817 
1 1:2.0650858 2:0.96440458 3:-0.034588442 4:-1.2310197 5:-0.90899156 6:-0.41934333 7:-1.1818652 8:4.0806023 9:-0.53384645 10:-0.53055539 11:-0.38255741 12:-0.094278616 13:-0.39147817 
1 1:-2.4668503 2:-0.97244413 3:8.5701551 4:-1.7874524 5:-0.93056679 6:-0.41934333 7:-1.2758821 8:-0.53897615 9:0.31649356 10:3.3428832 11:-0.070586263 12:-0.094278616 13:-0.39147817 
1 1:0.94212005 2:-4.1250354 3:-1.8814666 4:0.27105129 5:-0.92952501 6:-0.41934333 7:-1.2758821 8:-0.53897615 9:0.74166357 10:-0.53055539 11:0.55335604 12:12.545028 13:-0.39147817 
1 1:-0.79362222 2:-0.057971436 3:-0.0069092436 4:3.6049962 5:-0.9216537 6:-0.14286091 7:-1.2758821 8:-0.53897615 9:-0.53384645 10:-0.53055539 11:-0.38255741 12:18.864682 13:-0.39147817 
1 1:0.88189574 2:0.86334469 3:0.87991484 4:-0.5521977 5:-0.70325106 6:-0.41934333 7:-0.33571382 8:-0.15401128 9:-0.53384645 10:-0.53055539 11:0.55335604 12:-0.094278616 13:7.2018633 
1 1:-1.6305797 2:-0.71732758 3:4.155214 4:-1.8285539 5:-0.83223428 6:-0.41934333 7:-0.9938316 8:3.6956374 9:-0.53384645 10:-0.53055539 11:-0.38255741 12:-0.094278616 13:-0.39147817 
0.2542190351242527 1:-0.37388402 2:-7.0029348 3:-1.9060946 4:-0.75114699 5:-0.71443663 6:-0.41934333 7:1.0745386 8:-0.53897615 9:-0.53384645 10:-0.53055539 11:-0.38255741 12:-0.094278616 13:-0.39147817 
1 1:0.75251654 2:1.0562338 3:0.42985543 4:-0.46206429 5:5.1116047 6:-0.41934333 7:1.0745386 8:-0.53897615 9:-0.53384645 10:-0.53055539 11:-0.38255741 12:-0.094278616 13:-0.39147817 
1 1:-0.21656806 2:0.19969151 3:-0.048101121 4:3.0680084 5:-0.9271403 6:2.8984457 7:-1.2758821 8:-0.53897615 9:-0.53384645 10:-0.53055539 11:-0.38255741 12:10.175158 13:-0.39147817 
1 1:-0.81995604 2:-0.077705967 3:-0.0084348687 4:3.7045089 5:-0.91400769 6:2.3454808 7:-1.2758821 8:-0.53897615 9:-0.53384645 10:-0.53055539 11:-0.38255741 12:11.755072 13:-0.39147817 
1 1:-0.18725738 2:0.34992859 3:-0.80415733 4:5.4030128 5:-0.93143898 6:5.9397522 7:-1.2758821 8:-0.53897615 9:-0.53384645 10:-0.33688346 11:-0.38255741 12:-0.094278616 13:0.36785598 
1 1:-0.67660846 2:-6.576096 3:-2.0218241 4:0.19418625 5:-0.19921743 6:-0.41934333 7:-0.42973064 8:-0.53897615 9:0.10390856 10:-0.53055539 11:-0.38255741 12:10.175158 13:-0.39147817 
1 1:-1.3409077 2:-1.5145071 3:-0.14051041 4:-1.7797507 5:-0.92293461 6:-0.41934333 7:-1.2758821 8:-0.53897615 9:2.2297586 10:-0.53055539 11:-0.38255741 12:-0.094278616 13:8.7205316 
1 1:0.34674671 2:0.72965916 3:-0.14857443 4:2.9843567 5:-0.9194997 6:-0.41934333 7:-1.1818652 8:-0.53897615 9:-0.53384645 10:0.050460402 11:3.0491252 12:4.6454615 13:2.6458584 
1 1:-0.79362222 2:-0.057971436 3:-0.0069092436 4:3.6049962 5:-0.92748271 6:3.1749281 7:-1.2758821 8:-0.53897615 9:-0.53384645 10:-0.53055539 11:-0.38255741 12:9.3852016 13:-0.39147817 
1 1:-2.3876198 2:-1.051064 3:9.5910162 4:-1.3209244 5:-0.92452652 6:1.792516 7:-1.2758821 8:-0.53897615 9:0.10390856 10:1.7935078 11:-0.38255741 12:-0.094278616 13:1.1271901 
1 1:-7.0349667 2:-5.2169598 3:-1.1709612 4:-1.582784 5:-0.86967879 6:-0.41934333 7:-1.1818652 8:0.80840089 9:3.0800986 10:-0.53055539 11:-0.38255741 12:-0.094278616 13:-0.39147817 
1 1:-0.18290657 2:0.58499231 3:-0.75446554 4:6.8661175 5:-0.7156891 6:3.7278929 7:-0.61776429 8:-0.53897615 9:-0.53384645 10:-0.53055539 11:-0.38255741 12:-0.094278616 13:1.8865243 
1 1:-0.095890468 2:0.40053811 3:-0.19368935 4:4.8888253 5:-0.90877324 6:-0.14286091 7:-1.1818652 8:3.3106725 9:-0.53384645 10:-0.53055539 11:0.24138489 12:-0.094278616 13:0.36785598 
1 1:-0.29259266 2:0.18282167 3:0.1622172 4:1.5966682 5:-0.93142398 6:-0.41934333 7:-1.2758821 8:-0.34649372 9:-0.53384645 10:-0.53055539 11:7.1047502 12:-0.094278616 13:-0.39147817 
1 1:-0.59279821 2:0.42854841 3:0.6826733 4:-2.124042 5:-0.84462401 6:-0.41934333 7:-0.42973064 8:-0.53897615 9:-0.53384645 10:0.24413233 11:0.55335604 12:-0.094278616 13:6.4425292 
1 1:-0.073907453 2:0.69767012 3:3.6807446 4:-1.7013606 5:-0.26477336 6:-0.41934333 7:-0.9938316 8:-0.53897615 9:0.10390856 10:0.050460402 11:-0.38255741 12:9.3852016 13:2.6458584 
1 1:-0.19069222 2:0.15353817 3:-0.29329087 4:2.7512452 5:-0.92000747 6:0.96306875 7:-1.2758821 8:-0.53897615 9:-0.53384645 10:-0.53055539 11:-0.38255741 12:15.704855 13:-0.39147817 
0.87401570199739353 1:0.082263553 2:0.5598467 3:0.82891537 4:2.5595401 5:-0.92858396 6:6.4927171 7:-1.2758821 8:-0.53897615 9:-0.53384645 10:-0.53055539 11:-0.38255741 12:-0.094278616 13:-0.39147817 
1 1:-0.16985416 2:0.57862634 3:0.37253551 4:-0.52383084 5:-0.85861486 6:-0.41934333 7:-0.89981477 8:-0.53897615 9:-0.53384645 10:1.5998359 11:-0.38255741 12:-0.094278616 13:7.2018633 
1 1:1.6414547 2:0.083512419 3:-1.310229 4:-0.44132293 5:-0.93118513 6:-0.41934333 7:-1.2758821 8:-0.53897615 9:-0.53384645 10:4.3112429 11:-0.38255741 12:-0.094278616 13:-0.39147817 
1 1:0.99066587 2:1.2435527 3:1.038144 4:-0.34508912 5:7.7452944 6:-0.41934333 7:1.0745386 8:-0.53897615 9:-0.53384645 10:-0.53055539 11:-0.38255741 12:-0.094278616 13:-0.39147817 
0.79524020759261138 1:-0.28572297 2:0.29215734 3:3.7803461 4:-2.0463382 5:-0.85773824 6:-0.41934333 7:-1.0878484 8:-0.34649372 9:3.2926836 10:-0.33688346 11:0.55335604 12:-0.094278616 13:-0.39147817 
1 1:-4.4512754 2:-3.1187335 3:-0.48377606 4:-0.98486857 5:-0.92413458 6:-0.41934333 7:-1.2758821 8:-0.53897615 9:-0.53384645 10:4.3112429 11:-0.38255741 12:-0.094278616 13:-0.39147817 
1 1:-1.6108866 2:-0.74613363 3:5.6110962 4:-1.8877278 5:-0.79290367 6:-0.41934333 7:-1.1818652 8:-0.15401128 9:-0.53384645 10:3.7302271 11:-0.38255741 12:-0.094278616 13:-0.39147817 
1 1:0.22973295 2:-2.4727459 3:-1.7308656 4:-0.02519939 5:-0.92993832 6:-0.41934333 7:-1.2758821 8:-0.53897615 9:4.7807786 10:-0.53055539 11:-0.38255741 12:-0.094278616 13:-0.39147817 
1 1:0.069211138 2:0.68939435 3:0.17551193 4:4.7832122 5:-0.55153147 6:-0.29492624 7:-0.91156687 8:-0.24544044 9:3.2607958 10:-0.5015046 11:-0.17197689 12:-0.094278616 13:-0.030794449 
1 1:0.092110112 2:0.69910246 3:0.15502496 4:1.4451495 5:4.4172802 6:2.3454808 7:-0.71178112 8:-0.53897615 9:-0.53384645 10:-0.53055539 11:-0.38255741 12:6.2253748 13:0.36785598 
1 1:-0.36357948 2:0.3892385 3:2.4190526 4:-1.6133623 5:0.97037663 6:-0.41934333 7:-1.0878484 8:-0.53897615 9:-0.53384645 10:-0.53055539 11:6.792779 12:-0.094278616 13:-0.39147817 
1 1:-3.0597047 2:-3.0888134 3:-0.73114528 4:1.425247 5:1.2708434 6:-0.41934333 7:-0.053663337 8:-0.53897615 9:-0.53384645 10:-0.53055539 11:-0.38255741 12:9.3852016 13:-0.39147817 
1 1:-0.87651651 2:-0.11988057 3:-0.54698053 4:3.6027848 5:-0.74730894 6:0.96306875 7:-1.2758821 8:-0.53897615 9:-0.53384645 10:-0.53055539 11:-0.38255741 12:15.704855 13:-0.39147817 
1 1:2.3842975 2:-2.0529097 3:-1.806711 4:-1.0567008 5:-0.69281539 6:-0.41934333 7:-1.1254552 8:3.9603007 9:-0.52853182 10:-0.53055539 11:-0.38255741 12:-0.094278616 13:-0.39147817 
1 1:0.05867761 2:0.44096207 3:1.546613 4:-1.7962218 5:0.016226591 6:-0.41934333 7:-0.14768016 8:-0.53897615 9:-0.53384645 10:-0.53055539 11:-0.38255741 12:-0.094278616 13:9.4798658 
1 1:0.14683866 2:0.57798974 3:0.88383787 4:3.7256316 5:-0.89773199 6:6.4927171 7:-1.2758821 8:-0.53897615 9:-0.53384645 10:-0.53055539 11:-0.38255741 12:-0.094278616 13:-0.39147817 
1 1:-0.19069222 2:0.15353817 3:-0.29329087 4:2.7512452 5:-0.90915703 6:1.5160336 7:-1.2758821 8:-0.53897615 9:-0.53384645 10:-0.53055539 11:-0.38255741 12:14.124942 13:-0.39147817 
1 1:0.77701844 2:0.69703352 3:-0.94734815 4:1.6870304 5:5.3109704 6:-0.41934333 7:-0.24169699 8:-0.53897615 9:-0.53384645 10:-0.53055539 11:3.9850387 12:-0.094278616 13:-0.39147817 
1 1:-0.18176162 2:0.46754002 3:0.20231934 4:3.6488428 5:-0.93074805 6:1.792516 7:-1.2758821 8:-0.34649372 9:-0.53384645 10:-0.53055539 11:-0.38255741 12:-0.094278616 13:11.757868 
1 1:0.72480878 2:0.66918237 3:-0.16818961 4:-0.11106252 5:-0.84803001 6:0.41010392 7:-0.33571382 8:-0.34649372 9:-0.53384645 10:-0.53055539 11:-0.38255741 12:-0.094278616 13:7.9611975 
1 1:0.025474097 2:0.173591 3:1.0547079 4:2.5581675 5:-0.47890818 6:-0.41934333 7:-0.24169699 8:-0.53897615 9:-0.53384645 10:-0.14321153 11:-0.38255741 12:-0.094278616 13:8.7205316 
1 1:1.1111145 2:0.84376931 3:-0.14508729 4:-1.089948 5:-0.92339479 6:-0.41934333 7:-1.2758821 8:-0.53897615 9:-0.32126144 10:-0.53055539 11:7.1047502 12:-0.094278616 13:-0.39147817 
1 1:-1.9919256 2:-6.4369994 3:-2.0800158 4:-0.31268074 5:-0.93107779 6:-0.41934333 7:-1.2664804 8:-0.34649372 9:-0.11399107 10:-0.31751627 11:5.4591024 12:1.5448815 13:-0.39147817 
1 1:-0.60310275 2:-0.031711778 3:-0.26844498 4:3.5902789 5:-0.92820724 6:0.1336215 7:-1.2758821 8:-0.53897615 9:-0.53384645 10:-0.53055539 11:-0.38255741 12:18.074725 13:-0.39147817 
1 1:2.4809311 2:0.34897369 3:-1.4715093 4:0.05791856 5:-0.92892431 6:-0.41934333 7:-1.2758821 8:-0.53897615 9:-0.53384645 10:3.923899 11:0.24138489 12:-0.094278616 13:-0.39147817 
1 1:0.82670921 2:-6.906172 3:-2.0372983 4:-0.42881711 5:-0.73764033 6:-0.41934333 7:0.32240397 8:-0.53897615 9:-0.53384645 10:-0.53055539 11:2.1132118 12:-0.094278616 13:-0.39147817 
1 1:-0.37617392 2:0.41056452 3:-0.14988211 4:0.06950932 5:-0.92021137 6:-0.41934333 7:-1.1818652 8:-0.53897615 9:-0.53384645 10:-0.53055539 11:7.1047502 12:-0.094278616 13:-0.39147817 
1 1:-5.3999799 2:-3.1924197 3:0.86400474 4:-2.2599284 5:-0.78472123 6:-0.41934333 7:-0.61776429 8:-0.34649372 9:-0.53384645 10:-0.53055539 11:4.9209521 12:-0.094278616 13:-0.39147817 
1 1:2.8970055 2:-6.2194421 3:-1.9065304 4:-0.75610357 5:-0.72442782 6:-0.41934333 7:-0.24169699 8:-0.53897615 9:-0.53384645 10:-0.53055539 11:-0.38255741 12:10.175158 13:0.36785598 
1 1:0.58741493 2:0.56907737 3:0.86487653 4:-0.41509121 5:0.19644322 6:-0.41934333 7:-0.42973064 8:-0.53897615 9:-0.53384645 10:-0.53055539 11:-0.38255741 12:-0.094278616 13:11.757868 
1 1:-0.77507405 2:-7.0452686 3:-1.9880424 4:-0.42020029 5:-0.90649626 6:-0.41934333 7:-0.9938316 8:-0.53897615 9:0.10390856 10:-0.53055539 11:4.9209521 12:1.4856347 13:-0.39147817 
1 1:-0.48013526 2:0.25077848 3:0.48564972 4:4.647402 5:-0.88744644 6:0.68658633 7:-1.2758821 8:-0.53897615 9:-0.53384645 10:-0.53055539 11:-0.38255741 12:16.494812 13:-0.39147817 
0.74651684377018523 1:-0.40388167 2:0.52531127 3:1.8441099 4:-1.9140357 5:-0.93141491 6:-0.41934333 7:-1.2758821 8:-0.53897615 9:-0.53384645 10:4.3064011 11:-0.38255741 12:-0.094278616 13:-0.39147817 
1 1:-2.4941001 2:-1.1271374 3:10.675518 4:-2.1476811 5:0.8354601 6:-0.41934333 7:0.69847127 8:-0.53897615 9:0.10390856 10:-0.33688346 11:-0.38255741 12:-0.094278616 13:-0.39147817 
1 1:0.19973529 2:0.74350516 3:-0.93361752 4:0.67398271 5:0.15169381 6:-0.41934333 7:-0.053663337 8:-0.53897615 9:-0.53384645 10:-0.53055539 11:-0.38255741 12:-0.094278616 13:8.7205316 
1 1:-2.9758945 2:-2.2734908 3:-0.26234248 4:2.393533 5:0.97869982 6:0.1336215 7:-0.89981477 8:-0.53897615 9:-0.53384645 10:-0.53055539 11:-0.38255741 12:7.8052882 13:6.4425292 
1 1:0.28927028 2:0.74891624 3:-0.25580408 4:-0.65552322 5:0.062432247 6:-0.41934333 7:-0.52374747 8:-0.53897615 9:-0.53384645 10:-0.53055539 11:-0.38255741 12:-0.094278616 13:12.517202 
1 1:2.3254471 2:0.42170498 3:-1.0696161 4:-0.25099045 5:-0.9292122 6:-0.41934333 7:-1.2758821 8:-0.34649372 9:-0.53384645 10:4.117571 11:-0.38255741 12:-0.094278616 13:-0.39147817 
0.0082340015261699404 1:-0.64019909 2:-0.13149848 3:0.39040712 4:3.2086227 5:-0.70280604 6:2.0689984 7:-1.2758821 8:0.80840089 9:-0.53384645 10:-0.33688346 11:-0.38255741 12:-0.094278616 13:5.683195 
1 1:-1.9971923 2:-0.91308139 3:2.8192023 4:-2.1250333 5:-0.46780762 6:-0.41934333 7:-1.2758821 8:-0.53897615 9:-0.53384645 10:4.3112429 11:-0.38255741 12:-0.094278616 13:-0.39147817 
1 1:0.087530317 2:0.2186303 3:-0.97829654 4:2.6120035 5:-0.92353694 6:3.4514105 7:-1.1818652 8:-0.53897615 9:-0.53384645 10:-0.53055539 11:-0.38255741 12:-0.094278616 13:7.2018633 
1 1:-3.7739237 2:-2.1028826 3:5.4029574 4:-2.2059399 5:-0.93143898 6:-0.41934333 7:-1.2758821 8:-0.53897615 9:-0.53384645 10:4.3112429 11:-0.38255741 12:-0.094278616 13:-0.39147817 
1 1:-0.2916767 2:0.31252847 3:1.4500627 4:0.74108711 5:-0.90326979 6:6.4927171 7:-1.2758821 8:-0.53897615 9:-0.53384645 10:-0.53055539 11:-0.38255741 12:-0.094278616 13:-0.39147817 
1 1:-0.18290657 2:0.58499231 3:-0.75446554 4:6.8661175 5:-0.68805826 6:3.4514105 7:-0.52374747 8:-0.53897615 9:-0.53384645 10:-0.53055539 11:-0.38255741 12:-0.094278616 13:1.8865243 
1 1:-0.79362222 2:-0.057971436 3:-0.0069092436 4:3.6049962 5:-0.91030197 6:0.96306875 7:-1.2758821 8:-0.53897615 9:-0.53384645 10:-0.53055539 11:-0.38255741 12:15.704855 13:-0.39147817 
1 1:0.4987959 2:0.72663532 3:1.0065417 4:-0.46709712 5:4.3543724 6:-0.41934333 7:1.0745386 8:-0.53897615 9:-0.53384645 10:-0.53055539 11:-0.38255741 12:-0.094278616 13:-0.39147817 
1 1:0.24805213 2:0.4603783 3:0.93636296 4:0.19220362 5:-0.90351634 6:-0.41934333 7:-1.2758821 8:-0.53897615 9:-0.53384645 10:1.5998359 11:-0.38255741 12:-0.094278616 13:10.2392 
1 1:0.0064679478 2:0.42679777 3:0.59898187 4:5.7596574 5:-0.90765573 6:0.96306875 7:-1.0878484 8:2.5407428 9:-0.53384645 10:-0.53055539 11:-0.38255741 12:-0.094278616 13:1.1271901 
1 1:2.7708321 2:-5.4499546 3:-2.0407855 4:-0.70585152 5:-0.90757401 6:-0.41934333 7:-1.0314383 8:0.014410846 9:-0.51258795 10:-0.53055539 11:2.1600075 12:8.7729851 13:-0.35351146 
1 1:0.65313499 2:-7.361976 3:-1.8489926 4:-0.24824527 5:-0.91732408 6:-0.41934333 7:-1.2758821 8:0.03847115 9:-0.53384645 10:-0.53055539 11:6.4808079 12:-0.094278616 13:-0.39147817 
1 1:-0.79133232 2:-0.061631873 3:0.076564244 4:3.6773621 5:-0.92483307 6:2.8984457 7:-1.2758821 8:-0.53897615 9:-0.53384645 10:-0.53055539 11:-0.38255741 12:10.175158 13:-0.39147817 
1 1:-0.44967962 2:0.38462316 3:0.66959652 4:-0.029393415 5:-0.91796129 6:-0.41934333 7:-1.2758821 8:-0.53897615 9:-0.53384645 10:2.3745236 11:-0.38255741 12:-0.094278616 13:7.2018633 
1 1:-3.2790769 2:-3.3631871 3:-1.1740124 4:0.64546334 5:-0.88987605 6:-0.41934333 7:-1.0807972 8:0.057719393 9:2.1447246 10:-0.53055539 11:-0.38255741 12:-0.094278616 13:5.0947111 
1 1:-0.0056685087 2:0.4034028 3:-0.5214808 4:5.0382089 5:-0.89815163 6:-0.14286091 7:-0.9938316 8:3.1181901 9:-0.53384645 10:-0.53055539 11:-0.070586263 12:-0.094278616 13:0.36785598 
1 1:0.36437892 2:-1.2881966 3:-1.7544038 4:0.69937562 5:-0.9313485 6:-0.41934333 7:-1.2758821 8:-0.53897615 9:-0.53384645 10:-0.53055539 11:7.1047502 12:0.69567807 13:-0.39147817 
1 1:1.0355479 2:1.257717 3:0.37144578 4:-0.33746362 5:6.4462714 6:-0.41934333 7:0.98052175 8:-0.53897615 9:-0.53384645 10:-0.53055539 11:-0.38255741 12:-0.094278616 13:0.36785598 
1 1:-3.2930453 2:-1.8587474 3:1.3628842 4:-1.9159421 5:-0.92909937 6:-0.41934333 7:-1.2758821 8:0.03847115 9:-0.53384645 10:-0.53055539 11:6.4808079 12:-0.094278616 13:-0.39147817 
1 1:1.6338981 2:0.20971793 3:-1.3967537 4:-0.30223381 5:-0.93029844 6:-0.41934333 7:-1.2758821 8:-0.53897615 9:-0.53384645 10:4.3112429 11:-0.38255741 12:-0.094278616 13:-0.39147817 
1 1:0.093484051 2:0.45353487 3:0.12952523 4:4.3689187 5:-0.92678536 6:5.110305 7:-1.2758821 8:-0.53897615 9:-0.53384645 10:-0.53055539 11:-0.38255741 12:-0.094278616 13:3.4051926 
1 1:2.3572767 2:0.16961227 3:-2.1774379 4:1.4076321 5:-0.84247632 6:2.5321065 7:-1.1724636 8:-0.50529173 9:-0.43818319 10:-0.52571359 11:-0.38255741 12:9.7011842 13:-0.25859469 
1 1:-0.23740613 2:0.5179904 3:0.50264954 4:0.50309525 5:-0.9284909 6:-0.41934333 7:-1.2758821 8:-0.53897615 9:-0.53384645 10:0.24413233 11:-0.38255741 12:-0.094278616 13:15.554539 
1 1:0.50932943 2:-0.88825408 3:-0.60103125 4:-1.8855926 5:-0.9249498 6:-0.41934333 7:-1.2758821 8:-0.53897615 9:4.7807786 10:-0.53055539 11:-0.38255741 12:-0.094278616 13:-0.39147817 
1 1:0.75251654 2:1.0562338 3:0.42985543 4:-0.46206429 5:5.0880929 6:-0.41934333 7:1.0745386 8:-0.53897615 9:-0.53384645 10:-0.53055539 11:-0.38255741 12:-0.094278616 13:-0.39147817 
1 1:-0.046428683 2:0.45464892 3:0.046269689 4:5.7049063 5:-0.93142905 6:1.5160336 7:-1.2758821 8:-0.53897615 9:-0.32126144 10:2.7618674 11:-0.38255741 12:-0.094278616 13:-0.39147817 
1 1:2.01425 2:0.25348402 3:-1.6205847 4:-0.0046105398 5:-0.93143723 6:-0.41934333 7:-1.2758821 8:-0.53897615 9:-0.53384645 10:4.3112429 11:-0.38255741 12:-0.094278616 13:-0.39147817 
1 1:2.2661387 2:0.89119584 3:-0.29350882 4:-1.1153409 5:-0.9103245 6:-0.41934333 7:-1.2758821 8:4.2730847 9:-0.53384645 10:-0.53055539 11:-0.38255741 12:-0.094278616 13:-0.39147817 
1 1:2.4319273 2:-0.63966265 3:-2.018337 4:1.4634507 5:-0.6445661 6:0.036852657 7:-0.77054164 8:-0.53897615 9:-0.53384645 10:-0.53055539 11:-0.38255741 12:13.947201 13:-0.23961134 
0.26017307864498351 1:-0.73362691 2:-0.055106746 3:-0.21897113 4:3.6146805 5:-0.90164394 6:1.792516 7:-1.2758821 8:-0.53897615 9:-0.53384645 10:-0.53055539 11:-0.38255741 12:13.334985 13:-0.39147817 
1 1:-0.79362222 2:-0.057971436 3:-0.0069092436 4:3.6049962 5:-0.92038571 6:1.2395512 7:-1.2758821 8:-0.53897615 9:-0.53384645 10:-0.53055539 11:-0.38255741 12:14.914898 13:-0.39147817 
1 1:-1.8570506 2:-3.1074339 3:-1.8760179 4:-0.3105456 5:-0.92858359 6:-0.41934333 7:-1.2758821 8:-0.53897615 9:4.7807786 10:-0.53055539 11:-0.38255741 12:-0.094278616 13:-0.39147817 
1 1:-3.4041053 2:-1.9645818 3:4.6401448 4:-1.8609623 5:-0.81821222 6:-0.41934333 7:-0.9938316 8:-0.53897615 9:4.1430236 10:-0.53055539 11:-0.38255741 12:-0.094278616 13:-0.39147817 
1 1:0.26637131 2:0.78392912 3:0.05171835 4:3.0925626 5:-0.4313245 6:-0.41934333 7:-0.89981477 8:-0.53897615 9:3.9304386 10:-0.53055539 11:-0.38255741 12:-0.094278616 13:-0.39147817 
0.034805654209383481 1:1.0398987 2:1.0774007 3:0.21670381 4:-0.46038668 5:3.8174491 6:-0.41934333 7:1.0745386 8:-0.53897615 9:-0.53384645 10:-0.53055539 11:-0.38255741 12:-0.094278616 13:-0.39147817 
1 1:-0.0088743651 2:0.45528552 3:0.71536527 4:5.3445252 5:-0.92962641 6:5.6632698 7:-1.2758821 8:-0.53897615 9:-0.53384645 10:-0.14321153 11:-0.38255741 12:-0.094278616 13:0.36785598 
1 1:0.39643748 2:-0.14725427 3:1.0069776 4:-2.0461094 5:-0.92356402 6:-0.41934333 7:-1.2758821 8:-0.53897615 9:4.7807786 10:-0.53055539 11:-0.38255741 12:-0.094278616 13:-0.39147817 
1 1:-2.8162886 2:-3.0111485 3:-0.94495074 4:1.5622772 5:1.2678657 6:-0.41934333 7:-0.053663337 8:-0.53897615 9:-0.53384645 10:-0.53055539 11:-0.38255741 12:9.3852016 13:-0.39147817 
1 1:1.0204345 2:1.2685392 3:0.84068448 4:-0.16657616 5:4.0236289 6:-0.41934333 7:0.51043762 8:-0.53897615 9:-0.53384645 10:-0.53055539 11:1.4892695 12:-0.094278616 13:-0.39147817 
1 1:-2.6814137 2:-1.4094685 3:1.9491601 4:-1.8285539 5:3.5031173 6:-0.41934333 7:1.0745386 8:-0.53897615 9:-0.53384645 10:-0.53055539 11:-0.38255741 12:-0.094278616 13:-0.39147817 
1 1:0.0064679478 2:0.42679777 3:0.59898187 4:5.7596574 5:-0.86055604 6:-0.41934333 7:-0.71178112 8:2.5407428 9:-0.53384645 10:-0.53055539 11:0.55335604 12:-0.094278616 13:-0.39147817 
1 1:0.54986061 2:0.72042849 3:0.40370186 4:0.0042350403 5:-0.74740431 6:2.8984457 7:-0.89981477 8:-0.53897615 9:-0.53384645 10:-0.53055539 11:-0.38255741 12:-0.094278616 13:6.4425292 
1 1:0.51368023 2:0.87416685 3:1.2417059 4:-1.0486177 5:-0.91877886 6:-0.41934333 7:-1.2758821 8:4.2730847 9:-0.53384645 10:-0.53055539 11:-0.38255741 12:-0.094278616 13:-0.39147817 
1 1:0.0023461324 2:0.77947293 3:3.6807446 4:-1.3862749 5:-0.49748462 6:-0.41934333 7:-0.71178112 8:0.42343602 9:-0.10867644 10:-0.14321153 11:0.24138489 12:2.2755914 13:3.4051926 
0.74437413780588901 1:-1.7503414 2:-0.7814648 3:2.9713289 4:-2.1983144 5:-0.9164724 6:-0.41934333 7:-1.2758821 8:-0.53897615 9:-0.32126144 10:4.117571 11:-0.38255741 12:-0.094278616 13:-0.39147817 
1 1:-3.0891723 2:-2.0556676 3:-2.0764318 4:-1.4343883 5:-0.80331728 6:3.0435989 7:-1.0760963 8:-0.1395751 9:-0.53384645 10:-0.53055539 11:-0.35915958 12:6.0871324 13:-0.10672786 
1 1:-0.98674522 2:-0.44306016 3:-1.2740949 4:5.5641367 5:-0.93032769 6:5.4351718 7:-1.2735317 8:-0.37536608 9:-0.53384645 10:-0.53055539 11:0.4207683 12:-0.094278616 13:-0.10672786 
1 1:-3.1809006 2:-1.9896347 3:-1.771755 4:-1.6930921 5:-0.80109275 6:3.0435989 7:-1.0760963 8:-0.1395751 9:-0.53384645 10:-0.53055539 11:-0.35915958 12:6.0871324 13:-0.10672786 
1 1:-4.5870104 2:-8.3797532 3:-2.1935659 4:-1.2565134 5:-0.91782233 6:-0.41934333 7:-1.2171216 8:4.1527832 9:-0.53384645 10:-0.53055539 11:-0.38255741 12:-0.094278616 13:-0.39147817 
1 1:-10.493737 2:-6.8258017 3:-1.1886446 4:0.44762153 5:-0.043500225 6:-0.41934333 7:0.52218972 8:-0.31762135 9:-0.20965432 10:-0.017324774 11:-0.24996967 12:-0.094278616 13:-0.2965614 
1 1:-5.1825945 2:-11.699226 3:-2.1916457 4:-1.0588978 5:-0.89347505 6:-0.41934333 7:-0.74233659 8:-0.53897615 9:-0.039586315 10:0.72831216 11:1.5438644 12:3.2827862 13:-0.33452811 
1 1:0.067654854 2:-7.9917361 3:-2.1846048 4:-0.5595997 5:-0.92528155 6:-0.41934333 7:-1.2077199 8:-0.53897615 9:-0.52853182 10:-0.53055539 11:2.3549894 12:12.130301 13:-0.39147817 
1 1:-6.1837427 2:-8.7893854 3:-2.0853929 4:-1.4317568 5:-0.7149031 6:-0.41934333 7:0.38821575 8:-0.53897615 9:0.12516706 10:-0.012482976 11:0.015205803 12:0.10321055 13:-0.39147817 
1 1:-5.3892924 2:-9.435009 3:-2.1065154 4:-0.51718797 5:-0.9097677 6:-0.41934333 7:-0.90451561 8:-0.49566761 9:-0.53384645 10:-0.5111882 11:5.9504569 12:0.24145297 13:-0.39147817 
1 1:-5.8793556 2:-3.8577735 3:-1.1431991 4:-1.8995426 5:-0.91860174 6:-0.41934333 7:-1.2617796 8:-0.42829875 9:-0.11399107 10:3.7883287 11:-0.38255741 12:-0.094278616 13:-0.39147817 
0.62867913218848659 1:-5.6530945 2:-7.701575 3:-2.1756437 4:-1.2966718 5:-0.36450843 6:-0.41934333 7:0.90765871 8:-0.53897615 9:-0.51258795 10:-0.38045965 11:-0.11738194 12:-0.074529699 13:-0.39147817 
1 1:-6.23143 2:-9.0020343 3:-1.9823404 4:-1.5577726 5:-0.7236434 6:-0.41934333 7:0.52689056 8:-0.36574196 9:-0.25217132 10:-0.24488929 11:0.15559282 12:0.22170406 13:-0.39147817 
1 1:-1.5732928 2:-0.071548335 3:6.8302435 4:-1.7396362 5:-0.75402474 6:-0.41934333 7:-0.88806267 8:0.43306014 9:-0.53384645 10:1.812875 11:0.77953512 12:-0.094278616 13:-0.39147817 
1 1:0.58424098 2:-0.16422237 3:-1.2987379 4:-1.7829439 5:-0.91943029 6:-0.41934333 7:-1.2711812 8:-0.50529173 9:-0.52853182 10:4.2628249 11:-0.38255741 12:-0.094278616 13:-0.39147817 
1 1:-4.6710023 2:-2.7203873 3:-1.2315298 4:-2.2208078 5:-0.60577048 6:-0.41934333 7:-1.0032333 8:-0.53416409 9:-0.52853182 10:-0.53055539 11:-0.21097328 12:16.909539 13:-0.39147817 
1 1:3.0294206 2:-4.017548 3:-1.9810603 4:-0.74910858 5:-0.84461825 6:-0.41934333 7:-0.3451155 8:-0.51972791 9:-0.53384645 10:-0.53055539 11:3.4468885 12:2.0386044 13:-0.39147817 
1 1:1.7925943 2:-4.2931471 3:-2.1935659 4:-0.40638392 5:-0.92976631 6:-0.41934333 7:-1.2758821 8:4.1239108 9:-0.48601482 10:-0.53055539 11:-0.29676535 12:0.10321055 13:-0.39147817 
1 1:1.7925943 2:-4.2931471 3:-2.1935659 4:-0.40638392 5:-0.89958545 6:-0.41934333 7:-1.0737459 8:3.6715771 9:-0.37440769 10:-0.53055539 11:-0.37475813 12:0.0044659695 13:-0.35351146 
1 1:-6.3561495 2:-3.570707 3:-1.9343346 4:1.3909427 5:-0.11800897 6:0.87321197 7:-0.47203821 8:-0.38980227 9:-0.47538557 10:-0.53055539 11:-0.27336751 12:7.9830285 13:-0.2965614 
1 1:0.50002721 2:0.84298106 3:0.63301533 4:0.036647194 5:-0.8605624 6:-0.41934333 7:-0.68357607 8:-0.51972791 9:-0.31594682 10:0.45232966 11:-0.10958266 12:-0.094278616 13:8.4357813 
1 1:2.1867281 2:0.092808343 3:-2.1852449 4:0.027527768 5:-0.87852546 6:-0.41934333 7:-1.2523779 8:4.0276696 9:-0.51790257 10:-0.38045965 11:-0.33576174 12:-0.094278616 13:-0.39147817 
1 1:-5.5921696 2:-3.9500636 3:-1.5582892 4:-1.6378012 5:-0.92016601 6:-0.41934333 7:-1.2711812 8:-0.033709763 9:-0.10867644 10:3.4058266 11:-0.38255741 12:-0.094278616 13:-0.39147817 
1 1:-5.2418232 2:-4.4393192 3:-1.9356148 4:0.048549272 5:-0.92876539 6:5.2761944 7:-1.2570787 8:-0.53897615 9:-0.49664407 10:0.19087255 11:-0.38255741 12:-0.094278616 13:-0.18266128 
1 1:-5.5837514 2:-5.0335079 3:-1.2872165 4:0.008930684 5:-0.92989044 6:-0.41934333 7:-1.2688308 8:3.9747369 9:-0.23622744 10:-0.53055539 11:-0.35915958 12:-0.094278616 13:-0.39147817 
1 1:-7.7129549 2:-8.4899161 3:-2.1929258 4:-0.96484627 5:-0.93035476 6:-0.41934333 7:-1.2688308 8:0.66885112 9:3.4255492 10:-0.53055539 11:-0.38255741 12:-0.094278616 13:-0.37249482 
0.60345954170929239 1:-4.8481492 2:-4.6519681 3:-2.0252256 4:-0.51947627 5:-0.93119314 6:-0.41934333 7:-1.2758821 8:-0.52453997 9:4.0792481 10:0.094036586 11:-0.38255741 12:-0.094278616 13:-0.39147817 
1 1:-5.0769627 2:-3.8477216 3:-1.1745629 4:0.78314518 5:-0.92231343 6:-0.41934333 7:-1.2288737 8:-0.48604348 9:0.57159557 10:1.9726543 11:-0.047188427 12:-0.094278616 13:3.4241759 
1 1:1.4389504 2:-8.7985257 3:-2.1884453 4:-0.78345996 5:-0.78219212 6:-0.41934333 7:-0.19468858 8:0.18283298 9:-0.53384645 10:-0.53055539 11:1.6608536 12:2.4335828 13:-0.39147817 
0.96298184928394415 1:-6.6125797 2:-6.6778903 3:-1.5336462 4:-1.8526658 5:-0.78416401 6:-0.41934333 7:-0.88806267 8:0.27426213 9:2.862199 10:-0.53055539 11:-0.23437112 12:-0.094278616 13:-0.23961134 
1 1:-6.0119701 2:-4.3529066 3:-0.0032214811 4:0.81368559 5:-0.92442548 6:-0.41934333 7:-1.2147711 8:4.0854143 9:-0.49664407 10:-0.5063464 11:-0.38255741 12:-0.094278616 13:-0.39147817 
1 1:2.96542 2:-8.7701693 3:-2.1910056 4:-0.73239402 5:-0.91188126 6:-0.41934333 7:-1.0831476 8:1.0201316 9:-0.53384645 10:-0.53055539 11:-0.14077977 12:11.024362 13:-0.39147817 
1 1:0.028084532 2:1.0308721 3:2.8515232 4:-1.9190423 5:-0.7976526 6:-0.267278 7:-1.2006686 8:-0.48604348 9:-0.53384645 10:3.9820006 11:-0.38255741 12:-0.074529699 13:-0.37249482 
0.71809687615969597 1:-2.6575767 2:-7.6665733 3:-2.1782041 4:-1.300612 5:-0.87873471 6:1.1358703 7:-1.0784467 8:-0.34168166 9:2.5964677 10:-0.31267447 11:-0.35915958 12:-0.094278616 13:-0.12571122 
1 1:-7.2000468 2:-5.4755988 3:-1.8306421 4:-1.4108758 5:-0.91478905 6:-0.41934333 7:-1.2570787 8:0.68809937 9:0.27397656 10:2.3018966 11:-0.38255741 12:-0.094278616 13:-0.39147817 
1 1:-4.4822823 2:-3.3967183 3:-1.6533407 4:2.2205314 5:-0.93081696 6:6.3475638 7:-1.2547283 8:-0.53897615 9:-0.53384645 10:-0.49182101 11:-0.38255741 12:-0.094278616 13:-0.33452811 
1 1:-4.3996855 2:-7.0340004 3:-1.9855408 4:1.5547903 5:-0.91179296 6:-0.41934333 7:-0.85515678 8:-0.48604348 9:0.63005644 10:-0.53055539 11:3.5014834 12:1.7423707 13:-0.39147817 
1 1:-5.938077 2:-7.381786 3:-2.1634823 4:-1.3648217 5:-0.81072948 6:-0.41934333 7:-0.80344752 8:-0.14919922 9:2.9578622 10:-0.24004749 11:-0.38255741 12:-0.094278616 13:-0.37249482 
1 1:-2.8728989 2:-1.5335575 3:-2.094994 4:0.40536549 5:-0.93081696 6:6.3475638 7:-1.2547283 8:-0.53897615 9:-0.53384645 10:-0.49182101 11:-0.38255741 12:-0.094278616 13:-0.33452811 
1 1:-8.0525527 2:-6.7553546 3:-0.22276799 4:-1.3607644 5:-0.71227306 6:2.8846215 7:-0.17588521 8:-0.48604348 9:-0.53384645 10:-0.53055539 11:-0.35915958 12:0.14270839 13:0.12107238 
1 1:-8.0525527 2:-6.7553546 3:-0.22276799 4:-1.3607644 5:-0.36450843 6:-0.41934333 7:0.90765871 8:-0.53897615 9:-0.51258795 10:-0.38045965 11:-0.11738194 12:-0.074529699 13:-0.39147817 
1 1:-6.1897036 2:-5.6729179 3:-2.1423597 4:-1.20587 5:-0.75242116 6:-0.41934333 7:-1.1536602 8:4.0228575 9:-0.53384645 10:-0.53055539 11:-0.38255741 12:-0.094278616 13:-0.39147817 
1 1:-5.0421326 2:-7.8585067 3:-2.1910056 4:-1.3242531 5:-0.87873471 6:1.1358703 7:-1.0784467 8:-0.34168166 9:2.5964677 10:-0.31267447 11:-0.35915958 12:-0.094278616 13:-0.12571122 
1 1:-0.61941975 2:-0.39431213 3:-1.6821442 4:4.0593449 5:-0.93055706 6:6.3683 7:-1.2664804 8:-0.53897615 9:-0.53384645 10:-0.5111882 11:-0.37475813 12:-0.094278616 13:-0.23961134 
1 1:-7.7410315 2:-5.1907994 3:0.01534076 4:-2.2149553 5:-0.90720071 6:-0.41934333 7:-1.2547283 8:-0.51972791 9:3.9835849 10:-0.18194592 11:0.12439571 12:-0.094278616 13:-0.39147817 
1 1:-1.7811321 2:-0.51559445 3:5.8547657 4:-2.1829741 5:-0.77176645 6:-0.41934333 7:-0.16648353 8:-0.3368696 9:-0.53384645 10:-0.39498504 11:3.1895123 12:-0.094278616 13:-0.39147817 
1 1:-2.1108848 2:-2.9760266 3:-2.1782041 4:-1.8457387 5:-0.92955146 6:-0.41934333 7:-1.2617796 8:-0.51972791 9:-0.48070019 10:4.1853561 11:-0.38255741 12:-0.094278616 13:-0.2965614 
1 1:-7.0622483 2:-6.4398238 3:-1.6366987 4:0.57743916 5:-0.6793645 6:-0.41934333 7:0.84419735 8:-0.53897615 9:-0.47538557 10:-0.16742052 11:-0.35915958 12:-0.015282948 13:-0.31554476 
1 1:-4.5054918 2:-7.0874026 3:-2.0271458 4:1.2528333 5:-0.91336222 6:-0.41934333 7:-1.0431904 8:3.5127791 9:-0.31594682 10:-0.53055539 11:-0.24996967 12:-0.054780782 13:-0.39147817 
1 1:-6.0324052 2:-3.7007218 3:-0.66122092 4:-1.861968 5:-0.82674001 6:-0.41934333 7:-0.99148118 8:-0.29837311 9:-0.45412707 10:3.4155102 11:-0.38255741 12:-0.094278616 13:-0.39147817 
1 1:-4.7134896 2:-7.5887012 3:-2.1084356 4:-1.1195087 5:-0.92983722 6:-0.41934333 7:-1.2547283 8:-0.53897615 9:-0.48601482 10:-0.027008371 11:6.4262129 12:-0.015282948 13:-0.39147817 
1 1:-0.70965784 2:-0.38154935 3:-0.017943258 4:-0.18246655 5:-0.8605624 6:-0.41934333 7:-0.68357607 8:-0.51972791 9:-0.31594682 10:0.45232966 11:-0.10958266 12:-0.094278616 13:8.4357813 
1 1:-4.1260225 2:-8.6995422 3:-2.136599 4:-0.2865637 5:-0.91584651 6:-0.41934333 7:-1.0784467 8:0.50524105 9:-0.25748594 10:-0.48697921 11:2.8853404 12:4.1912364 13:-0.39147817 
1 1:-4.7946595 2:-9.4979352 3:-2.0757917 4:-1.2307272 5:-0.87878204 6:-0.41934333 7:-0.63656766 8:-0.15401128 9:-0.53384645 10:-0.53055539 11:0.26478272 12:11.06386 13:-0.39147817 
1 1:1.7487753 2:0.66557373 3:-1.8421635 4:-0.31564229 5:-0.91280128 6:5.0895688 7:-1.1818652 8:-0.53897615 9:0.20488644 10:-0.53055539 11:-0.24996967 12:-0.074529699 13:-0.27757805 
1 1:-0.80300322 2:-5.1289168 3:-2.0437878 4:-0.52423654 5:-0.80770951 6:-0.41934333 7:-0.4814399 8:-0.52935203 9:-0.53384645 10:-0.53055539 11:1.0369113 12:9.3457037 13:-0.39147817 
1 1:-0.48117728 2:-3.2564718 3:-1.2814558 4:-1.0127858 5:-0.92410223 6:-0.41934333 7:-1.1607115 8:-0.48123142 9:-0.20965432 10:-0.51603 11:3.0725231 12:8.4175046 13:-0.39147817 
1 1:2.642516 2:-5.1675649 3:-2.1935659 4:-0.83866248 5:-0.91782233 6:-0.41934333 7:-1.2171216 8:4.1527832 9:-0.53384645 10:-0.53055539 11:-0.38255741 12:-0.094278616 13:-0.39147817 
1 1:0.33813133 2:-8.160459 3:-2.1327586 4:-0.35257518 5:-0.92871187 6:-0.41934333 7:-1.2500274 8:-0.53416409 9:-0.39035157 10:-0.52571359 11:6.8629726 12:0.4981889 13:-0.39147817 
1 1:-6.3064646 2:-4.4589912 3:1.8152381 4:-1.9551431 5:-0.90966746 6:-0.41934333 7:-1.2312241 8:-0.30799723 9:0.072020811 10:3.3670922 11:-0.38255741 12:-0.094278616 13:-0.12571122 
1 1:-6.1502918 2:-4.9081112 3:-1.5323661 4:0.35938332 5:-0.92876539 6:5.2761944 7:-1.2570787 8:-0.53897615 9:-0.49664407 10:0.19087255 11:-0.38255741 12:-0.094278616 13:-0.18266128 
1 1:-5.023045 2:-3.0395646 3:-2.1558014 4:-1.329896 5:-0.11800897 6:0.87321197 7:-0.47203821 8:-0.38980227 9:-0.47538557 10:-0.53055539 11:-0.27336751 12:7.9830285 13:-0.2965614 
1 1:-1.0182461 2:-1.9785992 3:-0.81867993 4:-1.4210081 5:-0.92850624 6:-0.41934333 7:-1.2570787 8:-0.51010379 9:-0.5232172 10:-0.43371943 11:7.1359473 12:-0.094278616 13:-0.39147817 
1 1:-0.92295076 2:-0.57836474 3:5.2754958 4:-1.8912389 5:-0.89172557 6:-0.41934333 7:-1.2124207 8:-0.18769571 9:4.1642821 10:-0.47729561 11:-0.3513603 12:-0.094278616 13:-0.39147817 
1 1:-7.1415791 2:-8.1984115 3:-2.111636 4:-1.5003037 5:-0.78416401 6:-0.41934333 7:-0.88806267 8:0.27426213 9:2.862199 10:-0.53055539 11:-0.23437112 12:-0.094278616 13:-0.23961134 
1 1:-6.9416983 2:-5.5038352 3:-1.5022825 4:1.2920906 5:-0.71801501 6:5.7254784 7:-1.0972501 8:-0.53897615 9:-0.53384645 10:-0.53055539 11:-0.38255741 12:-0.094278616 13:0.27293921 
1 1:-6.3981137 2:-8.6969033 3:-1.9452159 4:1.6273224 5:-0.92497916 6:-0.41934333 7:-1.1795148 8:3.5224032 9:-0.039586315 10:-0.53055539 11:-0.24996967 12:0.024214887 13:-0.39147817 
1 1:-3.5619869 2:-1.8703795 3:12.355391 4:-2.1065158 5:-0.82879823 6:-0.41934333 7:-1.1560106 8:-0.53897615 9:1.9959151 10:0.53948203 11:1.5906601 12:-0.094278616 13:-0.39147817 
1 1:-13.397241 2:-10.191923 3:-1.1361583 4:-0.22765068 5:-0.92599746 6:-0.41934333 7:-1.1489594 8:-0.062582128 9:-0.50195869 10:3.3138324 11:-0.3123639 12:0.0044659695 13:0.21598915 
1 1:-5.5955464 2:-5.1248624 3:-2.1455601 4:-0.0065863479 5:-0.87116346 6:5.3936995 7:-0.91626772 8:-0.53897615 9:-0.53384645 10:-0.53055539 11:-0.37475813 12:-0.094278616 13:-0.2965614 
0.48822764434003052 1:1.4760318 2:1.1715385 3:0.014060605 4:-0.50299479 5:-0.81087675 6:-0.41934333 7:-1.2406258 8:4.1912797 9:-0.53384645 10:-0.52571359 11:-0.37475813 12:-0.094278616 13:-0.39147817 
1 1:-1.709078 2:-10.838578 3:-2.1935659 4:-0.65498973 5:-0.83138926 6:-0.41934333 7:-0.30985919 8:-0.38499021 9:-0.53384645 10:-0.53055539 11:2.4407815 12:3.7370113 13:-0.37249482 
1 1:-0.60426381 2:-0.56392265 3:-0.27781463 4:0.28432281 5:-0.8605624 6:-0.41934333 7:-0.68357607 8:-0.51972791 9:-0.31594682 10:0.45232966 11:-0.10958266 12:-0.094278616 13:8.4357813 
1 1:-7.0684311 2:-5.3918971 3:-2.1596418 4:-0.31091069 5:-0.88903111 6:-0.41934333 7:-1.0784467 8:-0.057770067 9:3.0375816 10:-0.51603 11:-0.38255741 12:-0.094278616 13:2.2661914 
1 1:-1.6187765 2:-10.794052 3:-2.1935659 4:-0.50272069 5:-0.71456065 6:-0.41934333 7:0.55274519 8:-0.14919922 9:-0.53384645 10:-0.53055539 11:0.10879715 12:1.3868902 13:-0.35351146 
1 1:-1.0376349 2:0.28742862 3:4.8389631 4:-1.8587725 5:-0.92783131 6:-0.37787097 7:-1.26413 8:-0.033709763 9:2.7027602 10:0.612109 11:-0.16417761 12:-0.094278616 13:-0.20164463 
1 1:-5.027912 2:-2.5498772 3:-2.136599 4:0.52402128 5:-0.78189654 6:5.9881367 7:-1.1560106 8:-0.53416409 9:-0.53384645 10:-0.53055539 11:-0.38255741 12:0.22170406 13:-0.2965614 
1 1:1.216082 2:-0.70129038 3:-1.605975 4:0.70779425 5:-0.93143444 6:6.0987296 7:-1.2758821 8:-0.51491585 9:-0.40629544 10:-0.40466864 11:-0.38255741 12:-0.094278616 13:-0.35351146 
1 1:-4.4911761 2:-7.7847249 3:-1.9528969 4:-0.45928345 5:-0.91782233 6:-0.41934333 7:-1.2171216 8:4.1527832 9:-0.53384645 10:-0.53055539 11:-0.38255741 12:-0.094278616 13:-0.39147817 
1 1:-5.027912 2:-2.5498772 3:-2.136599 4:0.52402128 5:-0.11800897 6:0.87321197 7:-0.47203821 8:-0.38980227 9:-0.47538557 10:-0.53055539 11:-0.27336751 12:7.9830285 13:-0.2965614 
1 1:-4.618004 2:-11.650022 3:-2.1878052 4:0.13260872 5:-0.92439781 6:-0.41934333 7:-1.158361 8:-0.53897615 9:0.10922319 10:0.011726016 11:5.1939269 12:-0.054780782 13:-0.39147817 
1 1:0.75533189 2:-9.8467763 3:-2.1935659 4:-0.45983839 5:-0.78219212 6:-0.41934333 7:-0.19468858 8:0.18283298 9:-0.53384645 10:-0.53055539 11:1.6608536 12:2.4335828 13:-0.39147817 
1 1:-5.0766139 2:-4.2572098 3:-1.3544246 4:0.63905839 5:-0.71801501 6:5.7254784 7:-1.0972501 8:-0.53897615 9:-0.53384645 10:-0.53055539 11:-0.38255741 12:-0.094278616 13:0.27293921 
1 1:-0.45409951 2:-11.293864 3:-2.1935659 4:0.89960449 5:-0.80770951 6:-0.41934333 7:-0.4814399 8:-0.52935203 9:-0.53384645 10:-0.53055539 11:1.0369113 12:9.3457037 13:-0.39147817 
1 1:-7.2784582 2:-6.7806402 3:-1.954177 4:-0.8417043 5:-0.92240763 6:-0.41934333 7:-1.2053695 8:-0.43311081 9:4.4884742 10:-0.53055539 11:-0.38255741 12:-0.035031865 13:-0.39147817 
1 1:1.6319667 2:-7.5959223 3:-2.1878052 4:-0.86604826 5:-0.84251603 6:-0.41934333 7:-1.0243871 8:0.57260991 9:2.7452772 10:-0.53055539 11:-0.13298049 12:0.14270839 13:-0.39147817 
1 1:1.0385863 2:-6.7755303 3:-2.1481204 4:-0.88217034 5:-0.87878204 6:-0.41934333 7:-0.63656766 8:-0.15401128 9:-0.53384645 10:-0.53055539 11:0.26478272 12:11.06386 13:-0.39147817 
1 1:-1.3266124 2:-4.6023325 3:-1.6200567 4:-1.3676649 5:-0.86496657 6:-0.41934333 7:-0.65772144 8:-0.38017814 9:0.70977582 10:-0.53055539 11:-0.18757544 12:8.6742405 13:-0.39147817 
1 1:-0.61231738 2:0.10357993 3:3.8948491 4:0.9636267 5:-0.73831615 6:4.9375035 7:-1.0220366 8:-0.40423845 9:-0.35846382 10:-0.45792842 11:-0.28896607 12:-0.094278616 13:0.14005573 
1 1:-6.0019982 2:-3.9996993 3:-2.1846048 4:2.1273631 5:-0.93141887 6:3.2371366 7:-1.2758821 8:-0.53416409 9:-0.53384645 10:-0.53055539 11:-0.38255741 12:8.9902232 13:-0.20164463 
1 1:-2.6220966 2:-1.9573799 3:-2.1801243 4:-1.2047683 5:-0.91108144 6:5.8153351 7:-1.1278056 8:-0.53897615 9:-0.53384645 10:-0.43371943 11:-0.28896607 12:-0.094278616 13:-0.35351146 
1 1:-0.46094822 2:-2.9906846 3:-1.5560489 4:-0.1722983 5:-0.93113115 6:-0.41934333 7:-1.2735317 8:-0.53897615 9:-0.5232172 10:-0.53055539 11:0.45976469 12:17.462509 13:-0.39147817 
1 1:-1.1837725 2:-4.3480366 3:-1.9528969 4:-0.32204409 5:-0.90413931 6:-0.41934333 7:-1.0008829 8:-0.033709763 9:-0.50195869 10:-0.53055539 11:0.33497623 12:13.354734 13:-0.39147817 
1 1:0.04595142 2:0.14676224 3:2.3810664 4:0.0097019207 5:-0.92560087 6:5.9604884 7:-1.1560106 8:-0.53897615 9:-0.47538557 10:-0.5063464 11:-0.36695886 12:-0.094278616 13:-0.25859469 
1 1:-1.4080043 2:-0.86965342 3:-1.7960779 4:3.8445901 5:-0.92916848 6:5.7254784 7:-1.2758821 8:-0.53897615 9:-0.53384645 10:-0.53055539 11:-0.38255741 12:2.0978512 13:-0.39147817 
1 1:-5.9884594 2:-5.8272947 3:-1.3851483 4:-1.1127995 5:-0.9074145 6:-0.41934333 7:-1.203019 8:-0.14438716 9:3.8613485 10:-0.25457289 11:-0.38255741 12:-0.094278616 13:-0.35351146 
1 1:-8.5945519 2:-10.098589 3:-2.153241 4:-0.062093486 5:-0.76602557 6:-0.41934333 7:-0.51434578 8:-0.13476304 9:0.050762311 10:-0.53055539 11:-0.27336751 12:9.1482146 13:-0.39147817 
1 1:-8.8786466 2:-7.5652268 3:-1.216808 4:-0.26758508 5:-0.74007697 6:-0.41934333 7:0.038003068 8:-0.36574196 9:-0.53384645 10:1.4255311 11:-0.37475813 12:-0.094278616 13:-0.39147817 
1 1:-0.79412526 2:0.061729073 3:-2.1737235 4:-1.2582885 5:-0.92778943 6:5.3522271 7:-1.2664804 8:-0.37536608 9:-0.48601482 10:0.0068842174 11:-0.38255741 12:-0.094278616 13:-0.27757805 
0.70913670341320578 1:-1.0478129 2:-4.6842829 3:-1.7909573 4:-1.1850611 5:-0.92736971 6:-0.41934333 7:-1.2359249 8:-0.081830371 9:-0.50195869 10:0.035935007 11:3.1739137 12:6.0278857 13:-0.39147817 
1 1:-6.5434585 2:-4.5897856 3:-0.54856732 4:3.2426199 5:-0.93063507 6:5.117217 7:-1.2570787 8:-0.50529173 9:0.22614494 10:-0.52571359 11:-0.17197689 12:-0.074529699 13:-0.18266128 
1 1:-8.1186934 2:-9.4076721 3:-1.5182844 4:-1.1301247 5:-0.90651337 6:-0.41934333 7:-0.97502823 8:-0.51491585 9:0.58222482 10:0.035935007 11:3.8290531 12:-0.094278616 13:-0.39147817 
1 1:-3.2158734 2:-6.9062528 3:-1.929214 4:-0.77463607 5:-0.86496657 6:-0.41934333 7:-0.65772144 8:-0.38017814 9:0.70977582 10:-0.53055539 11:-0.18757544 12:8.6742405 13:-0.39147817 
1 1:-3.3071895 2:-2.1704006 3:-2.0572295 4:-0.97416101 5:-0.9299621 6:6.3130035 7:-1.2594291 8:-0.53897615 9:-0.50727332 10:-0.53055539 11:-0.30456463 12:-0.054780782 13:-0.37249482 
1 1:0.44387414 2:-5.5912074 3:-2.0578695 4:-0.54742586 5:-0.80770951 6:-0.41934333 7:-0.4814399 8:-0.52935203 9:-0.53384645 10:-0.53055539 11:1.0369113 12:9.3457037 13:-0.39147817 
1 1:-2.6009322 2:-7.2313676 3:-2.1762838 4:-0.60493812 5:-0.87878204 6:-0.41934333 7:-0.63656766 8:-0.15401128 9:-0.53384645 10:-0.53055539 11:0.26478272 12:11.06386 13:-0.39147817 
1 1:4.2804515 2:-3.2539168 3:-2.0098637 4:-1.045824 5:-0.91188126 6:-0.41934333 7:-1.0831476 8:1.0201316 9:-0.53384645 10:-0.53055539 11:-0.14077977 12:11.024362 13:-0.39147817 
1 1:-2.1482039 2:-2.1200452 3:-2.1711632 4:-0.41860927 5:-0.92666605 6:6.4166844 7:-1.2570787 8:-0.53897615 9:-0.53384645 10:-0.53055539 11:-0.38255741 12:-0.094278616 13:-0.33452811 
1 1:-0.96840273 2:-8.3944112 3:-2.0277859 4:-0.54956756 5:-0.89860782 6:-0.41934333 7:-1.1536602 8:2.0691608 9:1.6238913 10:-0.53055539 11:-0.38255741 12:-0.094278616 13:-0.39147817 
1 1:2.076689 2:-4.1451997 3:-2.0597898 4:0.10359236 5:-0.92693033 6:-0.41934333 7:-1.1936174 8:-0.30318517 9:0.15705481 10:-0.53055539 11:5.3577118 12:0.8536694 13:-0.35351146 
1 1:-5.8203331 2:-4.3970725 3:-0.98638017 4:0.87622453 5:-0.71801501 6:5.7254784 7:-1.0972501 8:-0.53897615 9:-0.53384645 10:-0.53055539 11:-0.38255741 12:-0.094278616 13:0.27293921 
1 1:-7.4386578 2:-5.809614 3:-1.4497961 4:-1.1137744 5:-0.9073454 6:-0.41934333 7:-1.2100703 8:3.7533821 9:-0.11930569 10:-0.5208718 11:-0.38255741 12:-0.094278616 13:-0.39147817 
0.052272675002337274 1:-5.9664389 2:-4.4554167 3:-1.9272938 4:-1.154825 5:-0.90651337 6:-0.41934333 7:-0.97502823 8:-0.51491585 9:0.58222482 10:0.035935007 11:3.8290531 12:-0.094278616 13:-0.39147817 
1 1:-7.0186036 2:-5.5294087 3:-1.5042027 4:-0.74288718 5:-0.92665864 6:-0.41934333 7:-1.26413 8:4.0228575 9:-0.28405907 10:-0.53055539 11:-0.38255741 12:-0.094278616 13:-0.39147817 
1 1:-4.3147108 2:-3.1929578 3:-2.0373871 4:-0.18131191 5:-0.78189654 6:5.9881367 7:-1.1560106 8:-0.53416409 9:-0.53384645 10:-0.53055539 11:-0.38255741 12:0.22170406 13:-0.2965614 
1 1:-6.8990207 2:-7.926219 3:-1.3585851 4:-0.54705667 5:-0.85067196 6:-0.41934333 7:-0.023107869 8:-0.53897615 9:-0.53384645 10:-0.53055539 11:3.0179281 12:0.51793781 13:-0.39147817 
1 1:-0.67107043 2:-5.4883855 3:-2.1103559 4:-0.83000616 5:-0.92976631 6:-0.41934333 7:-1.2758821 8:4.1239108 9:-0.48601482 10:-0.53055539 11:-0.29676535 12:0.10321055 13:-0.39147817 
1 1:1.0365412 2:0.86037394 3:-0.18244312 4:-1.0147338 5:0.06500403 6:-0.41934333 7:-0.29575666 8:0.091403819 9:-0.53384645 10:-0.43371943 11:0.19458921 12:-0.094278616 13:6.4045625 
1 1:0.20454978 2:0.40283335 3:0.34626071 4:-0.5932493 5:-0.92065119 6:6.2438829 7:-1.2429762 8:-0.53897615 9:-0.53384645 10:-0.5111882 11:-0.37475813 12:-0.094278616 13:-0.049777803 
1 1:0.64996957 2:0.26541764 3:-1.0036623 4:-0.23906866 5:-0.8605624 6:-0.41934333 7:-0.68357607 8:-0.51972791 9:-0.31594682 10:0.45232966 11:-0.10958266 12:-0.094278616 13:8.4357813 
1 1:2.6984947 2:-5.7455602 3:-2.1922858 4:-0.66723582 5:-0.84251603 6:-0.41934333 7:-1.0243871 8:0.57260991 9:2.7452772 10:-0.53055539 11:-0.13298049 12:0.14270839 13:-0.39147817 
1 1:1.7386607 2:-9.3920665 3:-2.1929258 4:-0.92547264 5:-0.71456065 6:-0.41934333 7:0.55274519 8:-0.14919922 9:-0.53384645 10:-0.53055539 11:0.10879715 12:1.3868902 13:-0.35351146 
1 1:-3.8926908 2:-3.5448216 3:-2.1103559 4:-0.31817579 5:-0.11800897 6:0.87321197 7:-0.47203821 8:-0.38980227 9:-0.47538557 10:-0.53055539 11:-0.27336751 12:7.9830285 13:-0.2965614 
1 1:4.6788499 2:-1.2118253 3:-2.1935659 4:0.80403266 5:-0.85900433 6:5.6287095 7:-1.1677627 8:-0.53897615 9:-0.40098082 10:-0.53055539 11:-0.38255741 12:0.083461638 13:0.46277275 
1 1:0.072458463 2:1.0935344 3:-1.1886446 4:3.863256 5:-0.92815849 6:6.1885864 7:-1.26413 8:-0.53897615 9:-0.50195869 10:-0.47245381 11:-0.38255741 12:-0.094278616 13:-0.011811096 
1 1:1.445593 2:-3.6185674 3:-1.9682587 4:-1.219573 5:-0.89259071 6:-0.41934333 7:-0.77994332 8:-0.53897615 9:-0.53384645 10:-0.44340302 11:5.420106 12:0.43894214 13:-0.39147817 
1 1:-8.3323351 2:-8.180155 3:-2.1039551 4:0.37185317 5:-0.92919615 6:-0.41934333 7:-1.2547283 8:3.9169922 9:-0.22559819 10:-0.51603 11:-0.38255741 12:-0.094278616 13:-0.33452811 
0.34195062080653016 1:-2.7217517 2:-6.7749785 3:-1.8914494 4:-0.85864657 5:-0.87817559 6:-0.41934333 7:-0.60131135 8:-0.51010379 9:1.586689 10:-0.53055539 11:-0.023790591 12:5.0799376 13:-0.39147817 
1 1:0.12325306 2:-5.938969 3:-1.8088795 4:-1.2729712 5:-0.86181384 6:-0.41934333 7:-0.70472986 8:-0.53897615 9:-0.53384645 10:-0.53055539 11:0.56115532 12:12.466033 13:-0.39147817 
1 1:-4.9795905 2:-9.3228669 3:-2.1935659 4:-0.84167843 5:-0.89347505 6:-0.41934333 7:-0.74233659 8:-0.53897615 9:-0.039586315 10:0.72831216 11:1.5438644 12:3.2827862 13:-0.33452811 
1 1:-4.0512099 2:-3.160655 3:-2.1257177 4:-1.0581487 5:-0.91108144 6:5.8153351 7:-1.1278056 8:-0.53897615 9:-0.53384645 10:-0.43371943 11:-0.28896607 12:-0.094278616 13:-0.35351146 
1 1:-3.5570882 2:-7.7375962 3:-2.1077956 4:-0.62902685 5:-0.93082059 6:-0.41934333 7:-1.2688308 8:-0.48123142 9:-0.35314919 10:-0.53055539 11:0.95891853 12:15.270379 13:-0.39147817 
1 1:-6.0999728 2:-8.6161284 3:-2.1263578 4:-0.68063679 5:-0.92850624 6:-0.41934333 7:-1.2570787 8:-0.51010379 9:-0.5232172 10:-0.43371943 11:7.1359473 12:-0.094278616 13:-0.39147817 
1 1:-6.9958855 2:-11.224724 3:-2.0047431 4:-1.3522435 5:-0.91172553 6:-0.41934333 7:-1.085498 8:-0.53897615 9:-0.50195869 10:0.51527304 11:3.3454978 12:4.1912364 13:-0.37249482 
1 1:-0.42340714 2:-0.50020475 3:-1.7237492 4:3.1451467 5:-0.93130215 6:6.4305085 7:-1.2758821 8:-0.53897615 9:-0.53384645 10:-0.51603 11:-0.38255741 12:-0.094278616 13:-0.27757805 
1 1:-9.1988871 2:-8.6806619 3:-1.9202529 4:0.83700589 5:-0.91444493 6:-0.41934333 7:-0.95857529 8:-0.033709763 9:0.98613632 10:-0.53055539 11:2.4485808 12:2.0781023 13:-0.39147817 
1 1:-6.6996154 2:-7.5774498 3:-1.9298541 4:-1.3462768 5:-0.89958545 6:-0.41934333 7:-1.0737459 8:3.6715771 9:-0.37440769 10:-0.53055539 11:-0.37475813 12:0.0044659695 13:-0.35351146 
1 1:0.52044651 2:0.82103005 3:-0.40070947 4:4.4872026 5:-0.92739617 6:5.0342723 7:-1.2758821 8:-0.53897615 9:-0.53384645 10:-0.53055539 11:-0.38255741 12:4.0727429 13:-0.39147817 
1 1:-5.4587307 2:-8.3643275 3:-2.1135563 4:-0.74507666 5:-0.9097677 6:-0.41934333 7:-0.90451561 8:-0.49566761 9:-0.53384645 10:-0.5111882 11:5.9504569 12:0.24145297 13:-0.39147817 
1 1:-6.9068523 2:-9.8120625 3:-2.045068 4:-0.79997524 5:-0.90894414 6:-0.41934333 7:-1.1630619 8:2.8390906 9:-0.53384645 10:-0.53055539 11:-0.38255741 12:4.8429506 13:-0.39147817 
1 1:-4.4027611 2:-3.612234 3:-1.995142 4:0.51841682 5:-0.92560087 6:5.9604884 7:-1.1560106 8:-0.53897615 9:-0.47538557 10:-0.5063464 11:-0.36695886 12:-0.094278616 13:-0.25859469 
1 1:-6.3954661 2:-9.1363313 3:-2.1935659 4:0.24274618 5:-0.90540194 6:-0.41934333 7:-1.1912669 8:1.5494583 9:1.9002518 10:-0.20615491 11:-0.34356102 12:-0.094278616 13:-0.39147817 
1 1:-5.7869932 2:-5.0688934 3:-1.5586093 4:1.3827982 5:-0.92705447 6:-0.25345388 7:-1.2288737 8:-0.53416409 9:-0.5232172 10:3.9384244 11:-0.22657184 12:-0.094278616 13:-0.20164463 
1 1:-2.068984 2:-10.8446 3:-2.1935659 4:-0.7942102 5:-0.78219212 6:-0.41934333 7:-0.19468858 8:0.18283298 9:-0.53384645 10:-0.53055539 11:1.6608536 12:2.4335828 13:-0.39147817 
1 1:2.4975517 2:-6.6893816 3:-2.1500407 4:1.1134587 5:-0.93058654 6:-0.41934333 7:-1.2758821 8:-0.53897615 9:-0.40629544 10:-0.53055539 11:-0.38255741 12:19.180664 13:-0.39147817 
1 1:-4.5191892 2:-3.204713 3:-1.6802239 4:-0.92097365 5:-0.92971308 6:6.4719809 7:-1.2688308 8:-0.53897615 9:-0.53384645 10:-0.53055539 11:-0.38255741 12:-0.094278616 13:-0.39147817 
