svm_type one_class
kernel_type rbf
gamma 0.029999999999999999
nr_class 2
total_sv 453
rho 49.902654727827716
prob_density_marks -29.554726820789508 -11.52488544043808 -5.6090193899729783 -2.5991017235145044 -0.60162832376985165 7.3250876815997579 16.046145150360211 18.558864604558671 21.562466542642191 29.915319354608705
SV
1 1:-3.7120965 2:-3.1010679 3:-0.54349339 4:0.67505028 5:-0.89759751 6:-0.41934333 7:-1.0807972 8:-0.41867463 9:4.2121137 10:-0.53055539 11:-0.38255741 12:-0.094278616 13:-0.39147817 
1 1:-0.50326322 2:-0.19547655 3:0.41154793 4:-1.4389671 5:-0.93075482 6:-0.41934333 7:-1.2758821 8:-0.34649372 9:-0.53384645 10:-0.53055539 11:7.1047502 12:-0.094278616 13:-0.39147817 
1 1:-0.51631564 2:0.32939831 3:2.6622809 4:-1.7547391 5:0.81633856 6:-0.41934333 7:-0.80579795 8:-0.53897615 9:-0.53384645 10:-0.53055539 11:5.8568656 12:-0.094278616 13:-0.39147817 
1 1:-0.60310275 2:-0.031711778 3:-0.26844498 4:3.5902789 5:-0.91793411 6:2.8984457 7:-1.2758821 8:-0.53897615 9:-0.53384645 10:-0.53055539 11:-0.38255741 12:10.175158 13:-0.39147817 
1 1:0.41727555 2:0.083989867 3:-0.86692591 4:-0.3303719 5:-0.92977982 6:-0.41934333 7:-1.2758821 8:-0.53897615 9:4.7807786 10:-0.53055539 11:-0.38255741 12:-0.094278616 13:-0.39147817 
1 1:-4.2515964 2:-2.4816583 3:7.1064268 4:-1.6170225 5:-0.10047315 6:-0.41934333 7:-0.053663337 8:1.7708131 9:-0.53384645 10:-0.53055539 11:-0.38255741 12:-0.094278616 13:-0.39147817 
1 1:0.55787525 2:0.65438147 3:1.6943807 4:0.29415655 5:-0.32544245 6:-0.14286091 7:0.13437032 8:-0.53897615 9:-0.53384645 10:-0.53055539 11:-0.38255741 12:-0.094278616 13:6.4425292 
1 1:0.35705125 2:0.48281837 3:1.0830409 4:-0.38207279 5:0.15965576 6:-0.41934333 7:-0.52374747 8:-0.53897615 9:-0.53384645 10:-0.53055539 11:-0.38255741 12:-0.094278616 13:12.517202 
1 1:0.99799354 2:-7.2822421 3:-1.8714411 4:-0.34874936 5:-0.76381925 6:-0.41934333 7:0.60445445 8:-0.53897615 9:-0.53384645 10:-0.53055539 11:0.24138489 12:2.2755914 13:-0.39147817 
1 1:3.0034857 2:-3.0792645 3:-2.1135796 4:-0.42042906 5:-0.86357726 6:-0.41934333 7:-0.14768016 8:-0.53897615 9:-0.53384645 10:-0.53055539 11:-0.38255741 12:10.175158 13:-0.39147817 
1 1:-0.28572297 2:0.29215734 3:3.7803461 4:-2.0463382 5:-0.85773824 6:-0.41934333 7:-1.0878484 8:-0.34649372 9:3.2926836 10:-0.33688346 11:0.55335604 12:-0.094278616 13:-0.39147817 
1 1:-0.36357948 2:0.3892385 3:2.4190526 4:-1.6133623 5:0.85470068 6:-0.41934333 7:-1.1818652 8:-0.53897615 9:-0.53384645 10:-0.53055539 11:7.1047502 12:-0.094278616 13:-0.39147817 
1 1:-2.3853299 2:-2.4759289 3:-1.0530522 4:1.3807141 5:1.8332391 6:-0.41934333 7:-1.2758821 8:-0.53897615 9:-0.53384645 10:-0.53055539 11:-0.38255741 12:14.914898 13:4.1645267 
1 1:2.1108837 2:-0.23224008 3:-2.1384255 4:1.4960879 5:-0.84537908 6:2.5321065 7:-1.1771644 8:-0.50529173 9:-0.43818319 10:-0.52571359 11:-0.38255741 12:9.7406821 13:-0.25859469 
1 1:-5.3745621 2:-3.4082264 3:2.9323165 4:-2.1375392 5:-0.70092886 6:-0.41934333 7:-1.0361392 8:-0.53897615 9:2.9950646 10:0.11340378 11:0.40516974 12:-0.094278616 13:-0.39147817 
1 1:-0.19069222 2:0.15353817 3:-0.29329087 4:2.7512452 5:-0.9195561 6:1.5160336 7:-1.2758821 8:-0.53897615 9:-0.53384645 10:-0.53055539 11:-0.38255741 12:14.124942 13:-0.39147817 
1 1:-1.2506858 2:-0.21998557 3:2.4140399 4:-2.0494646 5:1.9577021 6:-0.41934333 7:-0.9938316 8:-0.53897615 9:-0.53384645 10:-0.53055539 11:6.4808079 12:-0.094278616 13:-0.39147817 
1 1:-0.18725738 2:0.34992859 3:-0.80415733 4:5.4030128 5:-0.91650529 6:4.2808577 7:-1.1818652 8:-0.53897615 9:-0.53384645 10:0.82514813 11:-0.38255741 12:-0.094278616 13:-0.39147817 
1 1:-0.095890468 2:0.40053811 3:-0.19368935 4:4.8888253 5:-0.92212525 6:-0.41934333 7:-1.2758821 8:2.1557779 9:-0.53384645 10:-0.53055539 11:3.0491252 12:-0.094278616 13:-0.39147817 
1 1:-4.4512754 2:-3.1187335 3:-0.48377606 4:-0.98486857 5:-0.92755917 6:-0.41934333 7:-1.2758821 8:-0.53897615 9:-0.53384645 10:4.3112429 11:-0.38255741 12:-0.094278616 13:-0.39147817 
1 1:-3.1803823 2:-6.2676644 3:-1.7559295 4:-0.76555919 5:-0.8798203 6:-0.41934333 7:-1.2758821 8:1.0008833 9:3.0800986 10:-0.53055539 11:-0.38255741 12:-0.094278616 13:-0.39147817 
1 1:0.77724743 2:0.71135697 3:0.10729469 4:-0.10862236 5:-0.91042954 6:2.8984457 7:-1.0878484 8:-0.53897615 9:-0.53384645 10:-0.53055539 11:-0.38255741 12:-0.094278616 13:7.9611975 
1 1:1.0531801 2:-6.0427862 3:-2.0490674 4:-0.21690446 5:-0.92092365 6:-0.41934333 7:-1.1419081 8:0.048095272 9:-0.53384645 10:-0.43856122 11:4.1098271 12:4.3492277 13:-0.39147817 
1 1:-2.7830851 2:-1.1928661 3:1.7185727 4:-2.1327351 5:0.68339951 6:-0.41934333 7:-1.2758821 8:-0.53897615 9:-0.53384645 10:4.3112429 11:-0.38255741 12:-0.094278616 13:-0.39147817 
1 1:0.37834729 2:-2.0699387 3:-1.4296636 4:0.31573672 5:-0.93132674 6:-0.41934333 7:-1.2758821 8:-0.53897615 9:4.7807786 10:-0.53055539 11:-0.38255741 12:-0.094278616 13:-0.39147817 
1 1:0.10172768 2:0.34181196 3:0.044308171 4:-0.41127846 5:-0.8683246 6:2.8984457 7:-0.89981477 8:-0.53897615 9:-0.53384645 10:-0.53055539 11:-0.38255741 12:-0.094278616 13:6.4425292 
1 1:-0.79133232 2:-0.061631873 3:0.076564244 4:3.6773621 5:-0.92483307 6:2.8984457 7:-1.2758821 8:-0.53897615 9:-0.53384645 10:-0.53055539 11:-0.38255741 12:10.175158 13:-0.39147817 
1 1:-0.57218914 2:-5.9695775 3:-1.7722754 4:-0.51018119 5:-0.92955282 6:-0.41934333 7:-1.2758821 8:4.2730847 9:-0.53384645 10:-0.53055539 11:-0.38255741 12:-0.094278616 13:-0.39147817 
1 1:0.92723571 2:-4.4501778 3:-1.7339169 4:1.9698602 5:-0.9149906 6:-0.41934333 7:-0.9938316 8:-0.53897615 9:4.1430236 10:-0.53055539 11:-0.38255741 12:-0.094278616 13:-0.39147817 
1 1:-1.1696234 2:-0.27186829 3:2.1331069 4:-1.4818987 5:-0.87697645 6:5.3867874 7:-1.2758821 8:-0.53897615 9:-0.53384645 10:-0.33688346 11:-0.38255741 12:-0.094278616 13:1.8865243 
1 1:-0.37388402 2:-7.0029348 3:-1.9060946 4:-0.75114699 5:-0.75148316 6:-0.41934333 7:0.41642079 8:-0.53897615 9:-0.53384645 10:-0.53055539 11:0.86532719 12:2.2755914 13:-0.39147817 
1 1:2.4319273 2:-0.63966265 3:-2.018337 4:1.4634507 5:-0.7996636 6:2.3040085 7:-1.1207543 8:-0.52935203 9:-0.53384645 10:-0.39014324 11:-0.38255741 12:9.8591756 13:-0.27757805 
1 1:-5.5756151 2:-3.9397855 3:-0.65660759 4:-1.2425342 5:-0.8547796 6:-0.41934333 7:-0.9938316 8:0.42343602 9:0.10390856 10:2.1808516 11:-0.38255741 12:-0.094278616 13:-0.39147817 
1 1:-0.3452603 2:0.16451948 3:0.56411044 4:2.3891102 5:-0.8908125 6:6.4927171 7:-1.2758821 8:-0.53897615 9:-0.53384645 10:-0.53055539 11:-0.38255741 12:-0.094278616 13:-0.39147817 
1 1:-0.25572531 2:-2.0941294 3:-2.0423111 4:-0.41768388 5:-0.91380362 6:-0.28110212 7:-1.2523779 8:0.48118075 9:-0.48070019 10:-0.5015046 11:3.4780856 12:4.6849593 13:-0.31554476 
1 1:-0.3452603 2:0.16451948 3:0.56411044 4:2.3891102 5:-0.89453884 6:6.4927171 7:-1.2758821 8:-0.53897615 9:-0.53384645 10:-0.53055539 11:-0.38255741 12:-0.094278616 13:-0.39147817 
1 1:-3.8733053 2:-2.9516266 3:-0.70368402 4:-2.0451943 5:-0.9238067 6:-0.41934333 7:-1.2758821 8:0.61591845 9:-0.53384645 10:-0.33688346 11:5.2329233 12:-0.094278616 13:-0.39147817 
1 1:0.48574348 2:0.82912756 3:3.3507737 4:0.23383885 5:-0.33093719 6:-0.14286091 7:0.13437032 8:-0.53897615 9:-0.53384645 10:-0.53055539 11:-0.38255741 12:-0.094278616 13:6.4425292 
1 1:-0.59646205 2:0.27831134 3:3.6197196 4:1.9130502 5:-0.92104525 6:6.4927171 7:-1.2758821 8:-0.53897615 9:-0.53384645 10:-0.53055539 11:-0.38255741 12:-0.094278616 13:-0.39147817 
1 1:-0.20374464 2:0.37746144 3:-0.21940703 4:4.6615092 5:-0.92523264 6:5.6632698 7:-1.2758821 8:-0.15401128 9:-0.53384645 10:-0.53055539 11:-0.38255741 12:-0.094278616 13:0.36785598 
1 1:-1.2435871 2:-6.7634149 3:-1.9028254 4:-0.75396843 5:-0.92211821 6:-0.41934333 7:-1.2758821 8:-0.53897615 9:-0.53384645 10:-0.53055539 11:6.4808079 12:2.2755914 13:-0.39147817 
0.18597806966429709 1:-0.14329135 2:0.23661418 3:-1.0153474 4:1.6926733 5:-0.62672226 6:0.68658633 7:-0.24169699 8:-0.53897615 9:-0.32126144 10:-0.53055539 11:-0.38255741 12:-0.094278616 13:6.4425292 
1 1:2.8970055 2:-6.2194421 3:-1.9065304 4:-0.75610357 5:-0.68450248 6:-0.41934333 7:-0.24169699 8:-0.53897615 9:-0.53384645 10:-0.53055539 11:-0.38255741 12:9.3852016 13:1.1271901 
1 1:-0.10550804 2:0.63385119 3:2.2215931 4:-1.7291174 5:-0.91221564 6:-0.41934333 7:-1.1818652 8:4.0806023 9:-0.53384645 10:-0.53055539 11:-0.38255741 12:-0.094278616 13:-0.39147817 
1 1:-0.095890468 2:0.40053811 3:-0.19368935 4:4.8888253 5:-0.86273786 6:-0.41934333 7:-0.71178112 8:0.61591845 9:-0.53384645 10:-0.53055539 11:3.6730675 12:-0.094278616 13:-0.39147817 
1 1:-1.825679 2:-0.77971416 3:3.0173156 4:-1.9884606 5:-0.7554621 6:-0.41934333 7:-1.1983182 8:-0.53897615 9:-0.53384645 10:4.1514635 11:-0.38255741 12:-0.094278616 13:-0.39147817 
1 1:1.3057558 2:-0.9240627 3:-1.7452501 4:1.7732748 5:-0.93143898 6:-0.41934333 7:-1.2758821 8:-0.53897615 9:-0.53384645 10:-0.53055539 11:7.4167213 12:-0.094278616 13:-0.39147817 
1 1:1.3854442 2:0.47040471 3:-1.1705253 4:-0.67397693 5:3.6493338 6:-0.41934333 7:1.0745386 8:-0.53897615 9:-0.53384645 10:-0.53055539 11:-0.38255741 12:-0.094278616 13:-0.39147817 
1 1:0.11569606 2:0.69942076 3:-0.12699773 4:4.2183914 5:-0.13253403 6:-0.41934333 7:-0.71178112 8:-0.53897615 9:3.5052686 10:-0.53055539 11:-0.38255741 12:-0.094278616 13:-0.39147817 
1 1:-4.9010113 2:-3.0389996 3:1.9731342 4:-2.1406656 5:2.0730109 6:-0.41934333 7:1.0745386 8:-0.53897615 9:-0.53384645 10:-0.53055539 11:-0.38255741 12:-0.094278616 13:-0.39147817 
1 1:-0.81995604 2:-0.077705967 3:-0.0084348687 4:3.7045089 5:-0.85184628 6:2.0689984 7:-1.2758821 8:-0.53897615 9:-0.53384645 10:-0.53055539 11:-0.38255741 12:12.545028 13:-0.39147817 
1 1:-0.32144537 2:0.54456835 3:1.6368428 4:-1.9891469 5:-0.93141164 6:-0.41934333 7:-1.2758821 8:-0.53897615 9:-0.50195869 10:4.2579831 11:-0.36695886 12:-0.094278616 13:-0.33452811 
1 1:-0.81995604 2:-0.077705967 3:-0.0084348687 4:3.7045089 5:-0.74517049 6:0.96306875 7:-1.2758821 8:-0.53897615 9:-0.53384645 10:-0.53055539 11:-0.38255741 12:15.704855 13:-0.39147817 
1 1:-1.244274 2:-0.81218065 3:5.0119615 4:-1.6562176 5:-0.41914146 6:-0.41934333 7:0.60445445 8:0.42343602 9:-0.53384645 10:-0.53055539 11:-0.38255741 12:-0.094278616 13:-0.39147817 
1 1:-0.0056685087 2:0.4034028 3:-0.5214808 4:5.0382089 5:-0.86120434 6:-0.41934333 7:-0.71178112 8:2.5407428 9:-0.53384645 10:-0.53055539 11:0.55335604 12:-0.094278616 13:-0.39147817 
1 1:-0.87651651 2:-0.11988057 3:-0.54698053 4:3.6027848 5:-0.85363486 6:2.0689984 7:-1.2758821 8:-0.53897615 9:-0.53384645 10:-0.53055539 11:-0.38255741 12:12.545028 13:-0.39147817 
1 1:0.5881019 2:0.99909916 3:0.41677864 4:-0.21690446 5:4.9030184 6:-0.41934333 7:1.0745386 8:-0.53897615 9:-0.53384645 10:-0.53055539 11:-0.38255741 12:-0.094278616 13:-0.39147817 
1 1:0.19927731 2:-6.8335998 3:-1.7504808 4:-0.39709503 5:-0.76786801 6:-0.41934333 7:0.22838714 8:-0.53897615 9:-0.53384645 10:-0.53055539 11:0.24138489 12:5.4354182 13:-0.39147817 
1 1:-0.20717948 2:0.44350846 3:0.98104198 4:-0.06683462 5:-0.92268821 6:-0.41934333 7:-1.2758821 8:-0.53897615 9:-0.53384645 10:1.212492 11:-0.38255741 12:-0.094278616 13:11.757868 
1 1:-0.67660846 2:-6.576096 3:-2.0218241 4:0.19418625 5:-0.71932834 6:-0.41934333 7:-0.61776429 8:-0.53897615 9:-0.53384645 10:-0.53055539 11:-0.070586263 12:13.334985 13:-0.39147817 
1 1:-1.8572796 2:-0.81393129 3:1.9262757 4:-1.6537774 5:-0.93051445 6:-0.41934333 7:-1.2758821 8:0.23095358 9:-0.53384645 10:-0.53055539 11:6.1688367 12:-0.094278616 13:-0.39147817 
1 1:-1.8357545 2:-1.5667082 3:-0.43255865 4:0.02085863 5:-0.72878504 6:-0.41934333 7:-0.9938316 8:-0.34649372 9:-0.32126144 10:0.24413233 11:1.8012406 12:-0.094278616 13:6.4425292 
1 1:-1.5726453 2:-0.84448798 3:4.3725066 4:-2.0756201 5:-0.85554679 6:-0.41934333 7:-0.89981477 8:-0.53897615 9:-0.53384645 10:3.1492113 11:0.24138489 12:-0.094278616 13:-0.39147817 
1 1:2.0781382 2:-0.44725097 3:-1.8588002 4:0.2361265 5:-0.91035586 6:-0.41934333 7:-1.2758821 8:4.2730847 9:-0.53384645 10:-0.53055539 11:-0.38255741 12:-0.094278616 13:-0.39147817 
1 1:-4.7844555 2:-3.2541697 3:1.0985151 4:-1.7503925 5:-0.92734301 6:-0.41934333 7:-1.2758821 8:-0.34649372 9:4.5681936 10:-0.53055539 11:-0.38255741 12:-0.094278616 13:-0.39147817 
1 1:0.99066587 2:1.2435527 3:1.038144 4:-0.34508912 5:8.5256587 6:-0.41934333 7:1.0745386 8:-0.53897615 9:-0.53384645 10:-0.53055539 11:-0.38255741 12:-0.094278616 13:-0.39147817 
1 1:-0.026735565 2:0.6029762 3:0.59178964 4:5.3622926 5:-0.89681752 6:-0.14286091 7:-0.9938316 8:3.1181901 9:-0.53384645 10:-0.53055539 11:-0.070586263 12:-0.094278616 13:0.36785598 
1 1:-0.81995604 2:-0.077705967 3:-0.0084348687 4:3.7045089 5:-0.9131939 6:2.3454808 7:-1.2758821 8:-0.53897615 9:-0.53384645 10:-0.53055539 11:-0.38255741 12:11.755072 13:-0.39147817 
1 1:-0.095890468 2:0.40053811 3:-0.19368935 4:4.8888253 5:-0.9237845 6:-0.41934333 7:-1.1818652 8:1.5783306 9:-0.53384645 10:-0.53055539 11:3.6730675 12:-0.094278616 13:-0.39147817 
1 1:0.3089634 2:0.85188593 3:0.39324043 4:2.912067 5:-0.17983504 6:-0.41934333 7:-0.9938316 8:-0.53897615 9:3.0800986 10:-0.53055539 11:-0.38255741 12:-0.094278616 13:3.4051926 
1 1:2.1356146 2:-0.21616598 3:-2.1292717 4:1.6640776 5:-0.85408735 6:2.5321065 7:-1.1818652 8:-0.50529173 9:-0.45412707 10:-0.52571359 11:-0.38255741 12:9.8394267 13:-0.25859469 
1 1:-0.26671682 2:0.20271535 3:0.1800888 4:3.1998533 5:-0.9300891 6:5.110305 7:-1.2758821 8:-0.53897615 9:-0.53384645 10:-0.53055539 11:-0.38255741 12:3.8555048 13:-0.39147817 
1 1:-0.095890468 2:0.40053811 3:-0.19368935 4:4.8888253 5:-0.8953792 6:-0.14286091 7:-0.9938316 8:3.1181901 9:-0.53384645 10:-0.53055539 11:-0.070586263 12:-0.094278616 13:0.36785598 
1 1:-1.1039033 2:-1.2452263 3:-1.2138966 4:-0.68167869 5:-0.92837794 6:-0.41934333 7:-1.2758821 8:-0.53897615 9:-0.53384645 10:-0.53055539 11:7.4167213 12:-0.094278616 13:-0.39147817 
1 1:2.8970055 2:-6.2194421 3:-1.9065304 4:-0.75610357 5:-0.72442782 6:-0.41934333 7:-0.24169699 8:-0.53897615 9:-0.53384645 10:-0.53055539 11:-0.38255741 12:10.175158 13:0.36785598 
1 1:0.82670921 2:-6.906172 3:-2.0372983 4:-0.42881711 5:-0.69155101 6:-0.41934333 7:0.69847127 8:-0.53897615 9:-0.53384645 10:-0.53055539 11:0.24138489 12:1.4856347 13:-0.39147817 
1 1:0.77724743 2:0.71135697 3:0.10729469 4:-0.10862236 5:-0.89598811 6:0.96306875 7:-0.52374747 8:-0.53897615 9:-0.53384645 10:-0.53055539 11:-0.38255741 12:-0.094278616 13:8.7205316 
1 1:-3.4231115 2:-2.3341268 3:-1.9309404 4:-1.1887744 5:-0.90475595 6:2.2970964 7:-1.2547283 8:0.10584 9:-0.30000294 10:-0.53055539 11:0.70154233 12:5.3761714 13:-0.2965614 
1 1:-1.2770196 2:-5.7870331 3:-2.0586571 4:-0.20844016 5:-0.92908475 6:-0.41934333 7:-0.9938316 8:3.6956374 9:-0.53384645 10:-0.53055539 11:-0.38255741 12:-0.094278616 13:-0.39147817 
1 1:-0.38350159 2:0.11916189 3:-0.47723767 4:2.5874494 5:-0.92757475 6:0.1336215 7:-1.2758821 8:-0.53897615 9:-0.53384645 10:-0.53055539 11:-0.38255741 12:18.074725 13:-0.39147817 
1 1:-5.2976215 2:-3.1749133 3:1.2713466 4:-2.1894688 5:-0.46376251 6:-0.41934333 7:-0.81284921 8:-0.51491585 9:2.6868163 10:0.20539795 11:-0.070586263 12:-0.094278616 13:-0.39147817 
1 1:-4.2515964 2:-2.4816583 3:7.1064268 4:-1.6170225 5:0.16073183 6:-0.41934333 7:0.040353489 8:1.5783306 9:-0.53384645 10:-0.53055539 11:-0.38255741 12:-0.094278616 13:-0.39147817 
1 1:-3.7954488 2:-2.8279675 3:0.8084284 4:-1.7130276 5:-0.92605655 6:-0.41934333 7:-1.2758821 8:-0.53897615 9:-0.53384645 10:4.3112429 11:-0.38255741 12:-0.094278616 13:-0.39147817 
1 1:-3.388763 2:-1.9413459 3:-1.9607991 4:-0.23063036 5:1.5604761 6:-0.41934333 7:0.69847127 8:-0.53897615 9:-0.53384645 10:-0.53055539 11:-0.38255741 12:3.0655481 13:-0.39147817 
1 1:-1.6108866 2:-0.74613363 3:5.6110962 4:-1.8877278 5:-0.3240734 6:-0.41934333 7:0.88650492 8:-0.15401128 9:-0.53384645 10:-0.53055539 11:-0.38255741 12:-0.094278616 13:-0.39147817 
1 1:0.54986061 2:0.72042849 3:0.40370186 4:0.0042350403 5:-0.74740431 6:2.8984457 7:-0.89981477 8:-0.53897615 9:-0.53384645 10:-0.53055539 11:-0.38255741 12:-0.094278616 13:6.4425292 
1 1:-4.4267735 2:-3.7543764 3:0.63581482 4:-1.3765905 5:-0.85640242 6:-0.41934333 7:-1.1959678 8:3.1278142 9:-0.24685669 10:-0.39982684 11:0.57675387 12:-0.094278616 13:-0.39147817 
1 1:-0.63378738 2:0.43841568 3:0.81562063 4:-2.1176366 5:-0.93143898 6:-0.41934333 7:-1.2758821 8:-0.53897615 9:-0.53384645 10:2.9555394 11:-0.38255741 12:-0.094278616 13:4.9238609 
1 1:1.8615139 2:-0.39886954 3:-1.3352928 4:-0.24382248 5:-0.82016795 6:-0.41934333 7:-1.2758821 8:4.2730847 9:-0.53384645 10:-0.53055539 11:-0.38255741 12:-0.094278616 13:-0.39147817 
1 1:-1.512192 2:-0.6095834 3:0.87185082 4:-1.6132098 5:-0.93133153 6:-0.41934333 7:-1.2758821 8:-0.53897615 9:-0.53384645 10:-0.53055539 11:7.4167213 12:-0.094278616 13:-0.39147817 
1 1:-0.04070394 2:0.42663862 3:-0.67491509 4:3.2918931 5:-0.82257815 6:-0.41934333 7:-0.9938316 8:-0.53897615 9:1.8045886 10:-0.53055539 11:-0.38255741 12:-0.094278616 13:7.9611975 
1 1:-0.81995604 2:-0.077705967 3:-0.0084348687 4:3.7045089 5:-0.74517049 6:0.96306875 7:-1.2758821 8:-0.53897615 9:-0.53384645 10:-0.53055539 11:-0.38255741 12:15.704855 13:-0.39147817 
1 1:-0.14558124 2:0.16674758 3:-1.0133859 4:2.9930498 5:-0.92778923 6:1.2395512 7:-1.2758821 8:-0.53897615 9:-0.53384645 10:1.4061639 11:-0.070586263 12:-0.094278616 13:5.683195 
1 1:-1.7704925 2:-6.3329157 3:-1.7053659 4:-0.31939118 5:-0.71260659 6:-0.41934333 7:-0.24169699 8:-0.53897615 9:2.4423436 10:-0.53055539 11:-0.38255741 12:-0.094278616 13:-0.39147817 
1 1:1.5768796 2:0.14542155 3:-1.5116115 4:0.98571315 5:-0.17077898 6:5.110305 7:-1.2758821 8:-0.53897615 9:-0.53384645 10:-0.53055539 11:-0.070586263 12:2.2755914 13:0.36785598 
1 1:-0.91407083 2:0.39273979 3:11.09027 4:-1.8465501 5:-0.33142136 6:0.41010392 7:-0.61776429 8:-0.53897615 9:-0.53384645 10:1.9871797 11:-0.38255741 12:-0.094278616 13:1.1271901 
1 1:1.8763982 2:-0.91833332 3:-1.6412896 4:-0.4637419 5:3.215879 6:-0.41934333 7:1.0745386 8:-0.53897615 9:-0.53384645 10:-0.53055539 11:-0.38255741 12:-0.094278616 13:-0.39147817 
1 1:0.41819151 2:0.6889169 3:2.3580276 4:0.65347011 5:-0.64807518 6:5.3867874 7:-1.0878484 8:-0.53897615 9:-0.53384645 10:-0.53055539 11:-0.38255741 12:-0.094278616 13:1.1271901 
1 1:-0.011164263 2:0.587857 3:0.33199748 4:4.9265716 5:-0.89765129 6:-0.14286091 7:-0.9938316 8:3.1181901 9:-0.53384645 10:-0.53055539 11:-0.070586263 12:-0.094278616 13:0.36785598 
1 1:0.078828707 2:0.18091188 3:-1.6118669 4:2.4271614 5:-0.92620374 6:-0.41934333 7:-1.1818652 8:-0.53897615 9:-0.53384645 10:4.117571 11:-0.38255741 12:-0.094278616 13:-0.39147817 
1 1:-0.3452603 2:0.16451948 3:0.56411044 4:2.3891102 5:-0.90948344 6:6.4927171 7:-1.2758821 8:-0.53897615 9:-0.53384645 10:-0.53055539 11:-0.38255741 12:-0.094278616 13:-0.39147817 
1 1:0.16172299 2:0.56350714 3:-0.10345952 4:1.1521778 5:-0.43077726 6:-0.41934333 7:-0.71178112 8:-0.53897615 9:-0.53384645 10:-0.33688346 11:2.7371541 12:-0.094278616 13:5.683195 
1 1:0.2977429 2:-6.8767293 3:-1.9592735 4:-0.46808843 5:-0.84631168 6:-0.41934333 7:0.13437032 8:-0.53897615 9:-0.53384645 10:-0.53055539 11:2.7371541 12:-0.094278616 13:-0.39147817 
1 1:-0.63058152 2:0.36313799 3:-1.8860435 4:4.4350318 5:-0.86427474 6:-0.41934333 7:-0.61776429 8:-0.53897615 9:-0.53384645 10:1.0188201 11:2.7371541 12:-0.094278616 13:-0.39147817 
1 1:0.77770541 2:0.7030812 3:-0.26626551 4:0.092690841 5:4.0764071 6:-0.41934333 7:1.0745386 8:-0.53897615 9:-0.53384645 10:-0.53055539 11:-0.38255741 12:-0.094278616 13:-0.39147817 
1 1:0.55787525 2:0.65438147 3:1.6943807 4:0.29415655 5:-0.32544245 6:-0.14286091 7:0.13437032 8:-0.53897615 9:-0.53384645 10:-0.53055539 11:-0.38255741 12:-0.094278616 13:6.4425292 
1 1:0.27278302 2:0.85347742 3:2.7882539 4:-1.8865077 5:-0.92773504 6:-0.41934333 7:-1.2758821 8:-0.53897615 9:-0.53384645 10:4.3112429 11:-0.38255741 12:-0.094278616 13:-0.39147817 
1 1:-1.2516017 2:-1.0781194 3:-1.2688192 4:-0.25724336 5:-0.82578999 6:-0.41934333 7:0.32240397 8:-0.53897615 9:-0.53384645 10:-0.53055539 11:-0.38255741 12:-0.094278616 13:5.683195 
1 1:-5.1934312 2:-4.0976617 3:-1.1925379 4:-1.5795813 5:-0.89545532 6:-0.41934333 7:-0.61776429 8:-0.34649372 9:2.2297586 10:0.24413233 11:-0.38255741 12:-0.094278616 13:-0.39147817 
1 1:-2.451508 2:-1.3634743 3:1.4149734 4:-1.7908839 5:-0.930761 6:-0.41934333 7:-1.2758821 8:-0.15401128 9:-0.53384645 10:-0.53055539 11:6.792779 12:-0.094278616 13:-0.39147817 
1 1:-0.69195077 2:-0.46077868 3:0.061743886 4:3.8317785 5:-0.93092136 6:4.5573402 7:-1.2758821 8:-0.53897615 9:-0.53384645 10:-0.53055539 11:-0.38255741 12:5.4354182 13:-0.39147817 
1 1:-2.5550113 2:-1.1258642 3:3.8518325 4:-2.0243767 5:1.5071239 6:-0.41934333 7:-0.52374747 8:-0.53897615 9:-0.53384645 10:-0.53055539 11:4.9209521 12:-0.094278616 13:-0.39147817 
1 1:0.11798595 2:0.72599872 3:0.63603276 4:3.0792942 5:-0.40691451 6:-0.41934333 7:-0.89981477 8:-0.53897615 9:3.9304386 10:-0.53055539 11:-0.38255741 12:-0.094278616 13:-0.39147817 
1 1:-5.7510212 2:-3.7169763 3:-0.12002345 4:-2.040009 5:-0.62451447 6:-0.41934333 7:-0.24169699 8:-0.53897615 9:-0.32126144 10:-0.33688346 11:3.3610964 12:-0.094278616 13:-0.39147817 
1 1:-0.51997948 2:-6.2566831 3:-2.0776184 4:-0.51940805 5:-0.92246664 6:-0.41934333 7:-1.2758821 8:2.9257077 9:-0.53384645 10:-0.53055539 11:1.8012406 12:-0.094278616 13:-0.39147817 
1 1:-0.73362691 2:-0.055106746 3:-0.21897113 4:3.6146805 5:-0.8876482 6:0.68658633 7:-1.2758821 8:-0.53897615 9:-0.53384645 10:-0.53055539 11:-0.38255741 12:16.494812 13:-0.39147817 
1 1:0.70259677 2:0.66313469 3:-0.48835294 4:1.9959394 5:-0.89797144 6:-0.41934333 7:-0.89981477 8:-0.53897615 9:-0.32126144 10:-0.53055539 11:3.9850387 12:4.6454615 13:-0.39147817 
1 1:-1.178325 2:-0.2400384 3:0.21517818 4:0.44216751 5:-0.91242158 6:6.4927171 7:-1.2758821 8:-0.53897615 9:-0.53384645 10:-0.53055539 11:-0.38255741 12:-0.094278616 13:-0.39147817 
1 1:-1.1808439 2:-1.0714351 3:-0.9377585 4:-0.57644679 5:-0.92999147 6:-0.41934333 7:-1.2758821 8:-0.53897615 9:-0.32126144 10:-0.53055539 11:7.1047502 12:-0.094278616 13:-0.39147817 
1 1:-0.79362222 2:-0.057971436 3:-0.0069092436 4:3.6049962 5:-0.92041365 6:4.0043753 7:-1.2758821 8:-0.53897615 9:-0.53384645 10:-0.53055539 11:-0.38255741 12:7.0153315 13:-0.39147817 
1 1:-4.9010113 2:-3.0389996 3:1.9731342 4:-2.1406656 5:1.5716307 6:-0.41934333 7:0.7924881 8:-0.53897615 9:0.10390856 10:-0.53055539 11:-0.38255741 12:-0.094278616 13:-0.39147817 
1 1:0.5166571 2:-0.074204679 3:-0.4506482 4:-1.1971625 5:-0.93039198 6:-0.41934333 7:-1.2758821 8:-0.53897615 9:4.7807786 10:-0.53055539 11:-0.38255741 12:-0.094278616 13:-0.39147817 
1 1:-5.9871096 2:-4.5343678 3:-1.2219607 4:1.9340966 5:-0.9314197 6:-0.41934333 7:-1.2758821 8:-0.53897615 9:-0.53384645 10:4.3112429 11:-0.38255741 12:-0.094278616 13:-0.39147817 
1 1:0.087530317 2:0.2186303 3:-0.97829654 4:2.6120035 5:-0.92163899 6:2.0689984 7:-1.2758821 8:-0.53897615 9:-0.53384645 10:-0.53055539 11:1.1772983 12:-0.094278616 13:7.9611975 
1 1:-5.0013088 2:-3.0991581 3:1.3587432 4:-2.0686046 5:1.5410172 6:-0.41934333 7:0.98052175 8:-0.53897615 9:-0.53384645 10:-0.53055539 11:-0.070586263 12:-0.094278616 13:-0.39147817 
1 1:-0.79362222 2:-0.057971436 3:-0.0069092436 4:3.6049962 5:-0.92748271 6:3.1749281 7:-1.2758821 8:-0.53897615 9:-0.53384645 10:-0.53055539 11:-0.38255741 12:9.3852016 13:-0.39147817 
1 1:0.55787525 2:0.65438147 3:1.6943807 4:0.29415655 5:-0.32544245 6:-0.14286091 7:0.13437032 8:-0.53897615 9:-0.53384645 10:-0.53055539 11:-0.38255741 12:-0.094278616 13:6.4425292 
1 1:-2.5550113 2:-1.1258642 3:3.8518325 4:-2.0243767 5:1.3054305 6:-0.41934333 7:-0.9938316 8:-0.53897615 9:-0.53384645 10:-0.53055539 11:6.4808079 12:-0.094278616 13:-0.39147817 
1 1:-0.54562633 2:-0.070862541 3:2.4717957 4:-1.4982935 5:-0.88433769 6:5.6632698 7:-1.2758821 8:-0.53897615 9:-0.53384645 10:-0.33688346 11:-0.38255741 12:-0.094278616 13:1.1271901 
0.37110462098595837 1:-5.0013088 2:-3.0991581 3:1.3587432 4:-2.0686046 5:-0.46844 6:-0.41934333 7:-0.81284921 8:-0.53897615 9:2.6815017 10:0.24413233 11:-0.086184821 12:-0.094278616 13:-0.39147817 
1 1:-0.128636 2:0.3029795 3:-0.74792715 4:4.6697447 5:-0.91409485 6:-0.41934333 7:-1.2758821 8:1.5783306 9:-0.53384645 10:2.1808516 11:-0.38255741 12:-0.094278616 13:-0.39147817 
1 1:2.0055484 2:-0.19834124 3:-2.1750405 4:1.8552489 5:-0.85118459 6:2.5321065 7:-1.1795148 8:-0.50529173 9:-0.45412707 10:-0.5208718 11:-0.38255741 12:9.8196777 13:-0.25859469 
1 1:1.2645376 2:-1.4011927 3:-1.5275216 4:1.0334488 5:-0.93143898 6:-0.41934333 7:-1.2758821 8:-0.53897615 9:-0.53384645 10:-0.53055539 11:7.4167213 12:-0.094278616 13:-0.39147817 
1 1:-0.097951376 2:0.41151942 3:-0.17233059 4:4.8583996 5:-0.92998931 6:5.6632698 7:-1.2758821 8:-0.53897615 9:-0.53384645 10:-0.14321153 11:-0.38255741 12:-0.094278616 13:0.36785598 
1 1:0.99799354 2:-7.2822421 3:-1.8714411 4:-0.34874936 5:-0.76381925 6:-0.41934333 7:0.60445445 8:-0.53897615 9:-0.53384645 10:-0.53055539 11:0.24138489 12:2.2755914 13:-0.39147817 
1 1:2.461238 2:-0.64825672 3:-2.0723877 4:1.6316693 5:-0.72698088 6:-0.36404685 7:-0.75173827 8:-0.53897615 9:-0.53384645 10:-0.53055539 11:-0.38255741 12:15.092639 13:-0.39147817 
1 1:-1.1696234 2:-0.27186829 3:2.1331069 4:-1.4818987 5:-0.88324731 6:5.6632698 7:-1.2758821 8:-0.53897615 9:-0.53384645 10:-0.33688346 11:-0.38255741 12:-0.094278616 13:1.1271901 
1 1:-2.5467677 2:-1.3474002 3:0.61510991 4:-1.8518879 5:-0.928975 6:-0.41934333 7:-1.2758821 8:0.23095358 9:-0.53384645 10:-0.53055539 11:6.1688367 12:-0.094278616 13:-0.39147817 
1 1:-0.37388402 2:-7.0029348 3:-1.9060946 4:-0.75114699 5:-0.70707815 6:-0.41934333 7:1.0745386 8:-0.53897615 9:-0.53384645 10:-0.53055539 11:-0.38255741 12:-0.094278616 13:-0.39147817 
1 1:-0.81995604 2:-0.077705967 3:-0.0084348687 4:3.7045089 5:-0.7837499 6:1.792516 7:-1.2758821 8:-0.53897615 9:-0.53384645 10:-0.53055539 11:-0.38255741 12:13.334985 13:-0.39147817 
1 1:-0.87651651 2:-0.11988057 3:-0.54698053 4:3.6027848 5:-0.67851061 6:1.2395512 7:-1.2758821 8:-0.53897615 9:-0.53384645 10:-0.53055539 11:-0.38255741 12:14.914898 13:-0.39147817 
1 1:-0.16985416 2:0.57862634 3:0.37253551 4:-0.52383084 5:-0.85861486 6:-0.41934333 7:-0.89981477 8:-0.53897615 9:-0.53384645 10:1.5998359 11:-0.38255741 12:-0.094278616 13:7.2018633 
1 1:-0.15680174 2:0.65740531 3:4.2012007 4:-1.6444743 5:-0.26153351 6:-0.41934333 7:-0.24169699 8:2.1557779 9:-0.53384645 10:-0.53055539 11:-0.38255741 12:-0.094278616 13:-0.39147817 
0.98254800374520401 1:0.81663366 2:1.2246139 3:0.58241794 4:-0.59063022 5:3.6854994 6:-0.41934333 7:1.0745386 8:-0.53897615 9:-0.53384645 10:-0.53055539 11:-0.38255741 12:-0.094278616 13:-0.39147817 
1 1:-0.27404449 2:-1.2086219 3:-1.4168048 4:0.21195366 5:-0.92792506 6:-0.41934333 7:-1.2758821 8:-0.53897615 9:-0.53384645 10:-0.53055539 11:7.4167213 12:-0.094278616 13:-0.39147817 
1 1:-1.0262758 2:-0.17733352 3:-1.0040142 4:2.1102456 5:-0.92840734 6:-0.41934333 7:-1.2758821 8:-0.53897615 9:4.7807786 10:-0.53055539 11:-0.38255741 12:-0.094278616 13:-0.39147817 
1 1:1.7621323 2:-1.7845837 3:-1.7197503 4:-0.94292832 5:-0.89789833 6:-0.41934333 7:-1.2758821 8:4.2730847 9:-0.53384645 10:-0.53055539 11:-0.38255741 12:-0.094278616 13:-0.39147817 
1 1:2.3842975 2:-2.0529097 3:-1.806711 4:-1.0567008 5:3.4108251 6:-0.41934333 7:1.0745386 8:-0.53897615 9:-0.53384645 10:-0.53055539 11:-0.38255741 12:-0.094278616 13:-0.39147817 
1 1:-0.27518944 2:0.14271601 3:-0.30723944 4:2.8459539 5:-0.92709725 6:5.110305 7:-1.2758821 8:-0.53897615 9:-0.53384645 10:-0.53055539 11:-0.38255741 12:3.8555048 13:-0.39147817 
1 1:-0.29259266 2:0.18282167 3:0.1622172 4:1.5966682 5:-0.93029025 6:-0.41934333 7:-1.2758821 8:-0.34649372 9:-0.53384645 10:-0.53055539 11:7.1047502 12:-0.094278616 13:-0.39147817 
1 1:-2.3853299 2:-2.4759289 3:-1.0530522 4:1.3807141 5:1.4852883 6:-0.14286091 7:-1.2758821 8:-0.53897615 9:-0.53384645 10:-0.53055539 11:-0.38255741 12:14.124942 13:4.1645267 
1 1:0.15668522 2:0.57687569 3:1.0666949 4:3.648614 5:-0.91189657 6:6.4927171 7:-1.2758821 8:-0.53897615 9:-0.53384645 10:-0.53055539 11:-0.38255741 12:-0.094278616 13:-0.39147817 
1 1:-0.13367378 2:0.47565665 3:-0.14225399 4:4.3270548 5:-0.91126257 6:-0.41934333 7:-0.61776429 8:0.80840089 9:-0.53384645 10:-0.53055539 11:-0.070586263 12:0.69567807 13:6.4425292 
1 1:-0.15817568 2:0.37189121 3:-1.1419743 4:5.0849532 5:-0.91656542 6:4.5573402 7:-1.1818652 8:-0.53897615 9:-0.53384645 10:0.6314762 11:-0.38255741 12:-0.094278616 13:-0.39147817 
1 1:-3.3189211 2:-3.4120459 3:-0.71676081 4:0.41807093 5:-0.93128326 6:-0.41934333 7:-1.2758821 8:4.2730847 9:-0.53384645 10:-0.53055539 11:-0.38255741 12:-0.094278616 13:-0.39147817 
1 1:-0.18473849 2:0.40690409 3:1.7652133 4:-2.1127563 5:-0.93128624 6:-0.41934333 7:-1.2758821 8:-0.53897615 9:-0.53384645 10:4.3112429 11:-0.38255741 12:-0.094278616 13:-0.39147817 
1 1:-1.8836134 2:-0.87074764 3:4.2630975 4:-1.807355 5:-0.86707278 6:-0.41934333 7:-1.2758821 8:-0.34649372 9:-0.10867644 10:3.7302271 11:-0.38255741 12:-0.094278616 13:-0.39147817 
0.80757438271800752 1:1.299344 2:-1.6687229 3:-2.0926567 4:1.6419637 5:-0.92705472 6:-0.41934333 7:-1.2758821 8:-0.53897615 9:3.9304386 10:0.24413233 11:-0.38255741 12:-0.094278616 13:-0.39147817 
1 1:-2.5550113 2:-1.1258642 3:3.8518325 4:-2.0243767 5:2.1625768 6:-0.41934333 7:-0.89981477 8:-0.53897615 9:-0.53384645 10:-0.53055539 11:6.1688367 12:-0.094278616 13:-0.39147817 
1 1:2.3842975 2:-2.0529097 3:-1.806711 4:-1.0567008 5:2.4442545 6:-0.41934333 7:1.0745386 8:-0.53897615 9:-0.53384645 10:-0.53055539 11:-0.38255741 12:-0.094278616 13:-0.39147817 
1 1:0.04035843 2:0.53358704 3:1.2181677 4:5.165631 5:-0.92946381 6:5.6632698 7:-1.2758821 8:-0.34649372 9:-0.53384645 10:-0.33688346 11:-0.38255741 12:-0.094278616 13:0.36785598 
1 1:1.6025265 2:-0.64507373 3:-1.6548023 4:-0.062793105 5:-0.91664505 6:-0.41934333 7:-1.2758821 8:0.23095358 9:-0.53384645 10:-0.53055539 11:6.1688367 12:-0.094278616 13:-0.39147817 
1 1:0.20088024 2:0.39242149 3:1.2831158 4:-1.2530574 5:-0.82780788 6:-0.41934333 7:-1.0878484 8:0.03847115 9:-0.10867644 10:-0.53055539 11:0.24138489 12:-0.094278616 13:11.757868 
1 1:-4.3196063 2:-2.3665933 3:3.8315635 4:-1.7760905 5:-0.78235024 6:-0.41934333 7:-1.0878484 8:0.03847115 9:0.10390856 10:2.7618674 11:-0.38255741 12:-0.094278616 13:-0.39147817 
1 1:0.19446853 2:-5.8610376 3:-1.9420557 4:-0.025123135 5:-0.93114435 6:-0.41934333 7:-1.2758821 8:-0.43311081 9:-0.35314919 10:-0.52571359 11:4.2502142 12:6.7980934 13:-0.39147817 
1 1:-0.67179968 2:-6.545221 3:-1.9967603 4:-1.0634875 5:-0.88336623 6:-0.41934333 7:-0.80579795 8:3.3106725 9:-0.53384645 10:-0.53055539 11:-0.38255741 12:-0.094278616 13:-0.39147817 
1 1:-1.2339695 2:-0.39298101 3:-0.0953955 4:-0.60839763 5:-0.92847175 6:-0.41934333 7:-1.2758821 8:-0.34649372 9:-0.53384645 10:-0.53055539 11:7.1047502 12:-0.094278616 13:-0.39147817 
1 1:2.1372175 2:0.84170036 3:-0.3248931 4:-1.5262028 5:-0.92354785 6:-0.41934333 7:-1.2758821 8:4.0806023 9:-0.53384645 10:-0.53055539 11:-0.070586263 12:-0.094278616 13:-0.39147817 
1 1:-0.62829162 2:0.37857549 3:-1.928543 4:4.9623352 5:-0.77427501 6:-0.41934333 7:-0.14768016 8:-0.53897615 9:-0.53384645 10:0.050460402 11:2.7371541 12:-0.094278616 13:-0.39147817 
1 1:-0.96330362 2:-0.41542108 3:0.11688434 4:2.7810609 5:-0.92340241 6:-0.41934333 7:-1.2758821 8:-0.53897615 9:-0.53384645 10:-0.53055539 11:-0.38255741 12:19.654638 13:-0.39147817 
1 1:-0.75011417 2:-0.67085594 3:-1.672238 4:-1.0592172 5:-0.92013778 6:0.15435768 7:-1.2758821 8:-0.45717112 9:-0.53384645 10:-0.53055539 11:6.5821985 12:-0.094278616 13:-0.23961134 
1 1:-1.2745007 2:-1.81896 3:-0.20436872 4:-1.7985857 5:-0.922921 6:-0.41934333 7:-1.2758821 8:-0.53897615 9:2.2297586 10:-0.53055539 11:-0.38255741 12:-0.094278616 13:8.7205316 
1 1:-0.81995604 2:-0.077705967 3:-0.0084348687 4:3.7045089 5:-0.72418466 6:2.6219632 7:-1.2758821 8:-0.53897615 9:-0.53384645 10:-0.53055539 11:-0.38255741 12:10.965115 13:-0.39147817 
1 1:0.29201816 2:0.40674494 3:1.3929608 4:-0.5552479 5:0.13359064 6:-0.41934333 7:-0.52374747 8:-0.53897615 9:-0.53384645 10:-0.53055539 11:-0.38255741 12:-0.094278616 13:12.517202 
1 1:-0.86163217 2:-6.1573738 3:-2.038606 4:-0.64225485 5:-0.48646611 6:-0.41934333 7:1.0745386 8:-0.53897615 9:-0.53384645 10:-0.53055539 11:-0.38255741 12:-0.094278616 13:-0.39147817 
1 1:-0.095890468 2:0.40053811 3:-0.19368935 4:4.8888253 5:-0.91594224 6:-0.41934333 7:-1.1818652 8:1.3858482 9:-0.53384645 10:-0.53055539 11:3.9850387 12:-0.094278616 13:-0.39147817 
1 1:-0.6333294 2:0.28435902 3:0.69662188 4:-0.46747839 5:-0.87268876 6:-0.41934333 7:-0.89981477 8:-0.53897615 9:-0.53384645 10:1.5998359 11:-0.38255741 12:-0.094278616 13:7.2018633 
1 1:-0.79362222 2:-0.057971436 3:-0.0069092436 4:3.6049962 5:-0.90856725 6:4.0043753 7:-1.2758821 8:-0.53897615 9:-0.53384645 10:-0.53055539 11:-0.38255741 12:7.0153315 13:-0.39147817 
1 1:-0.22939149 2:-1.5725967 3:-2.0043884 4:1.0636458 5:-0.93113239 6:-0.41934333 7:-1.2758821 8:-0.53897615 9:-0.53384645 10:-0.53055539 11:6.1688367 12:-0.094278616 13:2.6458584 
1 1:-0.79362222 2:-0.057971436 3:-0.0069092436 4:3.6049962 5:-0.91030197 6:0.96306875 7:-1.2758821 8:-0.53897615 9:-0.53384645 10:-0.53055539 11:-0.38255741 12:15.704855 13:-0.39147817 
1 1:0.038984492 2:-0.59876124 3:-0.16971524 4:-1.9703119 5:-0.92391689 6:-0.41934333 7:-1.2758821 8:-0.53897615 9:4.7807786 10:-0.53055539 11:-0.38255741 12:-0.094278616 13:-0.39147817 
1 1:-1.1753481 2:-6.8081359 3:-2.0198626 4:-0.1107575 5:-0.92828844 6:-0.41934333 7:-1.2382753 8:-0.31762135 9:-0.35846382 10:-0.52571359 11:2.705957 12:9.8986734 13:-0.35351146 
1 1:-5.4187571 2:-3.5363417 3:1.6675733 4:-1.8003395 5:0.051213736 6:-0.41934333 7:0.69847127 8:-0.53897615 9:-0.53384645 10:0.24413233 11:-0.38255741 12:-0.094278616 13:-0.39147817 
1 1:1.3854442 2:0.47040471 3:-1.1705253 4:-0.67397693 5:4.8989039 6:-0.41934333 7:1.0745386 8:-0.53897615 9:-0.53384645 10:-0.53055539 11:-0.38255741 12:-0.094278616 13:-0.39147817 
1 1:0.087530317 2:0.2186303 3:-0.97829654 4:2.6120035 5:-0.92571569 6:1.2395512 7:-1.2758821 8:-0.53897615 9:-0.53384645 10:-0.53055539 11:0.55335604 12:-0.094278616 13:11.757868 
1 1:1.6993891 2:-0.55069811 3:-1.6131745 4:-0.49698908 5:-0.91676211 6:-0.41934333 7:-1.2758821 8:4.2730847 9:-0.53384645 10:-0.53055539 11:-0.38255741 12:-0.094278616 13:-0.39147817 
1 1:-3.3070137 2:-2.8096653 3:-0.049190854 4:0.60032038 5:-0.88933782 6:-0.41934333 7:-1.0807972 8:0.057719393 9:2.1447246 10:-0.53055539 11:-0.38255741 12:-0.094278616 13:5.0947111 
1 1:1.2072902 2:0.49332223 3:0.042782546 4:-0.21995466 5:-0.93143898 6:-0.41934333 7:-1.2758821 8:-0.53897615 9:4.7807786 10:-0.53055539 11:-0.38255741 12:-0.094278616 13:-0.39147817 
1 1:2.6863349 2:-1.0022051 3:-2.001773 4:1.0337538 5:-0.80364253 6:2.3040085 7:-1.1442585 8:-0.53897615 9:-0.53384645 10:-0.39014324 11:-0.38255741 12:10.076414 13:-0.27757805 
1 1:2.0662307 2:-0.47955831 3:-2.1855019 4:1.7966851 5:-0.84828183 6:2.5321065 7:-1.1795148 8:-0.50529173 9:-0.43818319 10:-0.52571359 11:-0.38255741 12:9.760431 13:-0.25859469 
0.10710724556248097 1:-0.42861257 2:0.43873397 3:1.6898038 4:-1.9134257 5:-0.9314303 6:-0.41934333 7:-1.2758821 8:-0.53897615 9:-0.53384645 10:4.2967175 11:-0.37475813 12:-0.094278616 13:-0.37249482 
1 1:0.40811596 2:-0.4241743 3:-1.2930112 4:0.52208275 5:-0.93103235 6:-0.41934333 7:-1.2758821 8:-0.53897615 9:4.7807786 10:-0.53055539 11:-0.38255741 12:-0.094278616 13:-0.39147817 
1 1:0.99066587 2:1.2435527 3:1.038144 4:-0.34508912 5:6.3913202 6:-0.41934333 7:1.0745386 8:-0.53897615 9:-0.53384645 10:-0.53055539 11:-0.38255741 12:-0.094278616 13:-0.39147817 
0.42003871848746444 1:-1.8648362 2:-0.64459628 3:2.0773126 4:-2.1885537 5:-0.93143898 6:-0.41934333 7:-1.2758821 8:-0.53897615 9:-0.53384645 10:4.3112429 11:-0.38255741 12:-0.094278616 13:-0.39147817 
1 1:-3.388763 2:-1.9413459 3:-1.9607991 4:-0.23063036 5:1.2728342 6:-0.41934333 7:0.41642079 8:-0.53897615 9:-0.53384645 10:-0.53055539 11:-0.38255741 12:5.4354182 13:-0.39147817 
1 1:-0.60310275 2:-0.031711778 3:-0.26844498 4:3.5902789 5:-0.92428864 6:2.3454808 7:-1.2758821 8:-0.53897615 9:-0.53384645 10:-0.53055539 11:-0.38255741 12:11.755072 13:-0.39147817 
1 1:-1.2589294 2:-7.4135404 3:-1.8101981 4:-0.65300681 5:-0.90818151 6:-0.41934333 7:-0.9938316 8:-0.53897615 9:-0.53384645 10:-0.53055539 11:5.2329233 12:3.0655481 13:-0.39147817 
1 1:-0.79362222 2:-0.057971436 3:-0.0069092436 4:3.6049962 5:-0.91921144 6:4.0043753 7:-1.2758821 8:-0.53897615 9:-0.53384645 10:-0.53055539 11:-0.38255741 12:7.0153315 13:-0.39147817 
1 1:-1.7908726 2:-0.696479 3:4.6573626 4:-1.7284311 5:-0.70129737 6:-0.41934333 7:-0.80579795 8:2.1557779 9:0.10390856 10:0.050460402 11:-0.38255741 12:-0.094278616 13:-0.39147817 
1 1:-1.3963232 2:-0.74995321 3:-1.1674741 4:-1.2958365 5:-0.93143898 6:-0.41934333 7:-1.2758821 8:-0.53897615 9:-0.53384645 10:-0.53055539 11:7.4167213 12:-0.094278616 13:-0.39147817 
1 1:0.11065828 2:0.45242083 3:0.20013988 4:1.6861916 5:7.3766822 6:1.2395512 7:-0.80579795 8:-0.53897615 9:-0.53384645 10:-0.53055539 11:-0.38255741 12:10.175158 13:0.36785598 
1 1:-0.81995604 2:-0.077705967 3:-0.0084348687 4:3.7045089 5:-0.6798961 6:2.0689984 7:-1.2758821 8:-0.53897615 9:-0.53384645 10:-0.53055539 11:-0.38255741 12:12.545028 13:-0.39147817 
1 1:0.54986061 2:0.72042849 3:0.40370186 4:0.0042350403 5:-0.8273402 6:0.1336215 7:-0.33571382 8:-0.34649372 9:-0.53384645 10:-0.53055539 11:-0.38255741 12:-0.094278616 13:8.7205316 
1 1:-0.73362691 2:-0.055106746 3:-0.21897113 4:3.6146805 5:-0.90596143 6:3.4514105 7:-1.2758821 8:-0.53897615 9:-0.53384645 10:-0.53055539 11:-0.38255741 12:8.5952449 13:-0.39147817 
1 1:-4.1295448 2:-2.0874451 3:9.6906178 4:-1.7051733 5:0.028158695 6:-0.41934333 7:-0.14768016 8:1.9632955 9:-0.53384645 10:-0.53055539 11:-0.38255741 12:-0.094278616 13:-0.39147817 
1 1:0.38979678 2:-4.1598892 3:-2.0732595 4:0.34600995 5:-0.93143898 6:-0.41934333 7:-1.2758821 8:-0.53897615 9:0.31649356 10:-0.53055539 11:-0.38255741 12:16.494812 13:-0.39147817 
1 1:-0.81995604 2:-0.077705967 3:-0.0084348687 4:3.7045089 5:-0.7837499 6:1.792516 7:-1.2758821 8:-0.53897615 9:-0.53384645 10:-0.53055539 11:-0.38255741 12:13.334985 13:-0.39147817 
1 1:1.2379748 2:0.95199093 3:0.43595793 4:-1.7160778 5:-0.90617555 6:-0.41934333 7:-1.1207543 8:3.9554887 9:-0.53384645 10:-0.53055539 11:-0.38255741 12:-0.094278616 13:-0.39147817 
1 1:-4.2724344 2:-8.499417 3:-1.7068915 4:-1.1850379 5:2.1600363 6:-0.41934333 7:0.69847127 8:-0.53897615 9:0.31649356 10:-0.53055539 11:-0.38255741 12:-0.094278616 13:-0.39147817 
1 1:-4.9010113 2:-3.0389996 3:1.9731342 4:-2.1406656 5:1.4831265 6:-0.41934333 7:1.0745386 8:-0.53897615 9:-0.53384645 10:-0.53055539 11:-0.38255741 12:-0.094278616 13:-0.39147817 
1 1:-4.6564502 2:-2.6299856 3:5.6581727 4:-2.081873 5:-0.53823259 6:-0.41934333 7:-0.77054164 8:-0.50047967 9:3.5052686 10:-0.53055539 11:-0.24996967 12:-0.094278616 13:-0.39147817 
1 1:-0.79362222 2:-0.057971436 3:-0.0069092436 4:3.6049962 5:-0.92875755 6:2.3454808 7:-1.2758821 8:-0.53897615 9:-0.53384645 10:-0.53055539 11:-0.38255741 12:11.755072 13:-0.39147817 
1 1:-0.37594493 2:0.15067348 3:0.021423794 4:1.3356473 5:-0.9266198 6:6.4927171 7:-1.2758821 8:-0.53897615 9:-0.53384645 10:-0.53055539 11:-0.38255741 12:-0.094278616 13:-0.39147817 
1 1:-0.95414403 2:-0.12258611 3:2.2597338 4:-1.1573574 5:-0.92387337 6:-0.41934333 7:-1.2758821 8:-0.53897615 9:0.10390856 10:-0.53055539 11:6.4808079 12:-0.094278616 13:-0.39147817 
1 1:0.82670921 2:-6.906172 3:-2.0372983 4:-0.42881711 5:-0.64008365 6:-0.41934333 7:1.0745386 8:-0.53897615 9:-0.53384645 10:-0.53055539 11:-0.38255741 12:-0.094278616 13:-0.39147817 
1 1:-1.9903226 2:-1.974449 3:-1.2396143 4:-0.95955191 5:-0.93142067 6:-0.41934333 7:-1.2758821 8:-0.53897615 9:4.7807786 10:-0.53055539 11:-0.38255741 12:-0.094278616 13:-0.39147817 
1 1:0.82670921 2:-6.906172 3:-2.0372983 4:-0.42881711 5:-0.69814364 6:-0.41934333 7:0.51043762 8:-0.53897615 9:-0.53384645 10:-0.53055539 11:0.24138489 12:3.0655481 13:-0.39147817 
1 1:-5.8105585 2:-4.2122493 3:-1.2991137 4:-2.0732562 5:-0.93048431 6:-0.41934333 7:-1.2758821 8:-0.53897615 9:3.0800986 10:-0.53055539 11:2.1132118 12:-0.094278616 13:-0.39147817 
1 1:-0.76454052 2:0.034971838 3:1.607856 4:-1.4051099 5:-0.8838832 6:5.6632698 7:-1.2758821 8:-0.53897615 9:-0.53384645 10:-0.33688346 11:-0.38255741 12:-0.094278616 13:1.1271901 
1 1:2.4481856 2:0.59310893 3:-0.74988867 4:-1.1296768 5:-0.91480483 6:-0.41934333 7:-1.2758821 8:4.2730847 9:-0.53384645 10:-0.53055539 11:-0.38255741 12:-0.094278616 13:-0.39147817 
1 1:-0.81995604 2:-0.077705967 3:-0.0084348687 4:3.7045089 5:-0.63424593 6:1.2395512 7:-1.2758821 8:-0.53897615 9:-0.53384645 10:-0.53055539 11:-0.38255741 12:14.914898 13:-0.39147817 
1 1:-4.4787542 2:-2.5987923 3:4.5045821 4:-2.0675371 5:-0.1235713 6:-0.41934333 7:0.13437032 8:-0.53897615 9:1.5920036 10:-0.53055539 11:-0.38255741 12:-0.094278616 13:-0.39147817 
1 1:-0.0056685087 2:0.4034028 3:-0.5214808 4:5.0382089 5:-0.86120434 6:-0.41934333 7:-0.71178112 8:2.5407428 9:-0.53384645 10:-0.53055539 11:0.55335604 12:-0.094278616 13:-0.39147817 
1 1:-2.9014728 2:-2.4367782 3:-0.39507186 4:1.4842683 5:1.2781874 6:-0.41934333 7:-0.053663337 8:-0.53897615 9:-0.53384645 10:-0.53055539 11:-0.38255741 12:9.3852016 13:-0.39147817 
1 1:1.0747051 2:1.1773465 3:0.4991624 4:-0.36651677 5:5.5969081 6:-0.41934333 7:1.0745386 8:-0.53897615 9:-0.53384645 10:-0.53055539 11:-0.38255741 12:-0.094278616 13:-0.39147817 
1 1:0.99066587 2:1.2435527 3:1.038144 4:-0.34508912 5:8.988307 6:-0.41934333 7:1.0745386 8:-0.53897615 9:-0.53384645 10:-0.53055539 11:-0.38255741 12:-0.094278616 13:-0.39147817 
1 1:-0.50234727 2:0.24807294 3:2.0376463 4:-1.7956117 5:0.33557081 6:-0.41934333 7:-0.80579795 8:-0.53897615 9:-0.53384645 10:-0.53055539 11:5.8568656 12:-0.094278616 13:-0.39147817 
1 1:-0.12611711 2:0.37937123 3:1.0529643 4:5.1003567 5:-0.91872524 6:4.5573402 7:-1.1818652 8:-0.53897615 9:-0.53384645 10:0.6314762 11:-0.38255741 12:-0.094278616 13:-0.39147817 
1 1:-0.14558124 2:0.16674758 3:-1.0133859 4:2.9930498 5:-0.90432999 6:2.0689984 7:-0.9938316 8:-0.15401128 9:-0.53384645 10:-0.14321153 11:-0.070586263 12:-0.094278616 13:5.683195 
1 1:-0.46914375 2:-0.16173687 3:-1.2539988 4:3.7332571 5:-0.93143898 6:5.3867874 7:-1.2758821 8:-0.53897615 9:-0.53384645 10:-0.53055539 11:-0.38255741 12:3.0655481 13:-0.39147817 
1 1:0.88189574 2:0.86334469 3:0.87991484 4:-0.5521977 5:-0.43736513 6:-0.41934333 7:0.040353489 8:-0.53897615 9:-0.53384645 10:-0.53055539 11:0.24138489 12:-0.094278616 13:6.4425292 
1 1:-0.57218914 2:-5.9695775 3:-1.7722754 4:-0.51018119 5:-0.93012985 6:-0.41934333 7:-1.2758821 8:4.2730847 9:-0.53384645 10:-0.53055539 11:-0.38255741 12:-0.094278616 13:-0.39147817 
1 1:-0.095890468 2:0.40053811 3:-0.19368935 4:4.8888253 5:-0.93057579 6:-0.41934333 7:-1.2758821 8:-0.53897615 9:-0.53384645 10:-0.53055539 11:7.4167213 12:-0.094278616 13:-0.39147817 
1 1:-0.077342299 2:0.27130876 3:-0.87324636 4:0.83053422 5:-0.90021219 6:6.2715311 7:-1.2735317 8:-0.52935203 9:-0.53384645 10:-0.5063464 11:-0.22657184 12:-0.094278616 13:-0.31554476 
1 1:1.5175713 2:0.79904831 3:-0.28130382 4:-1.5853767 5:-0.90786642 6:-0.41934333 7:-1.1207543 8:3.9554887 9:-0.53384645 10:-0.53055539 11:-0.38255741 12:-0.094278616 13:-0.39147817 
1 1:-1.6782096 2:-6.628297 3:-1.9568761 4:-0.40655065 5:-0.90388346 6:-0.41934333 7:-0.89981477 8:-0.15401128 9:0.95424857 10:-0.53055539 11:2.7371541 12:1.4856347 13:-0.39147817 
1 1:-3.6898845 2:-3.7672675 3:-0.9320919 4:0.036643415 5:-0.89053384 6:-0.41934333 7:-1.2758821 8:-0.53897615 9:-0.53384645 10:4.3112429 11:-0.38255741 12:-0.094278616 13:-0.39147817 
1 1:2.01425 2:0.25348402 3:-1.6205847 4:-0.0046105398 5:-0.93143723 6:-0.41934333 7:-1.2758821 8:-0.53897615 9:-0.53384645 10:4.3112429 11:-0.38255741 12:-0.094278616 13:-0.39147817 
1 1:-0.73362691 2:-0.055106746 3:-0.21897113 4:3.6146805 5:-0.90164394 6:1.792516 7:-1.2758821 8:-0.53897615 9:-0.53384645 10:-0.53055539 11:-0.38255741 12:13.334985 13:-0.39147817 
1 1:-0.27221257 2:0.59438213 3:4.4629544 4:-1.8231398 5:-0.91384626 6:-0.41934333 7:-1.2758821 8:-0.15401128 9:2.0171736 10:-0.14321153 11:0.24138489 12:5.4354182 13:-0.39147817 
1 1:-1.8531578 2:-6.6917977 3:-1.8989023 4:-0.50545338 5:-0.8469934 6:-0.41934333 7:-0.24169699 8:-0.53897615 9:0.95424857 10:-0.53055539 11:1.8012406 12:-0.094278616 13:-0.39147817 
1 1:0.14683866 2:0.57798974 3:0.88383787 4:3.7256316 5:-0.86646299 6:6.4927171 7:-1.2758821 8:-0.53897615 9:-0.53384645 10:-0.53055539 11:-0.38255741 12:-0.094278616 13:-0.39147817 
1 1:-0.31434668 2:0.3165072 3:-1.0523983 4:4.7848135 5:-0.92511472 6:5.6632698 7:-1.2758821 8:-0.15401128 9:-0.53384645 10:-0.53055539 11:-0.38255741 12:-0.094278616 13:0.36785598 
1 1:2.326821 2:-1.4077179 3:-1.6648278 4:-0.54655483 5:2.7723852 6:-0.41934333 7:1.0745386 8:-0.53897615 9:-0.53384645 10:-0.53055539 11:-0.38255741 12:-0.094278616 13:-0.39147817 
1 1:1.0834067 2:-1.5845329 3:-1.6136104 4:1.4289835 5:-0.9312926 6:-0.41934333 7:-1.2758821 8:-0.53897615 9:3.7178536 10:-0.53055539 11:-0.38255741 12:-0.094278616 13:3.4051926 
1 1:0.16813471 2:0.56621268 3:2.3020154 4:-1.898556 5:-0.93132922 6:-0.41934333 7:-1.2758821 8:-0.53897615 9:4.5681936 10:-0.53055539 11:-0.070586263 12:-0.094278616 13:-0.39147817 
1 1:-3.5261568 2:-2.1517415 3:-2.0349009 4:-0.4112022 5:0.53384932 6:-0.41934333 7:0.20018209 8:-0.53897615 9:-0.53384645 10:-0.53055539 11:-0.32016318 12:7.0943272 13:-0.39147817 
1 1:-0.0056685087 2:0.4034028 3:-0.5214808 4:5.0382089 5:-0.89815163 6:-0.14286091 7:-0.9938316 8:3.1181901 9:-0.53384645 10:-0.53055539 11:-0.070586263 12:-0.094278616 13:0.36785598 
1 1:0.073103964 2:0.546319 3:0.52313651 4:2.57746 5:-0.92935453 6:6.4927171 7:-1.2758821 8:-0.53897615 9:-0.53384645 10:-0.53055539 11:-0.38255741 12:-0.094278616 13:-0.39147817 
1 1:-3.388763 2:-1.9413459 3:-1.9607991 4:-0.23063036 5:0.75440531 6:-0.41934333 7:0.13437032 8:-0.53897615 9:-0.53384645 10:-0.53055539 11:-0.38255741 12:7.8052882 13:-0.39147817 
1 1:-0.57173116 2:0.19825917 3:-0.25057337 4:2.8043186 5:-0.66551373 6:1.2395512 7:-1.2758821 8:-0.53897615 9:-0.53384645 10:-0.53055539 11:-0.38255741 12:14.914898 13:-0.39147817 
1 1:-4.1295448 2:-2.0874451 3:9.6906178 4:-1.7051733 5:-0.018672068 6:-0.41934333 7:-0.33571382 8:2.1557779 9:-0.32126144 10:-0.53055539 11:-0.38255741 12:-0.094278616 13:-0.39147817 
1 1:-0.70752208 2:0.028605861 3:-0.077305945 4:3.1594382 5:-0.89348588 6:2.6219632 7:-1.2758821 8:-0.53897615 9:-0.53384645 10:-0.53055539 11:-0.38255741 12:10.965115 13:-0.39147817 
1 1:-3.433874 2:-2.7111518 3:-0.72308126 4:3.1460173 5:0.65231437 6:-0.41934333 7:1.0745386 8:-0.53897615 9:-0.53384645 10:-0.53055539 11:-0.38255741 12:-0.094278616 13:-0.39147817 
1 1:-1.0826073 2:-6.4960438 3:-1.9618888 4:-1.2344512 5:-0.92465866 6:-0.41934333 7:-1.1818652 8:4.0806023 9:-0.53384645 10:-0.53055539 11:-0.38255741 12:-0.094278616 13:-0.39147817 
1 1:0.11111626 2:0.56907737 3:0.71514732 4:2.5808915 5:-0.92866361 6:6.4927171 7:-1.2758821 8:-0.53897615 9:-0.53384645 10:-0.53055539 11:-0.38255741 12:-0.094278616 13:-0.39147817 
1 1:-0.48837889 2:-5.4470899 3:-1.8435439 4:0.75061898 5:-0.93078747 6:-0.41934333 7:-1.2688308 8:-0.40423845 9:0.87984382 10:-0.48697921 11:4.2112178 12:1.8608642 13:-0.2965614 
1 1:-0.55822076 2:-6.3970529 3:-1.6321359 4:-1.2859233 5:-0.92454108 6:-0.41934333 7:-1.1818652 8:4.0806023 9:-0.53384645 10:-0.53055539 11:-0.38255741 12:-0.094278616 13:-0.39147817 
1 1:-0.29259266 2:0.18282167 3:0.1622172 4:1.5966682 5:-0.93019969 6:-0.41934333 7:-1.2758821 8:-0.53897615 9:-0.53384645 10:-0.53055539 11:7.4167213 12:-0.094278616 13:-0.39147817 
1 1:1.0705833 2:-0.65207631 3:-1.6617766 4:1.5818747 5:-0.9310359 6:-0.41934333 7:-1.2758821 8:-0.34649372 9:4.3556086 10:-0.53055539 11:-0.070586263 12:-0.094278616 13:-0.39147817 
1 1:-0.019178904 2:0.76690013 3:0.480419 4:0.64210812 5:-0.92832325 6:-0.41934333 7:-1.2758821 8:-0.53897615 9:-0.53384645 10:0.24413233 11:-0.38255741 12:-0.094278616 13:15.554539 
1 1:-0.62577274 2:-5.8979602 3:-1.810634 4:0.21279247 5:-0.63183621 6:-0.41934333 7:-0.19233816 8:-0.46198318 9:-0.06615944 10:-0.53055539 11:-0.054987706 12:7.6867947 13:-0.39147817 
1 1:0.048831051 2:0.49523203 3:0.91042734 4:5.2771921 5:-0.91451228 6:4.5573402 7:-1.1818652 8:-0.53897615 9:-0.53384645 10:0.6314762 11:-0.38255741 12:-0.094278616 13:-0.39147817 
1 1:1.4937563 2:0.44478165 3:-1.4569069 4:0.95894764 5:3.0398368 6:0.68658633 7:0.32240397 8:-0.53897615 9:-0.53384645 10:-0.53055539 11:-0.38255741 12:3.0655481 13:-0.39147817 
1 1:0.62840409 2:-2.9081788 3:-1.920697 4:0.68305705 5:-0.92885932 6:-0.41934333 7:-1.2758821 8:-0.53897615 9:4.1430236 10:-0.53055539 11:-0.38255741 12:2.2755914 13:-0.39147817 
1 1:-3.2809088 2:-1.8834155 3:0.77421081 4:-1.9065628 5:-0.92712249 6:-0.41934333 7:-1.2758821 8:0.03847115 9:-0.53384645 10:-0.53055539 11:6.4808079 12:-0.094278616 13:-0.39147817 
1 1:-0.29854639 2:-0.36274262 3:-2.1512843 4:2.8608236 5:-0.43917976 6:0.96306875 7:-1.0878484 8:-0.53897615 9:-0.53384645 10:-0.53055539 11:-0.38255741 12:1.4856347 13:11.757868 
1 1:-0.29854639 2:-0.36274262 3:-2.1512843 4:2.8608236 5:-0.22002065 6:-0.41934333 7:-1.0878484 8:-0.53897615 9:-0.53384645 10:-0.53055539 11:-0.070586263 12:1.4856347 13:14.795205 
1 1:-2.56211 2:-1.2616187 3:3.6319246 4:-2.1272447 5:0.6942247 6:-0.41934333 7:-1.2758821 8:-0.53897615 9:-0.53384645 10:4.3112429 11:-0.38255741 12:-0.094278616 13:-0.39147817 
1 1:2.796708 2:-0.99329271 3:-1.9174278 4:-0.77158333 5:-0.81145167 6:-0.41934333 7:-1.2077199 8:3.9651128 9:-0.46475632 10:-0.53055539 11:-0.37475813 12:0.30069972 13:-0.39147817 
1 1:1.6025265 2:-0.64507373 3:-1.6548023 4:-0.062793105 5:-0.9241591 6:-0.41934333 7:-1.2758821 8:-0.15401128 9:-0.53384645 10:-0.33688346 11:6.4808079 12:-0.094278616 13:-0.39147817 
1 1:0.20133822 2:0.66106575 3:0.70882688 4:3.9674362 5:-0.91539578 6:-0.41934333 7:-1.2758821 8:-0.53897615 9:-0.53384645 10:3.5365552 11:0.24138489 12:-0.094278616 13:1.1271901 
1 1:1.9196773 2:-0.33075358 3:-1.7936342 4:-0.0027041648 5:3.1387522 6:-0.41934333 7:1.0745386 8:-0.53897615 9:-0.53384645 10:-0.53055539 11:-0.38255741 12:-0.094278616 13:-0.39147817 
1 1:-0.79362222 2:-0.057971436 3:-0.0069092436 4:3.6049962 5:-0.93143836 6:3.4514105 7:-1.2758821 8:-0.53897615 9:-0.53384645 10:-0.53055539 11:-0.38255741 12:8.5952449 13:-0.39147817 
1 1:0.8338079 2:0.50096141 3:-1.5447393 4:1.2028874 5:1.0880544 6:-0.41934333 7:-0.14768016 8:-0.53897615 9:-0.53384645 10:-0.53055539 11:-0.38255741 12:10.175158 13:-0.39147817 
1 1:-0.60447669 2:0.083989867 3:-0.22877872 4:3.0905799 5:-0.92166819 6:1.5160336 7:-1.2758821 8:-0.53897615 9:-0.53384645 10:-0.53055539 11:-0.38255741 12:14.124942 13:-0.39147817 
1 1:2.1346986 2:-5.9313816 3:-2.1560791 4:1.1089412 5:-0.93141862 6:-0.41934333 7:-1.2758821 8:-0.53897615 9:-0.53384645 10:-0.53055539 11:-0.38255741 12:19.654638 13:-0.39147817 
1 1:-3.4041053 2:-1.9645818 3:4.6401448 4:-1.8609623 5:-0.82057839 6:-0.41934333 7:-0.9938316 8:-0.53897615 9:4.1430236 10:-0.53055539 11:-0.38255741 12:-0.094278616 13:-0.39147817 
1 1:-0.81995604 2:-0.077705967 3:-0.0084348687 4:3.7045089 5:-0.63424593 6:1.2395512 7:-1.2758821 8:-0.53897615 9:-0.53384645 10:-0.53055539 11:-0.38255741 12:14.914898 13:-0.39147817 
1 1:-0.81995604 2:-0.077705967 3:-0.0084348687 4:3.7045089 5:-0.85184628 6:2.0689984 7:-1.2758821 8:-0.53897615 9:-0.53384645 10:-0.53055539 11:-0.38255741 12:12.545028 13:-0.39147817 
1 1:-0.22435371 2:-5.7574313 3:-1.9788887 4:0.3611847 5:-0.90563156 6:-0.41934333 7:-1.2006686 8:-0.23581632 9:0.013559935 10:-0.53055539 11:1.6608536 12:10.550388 13:-0.39147817 
1 1:-0.29259266 2:0.18282167 3:0.1622172 4:1.5966682 5:-0.92942594 6:-0.41934333 7:-1.2758821 8:-0.53897615 9:-0.53384645 10:-0.53055539 11:7.4167213 12:-0.094278616 13:-0.39147817 
1 1:-0.17672385 2:0.18600466 3:-0.054203622 4:3.5853224 5:-0.92916682 6:1.792516 7:-1.2758821 8:-0.53897615 9:-0.53384645 10:-0.53055539 11:3.0491252 12:-0.094278616 13:4.1645267 
1 1:-4.2346511 2:-2.7375706 3:-1.4909066 4:-2.0410766 5:-0.55526102 6:-0.41934333 7:-0.42973064 8:-0.53897615 9:-0.53384645 10:-0.53055539 11:-0.38255741 12:12.545028 13:-0.39147817 
1 1:-1.2506858 2:-0.21998557 3:2.4140399 4:-2.0494646 5:1.6838399 6:-0.41934333 7:-0.9938316 8:-0.53897615 9:-0.53384645 10:-0.53055539 11:6.4808079 12:-0.094278616 13:-0.39147817 
1 1:3.0034857 2:-3.0792645 3:-2.1135796 4:-0.42042906 5:-0.87724199 6:-0.41934333 7:-0.053663337 8:-0.53897615 9:0.10390856 10:-0.53055539 11:-0.38255741 12:7.0153315 13:-0.39147817 
1 1:-5.5756151 2:-3.9397855 3:-0.65660759 4:-1.2425342 5:-0.54280927 6:-0.41934333 7:-0.42973064 8:-0.53897615 9:-0.53384645 10:2.5681955 11:-0.38255741 12:-0.094278616 13:-0.39147817 
1 1:-1.2435871 2:-6.7634149 3:-1.9028254 4:-0.75396843 5:-0.90524829 6:-0.41934333 7:-0.9938316 8:-0.53897615 9:-0.53384645 10:-0.53055539 11:5.2329233 12:3.0655481 13:-0.39147817 
1 1:-3.388763 2:-1.9413459 3:-1.9607991 4:-0.23063036 5:-0.59662423 6:-0.41934333 7:-0.24169699 8:-0.53897615 9:-0.53384645 10:-0.53055539 11:-0.38255741 12:10.965115 13:-0.39147817 
1 1:-6.9484086 2:-4.5400972 3:0.36904837 4:-1.8978697 5:-0.93143898 6:-0.41934333 7:-1.2758821 8:-0.53897615 9:2.6549286 10:0.43780426 11:0.24138489 12:2.2755914 13:-0.39147817 
1 1:-5.3951711 2:-3.6542714 3:-0.9011435 4:2.9341809 5:-0.89075218 6:1.5160336 7:-0.33571382 8:-0.53897615 9:-0.53384645 10:0.43780426 11:-0.38255741 12:-0.094278616 13:1.8865243 
1 1:0.82670921 2:-6.906172 3:-2.0372983 4:-0.42881711 5:-0.85448532 6:-0.41934333 7:0.7924881 8:-0.53897615 9:-0.53384645 10:-0.53055539 11:0.55335604 12:-0.094278616 13:-0.39147817 
1 1:1.0348609 2:0.82721776 3:0.73912143 4:-0.86705459 5:-0.91380837 6:-0.41934333 7:-1.0878484 8:-0.15401128 9:-0.53384645 10:-0.53055539 11:6.1688367 12:-0.094278616 13:-0.39147817 
1 1:-0.5105909 2:0.61125197 3:7.1144908 4:-1.9669567 5:-0.30617618 6:-0.41934333 7:-0.14768016 8:-0.53897615 9:0.95424857 10:0.050460402 11:0.55335604 12:-0.094278616 13:-0.39147817 
1 1:-0.79362222 2:-0.057971436 3:-0.0069092436 4:3.6049962 5:-0.91030197 6:0.96306875 7:-1.2758821 8:-0.53897615 9:-0.53384645 10:-0.53055539 11:-0.38255741 12:15.704855 13:-0.39147817 
1 1:-1.1499303 2:-0.40666787 3:2.0045185 4:-0.50354701 5:-0.92769368 6:-0.41934333 7:-1.2758821 8:0.03847115 9:-0.53384645 10:-0.53055539 11:6.4808079 12:-0.094278616 13:-0.39147817 
1 1:-0.29259266 2:0.18282167 3:0.1622172 4:1.5966682 5:-0.92822629 6:-0.41934333 7:-1.2758821 8:-0.53897615 9:-0.53384645 10:-0.53055539 11:7.4167213 12:-0.094278616 13:-0.39147817 
1 1:0.77610248 2:1.2655153 3:1.0006572 4:-0.55250272 5:4.4840795 6:-0.41934333 7:1.0745386 8:-0.53897615 9:-0.53384645 10:-0.53055539 11:-0.38255741 12:-0.094278616 13:-0.39147817 
1 1:-0.87651651 2:-0.11988057 3:-0.54698053 4:3.6027848 5:-0.63718163 6:1.2395512 7:-1.2758821 8:-0.53897615 9:-0.53384645 10:-0.53055539 11:-0.38255741 12:14.914898 13:-0.39147817 
1 1:0.6707672 2:-6.4944524 3:-1.9298507 4:-0.49485394 5:-0.77104383 6:-0.41934333 7:0.60445445 8:-0.53897615 9:-0.53384645 10:-0.53055539 11:0.24138489 12:2.2755914 13:-0.39147817 
1 1:2.0703525 2:0.31491571 3:-0.82442635 4:-0.1022932 5:-0.93143727 6:-0.41934333 7:-1.2758821 8:-0.53897615 9:-0.53384645 10:4.3112429 11:-0.38255741 12:-0.094278616 13:-0.39147817 
1 1:-0.87651651 2:-0.11988057 3:-0.54698053 4:3.6027848 5:-0.78618701 6:1.792516 7:-1.2758821 8:-0.53897615 9:-0.53384645 10:-0.53055539 11:-0.38255741 12:13.334985 13:-0.39147817 
1 1:2.0650858 2:0.96440458 3:-0.034588442 4:-1.2310197 5:-0.90899156 6:-0.41934333 7:-1.1818652 8:4.0806023 9:-0.53384645 10:-0.53055539 11:-0.38255741 12:-0.094278616 13:-0.39147817 
1 1:-2.4668503 2:-0.97244413 3:8.5701551 4:-1.7874524 5:-0.93056679 6:-0.41934333 7:-1.2758821 8:-0.53897615 9:0.31649356 10:3.3428832 11:-0.070586263 12:-0.094278616 13:-0.39147817 
1 1:0.94212005 2:-4.1250354 3:-1.8814666 4:0.27105129 5:-0.92952501 6:-0.41934333 7:-1.2758821 8:-0.53897615 9:0.74166357 10:-0.53055539 11:0.55335604 12:12.545028 13:-0.39147817 
0.31114731410068569 1:0.10241465 2:0.42934416 3:-0.44977642 4:4.5443815 5:-0.92978658 6:5.6632698 7:-1.2758821 8:-0.34649372 9:-0.53384645 10:-0.33688346 11:-0.38255741 12:-0.094278616 13:0.36785598 
0.02277597765992492 1:1.9137235 2:-0.88363875 3:-1.6781226 4:-0.90960488 5:-0.66927531 6:-0.41934333 7:-1.1395577 8:3.9939852 9:-0.53384645 10:-0.53055539 11:-0.38255741 12:-0.094278616 13:-0.39147817 
1 1:-0.79362222 2:-0.057971436 3:-0.0069092436 4:3.6049962 5:-0.9216537 6:-0.14286091 7:-1.2758821 8:-0.53897615 9:-0.53384645 10:-0.53055539 11:-0.38255741 12:18.864682 13:-0.39147817 
1 1:0.88189574 2:0.86334469 3:0.87991484 4:-0.5521977 5:-0.70325106 6:-0.41934333 7:-0.33571382 8:-0.15401128 9:-0.53384645 10:-0.53055539 11:0.55335604 12:-0.094278616 13:7.2018633 
0.40832179179794326 1:-4.5916461 2:-2.9116801 3:-0.81331108 4:-1.6196914 5:-0.77397692 6:-0.41934333 7:-0.96797697 8:-0.091454493 9:-0.39566619 10:3.1007933 11:-0.38255741 12:-0.094278616 13:-0.39147817 
1 1:-0.41258329 2:0.53645173 3:1.4243451 4:-1.9950948 5:-0.93143898 6:-0.41934333 7:-1.2758821 8:-0.53897615 9:-0.53384645 10:4.3112429 11:-0.38255741 12:-0.094278616 13:-0.39147817 
1 1:-1.6305797 2:-0.71732758 3:4.155214 4:-1.8285539 5:-0.83223428 6:-0.41934333 7:-0.9938316 8:3.6956374 9:-0.53384645 10:-0.53055539 11:-0.38255741 12:-0.094278616 13:-0.39147817 
1 1:-0.37388402 2:-7.0029348 3:-1.9060946 4:-0.75114699 5:-0.71443663 6:-0.41934333 7:1.0745386 8:-0.53897615 9:-0.53384645 10:-0.53055539 11:-0.38255741 12:-0.094278616 13:-0.39147817 
1 1:0.75251654 2:1.0562338 3:0.42985543 4:-0.46206429 5:5.1116047 6:-0.41934333 7:1.0745386 8:-0.53897615 9:-0.53384645 10:-0.53055539 11:-0.38255741 12:-0.094278616 13:-0.39147817 
1 1:-0.21656806 2:0.19969151 3:-0.048101121 4:3.0680084 5:-0.9271403 6:2.8984457 7:-1.2758821 8:-0.53897615 9:-0.53384645 10:-0.53055539 11:-0.38255741 12:10.175158 13:-0.39147817 
1 1:-0.81995604 2:-0.077705967 3:-0.0084348687 4:3.7045089 5:-0.91400769 6:2.3454808 7:-1.2758821 8:-0.53897615 9:-0.53384645 10:-0.53055539 11:-0.38255741 12:11.755072 13:-0.39147817 
1 1:-0.18725738 2:0.34992859 3:-0.80415733 4:5.4030128 5:-0.93143898 6:5.9397522 7:-1.2758821 8:-0.53897615 9:-0.53384645 10:-0.33688346 11:-0.38255741 12:-0.094278616 13:0.36785598 
0.18644317434215082 1:-4.1366435 2:-2.2138098 3:3.2982486 4:-1.7513076 5:-0.79125714 6:-0.41934333 7:-1.0878484 8:0.03847115 9:0.10390856 10:2.7618674 11:-0.38255741 12:-0.094278616 13:-0.39147817 
1 1:-0.67660846 2:-6.576096 3:-2.0218241 4:0.19418625 5:-0.19921743 6:-0.41934333 7:-0.42973064 8:-0.53897615 9:0.10390856 10:-0.53055539 11:-0.38255741 12:10.175158 13:-0.39147817 
1 1:-0.37594493 2:0.15067348 3:0.021423794 4:1.3356473 5:-0.92909638 6:6.4927171 7:-1.2758821 8:-0.53897615 9:-0.53384645 10:-0.53055539 11:-0.38255741 12:-0.094278616 13:-0.39147817 
1 1:-1.3409077 2:-1.5145071 3:-0.14051041 4:-1.7797507 5:-0.92293461 6:-0.41934333 7:-1.2758821 8:-0.53897615 9:2.2297586 10:-0.53055539 11:-0.38255741 12:-0.094278616 13:8.7205316 
1 1:0.34674671 2:0.72965916 3:-0.14857443 4:2.9843567 5:-0.9194997 6:-0.41934333 7:-1.1818652 8:-0.53897615 9:-0.53384645 10:0.050460402 11:3.0491252 12:4.6454615 13:2.6458584 
1 1:0.55123455 2:0.43761993 3:-1.0785519 4:-1.685957 5:-0.90127054 6:-0.41934333 7:-1.1818652 8:4.0806023 9:-0.53384645 10:-0.53055539 11:-0.38255741 12:-0.094278616 13:-0.39147817 
1 1:-0.79362222 2:-0.057971436 3:-0.0069092436 4:3.6049962 5:-0.92748271 6:3.1749281 7:-1.2758821 8:-0.53897615 9:-0.53384645 10:-0.53055539 11:-0.38255741 12:9.3852016 13:-0.39147817 
1 1:-2.3876198 2:-1.051064 3:9.5910162 4:-1.3209244 5:-0.92452652 6:1.792516 7:-1.2758821 8:-0.53897615 9:0.10390856 10:1.7935078 11:-0.38255741 12:-0.094278616 13:1.1271901 
1 1:-7.0349667 2:-5.2169598 3:-1.1709612 4:-1.582784 5:-0.86967879 6:-0.41934333 7:-1.1818652 8:0.80840089 9:3.0800986 10:-0.53055539 11:-0.38255741 12:-0.094278616 13:-0.39147817 
1 1:-0.18290657 2:0.58499231 3:-0.75446554 4:6.8661175 5:-0.7156891 6:3.7278929 7:-0.61776429 8:-0.53897615 9:-0.53384645 10:-0.53055539 11:-0.38255741 12:-0.094278616 13:1.8865243 
1 1:-0.095890468 2:0.40053811 3:-0.19368935 4:4.8888253 5:-0.90877324 6:-0.14286091 7:-1.1818652 8:3.3106725 9:-0.53384645 10:-0.53055539 11:0.24138489 12:-0.094278616 13:0.36785598 
1 1:-0.29259266 2:0.18282167 3:0.1622172 4:1.5966682 5:-0.93142398 6:-0.41934333 7:-1.2758821 8:-0.34649372 9:-0.53384645 10:-0.53055539 11:7.1047502 12:-0.094278616 13:-0.39147817 
1 1:-1.7704925 2:-6.3329157 3:-1.7053659 4:-0.31939118 5:-0.58918639 6:-0.41934333 7:-0.52374747 8:-0.53897615 9:3.0800986 10:-0.53055539 11:-0.38255741 12:-0.094278616 13:-0.39147817 
1 1:-0.59279821 2:0.42854841 3:0.6826733 4:-2.124042 5:-0.84462401 6:-0.41934333 7:-0.42973064 8:-0.53897615 9:-0.53384645 10:0.24413233 11:0.55335604 12:-0.094278616 13:6.4425292 
0.44586301889848989 1:0.20133822 2:0.66106575 3:0.70882688 4:3.9674362 5:-0.79997651 6:-0.41934333 7:-1.1818652 8:-0.53897615 9:-0.53384645 10:1.0188201 11:3.6730675 12:-0.094278616 13:1.8865243 
1 1:-0.073907453 2:0.69767012 3:3.6807446 4:-1.7013606 5:-0.26477336 6:-0.41934333 7:-0.9938316 8:-0.53897615 9:0.10390856 10:0.050460402 11:-0.38255741 12:9.3852016 13:2.6458584 
1 1:-0.19069222 2:0.15353817 3:-0.29329087 4:2.7512452 5:-0.92000747 6:0.96306875 7:-1.2758821 8:-0.53897615 9:-0.53384645 10:-0.53055539 11:-0.38255741 12:15.704855 13:-0.39147817 
1 1:0.082263553 2:0.5598467 3:0.82891537 4:2.5595401 5:-0.92858396 6:6.4927171 7:-1.2758821 8:-0.53897615 9:-0.53384645 10:-0.53055539 11:-0.38255741 12:-0.094278616 13:-0.39147817 
1 1:-0.16985416 2:0.57862634 3:0.37253551 4:-0.52383084 5:-0.85861486 6:-0.41934333 7:-0.89981477 8:-0.53897615 9:-0.53384645 10:1.5998359 11:-0.38255741 12:-0.094278616 13:7.2018633 
1 1:1.6414547 2:0.083512419 3:-1.310229 4:-0.44132293 5:-0.93118513 6:-0.41934333 7:-1.2758821 8:-0.53897615 9:-0.53384645 10:4.3112429 11:-0.38255741 12:-0.094278616 13:-0.39147817 
1 1:0.99066587 2:1.2435527 3:1.038144 4:-0.34508912 5:7.7452944 6:-0.41934333 7:1.0745386 8:-0.53897615 9:-0.53384645 10:-0.53055539 11:-0.38255741 12:-0.094278616 13:-0.39147817 
1 1:-0.28572297 2:0.29215734 3:3.7803461 4:-2.0463382 5:-0.85773824 6:-0.41934333 7:-1.0878484 8:-0.34649372 9:3.2926836 10:-0.33688346 11:0.55335604 12:-0.094278616 13:-0.39147817 
1 1:-4.4512754 2:-3.1187335 3:-0.48377606 4:-0.98486857 5:-0.92413458 6:-0.41934333 7:-1.2758821 8:-0.53897615 9:-0.53384645 10:4.3112429 11:-0.38255741 12:-0.094278616 13:-0.39147817 
1 1:-5.5756151 2:-3.9397855 3:-0.65660759 4:-1.2425342 5:-0.91392496 6:-0.41934333 7:-1.2171216 8:0.65441494 9:-0.050215565 10:2.4713595 11:-0.24996967 12:-0.094278616 13:-0.39147817 
1 1:-1.6108866 2:-0.74613363 3:5.6110962 4:-1.8877278 5:-0.79290367 6:-0.41934333 7:-1.1818652 8:-0.15401128 9:-0.53384645 10:3.7302271 11:-0.38255741 12:-0.094278616 13:-0.39147817 
1 1:0.22973295 2:-2.4727459 3:-1.7308656 4:-0.02519939 5:-0.92993832 6:-0.41934333 7:-1.2758821 8:-0.53897615 9:4.7807786 10:-0.53055539 11:-0.38255741 12:-0.094278616 13:-0.39147817 
1 1:0.069211138 2:0.68939435 3:0.17551193 4:4.7832122 5:-0.55153147 6:-0.29492624 7:-0.91156687 8:-0.24544044 9:3.2607958 10:-0.5015046 11:-0.17197689 12:-0.094278616 13:-0.030794449 
1 1:0.092110112 2:0.69910246 3:0.15502496 4:1.4451495 5:4.4172802 6:2.3454808 7:-0.71178112 8:-0.53897615 9:-0.53384645 10:-0.53055539 11:-0.38255741 12:6.2253748 13:0.36785598 
1 1:-0.36357948 2:0.3892385 3:2.4190526 4:-1.6133623 5:0.97037663 6:-0.41934333 7:-1.0878484 8:-0.53897615 9:-0.53384645 10:-0.53055539 11:6.792779 12:-0.094278616 13:-0.39147817 
1 1:-3.0597047 2:-3.0888134 3:-0.73114528 4:1.425247 5:1.2708434 6:-0.41934333 7:-0.053663337 8:-0.53897615 9:-0.53384645 10:-0.53055539 11:-0.38255741 12:9.3852016 13:-0.39147817 
1 1:-0.87651651 2:-0.11988057 3:-0.54698053 4:3.6027848 5:-0.74730894 6:0.96306875 7:-1.2758821 8:-0.53897615 9:-0.53384645 10:-0.53055539 11:-0.38255741 12:15.704855 13:-0.39147817 
1 1:2.3842975 2:-2.0529097 3:-1.806711 4:-1.0567008 5:-0.69281539 6:-0.41934333 7:-1.1254552 8:3.9603007 9:-0.52853182 10:-0.53055539 11:-0.38255741 12:-0.094278616 13:-0.39147817 
1 1:0.05867761 2:0.44096207 3:1.546613 4:-1.7962218 5:0.016226591 6:-0.41934333 7:-0.14768016 8:-0.53897615 9:-0.53384645 10:-0.53055539 11:-0.38255741 12:-0.094278616 13:9.4798658 
1 1:0.54482284 2:0.81098452 3:1.0900152 4:-0.12112818 5:-0.32918313 6:-0.14286091 7:0.13437032 8:-0.53897615 9:-0.53384645 10:-0.53055539 11:-0.38255741 12:-0.094278616 13:6.4425292 
1 1:0.14683866 2:0.57798974 3:0.88383787 4:3.7256316 5:-0.89773199 6:6.4927171 7:-1.2758821 8:-0.53897615 9:-0.53384645 10:-0.53055539 11:-0.38255741 12:-0.094278616 13:-0.39147817 
1 1:-0.19069222 2:0.15353817 3:-0.29329087 4:2.7512452 5:-0.90915703 6:1.5160336 7:-1.2758821 8:-0.53897615 9:-0.53384645 10:-0.53055539 11:-0.38255741 12:14.124942 13:-0.39147817 
1 1:0.77701844 2:0.69703352 3:-0.94734815 4:1.6870304 5:5.3109704 6:-0.41934333 7:-0.24169699 8:-0.53897615 9:-0.53384645 10:-0.53055539 11:3.9850387 12:-0.094278616 13:-0.39147817 
1 1:-0.73362691 2:-0.055106746 3:-0.21897113 4:3.6146805 5:-0.89329412 6:2.0689984 7:-1.2758821 8:-0.53897615 9:-0.53384645 10:-0.53055539 11:-0.38255741 12:12.545028 13:-0.39147817 
1 1:-0.18176162 2:0.46754002 3:0.20231934 4:3.6488428 5:-0.93074805 6:1.792516 7:-1.2758821 8:-0.34649372 9:-0.53384645 10:-0.53055539 11:-0.38255741 12:-0.094278616 13:11.757868 
0.97082726566029698 1:-0.60310275 2:-0.031711778 3:-0.26844498 4:3.5902789 5:-0.92373792 6:2.0689984 7:-1.2758821 8:-0.53897615 9:-0.53384645 10:-0.53055539 11:-0.38255741 12:12.545028 13:-0.39147817 
1 1:0.72480878 2:0.66918237 3:-0.16818961 4:-0.11106252 5:-0.84803001 6:0.41010392 7:-0.33571382 8:-0.34649372 9:-0.53384645 10:-0.53055539 11:-0.38255741 12:-0.094278616 13:7.9611975 
1 1:0.025474097 2:0.173591 3:1.0547079 4:2.5581675 5:-0.47890818 6:-0.41934333 7:-0.24169699 8:-0.53897615 9:-0.53384645 10:-0.14321153 11:-0.38255741 12:-0.094278616 13:8.7205316 
1 1:1.1111145 2:0.84376931 3:-0.14508729 4:-1.089948 5:-0.92339479 6:-0.41934333 7:-1.2758821 8:-0.53897615 9:-0.32126144 10:-0.53055539 11:7.1047502 12:-0.094278616 13:-0.39147817 
1 1:-1.9919256 2:-6.4369994 3:-2.0800158 4:-0.31268074 5:-0.93107779 6:-0.41934333 7:-1.2664804 8:-0.34649372 9:-0.11399107 10:-0.31751627 11:5.4591024 12:1.5448815 13:-0.39147817 
1 1:-0.60310275 2:-0.031711778 3:-0.26844498 4:3.5902789 5:-0.92820724 6:0.1336215 7:-1.2758821 8:-0.53897615 9:-0.53384645 10:-0.53055539 11:-0.38255741 12:18.074725 13:-0.39147817 
1 1:2.4809311 2:0.34897369 3:-1.4715093 4:0.05791856 5:-0.92892431 6:-0.41934333 7:-1.2758821 8:-0.53897615 9:-0.53384645 10:3.923899 11:0.24138489 12:-0.094278616 13:-0.39147817 
1 1:0.82670921 2:-6.906172 3:-2.0372983 4:-0.42881711 5:-0.73764033 6:-0.41934333 7:0.32240397 8:-0.53897615 9:-0.53384645 10:-0.53055539 11:2.1132118 12:-0.094278616 13:-0.39147817 
1 1:-0.37617392 2:0.41056452 3:-0.14988211 4:0.06950932 5:-0.92021137 6:-0.41934333 7:-1.1818652 8:-0.53897615 9:-0.53384645 10:-0.53055539 11:7.1047502 12:-0.094278616 13:-0.39147817 
1 1:-5.3999799 2:-3.1924197 3:0.86400474 4:-2.2599284 5:-0.78472123 6:-0.41934333 7:-0.61776429 8:-0.34649372 9:-0.53384645 10:-0.53055539 11:4.9209521 12:-0.094278616 13:-0.39147817 
1 1:2.8970055 2:-6.2194421 3:-1.9065304 4:-0.75610357 5:-0.72442782 6:-0.41934333 7:-0.24169699 8:-0.53897615 9:-0.53384645 10:-0.53055539 11:-0.38255741 12:10.175158 13:0.36785598 
1 1:0.58741493 2:0.56907737 3:0.86487653 4:-0.41509121 5:0.19644322 6:-0.41934333 7:-0.42973064 8:-0.53897615 9:-0.53384645 10:-0.53055539 11:-0.38255741 12:-0.094278616 13:11.757868 
1 1:-0.77507405 2:-7.0452686 3:-1.9880424 4:-0.42020029 5:-0.90649626 6:-0.41934333 7:-0.9938316 8:-0.53897615 9:0.10390856 10:-0.53055539 11:4.9209521 12:1.4856347 13:-0.39147817 
1 1:1.9883742 2:-0.95541514 3:-1.7354425 4:-0.93393023 5:-0.68775069 6:-0.41934333 7:-1.1254552 8:3.9603007 9:-0.52853182 10:-0.53055539 11:-0.38255741 12:-0.094278616 13:-0.39147817 
0.43066740239105006 1:-0.011164263 2:0.587857 3:0.33199748 4:4.9265716 5:-0.85990774 6:-0.41934333 7:-0.71178112 8:2.5407428 9:-0.53384645 10:-0.53055539 11:0.55335604 12:-0.094278616 13:-0.39147817 
1 1:-1.178325 2:-0.2400384 3:0.21517818 4:0.44216751 5:-0.90573178 6:6.4927171 7:-1.2758821 8:-0.53897615 9:-0.53384645 10:-0.53055539 11:-0.38255741 12:-0.094278616 13:-0.39147817 
1 1:-0.48013526 2:0.25077848 3:0.48564972 4:4.647402 5:-0.88744644 6:0.68658633 7:-1.2758821 8:-0.53897615 9:-0.53384645 10:-0.53055539 11:-0.38255741 12:16.494812 13:-0.39147817 
1 1:-5.0784783 2:-3.1088663 3:1.5232927 4:-1.9302018 5:-0.47779188 6:-0.41934333 7:-0.81284921 8:-0.52935203 9:2.6708725 10:0.24413233 11:-0.086184821 12:-0.094278616 13:-0.39147817 
1 1:-0.40388167 2:0.52531127 3:1.8441099 4:-1.9140357 5:-0.93141491 6:-0.41934333 7:-1.2758821 8:-0.53897615 9:-0.53384645 10:4.3064011 11:-0.38255741 12:-0.094278616 13:-0.39147817 
1 1:-2.4941001 2:-1.1271374 3:10.675518 4:-2.1476811 5:0.8354601 6:-0.41934333 7:0.69847127 8:-0.53897615 9:0.10390856 10:-0.33688346 11:-0.38255741 12:-0.094278616 13:-0.39147817 
1 1:0.19973529 2:0.74350516 3:-0.93361752 4:0.67398271 5:0.15169381 6:-0.41934333 7:-0.053663337 8:-0.53897615 9:-0.53384645 10:-0.53055539 11:-0.38255741 12:-0.094278616 13:8.7205316 
1 1:-2.9758945 2:-2.2734908 3:-0.26234248 4:2.393533 5:0.97869982 6:0.1336215 7:-0.89981477 8:-0.53897615 9:-0.53384645 10:-0.53055539 11:-0.38255741 12:7.8052882 13:6.4425292 
1 1:0.28927028 2:0.74891624 3:-0.25580408 4:-0.65552322 5:0.062432247 6:-0.41934333 7:-0.52374747 8:-0.53897615 9:-0.53384645 10:-0.53055539 11:-0.38255741 12:-0.094278616 13:12.517202 
1 1:0.54482284 2:0.81098452 3:1.0900152 4:-0.12112818 5:-0.6210516 6:0.1336215 7:0.040353489 8:-0.53897615 9:-0.53384645 10:-0.53055539 11:-0.38255741 12:-0.094278616 13:6.4425292 
1 1:2.3254471 2:0.42170498 3:-1.0696161 4:-0.25099045 5:-0.9292122 6:-0.41934333 7:-1.2758821 8:-0.34649372 9:-0.53384645 10:4.117571 11:-0.38255741 12:-0.094278616 13:-0.39147817 
1 1:-0.64019909 2:-0.13149848 3:0.39040712 4:3.2086227 5:-0.70280604 6:2.0689984 7:-1.2758821 8:0.80840089 9:-0.53384645 10:-0.33688346 11:-0.38255741 12:-0.094278616 13:5.683195 
1 1:-1.9971923 2:-0.91308139 3:2.8192023 4:-2.1250333 5:-0.46780762 6:-0.41934333 7:-1.2758821 8:-0.53897615 9:-0.53384645 10:4.3112429 11:-0.38255741 12:-0.094278616 13:-0.39147817 
0.69842779077485118 1:-0.8007209 2:-1.4317494 3:-1.8054033 4:-0.27874727 5:-0.931387 6:-0.41934333 7:-1.2758821 8:-0.53897615 9:4.7807786 10:-0.53055539 11:-0.38255741 12:-0.094278616 13:-0.39147817 
1 1:0.087530317 2:0.2186303 3:-0.97829654 4:2.6120035 5:-0.92353694 6:3.4514105 7:-1.1818652 8:-0.53897615 9:-0.53384645 10:-0.53055539 11:-0.38255741 12:-0.094278616 13:7.2018633 
1 1:-3.7739237 2:-2.1028826 3:5.4029574 4:-2.2059399 5:-0.93143898 6:-0.41934333 7:-1.2758821 8:-0.53897615 9:-0.53384645 10:4.3112429 11:-0.38255741 12:-0.094278616 13:-0.39147817 
1 1:-0.2916767 2:0.31252847 3:1.4500627 4:0.74108711 5:-0.90326979 6:6.4927171 7:-1.2758821 8:-0.53897615 9:-0.53384645 10:-0.53055539 11:-0.38255741 12:-0.094278616 13:-0.39147817 
1 1:-0.18290657 2:0.58499231 3:-0.75446554 4:6.8661175 5:-0.68805826 6:3.4514105 7:-0.52374747 8:-0.53897615 9:-0.53384645 10:-0.53055539 11:-0.38255741 12:-0.094278616 13:1.8865243 
0.96162014486461223 1:1.4898635 2:0.74334601 3:-0.65726143 4:0.84037112 5:3.0686931 6:0.68658633 7:0.22838714 8:-0.53897615 9:-0.53384645 10:-0.53055539 11:-0.070586263 12:3.0655481 13:-0.39147817 
1 1:-0.79362222 2:-0.057971436 3:-0.0069092436 4:3.6049962 5:-0.91030197 6:0.96306875 7:-1.2758821 8:-0.53897615 9:-0.53384645 10:-0.53055539 11:-0.38255741 12:15.704855 13:-0.39147817 
1 1:0.4987959 2:0.72663532 3:1.0065417 4:-0.46709712 5:4.3543724 6:-0.41934333 7:1.0745386 8:-0.53897615 9:-0.53384645 10:-0.53055539 11:-0.38255741 12:-0.094278616 13:-0.39147817 
1 1:0.24805213 2:0.4603783 3:0.93636296 4:0.19220362 5:-0.90351634 6:-0.41934333 7:-1.2758821 8:-0.53897615 9:-0.53384645 10:1.5998359 11:-0.38255741 12:-0.094278616 13:10.2392 
1 1:0.0064679478 2:0.42679777 3:0.59898187 4:5.7596574 5:-0.90765573 6:0.96306875 7:-1.0878484 8:2.5407428 9:-0.53384645 10:-0.53055539 11:-0.38255741 12:-0.094278616 13:1.1271901 
1 1:-0.37388402 2:-7.0029348 3:-1.9060946 4:-0.75114699 5:-0.68316207 6:-0.41934333 7:0.88650492 8:-0.53897615 9:-0.53384645 10:-0.53055539 11:-0.070586263 12:0.69567807 13:-0.39147817 
1 1:-0.3452603 2:0.16451948 3:0.56411044 4:2.3891102 5:-0.92593709 6:6.4927171 7:-1.2758821 8:-0.53897615 9:-0.53384645 10:-0.53055539 11:-0.38255741 12:-0.094278616 13:-0.39147817 
1 1:-0.128636 2:0.3029795 3:-0.74792715 4:4.6697447 5:-0.89300838 6:-0.41934333 7:-0.89981477 8:-0.34649372 9:-0.10867644 10:2.5681955 11:-0.38255741 12:-0.094278616 13:1.1271901 
1 1:2.7708321 2:-5.4499546 3:-2.0407855 4:-0.70585152 5:-0.90757401 6:-0.41934333 7:-1.0314383 8:0.014410846 9:-0.51258795 10:-0.53055539 11:2.1600075 12:8.7729851 13:-0.35351146 
1 1:0.65313499 2:-7.361976 3:-1.8489926 4:-0.24824527 5:-0.91732408 6:-0.41934333 7:-1.2758821 8:0.03847115 9:-0.53384645 10:-0.53055539 11:6.4808079 12:-0.094278616 13:-0.39147817 
1 1:-0.79133232 2:-0.061631873 3:0.076564244 4:3.6773621 5:-0.92483307 6:2.8984457 7:-1.2758821 8:-0.53897615 9:-0.53384645 10:-0.53055539 11:-0.38255741 12:10.175158 13:-0.39147817 
1 1:-0.44967962 2:0.38462316 3:0.66959652 4:-0.029393415 5:-0.91796129 6:-0.41934333 7:-1.2758821 8:-0.53897615 9:-0.53384645 10:2.3745236 11:-0.38255741 12:-0.094278616 13:7.2018633 
0.73381711622377255 1:-4.3122786 2:-4.086203 3:-1.668315 4:-1.4305028 5:-0.16484743 6:-0.41934333 7:1.0745386 8:-0.53897615 9:-0.53384645 10:-0.53055539 11:-0.38255741 12:-0.094278616 13:-0.39147817 
1 1:-3.2790769 2:-3.3631871 3:-1.1740124 4:0.64546334 5:-0.88987605 6:-0.41934333 7:-1.0807972 8:0.057719393 9:2.1447246 10:-0.53055539 11:-0.38255741 12:-0.094278616 13:5.0947111 
1 1:-0.0056685087 2:0.4034028 3:-0.5214808 4:5.0382089 5:-0.89815163 6:-0.14286091 7:-0.9938316 8:3.1181901 9:-0.53384645 10:-0.53055539 11:-0.070586263 12:-0.094278616 13:0.36785598 
1 1:-4.5916461 2:-2.9116801 3:-0.81331108 4:-1.6196914 5:-0.59694509 6:-0.41934333 7:-0.80579795 8:-0.53897615 9:-0.53384645 10:3.3428832 11:-0.38255741 12:-0.094278616 13:-0.39147817 
1 1:0.36437892 2:-1.2881966 3:-1.7544038 4:0.69937562 5:-0.9313485 6:-0.41934333 7:-1.2758821 8:-0.53897615 9:-0.53384645 10:-0.53055539 11:7.1047502 12:0.69567807 13:-0.39147817 
1 1:-0.19412707 2:0.51687635 3:1.810982 4:-1.6909899 5:-0.85594743 6:-0.41934333 7:-1.2758821 8:-0.53897615 9:-0.53384645 10:4.3112429 11:-0.38255741 12:-0.094278616 13:-0.39147817 
1 1:1.0355479 2:1.257717 3:0.37144578 4:-0.33746362 5:6.4462714 6:-0.41934333 7:0.98052175 8:-0.53897615 9:-0.53384645 10:-0.53055539 11:-0.38255741 12:-0.094278616 13:0.36785598 
1 1:-3.2930453 2:-1.8587474 3:1.3628842 4:-1.9159421 5:-0.92909937 6:-0.41934333 7:-1.2758821 8:0.03847115 9:-0.53384645 10:-0.53055539 11:6.4808079 12:-0.094278616 13:-0.39147817 
1 1:1.6338981 2:0.20971793 3:-1.3967537 4:-0.30223381 5:-0.93029844 6:-0.41934333 7:-1.2758821 8:-0.53897615 9:-0.53384645 10:4.3112429 11:-0.38255741 12:-0.094278616 13:-0.39147817 
1 1:0.093484051 2:0.45353487 3:0.12952523 4:4.3689187 5:-0.92678536 6:5.110305 7:-1.2758821 8:-0.53897615 9:-0.53384645 10:-0.53055539 11:-0.38255741 12:-0.094278616 13:3.4051926 
1 1:2.3572767 2:0.16961227 3:-2.1774379 4:1.4076321 5:-0.84247632 6:2.5321065 7:-1.1724636 8:-0.50529173 9:-0.43818319 10:-0.52571359 11:-0.38255741 12:9.7011842 13:-0.25859469 
1 1:-0.1421464 2:0.37029971 3:-0.11174148 4:4.7044407 5:-0.92972239 6:5.6632698 7:-1.2758821 8:-0.34649372 9:-0.53384645 10:-0.33688346 11:-0.38255741 12:-0.094278616 13:0.36785598 
1 1:-0.79751505 2:-0.10619372 3:-0.34864927 4:3.5692326 5:-0.90225709 6:1.792516 7:-1.2758821 8:-0.53897615 9:-0.53384645 10:-0.53055539 11:-0.38255741 12:13.334985 13:-0.39147817 
1 1:-0.23740613 2:0.5179904 3:0.50264954 4:0.50309525 5:-0.9284909 6:-0.41934333 7:-1.2758821 8:-0.53897615 9:-0.53384645 10:0.24413233 11:-0.38255741 12:-0.094278616 13:15.554539 
1 1:0.50932943 2:-0.88825408 3:-0.60103125 4:-1.8855926 5:-0.9249498 6:-0.41934333 7:-1.2758821 8:-0.53897615 9:4.7807786 10:-0.53055539 11:-0.38255741 12:-0.094278616 13:-0.39147817 
1 1:0.75251654 2:1.0562338 3:0.42985543 4:-0.46206429 5:5.0880929 6:-0.41934333 7:1.0745386 8:-0.53897615 9:-0.53384645 10:-0.53055539 11:-0.38255741 12:-0.094278616 13:-0.39147817 
1 1:-0.046428683 2:0.45464892 3:0.046269689 4:5.7049063 5:-0.93142905 6:1.5160336 7:-1.2758821 8:-0.53897615 9:-0.32126144 10:2.7618674 11:-0.38255741 12:-0.094278616 13:-0.39147817 
1 1:2.01425 2:0.25348402 3:-1.6205847 4:-0.0046105398 5:-0.93143723 6:-0.41934333 7:-1.2758821 8:-0.53897615 9:-0.53384645 10:4.3112429 11:-0.38255741 12:-0.094278616 13:-0.39147817 
1 1:2.2661387 2:0.89119584 3:-0.29350882 4:-1.1153409 5:-0.9103245 6:-0.41934333 7:-1.2758821 8:4.2730847 9:-0.53384645 10:-0.53055539 11:-0.38255741 12:-0.094278616 13:-0.39147817 
1 1:2.4319273 2:-0.63966265 3:-2.018337 4:1.4634507 5:-0.6445661 6:0.036852657 7:-0.77054164 8:-0.53897615 9:-0.53384645 10:-0.53055539 11:-0.38255741 12:13.947201 13:-0.23961134 
1 1:-0.73362691 2:-0.055106746 3:-0.21897113 4:3.6146805 5:-0.90164394 6:1.792516 7:-1.2758821 8:-0.53897615 9:-0.53384645 10:-0.53055539 11:-0.38255741 12:13.334985 13:-0.39147817 
1 1:-0.79362222 2:-0.057971436 3:-0.0069092436 4:3.6049962 5:-0.92038571 6:1.2395512 7:-1.2758821 8:-0.53897615 9:-0.53384645 10:-0.53055539 11:-0.38255741 12:14.914898 13:-0.39147817 
1 1:-1.8570506 2:-3.1074339 3:-1.8760179 4:-0.3105456 5:-0.92858359 6:-0.41934333 7:-1.2758821 8:-0.53897615 9:4.7807786 10:-0.53055539 11:-0.38255741 12:-0.094278616 13:-0.39147817 
1 1:-3.4041053 2:-1.9645818 3:4.6401448 4:-1.8609623 5:-0.81821222 6:-0.41934333 7:-0.9938316 8:-0.53897615 9:4.1430236 10:-0.53055539 11:-0.38255741 12:-0.094278616 13:-0.39147817 
1 1:0.26637131 2:0.78392912 3:0.05171835 4:3.0925626 5:-0.4313245 6:-0.41934333 7:-0.89981477 8:-0.53897615 9:3.9304386 10:-0.53055539 11:-0.38255741 12:-0.094278616 13:-0.39147817 
1 1:1.0398987 2:1.0774007 3:0.21670381 4:-0.46038668 5:3.8174491 6:-0.41934333 7:1.0745386 8:-0.53897615 9:-0.53384645 10:-0.53055539 11:-0.38255741 12:-0.094278616 13:-0.39147817 
1 1:-0.0088743651 2:0.45528552 3:0.71536527 4:5.3445252 5:-0.92962641 6:5.6632698 7:-1.2758821 8:-0.53897615 9:-0.53384645 10:-0.14321153 11:-0.38255741 12:-0.094278616 13:0.36785598 
1 1:-5.5756151 2:-3.9397855 3:-0.65660759 4:-1.2425342 5:-0.64487683 6:-0.41934333 7:-0.71178112 8:-0.34649372 9:-0.53384645 10:2.9555394 11:-0.38255741 12:-0.094278616 13:-0.39147817 
1 1:0.39643748 2:-0.14725427 3:1.0069776 4:-2.0461094 5:-0.92356402 6:-0.41934333 7:-1.2758821 8:-0.53897615 9:4.7807786 10:-0.53055539 11:-0.38255741 12:-0.094278616 13:-0.39147817 
1 1:-0.039558991 2:0.69814757 3:4.2430464 4:-1.8174969 5:-0.87984082 6:-0.41934333 7:-1.2382753 8:1.1693055 9:-0.33189069 10:1.7257226 11:0.015205803 12:1.2288988 13:-0.25859469 
1 1:-2.8162886 2:-3.0111485 3:-0.94495074 4:1.5622772 5:1.2678657 6:-0.41934333 7:-0.053663337 8:-0.53897615 9:-0.53384645 10:-0.53055539 11:-0.38255741 12:9.3852016 13:-0.39147817 
1 1:1.0204345 2:1.2685392 3:0.84068448 4:-0.16657616 5:4.0236289 6:-0.41934333 7:0.51043762 8:-0.53897615 9:-0.53384645 10:-0.53055539 11:1.4892695 12:-0.094278616 13:-0.39147817 
1 1:-2.6814137 2:-1.4094685 3:1.9491601 4:-1.8285539 5:3.5031173 6:-0.41934333 7:1.0745386 8:-0.53897615 9:-0.53384645 10:-0.53055539 11:-0.38255741 12:-0.094278616 13:-0.39147817 
1 1:0.0064679478 2:0.42679777 3:0.59898187 4:5.7596574 5:-0.86055604 6:-0.41934333 7:-0.71178112 8:2.5407428 9:-0.53384645 10:-0.53055539 11:0.55335604 12:-0.094278616 13:-0.39147817 
1 1:0.54986061 2:0.72042849 3:0.40370186 4:0.0042350403 5:-0.74740431 6:2.8984457 7:-0.89981477 8:-0.53897615 9:-0.53384645 10:-0.53055539 11:-0.38255741 12:-0.094278616 13:6.4425292 
1 1:0.51368023 2:0.87416685 3:1.2417059 4:-1.0486177 5:-0.91877886 6:-0.41934333 7:-1.2758821 8:4.2730847 9:-0.53384645 10:-0.53055539 11:-0.38255741 12:-0.094278616 13:-0.39147817 
1 1:0.0023461324 2:0.77947293 3:3.6807446 4:-1.3862749 5:-0.49748462 6:-0.41934333 7:-0.71178112 8:0.42343602 9:-0.10867644 10:-0.14321153 11:0.24138489 12:2.2755914 13:3.4051926 
0.76573796212281242 1:-3.388763 2:-1.9413459 3:-1.9607991 4:-0.23063036 5:1.5604761 6:-0.41934333 7:0.69847127 8:-0.53897615 9:-0.53384645 10:-0.53055539 11:-0.38255741 12:3.0655481 13:-0.39147817 
1 1:-1.7503414 2:-0.7814648 3:2.9713289 4:-2.1983144 5:-0.9164724 6:-0.41934333 7:-1.2758821 8:-0.53897615 9:-0.32126144 10:4.117571 11:-0.38255741 12:-0.094278616 13:-0.39147817 
1 1:0.54482284 2:0.81098452 3:1.0900152 4:-0.12112818 5:-0.55047386 6:-0.14286091 7:0.13437032 8:-0.53897615 9:-0.53384645 10:-0.53055539 11:-0.38255741 12:-0.094278616 13:6.4425292 
1 1:-2.4440619 2:-4.0749445 3:-0.86476549 4:-0.88442672 5:-0.93011118 6:-0.41934333 7:-1.2688308 8:-0.2261922 9:4.4193841 10:-0.53055539 11:-0.38255741 12:-0.094278616 13:-0.39147817 
1 1:-3.0891723 2:-2.0556676 3:-2.0764318 4:-1.4343883 5:-0.80331728 6:3.0435989 7:-1.0760963 8:-0.1395751 9:-0.53384645 10:-0.53055539 11:-0.35915958 12:6.0871324 13:-0.10672786 
1 1:0.0036542966 2:0.2345183 3:-0.91469152 4:2.0749222 5:-0.93117605 6:6.4166844 7:-1.2758821 8:-0.53897615 9:-0.53384645 10:-0.5015046 11:-0.35915958 12:-0.094278616 13:-0.35351146 
1 1:-0.98674522 2:-0.44306016 3:-1.2740949 4:5.5641367 5:-0.93032769 6:5.4351718 7:-1.2735317 8:-0.37536608 9:-0.53384645 10:-0.53055539 11:0.4207683 12:-0.094278616 13:-0.10672786 
1 1:-4.9298423 2:-7.559865 3:-1.821681 4:-1.3839322 5:-0.36614058 6:-0.41934333 7:0.90765871 8:-0.53897615 9:-0.51258795 10:-0.38045965 11:-0.11738194 12:-0.074529699 13:-0.39147817 
1 1:-3.1809006 2:-1.9896347 3:-1.771755 4:-1.6930921 5:-0.80109275 6:3.0435989 7:-1.0760963 8:-0.1395751 9:-0.53384645 10:-0.53055539 11:-0.35915958 12:6.0871324 13:-0.10672786 
1 1:1.2993604 2:1.0694483 3:-0.91725183 4:-1.5188156 5:-0.90517771 6:-0.41934333 7:-1.2100703 8:3.8159389 9:-0.37440769 10:-0.5111882 11:-0.36695886 12:0.43894214 13:-0.33452811 
1 1:-4.5870104 2:-8.3797532 3:-2.1935659 4:-1.2565134 5:-0.91782233 6:-0.41934333 7:-1.2171216 8:4.1527832 9:-0.53384645 10:-0.53055539 11:-0.38255741 12:-0.094278616 13:-0.39147817 
1 1:-3.7609007 2:-3.1010754 3:-1.4792397 4:-0.35032627 5:-0.92213261 6:-0.41934333 7:-1.2124207 8:3.9314284 9:-0.30000294 10:-0.53055539 11:-0.38255741 12:-0.094278616 13:-0.39147817 
1 1:-5.4165604 2:-4.2164385 3:-1.739111 4:-1.7824753 5:-0.90308366 6:-0.41934333 7:-1.1395577 8:1.1644934 9:1.5494866 10:0.27318312 11:-0.29676535 12:-0.094278616 13:-0.049777803 
1 1:-3.0161511 2:-1.2992934 3:-2.1340387 4:2.1515164 5:-0.93021566 6:5.5388527 7:-1.2664804 8:-0.53897615 9:-0.36377844 10:-0.45792842 11:0.22578633 12:-0.094278616 13:-0.22062799 
1 1:-10.493737 2:-6.8258017 3:-1.1886446 4:0.44762153 5:-0.043500225 6:-0.41934333 7:0.52218972 8:-0.31762135 9:-0.20965432 10:-0.017324774 11:-0.24996967 12:-0.094278616 13:-0.2965614 
1 1:-5.1825945 2:-11.699226 3:-2.1916457 4:-1.0588978 5:-0.89347505 6:-0.41934333 7:-0.74233659 8:-0.53897615 9:-0.039586315 10:0.72831216 11:1.5438644 12:3.2827862 13:-0.33452811 
